-5.356835967167076218e-01
-2.937794303385519307e-02
-5.662049554107991822e-01
-4.482993885952992752e-01
6.775462726163938854e-02
-6.177744957221356081e-01
4.844399886249735054e-01
-7.116900340240492340e-02
-4.621885785876738151e-01
-3.461739256093978034e-01
-3.314676357759137049e-01
-5.788338171212001892e-01
-6.024964798463529059e-01
-8.161042207965304995e-02
5.285312309726361013e-01
-2.476949860296583372e-01
3.961024077930710430e-01
-7.486526139235923916e-01
-9.448411570946156912e-01
-9.456764234498274413e-02
1.072969819180027706e-01
5.012074931000849026e-02
-2.068537182164782995e-01
-6.061695520776656521e-01
2.520080745757961524e-02
-5.267301391329164834e-02
-9.217635996480150196e-01
-9.638986662416400009e-01
-1.444173047635643678e-02
-5.714737604250462732e-01
-2.769897294774131269e-01
-3.025550778584691347e-01
-6.917290002829395990e-01
3.875335413895363706e-02
6.548244232528921405e-01
-3.338657504585855751e-01
-1.823733991562509482e+00
-2.962706979088118864e-01
-3.788157175743430138e-01
1.287450860227619676e-01
-5.313600674658813805e-01
-5.105315748721946933e-01
-1.424173654698576597e+00
-2.310677649240361342e-02
-8.082091649461007332e-01
2.333868481543464046e-01
-7.183387209915681471e-01
4.115784254304096224e-01
2.197897773636266483e-01
6.214971785572881435e-01
-1.171601121915812060e-01
-7.363181588502924757e-02
-7.788320823372613111e-02
2.397163834385803438e-01
1.544281455490547350e-01
7.389214208092285963e-02
-3.639734582656514728e-01
-4.468482724923096283e-01
5.547831113534972686e-02
1.312125259878152983e-01
4.804929433972439101e-01
-2.013539340000212174e-01
7.652540534940514838e-02
-8.224907946746483345e-02
1.235780447425111755e-01
2.419907637615260551e-02
-2.681519195700178271e-01
6.257863903308223952e-01
-2.762115082309903324e-01
2.376307465240768413e-01
-6.427937936864402957e-01
-1.089323217733451782e-01
-7.117535757399494623e-01
-5.665299492251284486e-01
-4.438692922377074912e-01
2.353026219508609629e-01
-6.773163273529566597e-01
1.171637559614690516e-01
8.191846827965824918e-02
3.871605286115956113e-01
-5.478595378673302430e-02
-6.430846292761071004e-01
-8.317799248288741953e-01
-2.569403916376009761e-02
1.409724225636412864e-01
2.244499911197871678e-01
8.327192265838100071e-02
3.984520331666925597e-02
-7.334543555581233276e-01
-1.714985319410877174e-01
-2.496792298277743516e-01
-4.534350017396659993e-01
3.093043701071293561e-01
2.203898075874979323e-01
-1.616699982144556236e+00
1.869483347148846453e-01
4.527940419646002135e-01
-2.415497168485844226e-01
5.232992024680158671e-01
1.617947933948275796e-01
5.947594951632569904e-01
-2.485353894870294678e-01
3.472315502366890572e-02
3.560465726324022473e-01
1.437546973518655791e-01
4.723815497752732462e-01
6.873678805402710923e-02
-2.892688297389638952e-01
1.099332938778804364e-01
-5.578411053311121276e-02
5.995115063228038110e-01
-2.784402828912829198e-01
-1.285500707913617979e-01
-5.099114917249102374e-01
-1.075898956499915238e-01
-1.711256738928139676e-01
1.735343428506054830e-01
-9.269274471789455683e-02
-5.334146512675558977e-02
-4.861504808781513809e-01
1.942340680163877342e-01
-4.954262514801635597e-02
3.245608299912627337e-01
2.750900077380914743e-02
2.139061174499888029e-01
-3.001991410487780398e-01
-9.409324637575163797e-01
7.368881931782660377e-01
-2.327014562862774749e-01
-9.896966448340882572e-01
-4.359018660687091762e-01
-6.299840593686181212e-01
1.314012014522521199e-01
-6.289826992834438579e-01
-5.158506123777317764e-01
-1.083583242625172222e-01
-2.588956627963580615e-01
-5.031422485935249655e-01
5.053379305391367260e-02
-9.014818668499720300e-02
-1.527545194389426375e-03
5.677722253320197782e-02
1.922956712074496144e-01
-1.513492874611667982e-01
3.026872756028920475e-01
-9.746336910917045848e-02
-3.349620317160315608e-01
-4.126146073854999874e-01
-2.539586480061973295e-01
1.058300405879511602e-01
-1.884297476487450662e-01
-4.501197505483360284e-01
1.591679312659154966e-01
-5.218257245974932124e-01
7.198646562980050012e-01
-5.312369058941072281e-02
-1.091338070264779858e-01
-2.197493926849214130e-01
-6.704681959995063556e-01
4.694469856886677173e-01
2.203605460493000268e-01
-4.349292731088839625e-01
-3.014361305683029013e-02
-5.959667607307284065e-01
-9.907459065620866090e-02
1.899608337113389001e-01
1.512056773845354973e-01
-1.366635390366422176e-01
-2.758427169729024339e-02
8.023762640856433315e-01
-1.232637292854493888e-01
5.705241758810659924e-02
6.724391214189341659e-02
-2.717457270674177305e-01
2.401659215874940752e-03
-2.541852193515815594e-01
-2.448963728591241618e-01
-4.439194684684545644e-03
-2.304415692979439045e-01
1.178783622812978882e-01
-1.016942932681623307e-01
-1.116586681882397070e+00
-5.388420670908560250e-01
1.037259465912209633e+00
-3.775298614463401536e-02
-3.637244821366512615e-01
-2.356984201768894949e-01
3.741319821817292168e-01
-2.425188373356546023e-01
-7.644789334469315190e-01
-2.173742330927531663e-01
-4.036791947130117901e-03
-2.293871814212246688e-02
-2.055583321496573246e-01
-1.334721235516626026e-01
-1.843170356839300417e-01
-2.376093920303802565e-01
1.830751320494339862e-01
-6.355685333915377377e-01
-1.162659434747503329e-01
3.789052052292660872e-02
-8.608118903842257308e-02
6.646906510098185214e-03
-1.560501978644545096e-01
-1.809265238654530761e-01
-1.986238942487915937e-01
1.719059658282234837e-01
3.477491329512544804e-01
-2.144950742903255492e-01
-4.281735692044111308e-01
-1.409452002595671383e-01
-5.227506186793831056e-01
2.586690146906484022e-01
1.314495321206000412e-02
-3.740841581454308618e-02
3.024446188844555072e-01
6.739154206630249000e-01
1.519535178838322120e-01
-2.651477985253306580e-01
-1.222582880295770835e-01
-4.244865147715097820e-01
4.313113747692023936e-01
1.057899469544263171e+00
7.051984582959778258e-01
2.313921389498663772e-01
-8.070758857567431610e-01
2.765353169331443706e-01
2.866316933442237258e-01
-6.291008313132250285e-01
-5.547913897821075135e-01
-8.593611211596998700e-01
-5.016096373089464766e-01
4.622541307435757418e-01
2.371038427288357092e-02
5.458270349157900297e-02
-7.376953274324218324e-01
7.534204689726413662e-01
-7.863786716993513559e-02
2.993734007630680649e-01
2.756172849241504685e-02
-5.837555178287410218e-01
-9.104434769846736497e-02
-3.859871170118182593e-01
-2.310305788096914947e-01
-3.423956253101671510e-01
-3.098209214788834598e-01
1.679366215287494135e-01
-1.382639344334528342e-01
-5.989262370889328890e-01
-2.596698247640646384e-01
2.212073309230305207e-01
-2.875550458432247769e-01
-2.367239819215389562e-01
-2.043704059278362017e-01
2.240865086001808670e-01
-2.149883793936524512e-01
1.899914055114647893e-01
-1.291511912374736781e-01
8.262881174114708460e-02
3.201246555313892461e-01
1.702261330484294011e-01
-4.020126578127948269e-01
-4.461455605221401749e-02
-7.573597880355512069e-02
-3.843805907758623963e-01
-4.185707180124955129e-01
-1.148195309602722258e-01
1.175441337860618357e-01
2.448124487063216281e-01
-2.269972794854618059e-01
-4.925256817793500774e-01
2.231640622317955236e-01
-5.988844061786807726e-01
1.529117850564351011e-01
-1.200258934657943977e-01
-1.110577228759421498e-01
-3.036129436976829910e-01
1.963728660173157670e-01
-2.908350005817493256e-01
-5.710064069539581011e-01
-5.612590389530908164e-02
-4.945895860510991088e-03
-2.200731590572311547e-01
-1.482307173662766875e-01
-2.517100467036497147e-01
-2.784404822081351302e-02
7.552964122784883161e-01
-3.972279745868346201e-01
-4.674200433212253314e-01
-2.207478860208148264e-01
-5.165382752857963777e-02
2.188048713951348256e-01
-6.578766265192861895e-02
8.082345471212686316e-01
9.716379962411697546e-02
-4.451672336072712843e-01
-1.903243400837298371e-01
2.602173268264959538e-02
-2.521676132349447430e-01
-5.342682477938696106e-01
2.039704921388928172e-01
1.317419916033563988e-02
-2.354109952179529452e-01
-2.336792848848410764e-01
1.943601440958593260e-02
3.195615662137963886e-01
1.558825795299414174e-01
-3.187211512135298963e-01
9.342010010529875133e-03
2.263602449436689368e-01
-6.386207669142904275e-02
-3.291715541856080618e-01
-6.175034353036928936e-01
-1.687369012066057550e-01
3.238180885078863480e-01
-4.272782078541224604e-01
6.635937234027564635e-01
-1.632236409871857252e-01
-4.187107330169804742e-01
-2.454232894028690326e-01
-1.290696993931347014e-01
-4.419024329272476515e-02
-2.692181569629699123e-01
-1.699905092821517028e-01
2.782001542610882949e-01
1.598527740175688105e-01
3.192104686273170566e-01
-3.913931074616043282e-01
-3.568377095704158286e-01
3.523144469763953013e-02
3.858980495065117422e-01
-5.910613976543275250e-01
-2.998315913803757948e-01
3.678701882911368237e-01
-3.318121577961196667e-01
-3.006738013416671573e-01
3.364257647487993719e-01
-5.515328263918346796e-02
4.055583241325411842e-02
2.296983695253316526e-01
-2.765337539284172808e-01
1.341424311452420748e-01
3.567277573969254156e-01
3.126949367063218133e-01
-5.182107795747208367e-01
3.019068907183621309e-01
-9.717092966812163057e-02
-2.808860656391641841e-01
-3.418383956003356317e-01
-2.232045125725314605e-01
-1.999253416788683568e-01
-4.752883497894446752e-01
1.032034047905296958e-01
4.971078908191791518e-02
-6.598819355287771637e-02
-7.547193064589323430e-02
-2.603673770788823005e-01
-5.616255520282145142e-01
-2.908966047479644712e-01
-3.983155501685811672e-01
-1.921181998033692773e-02
-2.049509196035416148e-01
1.665620991014139241e-01
-7.186919478400551065e-02
-1.120897827658936807e-01
2.089119404967904325e-01
-3.777448375395573432e-01
-4.424473940700816565e-01
2.632325589371166119e-01
-5.950409090586575855e-01
-8.000073722336147053e-02
8.921202257910335921e-04
-4.098460152784353383e-01
-1.330590808483491094e-01
-4.083494731865388444e-02
4.316282101885329237e-01
-4.824377378309690489e-01
3.319586669166484372e-01
5.574193027760054875e-01
-5.707762624767596937e-03
-5.611514804480886021e-01
-1.613074189221862520e-01
5.679068870929687707e-02
-1.192615726916576441e-01
-1.119635803526637524e-01
-1.217168735237248722e-01
-2.633850104608139175e-01
-1.673839172012268339e-01
2.406670623899066497e-01
9.199702770360565496e-02
-2.208800874173479090e-01
-1.707419187240295233e-01
5.900874236771569414e-02
-2.652609881369459299e-01
-6.139853520734036563e-01
-1.693601813628675401e-01
3.500958482110311937e-02
-3.331110812148947997e-01
-2.017217248727657120e-01
-5.461335662177667638e-01
-8.050748468610006633e-03
-8.541805772271510167e-01
-3.370926533220557908e-01
7.274590931872593202e-02
2.014062048877491434e-02
-4.094954274456358290e-01
-1.104541845194032500e-02
3.287583382351724759e-01
-3.296947993039467950e-01
-1.562189815749315258e-01
1.347591723029453736e-02
-1.117942796393377319e-01
-9.197790777978519239e-02
-6.417446971549388077e-03
5.592976457574767579e-01
4.865510771223651755e-03
-9.864685757869596783e-01
-3.236151444364079310e-01
-2.502324180648094788e-03
-2.520900507379275624e-01
-4.357733460890829136e-01
-3.091725136834173604e-01
8.866678495548060285e-03
-5.379590808686078862e-01
-1.841341348208955786e-01
7.898670918461755397e-01
-4.846204664097918113e-02
3.044483345250934003e-01
-2.923611821938715827e-01
-2.553393326471918856e-01
-2.725570894980449133e-01
-8.300880362157000980e-02
5.620756037112080439e-02
-2.266938497560243293e-01
4.219546666421243319e-01
-1.310845535316251115e-02
-2.106830357468143233e-01
-3.006641040706787837e-01
-1.347837940840728999e-01
-4.141171893925172931e-01
-2.344988768113661359e-01
2.778976891104377178e-01
-6.485492485342743418e-02
5.317318792480742878e-02
-1.863714357266818555e-01
8.614691068813441766e-02
-3.111897227192529924e-01
6.030840659042503715e-02
1.814509317604590388e-01
4.415997840812538322e-02
5.041915448943528472e-02
-2.924848716923408865e-01
9.885486007382539297e-02
-2.889708440764970354e-01
4.464262037132312733e-01
1.627633426905668868e-01
1.955669536448031987e-01
-3.315333540005883095e-01
-5.663449395593326274e-01
-5.100087452098054364e-01
-2.054827010184280545e-01
6.282610000244485959e-02
4.526327144739090702e-01
-2.282892614782659479e-01
-1.416615352333063481e-02
3.113507387616541444e-01
4.718854398714483200e-01
-3.242918442482985997e-01
1.166688223441064570e-01
2.650075688227411241e-01
-2.553000680387238486e-01
3.940071957786403511e-01
-1.846668486757385985e-01
2.073144501873815382e-01
2.764152715976384705e-02
1.115847140691565570e-01
1.611124826165178103e-01
-5.836769675648745270e-01
3.021539669672543837e-01
1.164789067326627015e-01
3.165242074319930821e-03
-5.140383863025438371e-01
-7.981737539084379773e-02
-9.696256953675854717e-01
3.184680846154627765e-01
5.739603680219179660e-02
4.026901991743574438e-01
1.673588133261989797e-01
2.559801235883760739e-01
-4.912083335972125542e-02
-8.510849153035371373e-02
-6.307846112252996074e-02
1.095944643093455934e-01
1.984696655365251194e-01
-2.575028794530516141e-01
-6.072486079449439522e-01
4.599297394470946432e-01
2.234786902756937255e-01
-1.261890823926448690e-01
1.226825730205624576e-01
-2.492902442180365552e-01
-1.007716446283193484e-01
-4.249183138990957898e-01
2.361745284402341494e-01
-1.701258589134836408e-01
-4.157752879537348623e-01
1.754175048166690676e-01
4.026454155474126773e-01
-1.309240223778391221e-01
-2.440498901950639322e-03
-2.569233651178273042e-02
3.092033451635456953e-01
2.455827522932972629e-01
4.939177318190057786e-01
-5.259198357743957164e-01
-2.793719344159264345e-02
2.880340027815109782e-01
5.440455435155595598e-01
-2.813753714474204748e-01
-2.057990064271447428e-01
-8.017474050868804714e-01
-2.748065445790639494e-01
2.346095033922773743e-01
-1.663323006560218364e-01
-5.877223684816840210e-02
-3.532703038154282049e-02
2.150113114305278739e-01
-1.984175616851021062e-01
-1.357408769384512159e-01
1.966603354279153251e-03
5.425713387685940914e-01
-5.014347466341808612e-01
-5.591776734755756761e-01
-7.377803646381543567e-02
1.875353077825182291e-01
-3.831537977608181489e-01
-2.241526103743675391e-01
7.361774762520894022e-01
-6.663815724112621963e-02
-1.009992677893613244e+00
5.364071613160831253e-02
5.308874678057458329e-02
3.571880372910173906e-01
-9.430725050445600000e-02
-3.391788184758554037e-01
-1.745847972403319626e-01
-1.599886410797030437e-02
-2.538114840696516494e-01
-3.956141181469287615e-01
8.291955822416768873e-02
-3.991519595550571120e-01
7.455020296208046959e-01
-2.701551508083954167e-01
5.836158149651139437e-01
5.000166714900311504e-01
8.212392150117747702e-01
-2.240342033400485044e-01
2.329787616391915395e-01
2.805109936339243992e-01
-1.070298502121531936e-01
-4.406092470320291388e-01
9.306581166201313149e-01
-1.954201189960123181e-02
-1.779012781647314745e-01
2.657317831599305680e-01
-6.674916723495751825e-01
6.755916999764878528e-02
-3.143597747180128937e-02
1.944112324843746964e-01
-1.751945940560611648e-01
-4.518435502277596272e-01
1.236289708691861305e-01
-3.430288661966283126e-01
1.327309592958859641e-01
-4.499122756355652258e-02
-1.578520261941744052e-01
7.382896382280175196e-01
-4.501656461413195420e-01
2.760644494140306326e-01
7.037180146352468857e-02
3.198405183633553500e-02
1.131768100327489729e-01
-6.704728321555780690e-02
-6.354359592973216619e-01
3.108951527099416690e-01
-4.554078027666547818e-02
1.591936839908237797e-02
-5.896770579871583040e-01
-5.493711244741904774e-03
6.484419497322756187e-02
-7.159615218365196487e-02
-1.851169741371033739e-01
-4.833096373923932987e-01
-4.464814071333336742e-01
4.949713729499018999e-01
-3.564836914815398285e-04
-2.605340919376846753e-01
-5.528108230563187897e-01
2.372383185536157679e-01
-3.153411971205215547e-01
-9.118336073338865200e-01
1.305952848858025761e-01
-2.563706544258166978e-03
2.473279942432716205e-01
-7.921946816963654214e-01
1.655376260994958493e-01
2.210738080316775045e-01
4.562644219181850036e-01
-9.555612215446954161e-02
8.089199962953498302e-01
8.575771994842573687e-02
2.124808969239148082e-01
-4.571506316777275702e-01
9.598428858482673798e-01
3.014177712821449751e-01
2.150201900203224936e-01
-5.606971701779098760e-01
2.836862395915059620e-01
-4.287562903735366859e-01
-1.527015641902440546e-01
-5.402682463462986640e-01
-2.130800305305881881e-01
2.695982989985432760e-02
5.581160204004522729e-01
-3.196294758444243739e-02
1.912282079742250451e-01
1.759003920126075704e-01
4.301879386885613665e-01
-1.848869833343329827e-01
-8.806874058696914087e-01
-1.444465296305108004e-01
-5.683474350892019772e-02
1.977898861525349133e-02
1.337622024179229221e-02
-2.491863629652576184e-01
-1.823603405562760071e-01
2.615683077767800846e-01
5.602885813430255046e-01
-9.432233872605007285e-02
1.146758065440800500e+00
-1.351945916735364413e-02
7.255339871357699977e-01
-2.129049257734875744e-01
-6.108220246496963712e-01
-5.404000082379062375e-01
1.997885308516774983e-01
-1.285173120630081378e+00
-1.748781271754061839e-01
2.462879274426021114e-01
4.689375662679144408e-01
3.616481050460604862e-01
2.079862523900129212e-01
-3.270514212346237737e-01
-1.413838724001962033e-01
3.168844290218260085e-01
-7.450048367453099285e-02
-7.324323553209669546e-01
2.077234892033641422e-01
1.948810147230136541e-02
-2.445966404021126528e-01
-1.547707940703096641e-01
-1.027974875508568253e-01
-2.814691937166202695e-01
-8.910457027432819865e-01
-2.025714387890419355e-01
8.730669122463374787e-02
1.907188899278477179e-01
-5.285795489835557470e-01
-1.478922433811902769e-02
2.414703318964608048e-01
9.202513174827084419e-02
-7.692362114767684056e-02
8.734764585502137468e-02
-1.330913150957016566e-01
-1.640447660673191588e-01
-4.711900247832426225e-01
-2.700283810792917724e-02
6.381107475027045228e-02
-4.460200087155782867e-01
2.412890794420609608e-01
-1.977824466229670397e-01
1.695360624752432210e-01
2.846742305383173077e-01
-5.052871443324226108e-01
-1.041714162827030304e-01
-4.127548668942852550e-01
4.813988251782549271e-02
2.181139497446813458e-01
-4.955010039611931760e-01
-3.427114840890290726e-01
-3.776741644826321909e-01
2.981344441079480378e-01
-3.158750077239679266e-01
2.827100893047753208e-02
-3.221002961039458601e-01
-4.939014116029694645e-01
-1.365320840419004533e-01
-4.576183247122481146e-01
1.630746913590046254e-01
-7.190278053162829641e-01
-1.463202033548100800e-01
6.784155737982010270e-02
-1.729795724842336513e-01
6.130023412245710901e-02
3.128524168445439013e-01
-2.324966455895575712e-01
1.589952715029714636e-01
-1.176146882117432013e-01
-2.198890897501414865e-01
-1.852300372540618689e-01
-3.097974096920772524e-01
5.058517782824655667e-02
-1.873146759482693102e-01
-1.909149852961450622e-01
-4.529772712056703288e-01
-4.573423732656123897e-01
4.659247197333862278e-01
-2.246586624130274268e-01
-7.614497496562712409e-02
-4.067577941723058421e-01
2.121951384907608817e-01
-1.588753401436102886e+00
-5.271265925880548320e-01
4.426312406260946020e-01
-2.416529757101344156e-01
-9.048113613587531745e-01
-8.617322476910720397e-01
-5.650220294851291403e-01
5.881049612010046390e-01
-3.260427850741373090e-01
-2.544129264336467688e-01
8.633342288300331624e-02
-2.831027207599104423e-01
-4.370429492522889259e-01
2.515413451528198951e-01
-2.096106634982599637e-01
-5.893567540002896815e-02
9.104288188214429978e-01
-4.404466610349700995e-01
-4.194051280411667526e-01
1.709645084834179873e-01
-2.290248493337274788e-02
3.793917521633417556e-01
5.079377714645252340e-01
5.228456755303393377e-01
-4.360489734922269323e-01
8.187346993649923244e-01
2.100510680056205670e-03
-1.066327998686609768e-01
-1.636011669163515148e-01
6.644548750782307556e-01
9.606582107183139763e-03
1.831542682381015752e-01
3.341473741552920818e-02
4.415042550412959788e-01
-7.496599985464864890e-02
2.865429358274628191e-01
1.124753824272150537e-01
1.463179914509169788e-01
-1.178270511434488105e-01
-4.018244880694507581e-02
5.538366901179645474e-01
-4.848662874743222412e-02
2.640212487282834336e-02
-3.930000161732304376e-01
-1.181401477007603951e-01
-8.239199771870612254e-01
-3.023005844527914543e-01
-4.818517042690973473e-01
-4.084892765695196520e-02
-2.671083949382929007e-02
-5.529097739237694986e-01
-7.445339048895589784e-02
-2.571276804582793285e-01
3.789997559510750458e-01
-2.454179471692136405e-01
2.565732200468867075e-01
2.125949693788050168e-02
1.753924392663905041e-01
1.448265818168014973e-01
2.267330486346245122e-01
1.351889904337727662e-02
-2.248857533790011437e-02
1.982470963290495769e-01
-2.772281781432224812e-01
-1.864879612521089525e-01
6.702482288024730339e-02
-1.049485607148539446e+00
2.338661657598808952e-01
2.776247585070782189e-02
-6.061145659404761771e-02
7.732391542854197275e-02
3.999518727876194002e-01
-2.133081759684096468e-01
-4.816640995200289870e-03
-8.325964449975689075e-01
3.264597811251492704e-02
6.734975377164205933e-03
-3.341898163658078569e-01
1.654331711477214917e-01
-3.887361919103359820e-01
-5.208957220226018148e-01
-2.246005900597527472e-01
3.140368637892184678e-01
1.395351882064915505e-01
2.436640700765001222e-02
6.181895656763582853e-02
2.133477721570907482e-01
8.656497900885261332e-02
1.416460560408632219e-01
3.928666522637860176e-02
-8.364421258931226122e-02
5.727618375793618322e-01
-6.251995340635861653e-02
-9.135210952623357139e-01
-2.059056147579904350e-01
6.049950044540660654e-01
-1.616893848922628663e-01
2.562132918420846894e-01
1.167411723599106887e-01
-1.951817866387338049e-02
3.034249219166091915e-01
-6.467974513026131245e-02
1.862995849376646307e-01
-2.020056913332413939e-01
-1.702273821250119279e-02
-3.316012077894351373e-01
1.553881958252275042e-01
-6.744857358061665531e-01
1.981854501119514195e-02
1.169560513795460804e-01
6.180278595935445596e-01
-1.758470719528670290e-01
1.622940884968147590e-01
-5.440351858952686692e-01
-9.366337790431980559e-02
-3.196307116671315285e-01
-1.653942090746764529e-02
-2.744982001297978647e-01
-9.086880179020496717e-01
5.597678721619935294e-01
7.604914593726220806e-01
-1.280599740479939852e+00
-5.279705586996943367e-01
7.669908355535842714e-02
-5.146549296213853708e-01
3.511383679335908919e-02
-6.592919163992573550e-02
3.148262233988337044e-01
-1.685005759459481250e-02
3.684618090504828136e-01
1.862425778813587007e-01
-2.011084850982758354e-01
-4.403056483582932223e-01
4.475741592220339737e-01
1.625273090057681169e-01
2.560395754515091826e-01
-1.332514297630811410e-03
-2.027230220004090644e-01
2.836866131165859395e-01
1.062740403123079824e+00
-8.049881100115521826e-02
-2.579272011763233396e-01
-1.903937490627143347e-01
-1.338815342664237962e-01
-1.540828536118063197e-01
-2.143287454474543385e-01
2.058386022154584105e-01
-4.789764344646877947e-01
2.657553704237948788e-01
-2.206923462843068118e-01
1.173424022253761329e-01
-1.450242617751263396e-01
4.220293533377584283e-01
-3.024115436911165578e-01
6.532566840535523889e-02
3.810108255561242552e-01
2.197236415642109530e-01
5.448015649679578409e-01
-4.742829869074593474e-01
-3.532504097487542127e-01
-4.865925678246866282e-01
1.406138528151450184e-01
-4.216949940336801178e-02
3.282848696480129003e-01
-2.979237720199973682e-01
-1.402472886972790656e-01
-1.702602911779050598e-01
-5.442760856447870221e-01
9.184609200265784201e-01
-4.477214497782784353e-01
5.312850335023020648e-02
-6.019703326706424829e-01
-3.396661432829327643e-01
1.373144252723069447e-01
5.071035310012065311e-01
-2.244951608054826797e-01
2.470328652965766425e-01
-7.073178186431022807e-02
-8.605250236802691743e-01
1.952902308652290086e-01
-3.292776170737445329e-01
1.310779074413768175e-01
-6.828852666027050988e-01
1.646170242432826725e-01
1.749996085719528194e-01
-4.080196549012228280e-01
4.650862449104983254e-01
1.828165606958930545e-01
-3.118833931142941246e-02
1.179140417293268878e-01
-4.986437650725435849e-02
-6.052491817323205764e-02
2.506191988737028753e-01
3.259719552762327943e-01
-1.170439769008926531e-02
-5.794420885357872697e-01
-2.433182536577118416e-01
2.634871532982356254e-02
-1.052786166479480479e-01
2.141072309393481921e-01
-2.719653967464106814e-01
-3.043727396716120956e-02
-2.442562154837016886e-01
4.462811782529902960e-01
-2.910392777208444803e-01
-9.266270504602494573e-02
-9.431424163937021654e-02
-3.176837234310198044e-01
-1.098962869836667307e-03
5.626814527242444131e-01
6.307926037818925025e-01
-8.967696172531125498e-03
1.884888029736284942e-01
5.112739550210571027e-01
-4.832039021549548452e-01
-2.225914095644103419e-02
-2.082043859947456110e-01
-3.903164975837841721e-01
4.980748036977148407e-01
-2.596083887621704611e-01
7.734070543641920203e-02
-1.316836839194651110e-01
