-6.192617751664467596e-01
-3.964330899605847947e-01
-7.925336549210640347e-03
-1.831416069688113490e-01
-2.419723250523377611e-01
-2.295048067227728195e-01
-6.205431255122286771e-01
1.812919743256814764e-01
-5.863113929420400716e-02
-2.058463651849344600e-01
1.959299146331798802e-01
1.566760268274353385e-01
4.727914114411893021e-01
1.611066212450071033e-01
-6.349071337461918707e-02
9.622831591063311235e-03
4.473998959612179860e-01
-5.366129118762625883e-01
2.742939711789669777e-01
-2.026806554845623776e-01
6.790695016221668379e-01
1.876801426696281527e-01
4.710467034650045459e-02
-1.635428875967963158e+00
-5.333040614880455443e-01
4.851385770451384638e-01
-1.489710420766479082e-01
1.856314817027688024e-01
-2.277741670366523197e-01
-3.168817963057142806e-01
3.645386041930088333e-03
7.554469964830926032e-02
2.113629789498951417e-01
-5.692124544374711492e-01
2.555645509045096839e-02
-8.941967552312310996e-01
-3.027554853170951604e-02
2.829629044089307377e-01
1.639422106750444974e-01
-3.518842673036319812e-01
-5.290323275746983134e-01
-1.442788088515171638e-02
-4.256117137047357030e-02
1.499576433273270559e-01
4.267845161905996221e-02
6.691870324957471805e-02
3.715816827475846434e-02
-2.075691364197312372e-01
-1.039708533442609134e-01
-1.911514932256413446e-01
2.090875751766250179e-01
6.821361546572659584e-01
-1.003659295979109078e-01
-3.276153033261266501e-01
-5.375867861079450805e-01
-6.264095671990975722e-01
-1.435517803587155194e+00
3.836300166546711132e-01
2.196265229409008757e-01
-6.669038101770541349e-01
7.891418879807265974e-03
-7.031290048038786322e-01
7.855411555707938476e-01
-1.060791987887120535e-01
-2.340973750177851032e-01
3.789399704000908642e-01
4.895023901870534377e-01
-6.545157186121790538e-01
1.257493685099113911e-01
-1.716452742401926856e-01
1.821822863920094793e-01
-6.882623003474043211e-01
-3.280483163612053499e-01
2.441368285693601425e-01
-5.624848198888793456e-03
-6.561087415555670876e-01
4.032372017190339886e-01
-6.298087379776040606e-01
-3.656433155029951143e-01
-1.958319641662431554e-01
1.471152589275528388e-01
2.789147076571520945e-01
-1.664728519055153899e-01
-9.445707303893671747e-02
-6.026494548767677983e-01
-3.597234427421968639e-01
-3.013806601729180357e-01
-1.749152822610801350e-01
5.878933548174110069e-01
-2.744297153029084391e-01
7.070320968438394138e-02
2.820732446538967708e-01
-3.765575651385001388e-01
-5.028104746658169644e-01
-5.918464532632096153e-01
-6.370130862744421973e-01
-2.801252303385655673e-01
2.217364037370206653e-01
-1.897054468319726295e-01
5.499542867906411781e-01
1.012968707348842617e-01
-3.114331141696559113e-01
-5.694237484344605305e-01
-6.631319840667683208e-01
1.330703023417507125e-01
-8.850754239263293466e-02
1.014023212213897240e+00
-5.377408652261409516e-01
3.423016762269156521e-01
-2.584757360435027129e-01
-1.135774914398055280e-01
5.458870567377680505e-01
8.663406422455765046e-03
3.623223307854647190e-01
-1.726653304665949351e-01
-4.825598709836589340e-01
-7.585140775996870310e-01
-1.013363149604172286e-01
3.471143549602033751e-01
-1.440338170108826921e-01
-6.598063197787275014e-01
-4.071150970083713960e-01
-3.200517786766261530e-01
2.305452791164574744e-01
1.757998842905414416e-01
-3.776530042807238474e-01
-9.962718621065606017e-01
-4.452872404613656548e-02
-5.993808904876883892e-01
-2.931534652337415281e-01
4.845542255971332923e-02
-1.664499132037976226e-01
-6.092018132815225639e-01
9.289571477736151273e-02
7.684322087915388018e-03
7.691928617833600212e-02
-6.488985284082438021e-01
-3.537049050506867465e-01
-2.747962863008390766e-01
-2.234571230154510646e-01
-1.266739656846682882e+00
4.606039224358364770e-01
3.865612565110582155e-01
8.233727431718555756e-02
-2.406785912783842435e-02
-2.252747523401254365e-02
-1.809169444190220077e-01
1.185625827562563767e-01
-2.186349254195808223e-01
1.083067745156551798e-01
-1.776441282444632952e-01
1.538644652482176745e-01
7.539969599278462109e-02
-2.142603843772610817e-01
4.785910390468128273e-01
8.477641785332464819e-01
2.009035623935565840e-01
-3.012331154556725510e-01
-3.756514800451409286e-01
-3.488667756824398447e-01
-1.455072521565705934e-01
-2.790127247061620630e-01
-4.514486292376056475e-01
-1.186481960267257996e-01
-6.884243964209144639e-01
1.518425401999555155e-02
7.636134435396724207e-02
-1.584913777993688655e-01
-1.431995719811885170e-01
1.506717128361316320e-02
3.662536188030992568e-01
1.356183500270385367e-01
-5.319884062364014232e-01
3.356910606027631028e-01
-1.633433611155535037e-01
-4.595693081770300115e-01
-5.808577291197274395e-01
-7.907821041837924392e-02
-2.919308874062315207e-01
2.032679683426977801e-01
-2.621056655189655249e-01
-4.468102199105793426e-01
2.965950933069243511e-01
-5.810343795638166497e-01
-2.195130632760123116e-02
-6.889784088627655401e-02
-1.811743944871582468e-01
-3.214196977389577881e-01
1.871173649973157938e-01
-2.287555285614532030e-01
-1.756446892706218232e-01
1.727579860581109905e-01
-4.870408930771905620e-01
-1.395132288218578834e-02
-3.907729584796233724e-02
-5.037842342491311021e-01
-1.707252614507875563e-02
-2.857317166691076271e-01
-4.016860534266409460e-02
1.940106641151622680e-01
6.964984998910632719e-01
-2.347511165784169074e-01
7.873226529347836233e-02
-3.958796422505517221e-01
3.276384549348199809e-02
-4.506229898788042254e-01
-1.372018793364031264e-01
-9.737376374846387073e-01
-2.745326415051410063e-01
-6.570014771081515992e-01
2.723388975809534762e-01
-2.596867908883879195e-01
-2.816950872734421130e-01
7.046000866012568364e-01
-7.166373009519888537e-01
-4.526710353630688521e-01
-8.860122653262577641e-01
1.996631969527177530e-01
-1.196473969514499566e-02
-3.348369744276011861e-01
1.633538061330465918e-01
1.696991002818608874e-01
-8.461136860284813183e-03
6.317400573298301847e-01
-7.881116584452570184e-02
-4.430496973598530563e-01
-3.087806054299933045e-01
-4.984397943607460912e-01
-1.400281507960752375e-02
-5.711994177385784077e-01
8.227031591649971998e-02
-5.374602024354143692e-01
-9.033388733496415524e-02
-4.258035668331983659e-01
-4.138158267563584181e-01
-1.124934518459718476e-03
1.689350022452466848e-01
-1.681629608737058093e-02
-6.311199990344089350e-02
-9.317591336933926938e-01
-2.263168833741673047e-01
-1.800221597870708679e-01
-2.248625954633438617e-01
-7.041520588096616962e-01
-3.532270329422134147e-01
2.091072247438971465e-01
3.498924760760300234e-01
-1.508210209617169215e-02
6.895997485908048064e-02
2.372646908029164003e-01
3.104849277166473742e-01
-5.502594761260266587e-01
-1.562646941340662676e-01
3.791430636431080692e-01
-5.211953358216177001e-01
2.177284279663992406e-01
-1.534603682916316492e-01
-1.087456844590004371e-03
-7.617260308133311231e-01
2.845474155323876042e-01
-2.248494594224265397e-01
2.185205597926244137e-01
2.245520722940205771e-01
4.464922283323084773e-02
-1.419026687712858226e-01
-3.164254107643491021e-01
1.671472801223708726e-01
2.304524897718195076e-02
-3.530590738310360743e-01
1.102979359507267471e-02
-1.760651087429952799e+00
-9.566993465517581452e-02
-3.722580055316915826e-01
5.976165931333313752e-01
4.450100984519217429e-01
-9.927639502570603791e-02
-1.296704075828728764e-01
-1.822971351787929135e-03
-1.818621083040243280e-01
-5.299165764691059488e-01
7.532514902774366250e-03
4.958212138541425174e-01
5.182038306981091857e-02
-3.681248346778275282e-01
-2.741303128052797189e-01
-2.670725622432613688e-01
3.797804053950790126e-01
-3.955111017663496820e-01
2.331648117939683768e-02
-8.231387468590356526e-02
-1.775649507999283727e-01
3.973869638503065849e-01
-4.283366352221083112e-02
-9.719501229749957782e-02
1.888077566298658749e-01
-6.250401908941097817e-01
1.181877541687813282e-01
-7.260232129545267366e-02
1.264926606878329085e-01
5.801951828805632094e-02
-3.835688280507423276e-01
-8.983990697763536426e-01
-2.663238024052432817e-01
1.869402898832248638e-01
-5.308800799131550008e-01
-6.435200258391715611e-01
4.600246037678958344e-01
3.773780910667310917e-01
-9.315756084190425154e-03
-1.221470026574036499e-01
-1.136775555594836673e-01
-3.278097012542494637e-01
-1.852056245297646342e-01
9.287464361539074509e-02
1.966687281458210090e-01
-8.369123540132684946e-02
1.458649330969155056e-01
-6.309099658662469245e-01
-3.707194902634707301e-01
-2.933503470301735971e-01
-3.085383839965881170e-01
-4.536802356681715609e-01
2.647026762175408998e-01
-5.879028148636363665e-02
-1.996513854326882609e-01
4.308198221484251800e-01
3.965975539628759095e-02
5.064780433885076594e-01
1.459209935987138274e-01
-1.922559942086884271e-02
6.731377495491706053e-01
-1.921703245320837694e-01
-4.703993532662330002e-01
7.939378922689013796e-02
-5.364350323704251133e-01
-1.785842529361248154e-01
-1.984311548000664005e-01
3.564102509657034179e-02
-1.260858621802583013e-01
-4.759541492877397695e-03
2.774472613582041336e-01
3.607524055362903437e-01
1.129676719837180605e-02
-2.123425022809443397e-01
4.994141398559710510e-01
-1.161613502609370463e-01
8.803025358760451224e-01
-3.561813156332659380e-01
4.545909028637704630e-01
-2.807692816776569122e-01
-2.669435391645006983e-01
1.571762712405877505e-01
2.600776795415163378e-01
1.315197599209082524e-01
-1.081548552048619688e-01
-3.225915418994341755e-01
-3.145577363887324118e-01
-2.209535178448716330e-01
-4.464347425638325872e-01
5.270464491094399850e-01
2.375594604909815888e-01
-1.713532269509520367e-01
9.282885763342968444e-02
-8.013490372671853157e-01
-5.276040913496481133e-02
-1.830017512850258266e-01
1.467248008686663011e-02
2.025380370438955580e-01
-6.258953691137240094e-01
-9.549103129870784024e-01
1.957852644317721325e-01
-2.154824210142153029e-01
-1.967193768411471255e-01
-1.551915677292303453e-01
-1.008537903751216769e+00
7.874634961180725090e-02
1.157539453321211192e-01
-7.458848451174896477e-01
-2.501462281061122006e-01
-1.752711710746673590e-01
-9.546694817300273306e-02
-3.588751883252675468e-01
2.240248309251532399e-01
1.237189949241790932e-01
-9.482644001700358816e-01
5.758956560121965274e-02
-1.524048433605191266e-01
-2.236782383316217870e-01
1.203186606273302234e-01
9.054935126516076849e-02
-5.953859209202010117e-02
2.880091627309950275e-01
-9.628954804604589190e-02
-6.127796625509144279e-01
-3.337253485030821087e-01
2.108076763005462817e-01
-2.439893286841473552e-01
1.444643891571401051e-01
-3.379731791855911660e-01
4.995501926174939489e-01
4.250606254915527127e-01
-6.142969600620644677e-01
-3.974411173588660584e-01
-2.154951719058139370e-01
1.459900862130453503e-01
-1.112850138449175269e-01
1.066115730581173870e-01
-5.637359120041404159e-01
5.113848420840024778e-01
3.529450687729890901e-01
6.831443174171906163e-01
-4.306157972998865269e-01
-2.989799855483499247e-01
-2.918630709063234074e-01
-2.523936887706313900e-02
-5.294520410368126484e-01
-1.851171521366478667e-01
-1.498587287843730353e-01
3.277127771169989212e-01
1.880609118851099201e-02
7.372912904236217368e-02
-3.954104299434663683e-01
5.304917527535272376e-02
-3.385904698484387687e-01
-2.688663569790966656e-01
-2.230332704479744133e-01
-3.343662852962388243e-02
2.369355309132376575e-01
-3.932002983393819706e-01
2.956711229031253607e-01
2.009026170338780448e-02
6.500677445443078240e-01
-2.491552278852344204e-01
-8.679647865870473433e-01
1.090750461503170454e-01
-1.555567045563843454e-01
-4.920616345385760981e-01
-8.945204741772541102e-01
-3.433714260808697349e-01
3.072383528558504939e-01
-9.235435235287543787e-02
-5.629004860011386224e-01
2.328370489600090909e-01
-4.880103420886048315e-01
2.720963169537651133e-02
3.114931531998065273e-01
-1.211852519269432660e-01
-3.424291562846918380e-01
-1.409226980328079082e-01
-4.615005931279896334e-01
4.260809523965123913e-01
-4.404365026483518242e-01
-2.706888775523773605e-01
2.985252384545368787e-01
-2.736562786369074046e-02
9.241186720184373093e-02
-5.405937841167721691e-01
-4.151919506418538242e-01
1.474718711771444944e-02
-1.095967928762133226e-01
-6.451279614471767954e-02
2.530373861070431829e-01
-2.604739118417889743e-01
-1.292578255584598546e-01
-4.747991790066131146e-01
-2.772275167773253779e-01
-4.126807496983888046e-01
-8.446104540747753076e-01
3.111097700016892120e-01
3.388751676133626434e-02
2.079460160444657757e-01
-2.368716211414823858e-01
8.251665003336783322e-02
-2.369851735334740084e-01
-1.902662769300412504e-01
-4.868594386354748171e-01
-1.450974394382978025e-02
1.082824844210381228e-02
-2.659404546860291360e-02
-5.303079563891444428e-03
9.527344176318960911e-02
4.325478445040303183e-02
-1.556064948033133444e-01
-3.118501387484304277e-01
-2.908930097199087794e-01
-1.868450813299436797e-02
-1.165547514870192147e+00
-2.686750393587459748e-02
1.800546995267567341e-01
-2.109143825241680814e-01
-1.132622763823318279e-01
1.179822587974955317e+00
2.173914512883524594e-02
-5.272717323445804682e-01
-2.240898867439328757e-01
1.831848963349246573e-01
1.950482478542137910e-01
-3.387466482829015191e-01
-5.199602972436569853e-02
1.298057549484386286e-01
-3.531590518896695063e-01
8.668769345717727837e-02
-1.945960523548991572e-01
-4.759150556351962602e-01
-2.144493401596623550e-01
-2.453800719891966464e-01
-5.200622836011033201e-02
-9.824827863019255370e-01
-6.852128614737997836e-01
1.552056660469956773e-01
-1.773423978991069960e-01
-2.303594929418458226e-01
-6.994878314154548415e-02
1.829716466861914526e-01
5.205365231569066831e-01
-1.054515608209850019e-01
-3.343015950944093762e-01
1.260770927190121293e-01
-5.416450598985125264e-01
1.961618735096602728e-01
-2.612608650388526521e-01
2.451348431629481184e-01
4.460800620013464779e-01
2.030003972031233783e-01
2.326999055803534444e-01
-4.221824872719189270e-01
-9.947688043405768232e-03
3.826562364634413793e-01
-4.187608718961410292e-01
-3.799492081931424292e-01
-4.773753980811253350e-01
1.602986140859662123e-01
-2.661332659305233883e-01
2.837560537723926579e-01
-1.246255307355176589e-01
-1.151434610780056600e-01
-1.763832688535842408e-01
6.923666621123307774e-01
-1.714855756052052482e-01
8.362030560430352977e-02
5.167246938765042152e-01
-1.745723302973133939e-01
6.975804911680213438e-01
-5.618700347232122860e-01
3.061203042441183464e-01
-5.591492344448015794e-01
-4.762891297046340511e-01
-1.576770514354607355e+00
-1.397210246351560936e-01
1.003241665615998146e-01
-1.600032626771839273e-01
-1.552142724917337235e-01
-4.438794226879636540e-01
1.813026936254361066e-01
7.540360130449222896e-03
-8.501026867160020595e-02
-2.027500166942141635e-01
-3.741536398599089042e-01
-2.544660446081746796e-01
-1.737603709555415529e-02
-3.586381100099096386e-01
-3.714757781063975361e-01
2.579173338858904430e-01
-3.595087987391306084e-01
-4.205209182146551483e-01
-3.825778354962908745e-01
-4.587459682949210360e-01
-9.790191732242661815e-02
-8.801686682812273066e-01
-2.264010901165400824e-01
-1.247021141002737366e-01
5.881417052380571997e-01
-1.116805366356289769e-01
-3.250780622198415348e-01
-2.732639990658107809e-01
-2.336208642028099469e-02
4.539866681877964549e-02
-2.727661760272890312e-01
2.002508663266133401e-02
-1.338569809804014132e-01
-3.982599522237546541e-01
-1.831442134567255742e-01
-2.040441284931830968e-01
-1.536918023848463377e-01
-2.366384717218290162e-02
-4.005423150473813587e-01
1.090380811522417170e+00
1.928194866073804081e-01
-1.878333523419904449e-01
-2.637364738971304523e-01
-1.419459314773269809e-01
5.253464016428443378e-02
4.283068918933143239e-03
3.229161925542350375e-01
-5.731991344161692092e-01
1.438548689450784568e-01
-2.826253078807389879e-02
5.965645892958587604e-01
-3.743776175747687285e-02
1.222045896544722288e-01
-6.105720952734384754e-01
1.930544658338124442e-01
2.491003792555249174e-01
1.776936064741760080e-01
-4.936626964860970634e-01
-2.187243397582403215e-01
-4.439344410009533060e-01
7.652450267043877652e-01
-1.524065354258594684e-01
1.900008397328624143e-01
-6.973305045613806957e-03
2.420110299497701678e-01
-3.246172373925320653e-01
-2.356414786042823895e-01
-7.945116912420173705e-01
-7.501944435957869084e-01
1.694834615790585808e-02
4.102607983462693841e-01
-4.732623386679582489e-02
-3.048562680566442307e-01
6.839736371702480333e-02
4.623150693034945857e-01
-1.366141258843072727e-02
1.040822131823511409e-02
-3.381368283640711070e-01
5.241417303471496147e-01
-4.595859961641700631e-01
1.065649654964376247e-01
-1.930877180721878306e-01
6.561166989965118435e-02
-3.495565157657841149e-01
-2.276848300170691564e-01
1.171229940770075750e-01
6.222363245011378607e-01
-3.366270542665272258e-01
1.174751331850214242e-01
-1.237054735665611693e-01
5.593055455949521582e-01
7.493769847482179003e-01
1.571875806306959056e-01
1.334846639196556606e-01
7.586635138239473941e-02
7.375004832375702257e-01
-1.909609540853205722e-01
-2.989586698523324371e-01
1.718989624662599913e-01
-5.882220864646865027e-02
-3.890710447103614134e-01
-3.609261693100704327e-01
-1.103651921731198110e-01
-8.557270330878068154e-02
-3.467597768166467698e-01
7.400791331777829551e-01
3.407277310093760891e-01
-1.055758445894557362e-01
-8.762872160913059982e-01
-5.620094756297278060e-01
-2.392516922375318711e-01
2.842488779668156038e-02
-3.220296489560580677e-01
-2.707465912780649964e-01
7.360715011044108858e-01
-1.991326909731779282e-01
1.079202291187920243e-01
-3.094655393842174473e-01
-7.804683060249086035e-02
-5.973029477898154083e-01
-1.224333348226772644e-01
2.698284977478921376e-01
1.889601652615683636e-01
-1.357927291726427621e-01
3.348549129746935527e-01
-9.393423065215975032e-02
-1.110406716419948037e+00
2.213305540897209378e-01
2.220328085333830859e-01
1.636059631386578839e-01
1.507332375126362901e-02
-2.928998504880551690e-01
9.283557300495436371e-01
2.270622614915979720e-01
-1.583749752560745516e-01
-3.753699359963087456e-01
-9.743149980671535204e-02
-1.473302208271557168e-01
2.898529312117096857e-01
2.922763430107172197e-02
-4.012744217132308000e-01
1.754634623057464982e-01
-2.134624525083833047e-01
-6.566871354017930207e-01
1.803087560172325909e-01
7.542583064739957210e-01
-6.469548749633095841e-02
4.947226930491150920e-01
-6.941841642848133320e-01
8.705803386912072117e-01
-3.550529781078619052e-01
-2.088477159874074229e-01
1.443933971014940421e-01
-3.339433853018817233e-01
-2.444701537911854183e-01
-2.244525372120276807e-01
2.508534969855247265e-01
2.908372178927504798e-02
2.064790994330196749e-01
-4.240446694500892844e-01
-5.578962889133823322e-02
3.431147855585756079e-01
-1.562543940489898864e-01
5.959366389137731035e-02
-2.288333119887715761e-01
2.780420784741486906e-01
2.407583769163254006e-01
-6.730198553884270130e-01
5.274250041419446811e-02
8.030749339580740831e-02
-5.129487523982069197e-01
7.129709177947974631e-04
7.752216384867390009e-02
4.921671523980523932e-02
-3.304928876323846854e-02
6.243215464872516884e-01
3.435753408134656905e-01
-3.957917116854723916e-01
-3.267343227895820879e-01
5.450223143098209544e-02
4.269004838008767511e-01
-2.477254612317564275e-01
1.990737368234991034e-01
4.924923248677697818e-01
-8.466855588871129434e-01
5.162289362226363254e-01
2.098097338493174202e-01
2.698554551930275602e-01
-2.046076129678032207e-01
-3.915071550324594196e-01
-1.676436268559613682e-02
4.091318811084331819e-01
6.242438086344141990e-01
1.913896987820379036e-01
-5.600873162976635067e-01
6.600412093083306564e-01
-4.518774922019785922e-01
-3.339780637016817044e-01
5.371581013276761907e-02
-7.446395637735667705e-01
-1.241907387998520740e+00
2.175954547472703365e-02
-4.979860522118470523e-02
-3.724188681105174842e-02
-1.737969689733534218e-01
-1.674059198506404611e-01
-2.575154112655194671e-01
-2.169023761004081341e-01
-3.442883310017936238e-01
5.101887141763215006e-01
-1.485474933490328886e-01
3.896172643313433048e-01
9.253533259268335517e-03
4.451175119699646993e-02
-6.098337366559993811e-01
-2.315890135395484439e-01
1.866838352469719353e-01
1.885210140174097271e-01
-1.467472446229251826e-01
3.090172295966863159e-01
-4.466469360610274275e-02
-8.525525088575268695e-01
7.184207075255373276e-01
3.064944729974932169e-01
-6.308626281897203869e-01
1.504199566409739897e-01
-3.324116174436703847e-02
-4.643941573815008050e-01
5.806057106899880083e-01
-4.057044371283572565e-02
1.910406816991387369e-01
5.209617616613219093e-01
-3.975370925623153417e-01
-4.180075371182389032e-01
-1.875923300660387316e-01
-2.163104380149632466e-01
-3.899144331449829193e-01
2.392528532774113870e-01
1.710738849857330324e-01
-7.041545615615926734e-02
2.100279374556714707e-01
-3.871120946369860927e-01
2.095192487902741985e-01
-5.114343141259902747e-01
-1.195002488414027703e-01
1.249505584253296497e-01
5.120914131982272355e-02
-2.383111541005837608e-01
6.159193661633072248e-02
-3.604349652385635538e-02
-2.933421334890938814e-01
-3.680490360954953577e-02
-1.333834172282793717e-01
4.776169252456421294e-02
-4.854810863904925056e-02
3.772613251292382119e-01
-2.228987427028030210e-01
-1.659775959663820633e-01
3.440631116783150756e-02
-1.360139647287190723e-01
-1.430386021528395335e-01
-2.737384049897158000e-01
3.286785451169367545e-02
-1.235156809814330625e-01
6.107890025031331022e-02
-6.297554568560685961e-01
1.156947107192383362e+00
1.548641287472377892e-01
-3.334263872870946166e-01
-4.355641848802042082e-01
-5.224700011930437649e-01
4.200739648364282819e-01
-1.722693629427496376e-01
-4.580208651416640686e-01
-1.902577605732720112e-01
8.769071703858941080e-02
1.740743230403226371e-01
4.289589154394242154e-01
-1.714401923955526652e-01
3.601712825422223041e-01
9.265852018284032043e-02
5.795623884916255575e-01
-2.730242809118653691e-01
-6.036130079318279273e-01
-2.055287666083291109e-01
2.515783410991447866e-01
3.012120034514855216e-01
1.693925525860605352e-01
-7.876442760618100614e-02
8.124574456673173961e-02
-1.719660466671494581e-01
-2.090105107132228246e-01
-1.380799355799090522e-01
-3.883907138440336609e-02
2.161471201424386979e-01
7.344579128501418919e-02
2.402270976526363899e-01
-1.464332310285153538e-01
3.096024755748146354e-02
-4.945927553696818357e-01
-1.583339877993912570e-01
4.816252305805627243e-01
-1.946324345248367366e-02
-2.032363671663547089e-01
4.080511475767599205e-01
-7.512400022170795388e-01
-1.052254659061027553e+00
-4.273869856377302545e-01
-7.644007288884058227e-02
-4.252829929195131586e-01
-8.668046363975108470e-02
-2.546983119138956364e-01
9.043714911218234120e-02
-3.404766990848408503e-01
-4.298099519595764417e-01
-1.618865069521094047e-01
3.590199989939252823e-01
4.975292503197230043e-01
3.917892458751377066e-02
-5.961229620604392432e-01
-3.576101649059867243e-02
-1.650194735885866792e-01
7.663348384748418837e-04
1.245286301464393341e-01
9.115473702943641676e-01
7.923213672334057378e-01
-9.265421311161876894e-02
1.200613173335109141e-01
4.984556147798270831e-01
-3.881174397560027689e-01
6.797062665101882839e-02
2.906377071005004087e-01
2.528635603989987657e-01
-1.063319369507698675e-01
-1.912195273187132505e-01
3.344766418756410786e-01
1.101650890043178732e-01
9.312338063582388525e-02
4.798787028866732252e-01
1.886287257330782341e-01
-4.659347581631546054e-01
4.513210247536292297e-01
1.576580762111902123e-01
1.284000601405746178e-01
-3.988402595287988683e-01
6.759310605251842574e-01
2.846342525347081986e-01
2.376683952695241020e-02
3.637603321478540819e-01
5.419525263938049786e-01
3.223162893987149141e-02
-3.365238124686818072e-02
6.937394072411323664e-01
-1.636622562730559727e-01
-9.061671103877472211e-02
-6.241127603931048151e-01
-4.321413620498100738e-01
-1.597486503708118177e-01
-7.966637711419494172e-02
-3.899096589325133366e-01
-1.102995239878349132e+00
-1.843079749867307104e-01
1.350394827294890132e-01
1.976723033114360095e-01
-4.318671948520502735e-01
-3.140224471064840261e-01
5.541191579760183783e-02
2.078231126121293793e-02
1.416762568274471668e-01
4.210807341583416158e-02
-2.880888007238108228e-01
9.936207217339494691e-02
2.734289381807875063e-01
-5.256252577862824404e-01
2.117655612413155697e-01
3.921603575402591302e-01
-1.909443499539573152e-01
2.823988181126904640e-01
1.834651328169010498e-01
4.138263908871095409e-01
-2.483958266691819738e-01
5.273927299400155144e-01
8.046851350727560748e-01
-4.720160204646354357e-02
-7.940249265593198880e-01
-2.886265784943484181e-01
8.810218190216106970e-02
-4.133531229090605663e-01
4.534893861486691269e-02
-5.018478937044823507e-01
4.869203831758024403e-01
5.270470096370988289e-01
-2.957723852652921134e-02
-1.027903825050497044e+00
5.340525299192314806e-02
2.622559394699653934e-01
