3.487878091760159283e-01
2.815371165332475889e-01
7.167047359124963934e-01
3.816232717487317294e-01
8.195821479514558972e-02
4.889246422363064948e-01
5.187206410990458094e-01
3.404311796858130457e-01
8.634244684823704219e-01
6.150635639759494122e-01
5.105567702803945340e-02
-2.063552448081341362e-01
-3.266748265995726985e-01
3.260252040919674466e-01
8.598134845895361034e-01
3.483762732896446279e-02
-4.820141044565422472e-01
-3.537655590383269322e-02
-4.484843277153074403e-01
-3.868681311105434117e-01
2.579373701922807113e-02
7.800466549138264372e-02
-3.585322381929305080e-01
8.568718057175214731e-02
-2.813178593730263424e-02
-6.766985351745073984e-01
5.671845436120180883e-01
6.153362316616907135e-01
3.400777373117300217e-01
-2.656298899597005492e-01
6.848481252407820907e-01
3.960277251691272926e-02
3.382648161994487035e-01
2.383045433690118564e-01
4.512831150095014121e-01
2.166730308424071327e-01
6.895994452863283275e-01
-7.275528108535898042e-01
6.299747033292193432e-01
2.090098155862892271e-01
6.728802856639742869e-02
-2.633595665524611842e-02
1.826109054878415072e-01
-5.619703374079124680e-01
1.828343844993925438e-01
6.166503402646046350e-01
1.995387553725787300e-02
2.201337965621125714e-01
-2.013829343245585324e-01
-5.618039728389314647e-01
-6.235964929337785012e-01
9.353558081146851055e-03
-2.703852403141621119e-01
5.617238958927939230e-01
-8.021458565974199928e-01
3.349180191818962871e-01
1.183374272116846787e-01
-3.392218242618175172e-01
1.327400425285412411e-01
4.954698649557158774e-01
-4.917727733274729340e-01
-1.037099658259238444e-01
1.662115836261822410e-01
-1.071080309618889087e-01
1.025318582609103579e+00
-1.614466740835659164e-01
-6.070051679706073289e-02
6.934137574376053603e-01
-1.308697455262090303e-01
6.636568942131796378e-01
7.031980045416683645e-01
-4.194584917028983950e-01
3.413423065846153404e-01
1.834188430545694581e-01
-6.608537366261273416e-01
7.452731977024233678e-02
-2.160239760010989052e-01
-2.829825343865213227e-01
-3.862245498697085555e-01
1.946139375444154440e-01
-9.895206681296764284e-01
1.102973697305368594e-01
-4.230949024952633530e-02
-6.479259759414113251e-01
1.433731025981448692e-01
-1.659499179565532834e-01
1.639015129260538994e-01
-6.350201455405017903e-01
7.758667269166721336e-01
3.386314116530698970e-02
-9.273880406735550697e-01
-2.990464305869988682e-01
-3.688593148283683121e-01
-5.285855096040469325e-01
2.777965954249194125e-01
3.809343208629337174e-01
7.714106526373225581e-01
-2.895754640105127065e-01
6.334486483726613493e-01
-2.259736568594848394e-01
4.013806297859428412e-02
-3.015399528267667106e-01
3.947403490736389187e-01
9.615231971700258784e-01
-4.484253366890129100e-01
8.529485838049614133e-01
-7.026935453098545059e-01
4.941829633341160433e-01
-7.160371962001160773e-01
9.029846645788586201e-02
6.648145307986046415e-01
-1.573922983483890536e-01
-1.044751611974166217e+00
-3.725273336721465767e-01
4.325317869681446492e-01
-4.882605140073050243e-01
-9.233569201498649515e-02
-9.490552098617564825e-02
7.996290997652025778e-01
5.606139036090860284e-01
-3.015890088200407493e-01
9.297647907038570150e-03
-2.548867211688682910e-01
1.862085530197077621e-01
1.037218293813158970e-01
3.240976006435618978e-02
3.553573644629287043e-01
-4.954703053599447959e-01
6.359595127742456722e-01
4.257651407760758011e-01
6.527837154680549148e-02
-1.254407407985925760e-01
2.310579576726893569e-01
1.895963358254110775e-01
4.895859224702190371e-01
-1.236885873613686876e-01
6.563604021984448256e-01
1.728560913223436413e-01
2.308746342069004365e-01
3.811108580127291479e-01
1.239045266152104530e-01
2.298215170581655031e-01
4.855734358117566041e-01
7.975584299614085770e-01
1.676176795524010055e-01
-2.957173944700405288e-01
2.415963344320906647e-01
1.613166478417421210e-02
8.378097315606354289e-01
-4.188154239677893687e-01
5.479907175952387910e-02
-6.347807425201773546e-01
-4.998814794649941023e-02
-8.296585691261099127e-02
4.667849236991338246e-01
8.251818148182149537e-02
7.781088253123215059e-01
6.734254848205543931e-02
2.434957292087939762e-01
1.952329769079769461e-01
-1.851866843032165810e-01
4.517685991047736271e-01
-5.197522427699689807e-02
5.755183031114112779e-01
-8.369352948470044906e-02
4.082663162727838690e-01
3.580665618912754478e-01
9.084889262499949714e-02
-3.235685642768273973e-01
7.653344957421521766e-01
1.797254644270687984e-01
-1.507906049322998432e-01
-1.150786833631042949e+00
-7.417864800561517757e-01
7.689026853433431619e-01
5.097163086187708192e-01
-8.731597287560084741e-02
4.914656474544338849e-01
4.296505332389037868e-01
9.054131003677709510e-02
7.842512352292971833e-01
-8.815615212470779838e-01
1.429820462894235977e-01
2.126574291094953661e-01
2.834805864978832968e-02
3.482222897884199031e-01
-1.538310799390742445e-01
7.143732958014880063e-01
3.283398436123705633e-01
-6.449437116518823288e-02
-4.144502459113967308e-01
5.223029303537990442e-01
-1.138710352889814870e-01
1.455908367203024578e-01
8.012166953049167928e-01
1.086400247293777405e-01
-1.141440712577563188e+00
1.967905838447620848e-01
5.212199736756388813e-01
5.736517043607085586e-01
1.822828659864101364e-01
6.879096879958694899e-01
-2.269389223445871240e-01
6.130630965943804217e-02
3.225912125848250378e-01
4.471982621858738155e-02
8.012083351064239745e-01
3.183419702157350151e-01
-6.360475482330478769e-01
2.176828341631006081e-01
-2.139996267453415091e-01
5.869355467425808603e-01
5.203386168741639395e-01
5.598195573896390664e-01
4.659191294675342210e-01
-7.810388800490085659e-01
4.548641190216398678e-01
7.475732490917043060e-01
1.026214700847235095e+00
2.874452747178948830e-01
6.670049169706169234e-01
4.178565273480143727e-01
-1.485239794812115155e-01
-3.498569934728949504e-01
2.416670407638462637e-01
3.624273497448318726e-01
-3.269677866937168997e-01
3.168484558212861790e-01
4.586920665044458278e-01
1.671292052115549986e-01
-1.177854152517092690e+00
8.030048077115592431e-02
-3.332989843251792927e-01
-4.870715335540586888e-01
2.050795986026400508e-01
2.746203843439934955e-01
4.719645680376415853e-01
1.477750949897767563e-01
5.798104382630543396e-01
-3.518589774400092407e-02
2.923033384512798705e-01
2.531454671973207282e-01
3.282299747921993971e-01
7.099090778777185085e-01
-3.360208763157573331e-01
1.654545551532917436e-01
-1.041724377718119682e-01
-2.196402045710777184e-01
6.626260382135813476e-01
-5.586386271763499334e-01
-2.275909031026980833e-01
4.583289159812856672e-01
-1.039445706044747897e-01
6.123149164136671985e-01
-4.359431669851209779e-01
-6.017376799944912369e-01
-4.416980770578484150e-01
-3.017326384224948144e-01
-7.351089386476282739e-01
5.133636614399624820e-01
6.387990429254801761e-01
-2.950799155607365387e-01
2.539091813909027939e-01
-2.420053127059473494e-02
-4.468660183993721641e-02
-3.082055200912259818e-01
-1.913209753348578679e-01
1.510222985140361740e-01
3.474191018600920056e-01
-1.374039555770295351e+00
4.876231931664839481e-01
-3.172619221098791353e-01
-3.097973549406493055e-01
-6.553333184251913801e-01
-4.574412097494711116e-01
-7.544155061385335315e-02
8.056258978034802620e-01
-4.256066972377586799e-01
3.618409399487147460e-01
-1.622415601804091112e-01
2.268599792532168258e-01
-1.133956855957276355e+00
3.649924063083084813e-01
-6.131500622564273195e-01
5.208827128712721910e-01
-4.847601424850602192e-01
-7.354188452045183899e-01
1.031963147135960934e+00
-6.114726432906327780e-01
-1.011338796914952765e+00
1.526182336206923229e-01
4.957816844726692547e-03
-5.735854654974752442e-01
7.244550471418153004e-01
3.108612032530907454e-01
-4.791984922307819250e-01
7.200983233320679133e-01
-4.398689625512227641e-01
-6.009753008849150202e-01
5.766037393471060701e-01
5.616764536650757922e-01
6.647138567081943838e-01
3.617611011665129439e-01
1.953398041154481013e-01
-2.596990181254943408e-01
-3.119388793377286459e-02
6.493508548994074703e-01
1.037660362529840979e-01
6.285595216171278032e-01
1.180069039827734007e-01
-2.426774531176704441e-01
2.533312417903996194e-01
2.036210521090480174e-01
-4.744980700132450102e-01
-3.368226138955791593e-01
-1.064818971568679995e+00
-5.761631770256122609e-01
6.324572727053262566e-01
1.688594807261125930e-01
-6.439948333743273912e-01
-1.253835912534717600e-01
3.960985956547895537e-01
8.382419564028973369e-01
-4.523114712563423012e-01
7.157174641553697425e-01
5.225602255274054420e-01
5.404150435522583340e-01
4.213972991637873200e-01
5.774507995385084191e-01
-2.223904762174352262e-02
-2.325395100632692835e-01
4.551902789483365797e-01
1.805133478818123915e-01
4.275646042485212739e-01
-5.582538226212795801e-02
1.842405974269286095e-01
-5.649407954781345692e-02
3.073293257637634279e-01
4.316540633956312822e-01
-2.589495312745844768e-01
9.389452637337285523e-01
-2.417214935408053267e-02
3.022230553773141981e-01
1.685999462492882850e-01
3.946117315714930962e-01
3.345305124717562473e-01
-6.685199178588834279e-01
1.863870907511403496e-01
2.686915093137419441e-02
5.062006603539267457e-01
-1.530351851308365541e-01
-6.113705126219874941e-01
-4.752080032202271598e-01
-1.302111998937786619e-01
-7.171599513042944407e-01
3.772705867591990003e-01
-3.034464820304424437e-01
-3.423778386512346672e-01
4.916003939065579642e-01
2.062837532296535326e-01
-7.298402765801587089e-01
9.323196892032174776e-02
-4.492624712609923909e-01
2.221299191126233086e-02
-3.851743687553599860e-01
2.726287584484112236e-01
-4.179376102042577784e-02
4.529190296770818636e-01
-1.633724411697814738e-01
-3.221397513476103036e-01
4.543493015299228110e-01
-2.751284880914870445e-01
8.430776077574381189e-01
-4.758785502287637414e-01
7.077562371053884860e-01
-3.747239157707932256e-01
-2.296470265807051547e-01
2.769679412500723747e-02
-3.741101195918468125e-01
-8.328995593575976297e-01
-8.658115309170918428e-01
7.945208402225764077e-01
1.002419850793954792e+00
6.434766911496224706e-01
-1.219414756210953354e-01
-1.856376899107261419e-02
1.424968164689192907e-01
9.724382230550759898e-02
7.218845258881636529e-01
4.726045163764339141e-01
-1.187754685144561284e+00
1.856986835264342328e-01
6.327646200223732142e-01
6.916773762451461360e-01
2.150754309896769079e-01
-3.111684287514377215e-02
7.871684929954521071e-01
-3.271007935423783097e-01
-6.728428283290102119e-01
3.664424142975820919e-02
-4.279541904195000024e-01
-6.916298020969456617e-02
5.075171153172420846e-01
-2.686966066344771420e-01
7.694853420901726082e-01
7.206800672786215500e-01
-4.926960193099949037e-01
-4.258966923513807235e-01
-1.046587914855829915e+00
7.723912450069991831e-01
3.241754315779545870e-01
4.928437448945647281e-01
4.385288264424537230e-01
7.168470467731075102e-02
-2.863253547974588947e-03
4.302360563313268327e-01
2.308816042065853225e-02
4.626533752972041280e-01
5.760601061436263493e-01
7.623148152378079745e-01
-3.064622059777507568e-01
4.168392693826509371e-02
2.972006591036170930e-01
9.568366631694813496e-02
-1.937036459725688664e-01
4.874095555872355323e-01
2.290956872651849496e-01
-1.594965293327634814e-01
5.658444738471593016e-01
1.546910467291255920e-01
5.036980722480929318e-01
-5.137395399733794138e-02
1.484024520452099372e-01
5.562549007288813963e-01
4.660836117549708169e-01
-7.906339831930744855e-02
-5.914104723826018040e-01
-2.550910913117294121e-01
5.222425327655317862e-01
-5.367114284562130022e-01
6.348050912724013950e-02
5.842242758908356981e-01
-5.568682357061673083e-02
1.524841172048757298e-01
-1.160507468981222257e-01
-1.582193138925911957e-01
5.459780413495316509e-01
4.384700394280565544e-02
4.226303343935943757e-01
2.885610238720768272e-01
3.953410257590842525e-01
3.540478584488450653e-01
-3.638491370468245889e-01
7.188172132748336940e-02
8.568870592398029062e-01
6.171101130134274901e-03
1.867807923634805523e-01
5.720058813170626477e-01
7.479368352919545711e-04
-8.852011187495695266e-01
-1.028849973306612403e-01
6.298149808491309010e-01
-8.219224882864318849e-01
1.619273513783665297e-01
-6.478163174588613682e-01
-3.556929417453424253e-02
-3.089749753710954172e-01
2.923715979265640863e-01
-2.529180262256939746e-02
2.966128066275804942e-01
-2.152788267931876331e-01
-6.865093314410578573e-01
-5.340669497346633987e-01
-5.683476037995660590e-01
-5.028290160255237673e-01
-6.696760091860272102e-01
5.500565595249053835e-03
1.536007094450193011e-01
6.863079636139554074e-01
5.635609457810789591e-01
2.030619807478456496e-01
-6.566718929453514708e-02
-1.824260314463972688e-01
9.464651984333422030e-02
3.280167180176957187e-01
-1.235742984339115169e-02
-3.902002951159627697e-01
-3.714513304424567619e-01
-5.915296689116188444e-01
-1.886794320564162963e-01
-4.332480317276891230e-02
-5.785184507071898796e-01
-1.439240409919380626e-01
4.499320001649378259e-02
7.536291702754500665e-01
1.233247627044514738e-01
3.312980205188980620e-01
-4.096602075229953677e-01
3.645286582696106725e-01
4.576288544349969012e-01
-3.207200194290540374e-01
6.170493852992854633e-02
-6.623005265888443072e-01
-7.250055761909829366e-01
5.395205014309413238e-01
-4.753769441112727367e-01
-1.655983665058516630e-01
8.671428461691065709e-04
-7.085489306892742700e-01
-7.921316383935260441e-02
3.964952919770757811e-01
1.351547188467915606e-01
-1.421788682281851235e-01
-1.735863597982744422e-01
-9.650082643989823517e-01
3.619201046454116333e-01
8.184314791353534957e-02
6.063174397727882914e-01
-1.406078036911721785e-01
-4.407252783753086711e-01
2.160047026725226416e-01
1.311029996721599922e-01
4.529642635551170415e-02
3.074842825656926015e-01
-6.449880534874601057e-02
1.949027263517507103e-01
-9.741064037713922374e-01
-2.467808310825257145e-01
-2.830279797441856426e-01
2.266700475069865703e-02
-2.617921408195342803e-01
3.192120541355907282e-01
-2.721293364702875306e-01
-6.266671951979345678e-01
-2.132737657380035234e-01
-3.078279782701002221e-01
6.106348399959775630e-01
1.078841126982371001e+00
-6.315744826767079045e-01
9.579014964365265006e-02
4.052810973701125863e-01
-3.012162681072652060e-01
2.058692547368496661e-01
3.294946447574845227e-01
5.636863015156470258e-01
-1.043670020144706473e-01
-4.058763205020495812e-01
-5.094698357176704606e-01
-3.587921378376436876e-01
4.833088802337649481e-01
1.411388683452674542e-01
-1.045108780908712703e-01
-7.306140639148139826e-01
4.598272135530007132e-01
4.910307017709031330e-01
6.439022415204103122e-01
-2.086472445343648674e-01
4.384220337826699176e-01
-3.657606848946072797e-01
5.163219893642717606e-01
7.076251192834090986e-01
5.013719244238018513e-01
-3.049301398055479506e-01
5.149692558558051081e-01
8.383450709978260695e-01
3.592871994017166060e-01
5.939901078382208155e-01
-5.232146015282695961e-01
4.887604760285292338e-01
3.682742847192600061e-02
-8.745651565013248252e-01
6.754883475194664033e-01
-1.574092700445598181e-01
-8.476963827495745951e-01
-9.260844648334606299e-01
-1.616327217175785036e-01
-3.068312987355331992e-02
-2.988371075737082938e-01
7.777724257699211718e-02
-5.571192075504325381e-01
-5.480161571674507792e-01
-9.769334899539480754e-02
4.289146100861171429e-01
-7.173940324805551105e-01
4.416556333887436403e-02
-5.513196790929172364e-01
7.608325490098163391e-01
-8.660607622330309674e-01
-3.053748876243687627e-01
-3.464622588111296864e-01
-2.934449214696335795e-01
2.904846437584122087e-01
-6.453961697599956970e-01
4.322289598112726006e-02
-6.600661635784449421e-01
-1.993557412660511285e-02
5.929819813169410203e-01
8.139762392105960309e-01
4.574741253073255631e-01
-5.906056211675045908e-01
-1.854344601506560386e-01
7.095585155804765565e-01
-1.739922348880595937e-01
3.110955574426506678e-02
-2.426976571409376060e-01
2.867494232705142254e-01
6.159986418909506600e-01
4.948116704953708922e-01
-2.512760216274685376e-01
-3.437451990657313106e-01
1.125361598722574852e-01
-1.191096262796581984e+00
1.476818071067808880e-01
3.634956221328911607e-01
-2.326275612718966823e-01
-9.434572901041143878e-02
-3.275602425871546042e-01
-6.872755750290934218e-01
-3.058599520889413934e-02
-1.457542423306806834e-01
-3.370020610494310898e-01
1.991744270127909083e-02
-6.973774521459569220e-02
-4.395649303556785348e-02
-2.697875099471779836e-01
4.253949117200022667e-01
2.783898606658746222e-01
2.216128374245245405e-02
-1.842595408687813449e-03
-5.437649889612852228e-01
1.408906029851662856e-01
-5.404716373694501419e-02
3.201849500068242871e-01
-2.809667201250279356e-01
-2.533154309758321454e-01
-4.781828336603053398e-01
1.910377543242175180e-01
-6.737739674281284508e-01
-2.819491133750272049e-01
-3.750035416687775847e-01
3.580739322516576228e-01
-2.445809698701380958e-02
-4.110702101625067217e-01
-5.716666203833328797e-02
-3.391642309063593042e-02
4.662306354591595481e-01
-3.708583914715694874e-02
3.966394283508617447e-01
-6.603741208966170673e-01
-2.559687947645195583e-01
-2.780014197600654269e-01
-3.632398731054764518e-01
3.801131586853084832e-01
1.733860515742798869e-01
4.731909747946272393e-02
-3.462681239133685307e-01
3.320727231076660013e-01
2.721397799958101826e-01
5.574595752238045154e-01
2.135959210526778770e-02
5.240463047583359540e-02
1.425046495296645316e-02
8.967982367669977140e-02
-6.575762895682744080e-01
-5.775990980855719714e-01
4.387146200147923891e-01
-4.582108200038888766e-03
-8.052113334315806892e-01
1.145031128280442345e-01
-8.027098665104009934e-01
1.550145119689438633e-01
3.693872220236615878e-01
5.489064041747274691e-01
-1.864519366579817650e-01
1.845181271261158162e-01
-9.889342546493339325e-01
-5.453495186943370099e-01
-4.674686025100214248e-01
-2.494176594370743627e-01
-5.716017814322493784e-01
-4.006380595591786942e-01
1.192699971490721461e-01
6.787255501325802076e-02
-1.378948470785398006e-01
-6.596421460527878734e-03
-9.081672611366686798e-01
3.168094659109563782e-01
-7.237531962064659430e-01
-4.040708046662671027e-01
1.593025602096082571e-01
3.253471858464020150e-02
-5.562779854034127780e-01
-4.584321796807569460e-01
-3.936858717402084151e-01
-2.533445190727066643e-01
3.942240237458072838e-01
-2.477203837144633658e-01
-7.104745536917013160e-01
-7.102483801567432975e-02
-3.705376052816302113e-01
-3.931166064226865875e-01
-1.190356571487820814e+00
5.491035530517085483e-01
-5.277858656955687344e-01
-8.888653847920661155e-01
-6.629269302457690971e-01
-3.412306043383604021e-02
3.513959202425263606e-01
4.820357659939218942e-01
-4.156954002588246766e-01
-9.639614654649311110e-01
6.081886095608397547e-01
1.383513867673002717e-01
-5.497211087203079938e-01
1.969929782424109099e-01
-3.722154419912648282e-01
-3.820301680771148733e-01
-3.056008702726533688e-01
-2.539317715374738715e-01
4.955792459765651636e-01
6.986496824899794678e-02
5.474780367544628268e-01
-1.864459259412844516e-01
-2.155507145670928701e-02
1.269761777886999066e-01
-3.433762226542148160e-02
-2.002443372784104003e-01
1.454395166886193747e-01
4.407015137223848633e-01
-1.791804031935938513e-01
2.800218480223929385e-01
3.149918515781190143e-02
-7.832769179424477202e-02
-8.350777871136524921e-02
1.736220286343790054e-01
-6.554525699265525418e-01
5.750524037084678852e-01
6.279822727707998764e-01
-4.089107620774423135e-01
2.618089681336056573e-01
2.356000913446081313e-01
1.802596079524682038e-01
-6.407245541470958372e-01
2.290245685163279088e-01
-1.282531675518813419e+00
-7.528060024459927446e-02
-5.728225518202646471e-01
-3.112129223180566395e-01
6.601444905412133801e-01
6.612266481709019317e-01
1.773344518927707503e-01
-2.018991966174205066e-01
1.827900044000913826e-01
-8.636137563258347027e-01
-3.242431912563087382e-01
-5.059340561473882891e-01
-5.720306641739681952e-01
-2.706188283845910592e-01
-7.462521610739319966e-01
-8.507141925200901733e-01
-6.674298774825674352e-01
5.680382719658974011e-01
6.818832422506759805e-02
-1.133246167457401150e-02
-3.196029913717102905e-02
-3.227775198926794570e-02
-1.481004703664868527e-01
-1.990113819932733397e-01
1.675212827506722402e-01
-2.584213317110052588e-02
2.285780838214724608e-01
-1.266359267741893113e+00
-1.844203004500852283e-01
-2.132789659226040913e-01
-1.731845589908356450e-02
-6.617420453090977484e-01
7.098381540630507858e-02
4.556127715284865043e-01
-5.080712247713553564e-01
-1.745524787845693093e-01
4.734769819791815881e-01
-4.675997573926758411e-01
1.845927540194400862e-01
-8.368617633940610423e-01
-4.381585428262875226e-01
-3.346374856733244640e-01
-1.657972142657401504e-01
-1.040925396022158944e+00
-6.509885207718831834e-01
3.363686912221410807e-01
-3.152018825741622621e-01
-7.142208648831460671e-01
-6.478611247207565205e-01
-4.862012757588438094e-01
-4.112769088945542745e-02
6.030755593978845974e-01
5.343706991862419153e-01
-6.123036510731942883e-01
-6.147292876338307233e-01
-3.181952465717043099e-02
-8.318720795503167231e-01
-7.402262750315340145e-02
4.527408269383804695e-01
-4.714377673614502662e-01
-8.390259356107386823e-01
8.191057989791424021e-02
-1.797532863670288361e-02
4.509725976419985960e-01
2.539568279707073439e-01
-4.198778994103225526e-01
3.572505741566640164e-02
-4.042450786484766412e-01
2.552203524564445325e-01
-3.689596980139985272e-01
-6.164288008963586529e-01
-1.847346882213174724e-01
-5.307531279935436830e-01
-3.445678619177353075e-01
6.188813340520687989e-01
-4.556231556659146725e-03
3.660509118859824051e-02
-1.664452478757980081e-01
-1.818046307028056974e-01
-1.810765515831767869e-01
1.101849889800582682e-01
5.673945538285328771e-01
-3.515066208150476046e-02
-8.681870709674541775e-01
-3.291606966828081737e-01
-7.361014775782825925e-02
5.197704898474606594e-01
6.439210539994170146e-01
-6.140540601775781315e-01
5.564908634492390371e-01
3.907681715582282944e-01
1.681789095937898937e-01
2.126336039515825671e-01
-6.676138004701433204e-02
2.463388776141159642e-01
-1.055094387263170452e-01
4.965172547453536311e-01
5.633604060895884835e-01
-4.214488724465401681e-01
-9.677444426910644659e-02
-3.932220756694154162e-01
3.394817554050373887e-01
-5.055359507766079563e-01
-1.638957890715916910e-01
-5.634912236018922993e-01
-9.923314561503931985e-01
3.029730989013916242e-01
-5.866801843603760558e-01
-4.951533927786026107e-02
-6.332153313318847343e-02
-5.229289232079681327e-01
6.022095767637910407e-02
2.752801744566426012e-01
-9.400159933486996744e-01
1.486820719026084314e-01
-3.283827066675041872e-01
-5.281866519654896397e-01
-2.348988103979397224e-01
4.445820647654448177e-01
-6.089209151281307353e-01
6.290201888604631808e-01
-2.618667002737045113e-01
-3.198844469754019704e-01
-3.114143012906923635e-01
-2.421662915515432890e-01
3.076318008242246438e-01
-3.637909906220760936e-01
3.366062925170265063e-01
3.020563710790014761e-02
2.688446323166190366e-01
-2.777874732656555601e-01
-8.535466286549064918e-02
-5.882981242898867036e-01
-1.315819913046617773e-01
-5.591968488565376427e-01
-5.719680633337955733e-01
3.866506293967302832e-01
3.555551505136768653e-01
3.775528256518035919e-01
-7.806593162642361250e-02
-1.464911973853820493e-01
-9.856600549406792089e-01
-4.457020474275482091e-01
-3.806487110495547221e-01
-2.451644356445088491e-01
1.640429086760900046e-01
6.203822141779399280e-01
-9.860923595314128320e-01
-1.082262620910397072e-01
-4.101174322113834148e-01
-7.577902052464461358e-01
-2.385963704376286298e-01
3.445586571469574366e-01
-1.720965866209916637e-02
5.457443104090808905e-01
1.334443040438739181e-01
-4.480118254814072776e-01
4.368413300814915634e-01
-8.318407261665135000e-01
-1.906861383295959571e-03
8.321197186152659575e-02
3.015847757184667022e-01
-6.976106789014820120e-02
1.804120203978606674e-01
-1.856416146020116453e-01
-1.788352594325414990e-01
-2.509555981280582326e-01
5.317383978512283393e-01
-1.907525513025351560e-01
-6.353153422801363082e-01
-1.072974261891489201e-01
2.823951092415069586e-01
1.671827099836751263e-01
2.116028747199461338e-02
1.219650895233744398e-01
1.438082090727547668e-01
3.600410593940139153e-02
-1.021915611579309463e-01
-9.266336904835920096e-01
2.565856116128069631e-01
1.352048736854451483e-01
-1.215512113545420547e+00
-5.094921008613022551e-01
1.939286855109967900e-01
-1.068482334838606745e-01
-1.043132654341363486e+00
-4.680950631259949146e-01
-3.260963652575772365e-01
-5.213770787740814594e-01
-2.372607580727094378e-01
-2.934637858832089830e-01
-7.291587721520510490e-01
-7.490688047686732721e-03
-4.313321654331375155e-01
-1.898728440478824331e-01
-2.450027982757224387e-01
8.941556619197686684e-02
-2.546619991525432836e-01
-5.442702072989476919e-02
-3.220303864852537279e-01
3.408523954454960037e-01
-4.973172040846760567e-01
-2.055392087660457556e-01
9.229979652803246837e-02
-5.825685101211638267e-02
-5.195903859639224853e-01
-2.882572517554377045e-01
-1.034451445184450813e-01
3.006551060237826478e-01
7.065703185068440695e-02
-4.061302660131068110e-01
1.749509401548185739e-01
-4.409839201713085521e-01
-1.941200819487199358e-01
3.694710773830851558e-01
8.620633905652654028e-02
-6.461210238126584571e-01
-5.498060519640688426e-01
2.689963154039444193e-01
-2.421335218799398614e-01
-1.614640429306911720e-02
-5.275547491298011593e-01
9.438199424357118783e-02
-6.236045646347337934e-01
-5.740374902133249524e-01
5.191994936212472878e-01
-2.218002596832944207e-01
2.513858494093167417e-01
6.898403195494701157e-02
2.706012058230528594e-01
-6.333978540088928133e-01
3.915684944190832573e-01
2.618872163300033085e-02
-1.706719946297084456e-01
-4.586038461219956591e-02
-5.428741743968017452e-01
2.049993986783979760e-01
-7.310345842218838319e-01
-3.251485651953108791e-01
-3.116076200145942443e-01
-8.632429985974569009e-01
-4.509807959796542365e-01
4.321225092203254126e-01
-8.495810768059121054e-01
-8.789625111616176101e-01
-6.177984249318407839e-01
-6.611827899428116551e-01
1.230114981477880010e-01
-4.831401336758962550e-01
3.111060268024478659e-01
3.107365688533644810e-01
-6.958234288142265411e-01
-2.593991284314295931e-01
2.584084248889808588e-01
-1.297690129860927521e-01
-9.841036684519789413e-01
-7.054010742325375616e-02
8.913763865334477232e-02
5.390965118823093372e-02
1.461545796356168714e-01
5.214920079478579940e-01
4.550459902047522265e-01
-5.370876548444478704e-01
-8.209091750601972270e-01
-1.468190760567847364e-01
-3.122507387312728477e-01
8.902737215249603708e-02
-1.455292578751823940e-01
-4.335157504961046349e-01
-8.986341739766785797e-02
-3.132986132517318056e-02
-1.943046518661852295e-01
-8.745005083454637784e-01
-9.706326070262762951e-01
-2.762595920565867526e-04
-1.171492585451642254e-01
-6.628620051115229339e-01
-6.011505263122810527e-01
-1.870538091010825743e-01
-7.787256131384827362e-02
1.623241130944648447e-01
-5.329880346764543919e-01
9.224876973083054321e-02
3.747084801241313406e-02
-2.603150337412224458e-01
-3.465750829901961261e-01
-2.514422538459432088e-02
-6.988590085401253926e-01
-2.239517395078741702e-01
-2.487034615408227900e-01
-3.903391982142412897e-01
-7.025172600213510643e-01
-6.152143415710519675e-02
5.755379797287630828e-01
-1.964304565368788502e-01
-4.511694675701458795e-02
-1.460370595006452721e-01
-2.229948061040145646e-01
1.070059445551146959e-01
-6.341538424145686248e-01
-2.301163389383610591e-01
-7.158434626275632651e-01
-2.940716159237021787e-01
2.523514501241625463e-01
-6.757701632411897696e-01
-1.178426799192857331e-02
6.518124520902950081e-02
-5.525836555717063003e-01
-2.353051067954180786e-01
-3.678317171708107569e-01
-3.746245730832877818e-01
4.548851166486317932e-01
-6.058168275462706004e-02
-2.583235148214297894e-01
-1.794517214156846410e-02
3.709682008580465068e-02
5.228773544541485269e-02
3.440327109985365506e-01
-5.106979452600785008e-01
1.405344802215039157e-01
-5.819853434027745243e-01
-8.562501865317996286e-01
3.443828455432050850e-01
-6.646393636354912537e-01
-4.639533841774410305e-01
1.424840389950043362e-01
-8.267313112816094822e-01
1.598266744334326528e-01
-7.071850808282913459e-01
2.041023980718139064e-01
-9.146224581655491848e-02
-2.027576135186421047e-01
-8.526169008574443486e-01
-4.214277912904352413e-02
-6.359387530605985495e-01
-3.177582709082576312e-02
-4.990607973179255613e-02
-1.338978149089832537e-01
-7.203751049984181976e-02
1.580675111716304260e-01
1.386307428677352738e-01
4.905002079112682351e-02
-5.933438488140846401e-01
3.600062166329194291e-01
6.879657858060896081e-02
-1.057348725590475796e-01
-6.904097632953838382e-01
-1.197884662741356687e-01
-1.050698337507627311e-01
-1.639935180178550556e-01
4.730982517591456604e-01
-9.321629750056399655e-02
-8.151731893627719439e-01
-7.036447459338986965e-01
5.035820530543398954e-01
-3.893434569465311079e-01
7.164207110105676873e-03
-3.972417858717693928e-01
1.880989233464435417e-01
-3.965642054960189511e-01
-7.451696044924911444e-01
-1.753287829951525878e-01
-2.169008398207015187e-01
-3.617926503369483515e-01
-1.092215290449662479e+00
4.771536306942228411e-01
-2.027614081505621502e-01
-5.198572462746648970e-01
-1.095428327509303384e-01
-4.664591735459793775e-01
-3.382135502558489826e-01
-2.186820921270658802e-01
-6.920069021278437704e-01
1.550418812283799463e-01
4.512529481020854383e-01
-4.059143984584954734e-01
-7.156928238186425206e-01
6.396358085126310766e-02
-8.002740023668706293e-01
-4.920141557001833643e-02
2.855813522311528296e-01
-2.085122327192184821e-01
3.090008284093347379e-01
-2.548913730460363736e-01
-4.844286083235314067e-01
-3.832406114880316794e-01
1.640122362398084011e-01
1.582126792885731048e-01
-3.274204622809377407e-01
-7.321863107458550513e-01
1.659310020202677538e-01
-2.499034623729147822e-02
6.320317512066796206e-02
3.375160886881329869e-01
-1.210658699664016069e+00
-4.289054077055120540e-01
-8.266209519440319564e-01
-3.549221602310011214e-02
-6.431388199428247354e-01
-3.490723682178031306e-01
-6.072716007426411100e-02
-1.743204282448639619e-01
1.121333372330468314e-01
-7.057950831910607681e-01
-9.827623879724274591e-02
-8.555095697612455918e-01
-1.207864020529003879e+00
6.748135673051011696e-02
-3.563961851994632002e-01
4.505003166734106862e-02
-1.653714730658493726e-01
-5.718226779537126658e-01
-6.650444015368790485e-01
-4.583519834347376531e-01
1.375374180040106753e-01
-3.203414064151744456e-01
-4.541556470239480614e-01
-3.515771477993372973e-01
-2.679672526321711934e-01
-9.727741953667243258e-02
1.126540452683325727e-01
-1.507403198053761662e-01
-5.990806677685430737e-01
-2.792538967233810371e-02
-3.687425635717794803e-01
3.032522135150799159e-01
-3.892333968765702978e-02
2.097376525745809073e-01
-1.000237640054184862e-01
1.095400337394922680e-01
3.102904097837897446e-01
-1.830349876807474963e-01
6.066621778313316393e-02
-8.739415186838298544e-01
-3.330457494126441986e-01
5.526967429697138279e-01
-1.621688240093609457e-01
-3.455555877188970504e-01
-3.819500694791071183e-02
-3.404637258554348289e-01
-1.989754553780645474e-01
-2.043986142570937067e-03
9.605538243680841193e-01
-3.970282125037457033e-01
2.317891757970390598e-01
3.035598710233911209e-03
-1.481240540757473023e-01
2.116311944296673520e-01
-1.608151348689753901e-01
1.719769191694893451e-01
-8.217432175851788201e-02
-7.162260724362226605e-02
1.799354583458037393e-01
1.021180016216725051e-01
-8.766022181435089225e-03
-9.258493669714260577e-01
-1.130965735577683512e-01
-5.742837395686075652e-01
-6.871007122374629683e-02
-3.402957183049349910e-01
-7.785476907242526723e-01
7.232740744873236149e-01
-3.361377814618622395e-01
-6.238534813442336846e-02
-7.521268366691955531e-01
7.028554166967918015e-02
-5.023920974750181179e-01
5.109983638242907578e-01
-4.965801508914225587e-02
-9.058992310109304641e-03
-2.906147207179631264e-01
3.866866284901274847e-02
2.128695728551959487e-01
-1.381714504358510787e-01
-1.021654853073157010e-01
-4.318030128964373549e-01
7.132383362629808599e-02
-7.266669090350560967e-02
-1.042918424050632564e-01
3.571919355125532380e-01
-1.035010957050294528e-01
-7.647443978558511324e-01
-8.979003880814920291e-02
1.770851208952612110e-01
-7.806182723972247828e-02
-2.108890621517410247e-01
-2.041428831929550103e-01
-8.737514754327588284e-02
-7.643440958408413977e-01
-1.989336521014304915e-01
-4.864104815543746074e-02
-6.256870974040955324e-02
-1.845667921250216878e-02
-9.176745959846874801e-01
1.132301037212471717e-01
1.625882936308949839e-02
-6.506430585829744984e-02
-7.075122877498261909e-02
6.805323281586475592e-02
-1.117532464704327627e-01
-4.338809238684891434e-01
5.057074700302778281e-01
-8.903378061060902848e-03
1.252307139427607553e-02
8.711211413543544502e-02
2.217950894300012021e-01
3.880856469759792482e-01
-1.352753351662396852e-01
-1.733818591936023557e-01
-3.275519100299658093e-01
-1.457680866329109204e+00
-3.620762604901618387e-01
4.561993340111403783e-01
-7.754973275937201982e-02
3.887504941486254195e-02
-3.287417881588709095e-02
-5.311524019753290915e-01
-2.441136667842716268e-01
-4.821934302315344367e-01
-7.700179368697617210e-01
-3.882695737977045480e-01
-3.054268906903866432e-01
-3.439896939803421816e-01
-7.789634416871430433e-01
-5.656471580836400781e-01
-3.191367839118599420e-02
-6.297608885450921568e-01
-3.078493186375858004e-01
1.737656647052467640e-01
1.820990683944853361e-01
-1.647308409626730696e-01
-4.214564941331072623e-01
-2.637476573094548193e-01
-3.191390590134235428e-01
2.782249647325209518e-01
-1.533688811643854344e-01
-1.165234601262476050e-01
-1.709106766033556546e-01
-1.350923913241764418e-01
3.769231291130745870e-02
1.196887455456599053e-01
-4.000890815378181919e-01
-1.886215990582632562e-01
-4.674076697112573842e-02
-3.434173953713343108e-02
-1.206186626191351474e-01
-2.967995043350277196e-02
2.890988236012889678e-01
-2.792266747723940457e-01
-1.069734500340476513e-01
3.826474722615393065e-02
-2.231511895281644217e-03
-1.191781032540557284e-01
-1.549989389843248744e-01
2.545254449331726954e-01
-9.250155169647774622e-01
4.963818251191030873e-02
-6.087663444996280759e-01
4.097781193077033590e-01
-1.575134340391357302e-01
-4.889511238072302146e-01
-1.324353249530406396e-01
3.586361625953330967e-01
-3.894099126695371726e-01
-2.476864687185165448e-01
-7.749014205524847043e-02
-3.906174389084620113e-01
-8.411411587696053793e-01
-7.158147599613881029e-01
-5.984650664317472391e-01
-1.665749221849971706e-01
-4.571542140569489487e-01
-1.959009657137741889e-01
-1.661781665048752132e-01
-7.954946950908762249e-01
-6.750602330548104435e-01
-9.838109762993559881e-01
-1.235426192460746253e-01
-7.333907947592924748e-01
-6.210860861986945702e-03
-6.361358236883890571e-02
9.853978624215599391e-02
-1.186597398515680357e+00
-2.274101949313051818e-01
-2.060818567743890051e-01
3.807221891774515421e-01
4.335166014801959400e-01
6.255231857696216813e-02
-6.728611273778036805e-01
-3.525024171652732519e-01
-6.316669923097918693e-02
-1.160860492576150371e-01
1.376538591101427178e-01
-6.539152824450215895e-02
1.847098286864081729e-01
-5.514382862500497723e-02
-2.272166164705932134e-01
-1.027068055754166709e+00
-1.251664709210679738e-01
-1.190028868518908656e-01
-6.172191646924956449e-02
3.563433261577213240e-02
-6.026966312913112356e-01
3.623140764453091633e-01
-1.447288207272524191e-02
1.684003027774987060e-01
-1.705611615454885321e-01
1.801599268696626732e-01
1.385207119584300484e-01
8.793158078912911846e-02
6.615017567966192946e-02
-2.873947696978298647e-02
2.165788133051563258e-01
-3.868712741410342271e-01
6.059355235250643568e-02
-2.158200638374434613e-02
-1.566227368953661825e-01
2.734190635583246820e-01
-2.536226689038556525e-01
-5.366757902862741014e-01
-1.470939379844611872e-01
3.282584567715344237e-01
4.600198686941854576e-02
-4.972795750252806402e-01
-1.290312753957874592e-01
-2.538122797474992587e-01
-7.982985441100615837e-03
-8.148214665560132852e-01
-4.131137543804663803e-01
-4.632928722554252587e-01
7.441583019420668077e-02
-3.039816830681548732e-01
-1.864807097595759522e-01
-7.396695244667858549e-02
-1.985829760898676077e-01
-3.884690483518032367e-01
2.236046956207974612e-01
2.668415551955839460e-01
-6.526558703269101924e-01
-1.803989997283270141e-01
-2.121297965181860867e-01
-6.121483827255892046e-02
-2.044399894575864018e-01
9.471640067901472559e-02
-3.870952648500402549e-01
-1.419255354883970643e-01
-1.442168326749077911e+00
-5.713085120022097854e-03
-8.506865030651237225e-01
-3.081711679161456274e-01
1.330092056737602890e-02
5.650138872441571453e-02
-3.039688022218427488e-01
-1.644374695502841544e-01
1.087277377528351741e-01
1.118844006933295138e-01
-4.536193251723946371e-03
-1.657571097768459900e-01
-3.434143047185053005e-02
-8.396831403846868880e-02
6.248160407213649431e-02
-2.121903567376644262e-02
-5.641329153012587527e-01
3.329587407196921145e-01
-4.355190546909099708e-02
2.840244540904025838e-02
-1.205148147985421053e-01
-3.062232767649189849e-02
8.533185948175886493e-02
-1.920997739506958013e-01
-5.793875946183512510e-02
-1.917522417257829792e-01
2.593473020900370907e-01
-1.809941720897579320e-01
-2.891110787550896233e-02
2.136715856175953887e-02
-3.102636247765840904e-01
-3.564507103026757218e-01
-1.597174463631574337e-01
-1.021692436249797553e-01
-2.334045126911226675e-01
-1.168608804570225590e-01
-2.601381529072092635e-01
-2.722616032810356024e-01
-9.544009382196910751e-02
2.668731701257403000e-01
1.860425063388247424e-01
6.173391919473814049e-02
-1.304064828094820272e-01
-8.082531106278012523e-02
-2.285347835172128472e-01
-1.321796050491913510e-02
1.222115080743695070e-02
-6.290682240673939329e-02
-2.045546717920370683e-01
8.687505132008676439e-03
-2.379455054788532087e-01
-5.812675318431739235e-01
1.646862677902726779e-01
-2.179059703335036735e-01
5.472545871344520751e-01
-5.013813088878129598e-01
-3.371776958938456081e-01
1.021864941380514272e-04
-2.988119413073568320e-01
5.479136538697102626e-02
-5.820743507512606829e-01
-3.227100211745238811e-02
-8.574499227578952221e-02
3.447957098569302548e-01
-3.115589617436420600e-01
1.787071258868710155e-01
-3.645174227575398995e-01
1.110337760937158726e-02
-1.245437166892965214e-01
2.870607581670325467e-03
9.859710877616720270e-02
9.412643143572976823e-02
-1.043533894054702316e+00
1.342478600558841551e-01
-2.498181276013438090e-01
-2.387803925069562905e-01
1.103503667763028884e-01
-1.808370244649148417e-01
-4.008810196045562435e-01
-2.656840864344440362e-02
3.194833571793853633e-02
9.608145206252569070e-02
-3.000833475803474926e-01
4.902699157490202769e-02
-3.406580914619380951e-02
-6.192977855428520584e-02
-1.995007994455217371e-01
-2.188299059411784042e-01
-1.329195443579243296e-01
5.327988958138629022e-02
-9.267051738709757291e-01
-5.316344176591832754e-02
-1.317371222809723963e-02
-1.855901643869317386e-01
-2.606996842745802345e-01
-7.262604581897234846e-02
9.080666668675338449e-02
-4.971141260543371354e-02
1.221774326239554176e-01
8.905412417142942461e-02
-5.248911526440205311e-01
-2.703982498689689318e-01
2.078462719087861843e-02
-8.647946439710862965e-02
-6.333002518678060300e-02
-2.526155393797493431e-01
-3.472590543601430935e-01
3.454302537625947300e-02
-6.121288294855883189e-02
2.538730279465184481e-01
-1.074249433901207917e-01
9.482469369870109854e-02
4.638262382137342543e-02
-1.652588467138763340e-01
6.663978773136562672e-02
-1.602308844955985523e-01
-8.542418067392028302e-02
-4.540986767096721194e-02
-2.389346849615824608e-01
-8.514876357450201771e-02
-1.606190023001720021e-02
-1.370788195104238605e-01
-2.527987823573474638e-02
-2.976799300835828235e-02
-2.412818622941028390e-01
-1.043617622979254866e-01
-2.023341575119434466e-01
1.416668933633386321e-02
-2.764530747388895815e-01
-9.422267201136055870e-02
1.713470360802447079e-01
1.684023227323143135e-01
-1.430221180351082533e-01
-8.311323589937895384e-02
-2.329677668932678136e-01
-2.722297261753898745e-01
-5.308194142487785566e-02
-1.691549728843106878e-02
8.086075386193457282e-02
-5.960680457073210814e-01
5.534270077990983971e-02
5.326540029165972162e-02
-8.862232447895748710e-02
-3.028767404641082295e-01
8.674293212554555141e-03
-9.292986717927445572e-02
-2.044013911318360854e-01
-1.583090211631940050e-04
-3.866871889148464914e-01
-2.738530129983545586e-02
-1.862175592947017122e-01
-8.027943572142920425e-02
-1.032562833614149578e-01
-4.387243651556223256e-02
2.378112950569045286e-02
-5.203734079507653376e-02
-1.782825076260366459e-01
-5.946378163121516375e-02
-1.385623358360120738e-01
-1.356005758991229437e-01
2.256128357922470087e-02
-6.339786429003328727e-02
1.651498698584339675e-01
-3.910485225290951522e-02
4.293448093172782393e-02
1.322549359058580905e-02
-2.106999161909309803e-01
-4.920036016265184886e-02
-1.371085945885514024e-01
6.090105331214342582e-03
-7.398211630554152318e-02
-1.544975273577520736e-01
7.149601456712452452e-02
2.261784686792594756e-01
-4.358384603581598633e-03
-2.091445050830486457e-02
-1.596839256154765907e-01
-1.133187717092620922e-01
1.490642984303909846e-01
-4.844231269632107151e-01
-3.232067639020154703e-01
-6.983084526007730941e-02
-6.084454187327381636e-02
-2.082805275194633127e-02
7.396150788089100869e-02
1.044492632746324284e-01
-1.082963664536072956e-01
-1.423159127282307423e-01
-2.694144004942968657e-03
-7.186725736052414215e-02
-1.351960077525054538e-01
3.954351718085107742e-02
-1.661309561617207997e-01
2.003432983663993028e-01
-8.152176334249687517e-02
-8.935288608464482529e-02
-7.108455765997641340e-02
-3.062987596732106958e-03
9.682924873655571196e-02
3.429159962837234621e-02
-5.716983923293551123e-02
-2.947830474267435635e-02
-1.974621579828284706e-02
-2.328436049762501736e-01
6.198206234164998357e-02
-6.294442330542857067e-02
1.429399466624387272e-01
-4.298864957755036548e-02
2.297000144494494578e-02
-7.760377478780798588e-02
-1.541909761972399540e-01
3.196497722218746146e-02
8.705688018521362884e-03
1.630003985837373201e-02
5.370637017700388011e-02
4.170325396653049022e-02
-5.784059120501371110e-02
-2.106105154889983122e-01
1.117429329954529454e-01
-7.548448738656515777e-02
-1.739637533750543197e-01
3.772907106187739414e-03
1.178060730449173241e-03
9.209076504924913753e-02
-6.928980718554700324e-02
-5.281359041776736291e-02
-7.250326707894831635e-02
1.517209790399767499e-01
-4.017239753648466083e-02
-2.051435597129670774e-01
5.674363807673889204e-02
2.491792136905713814e-02
1.272199725358250655e-01
1.974633838737046079e-02
-7.752512195235998493e-02
-1.245776010423642749e-01
-2.553232581465798845e-02
-1.910372724611595144e-02
1.161408475642965871e-01
9.053979756561589265e-02
-7.083244858396350874e-02
2.041832276641979485e-02
2.735913615653795278e-03
1.442051326872526018e-01
7.290817285654298263e-02
-7.468225892634260121e-02
-8.780253373543259188e-02
-1.101947491878663005e-01
-6.416137055433331071e-02
-4.988887709455681885e-02
-6.999245651152155578e-02
5.383752679167486122e-02
-2.308350730787681326e-01
-1.533650922561494434e-01
-2.054508007917881796e-01
-2.118786854782458706e-01
-7.227566559050327410e-02
-6.742864151113596438e-02
-7.316125888841716607e-02
1.317046413978179287e-01
1.611150327211215150e-02
-2.648020012443034199e-01
1.286105161897201365e-01
-9.430799229139755213e-02
6.620762911918523508e-02
-1.853558508421798701e-01
-3.114090404796517053e-02
-6.169580353991216404e-02
1.676414055599582606e-02
-5.080466509996218322e-02
-6.829469996582350488e-02
2.613518369898999438e-01
-8.359277212377087818e-02
5.654477292202295807e-02
-1.819953275558426897e-01
-9.540063485116566377e-02
-5.025107968230341920e-02
