-5.302091033875121900e-02
2.367302760135378548e-01
5.852196057476211077e-01
-1.417152231835816234e-01
2.839302700496537657e-01
4.702405653883678371e-01
-1.928231909734373917e-01
1.438402148674010894e-01
8.827887097220292745e-01
6.064989884278719767e-01
4.967549645266466363e-01
-3.201220476944409699e-01
-5.320000898966666947e-01
-4.541489532119135641e-01
-2.461919934396157583e-01
-1.411036299143122674e+00
4.170793087519509279e-01
4.491240659374359789e-01
1.320538384820592603e-01
-1.158832005290748451e-01
2.334705851524042364e-01
-4.546816040155109429e-01
3.433412596885681567e-01
2.086042154728480202e-01
-4.189615275937436795e-02
3.908080100775209731e-01
-2.449543192945390357e-01
1.644647714861858512e-01
-6.704332802078022402e-01
3.208300570478428981e-01
-4.003615037061367295e-03
-5.052573707114151880e-01
-5.661341874002088215e-01
6.104850067996736573e-01
3.723351394071693909e-01
4.800117198612035563e-01
5.089233739918219701e-01
3.564310696365277642e-01
-3.259160028313767832e-01
4.715533608771286384e-02
2.304668703868841539e-01
-1.319195434506072739e-01
7.213728719165883596e-02
2.403039200837029099e-01
-5.601767968077100805e-03
1.332176474181006459e-02
3.097312408755921176e-01
3.119616896662020800e-01
4.406537121166070881e-01
6.061420346304685625e-01
1.242915078767489884e-01
7.913749966463870522e-02
6.658538344711536494e-01
-3.605886297548830943e-01
-2.240348069023760658e-01
-2.747544717898366129e-02
3.123995617036862127e-02
1.688587363798087493e-01
-6.809158117938405308e-01
-2.990578122563388175e-01
1.843776254930266645e-01
5.023213056758710909e-02
1.061709260875147720e-01
-2.849976014458549534e-01
-7.859221393227554253e-03
1.158982969806788832e-01
2.200312598716031298e-01
-1.012623133596008140e-01
-5.127090720355992337e-01
4.962946777464728454e-01
9.541802877116356552e-01
7.985672441205833305e-01
3.526083001733180261e-02
5.534074834565650969e-01
-8.586215105460894004e-02
8.172808592186436849e-01
3.604197462202959196e-02
-3.418866223228891887e-01
-5.267385615470549648e-02
4.744300253652457000e-01
3.951724656483859288e-01
6.287959496765879175e-01
3.982017763945139288e-02
-1.069881110326629525e-01
-6.926841661361884395e-01
7.776190482927176628e-01
7.839286741141440196e-01
4.757091429641627789e-01
-4.547486520681113253e-01
-4.520778762527900840e-02
1.068276629151654555e+00
1.199005884371744796e-01
5.816051615873111258e-01
7.819594753145037158e-01
-5.452223913387748144e-01
-2.908959410100702137e-01
-5.614791488995486413e-01
3.668803596566033165e-01
-1.096277406691026635e-01
1.881735196857398651e-01
-5.066536578260696227e-02
-1.381541440933913290e-01
-4.027767038365709373e-01
-4.690907960767042861e-01
-2.801543021737790684e-01
-3.664982949385795497e-01
-6.649550898647844654e-01
3.263847529672561087e-01
8.159926910732475669e-01
-2.704145704695723462e-01
-1.623416294415707672e-01
-7.902612644222147820e-01
8.437672901256604296e-01
-5.967344452201118754e-01
6.547998607878039445e-01
7.346914252153875502e-01
6.202815886279496871e-01
-1.141990743049463124e-02
3.130127654384742275e-01
-6.984930140447471736e-01
2.935495140800962188e-01
-7.912323872726498286e-02
-7.245930937000700789e-01
2.040971126756493947e-01
2.870591648981275501e-01
6.830564473785613044e-01
8.076446923066353811e-01
-4.839626183013492344e-01
-3.178428660114783755e-01
-3.588750470740168994e-03
1.935343860562079299e-01
-1.444091904685341488e-01
5.247566042334794734e-01
-7.965898028740781012e-01
5.724406283902162829e-02
-3.454805548450057967e-02
5.890836527587348659e-01
3.979592383730495286e-01
-4.417585201157234187e-01
-1.781592547393444637e-01
-2.515997919564280094e-01
1.897999326108139873e-01
-2.969456847720362558e-01
5.012635903990805275e-01
1.550611627150790262e-01
9.753872963761572867e-01
-3.280625738477363496e-01
4.356800958485309572e-01
7.465708953296429362e-02
9.740676644974161080e-02
7.677422355552455668e-01
-7.116520747286655402e-01
-1.065254295533490381e-01
2.979988445362957705e-01
-6.162955973881496519e-01
3.304160342007010365e-01
-4.983603601238363323e-01
5.181788997573220090e-01
3.685214998536372882e-02
1.180207713497446152e-02
-5.558028720705996406e-01
3.150738864024742458e-01
-3.075425573278329217e-01
7.088780288346546721e-02
3.982874596872123529e-01
-4.868836653798652159e-01
-5.455247473080393483e-01
5.051885866922081192e-01
3.486498790349540911e-01
-3.417212933268806152e-01
-2.521678466586821932e-01
7.438597750861754634e-03
-3.680023626619507437e-01
6.538264497364100203e-01
3.884906554687968527e-01
-2.177629443104124873e-01
-8.743014857470288170e-02
-7.151956194498888530e-01
7.494260278135437270e-01
3.447064154219791066e-01
-3.546066295477386943e-01
-6.451684322368841373e-01
-6.500797104801545045e-02
-3.065771409741081810e-02
2.142680637470822103e-01
1.328370518357448460e-01
-1.340687411072110091e-01
2.273637162656849675e-01
4.862421333688823899e-01
-6.711507525321656065e-01
3.977485906219542788e-01
4.450332606359369558e-02
2.630783707723072795e-01
-1.497328336905436319e-01
8.523692375562373982e-03
-1.864422712263579807e-01
1.658353096315265118e-01
-5.145383356764915254e-03
-1.013228157108675420e+00
-8.885890620410041851e-02
1.082813974151826952e-01
5.147893038624669348e-02
-7.709360260153226285e-01
4.838030607519570592e-01
1.010165749818761061e+00
9.701558419608886930e-02
-5.848955589433644242e-01
6.191991301087145655e-02
5.273603692319086544e-01
-8.305695353505750944e-01
-7.403071939737564389e-01
-9.125156352141452487e-01
1.186148328722729517e-01
3.348930757284276916e-01
-8.851798205683230059e-01
8.962393382257038965e-02
7.159581731141175798e-01
2.035237355330520859e-01
-1.294999980389588135e-01
8.305055752884903386e-01
9.556451153894747474e-02
5.801082695083563667e-01
-6.457259886181750952e-01
7.310423653860523840e-01
-2.141633081341110245e-01
5.512462465676080114e-01
4.889578746132077769e-01
-5.689449593505894187e-01
6.431346782018657615e-01
-5.933571387526578311e-01
-7.310112119153358567e-02
-7.473839589588850973e-01
3.658276156582008221e-01
3.132094410223941194e-01
8.128641358915268678e-02
8.710837485305533701e-02
-1.904018616697403798e-01
8.989135325386310438e-02
1.678442883620877291e-02
1.689075162204556335e-01
6.178176136013245889e-01
-6.439211045090591501e-01
-8.679949997955925811e-01
4.238941893730824306e-01
-1.358182992171755137e-02
-1.338351081760717209e-01
8.839748680135269820e-01
4.337355226227728733e-01
-3.275946746442315871e-01
4.060478142067829865e-01
1.484004983510348041e-01
5.480671702010445623e-01
2.452853319924097955e-02
-5.295763047386847777e-01
8.453698617767795298e-01
3.337540466400188421e-01
1.893683990201388834e-01
-1.101415570472506905e-01
6.505995801970083647e-01
8.306263073761468441e-01
6.666731577775472650e-02
5.055351535595188350e-01
-2.569968427261056301e-02
1.957069546552683004e-01
7.579220855941373181e-01
3.182681168933542137e-01
-1.001313692946578904e+00
3.615990509874677516e-01
3.233765897635378778e-02
6.110035512570474170e-01
-3.964294917008994723e-01
2.095114174244492311e-01
5.831648423131072789e-01
1.137224942996246796e-01
4.306671677966205647e-01
7.753541758404013107e-02
-3.335009073256610113e-01
1.890975865666165712e-01
4.323347018516201512e-01
-7.523462334775219418e-01
1.398241581638002551e-01
-2.843648427255851888e-02
3.097438211997587398e-01
1.040848344234573286e+00
-4.776945087080489705e-01
4.812729176130033926e-01
-8.617207218040227878e-02
2.485319771930038779e-01
5.597386399451738104e-01
-5.258219252653594245e-01
-2.765016392491380093e-01
-8.577660533623719941e-01
6.121699363575235919e-01
-5.612937088954627063e-01
7.757309301739789831e-02
-5.318128175603451524e-01
-4.351354966102374822e-01
-2.748631222401038965e-01
-4.057820854762509422e-01
-4.509569981631892377e-01
4.467955081388880201e-01
-7.608119265557624633e-01
2.836377521458608442e-01
2.743348476535498875e-02
-1.429341196939383773e-01
-3.829500837097126187e-01
-4.014454868332564819e-01
-4.250415137097268703e-01
2.754333548738571169e-01
4.587920312383218513e-01
-1.085686403522473226e-01
-7.895349018971411503e-01
-4.949088336934080734e-02
-4.254952765247340118e-01
-8.056107316008799257e-01
-1.153651348391080411e+00
-2.766509168829311971e-01
4.492769423278329677e-02
6.099511763799333325e-02
-6.451740690101444020e-01
-5.637366236085904481e-01
-3.315276489930287784e-01
2.569203659307417453e-01
4.108997834743758903e-01
-8.385922150692105559e-01
4.062660211268956933e-01
-2.127544209073521653e-01
6.584997006987577395e-01
-6.468419666797080581e-01
-1.991801332042217043e-01
-1.125175647770040033e-01
-6.225363513339546989e-02
2.016504025355182750e-01
-2.127384654569672295e-01
3.167226345528242892e-01
-6.491976188051746810e-01
4.826849879484239603e-01
-1.207794230588242479e-01
3.588277132752140108e-01
6.398843866256862523e-01
6.212531389579329932e-01
3.053475712515981710e-01
-8.287245922360138017e-01
-8.054888331246322364e-02
-1.388042464684122457e-01
4.378627771512039191e-01
9.346549458870694049e-02
1.325316617764772387e-01
-1.637319620475022608e-01
2.784783374349516713e-02
2.796043113550195081e-01
7.199507598183755297e-01
2.004845263963081492e-01
-2.500051657896145696e-01
2.529596285133149935e-01
7.543311432665504856e-01
3.769086484271900184e-01
-3.250647525869220789e-01
-6.793390737346774455e-02
6.395509691244466444e-01
4.443198453927243441e-01
4.581468302235212620e-01
3.191400913900396819e-01
-5.184226388587248602e-01
-3.969437707549070549e-01
1.766783512154173896e-01
4.796058496184057995e-01
5.491543810695388439e-01
-7.513659271662312400e-02
-3.990576480152419614e-01
-7.678230156817922314e-01
-5.722986546639396988e-01
-6.118901830405764491e-02
-2.258142953762664329e-01
1.526377069735111169e-01
-1.294473359811150470e-01
-4.022135828595729268e-01
6.988293738665698474e-01
-3.392432212713846762e-01
4.193163059720102503e-01
-1.512197329688401426e-01
4.918450390199631539e-02
-8.537021866867150477e-01
5.186795186350632303e-01
7.643980208532485943e-01
-3.741138232011268633e-02
-5.876501370094455723e-02
-5.381081113531354099e-01
1.236099952016721654e-01
3.615523492974750952e-01
-5.656628013794363641e-01
2.305055974555870746e-01
1.188829503169796381e-03
-7.612575850568630287e-01
1.935129668232966615e-01
3.550225047119400235e-01
4.247499903385733577e-01
5.787761785800221714e-01
-3.470500076332855288e-01
-4.404931323967398171e-01
4.153329899125688951e-01
-1.812622779741971113e-01
7.015899975574477754e-01
7.522391548970704944e-01
2.477177134989095586e-01
9.749477494560543356e-02
-3.448990217272810410e-01
1.811952702101115864e-01
2.970905563250717529e-01
-3.007476569618293127e-01
-5.617524646699277868e-01
6.208936761937710047e-01
-3.589380337538723986e-01
-2.745704213004497296e-01
1.690877036572696057e-01
2.502837927911870722e-02
8.319326672537643574e-01
-4.940965735728227726e-01
-2.986284730947375565e-01
1.805440008658958373e-01
-1.440798044465629035e-01
-2.044832204854864222e-01
2.631070554163760788e-01
1.991031593698230351e-01
1.942995546672131313e-01
-3.487619121649467302e-01
-8.184156584840979187e-02
-5.772639194732671619e-01
6.851390025631848291e-02
-2.372558441169188848e-01
5.482233874771745841e-01
-2.523252645681547390e-01
-1.466675272081477965e+00
-6.880443447712818461e-01
-5.847390189117475101e-01
5.007546068200769973e-01
-1.690300668505372028e-01
4.744847352189045520e-01
4.248009318918392618e-01
-3.282408534613015429e-03
-8.833915821074966868e-01
2.333931539302367408e-01
-4.464593529229672897e-01
-9.237124499145317191e-01
5.450482892855040840e-01
1.024310419075146195e-01
-1.177599600091972398e+00
-8.222977006992834847e-02
-1.165137630952534087e-02
6.627761246997788680e-01
4.802380579198067267e-01
4.295712209937446735e-01
-9.054880974396878335e-02
2.951068275913988348e-01
-3.415773243890250499e-01
-5.785620174123333737e-01
-3.722547490506650791e-01
1.107439834297319486e-01
-8.244982681904244881e-02
-9.375095078296761253e-01
-6.426601701380349474e-02
9.358262489138108320e-02
1.762983818054553731e-01
5.804174024570407653e-02
4.159886530943939231e-01
2.890999929979871236e-02
8.086212095577748338e-01
2.280027561788453561e-01
-6.585437594519985560e-02
4.383150838158109686e-01
-9.864809388228181763e-01
-6.516474584952348936e-02
-3.170239574194628762e-01
-4.059674752526528652e-01
2.640564709331886806e-01
-1.552546247835172588e-01
-1.402622126535174318e-01
5.015900634479026898e-01
2.528367747763026196e-01
-1.969235492669976495e-01
2.944869750140730602e-01
-3.902572730289994851e-01
5.617273007670668949e-01
9.396900540423638870e-02
7.094696055837127480e-01
-4.865251023753262016e-01
1.432589865440122290e-01
-1.011408884509675948e-01
-2.188959959055065407e-01
5.900143008763265584e-01
-9.533453621093385122e-01
-6.523535148206821566e-01
-1.055907236585895470e+00
-2.143911468232488071e-01
-2.526487083760707852e-01
-3.439578454397580476e-01
-4.356869070132149968e-01
4.683693733614800458e-01
5.212390686771334325e-01
4.734535252591628995e-01
-4.714543624288306534e-01
-8.410551496035920671e-01
-7.225457793583406341e-02
6.337149583933450181e-01
-6.575515806413642084e-01
5.502713844513769104e-01
-5.834879577524462735e-02
-3.016649970212492149e-01
4.523673851096580711e-01
5.272332366127119307e-01
3.055732221664361412e-02
3.460419660237358253e-01
4.012894659243506079e-01
-5.534933357714332258e-01
-2.449736361057498757e-01
4.272947805364982199e-01
-4.589636101656243555e-02
-1.250705444287912027e-01
4.359139830673506855e-01
5.365078728246800432e-01
-4.389619782182028751e-01
-1.203903124742776998e-01
-3.421222402654648664e-02
-7.428126340571554465e-02
2.341906027345584396e-01
8.211435094319964600e-02
4.136698842929516506e-01
-8.906879322368393970e-02
-6.751114038920819072e-02
-1.668259630615538947e-01
-4.222975602810830065e-01
-2.166943507112990275e-01
3.071459831467346913e-01
4.889237942460005204e-01
-2.816561171673140351e-01
-2.676452532140608520e-01
3.536389758199561251e-01
-8.543238421551870021e-02
6.205286150828366321e-01
-1.047319645867809790e+00
6.419317533173575230e-01
-2.967543953424048864e-01
6.035925011431666487e-01
-2.650352034995378525e-01
-1.939699350565639996e-02
3.269016169061110533e-02
4.835977741556549692e-01
4.575030892515517533e-01
-7.182932540580287684e-02
3.260322001483519361e-01
1.621718782045564015e-03
-3.885253146149889730e-02
-2.204927950318492647e-01
8.493891682026751822e-01
1.414500109871948130e-01
1.281854859083370324e-01
8.979733156508039327e-02
5.781465747503580221e-01
7.889054389659737321e-02
-3.914522868852114423e-01
-6.814957958810251293e-02
-2.338743016426051147e-01
3.389895147845454204e-01
2.445881614460800602e-01
2.108793706529132374e-03
3.206095037410764403e-01
3.274805439126454720e-02
2.550242843852787988e-01
8.661953260174121150e-02
-2.301620860296542670e-01
4.322237700474261257e-01
-1.349628528258141891e-01
6.419608797512943443e-01
1.710472493041685360e-01
8.688679503012390892e-01
-6.144928159984573979e-01
1.737579908535222262e-01
-3.421135727447291996e-01
-6.763455367652893013e-01
-2.415944270641800229e-01
-2.308212139441091076e-03
5.849356778902012888e-01
3.555228038897025322e-01
2.188723655924013356e-01
4.436463936740738800e-01
-1.172479787504195764e-01
-3.972909962559362240e-01
-2.822038047193106136e-01
-6.342455056546083547e-01
-7.451675816599664381e-01
-4.265017391845789541e-01
-4.794860644551483531e-01
-1.781933190875588657e-01
-1.213540902661609522e+00
1.305445095844417480e-01
1.392641141824908224e-01
-2.320358557711193481e-01
-4.811734079499633832e-01
5.534093233327826988e-01
1.716492248084781069e-01
-3.867119363266746657e-01
-2.462594792429888269e-02
4.071278289160987912e-02
5.447842857825271334e-01
-1.124449787576376480e-01
-3.845993527836599202e-01
3.568663107024335202e-01
-9.069522432051428940e-01
1.054145521346032954e-01
-1.717401402247065445e-01
-5.194233631943517837e-01
-3.053808310257750680e-01
5.922135875974345876e-01
4.645415885900154307e-01
7.022004666239585191e-01
7.909704129911542259e-01
1.012109201264327130e+00
1.768528824028262059e-01
-1.138677532621882760e+00
4.260709950736927265e-01
4.000084917642044990e-01
4.272128643043397456e-01
1.317713598426544508e-01
6.959331837477173988e-01
-2.711164624244291055e-01
6.915595069075095580e-01
-1.408425115176750175e-01
3.379725578243586437e-01
-1.686708370439988502e-01
-2.808611767558641947e-01
-3.361960439382951082e-01
-9.566950916873032118e-02
2.843081704227315987e-01
-3.120992766614369973e-01
-6.401701507324599749e-01
5.872999763560832198e-02
3.560673623641010255e-01
2.836514130599869787e-01
2.910884717987103354e-01
-1.237484815724052556e+00
3.332065301207569052e-01
7.782611648622862754e-02
-6.576079883929037972e-01
4.350105290344258996e-02
-8.845945019845522506e-01
2.857487504085174379e-01
-7.931369887580205225e-01
-1.393486068009859580e-01
1.150853689784698264e-01
-3.982370188991117554e-02
1.360228661610010104e-01
4.255661645971006712e-01
2.466751471460230244e-02
9.953541887866401705e-02
1.833157886453850582e-01
-4.240193010615568581e-02
1.595511680675351374e-01
4.264062590608458381e-02
-1.321278071314905267e-01
3.081298384093613674e-01
-7.508959992360371774e-03
-5.041284187913944725e-01
-5.038969505424371054e-01
-1.645719738293848766e-01
8.918578076159866530e-02
9.258636305304147884e-02
2.496773242344391408e-01
-3.849895605765467632e-01
-2.109232885187324325e-01
-2.147436541490183731e-02
7.965152221313089032e-02
-6.016678903827518132e-01
-2.527441811247148618e-01
-2.571499999955298432e-01
-4.584480032722587639e-01
-4.944761070379683487e-01
1.909213369946826944e-01
5.717820307472021302e-01
-4.472574084834251562e-01
-3.259928871794182670e-01
6.293769020555799454e-01
-5.654007074851993275e-01
-1.494719666727175600e-01
-2.420721186389763746e-01
-9.290015197307732731e-02
1.751021780644310688e-01
7.420140298634410048e-01
-1.709723363697054910e-01
4.391567248591611849e-01
5.359013803270231691e-01
-2.586395250021315470e-02
-7.450401937845841926e-01
1.955229711655855629e-01
3.827452346810968353e-01
-2.701185673311691862e-02
-2.327160311044072227e-01
1.687963231438734946e-01
-7.300196577914795926e-01
-7.772571584067419215e-01
-3.742051843644363385e-01
7.193862756006308423e-01
-7.542289006520394579e-02
5.079499139358709670e-01
-7.141395976506768051e-01
-3.186390924797523061e-01
2.141346596569043415e-01
7.335289444412266269e-01
5.852319141916624279e-01
-4.933216940952540597e-01
2.623653019874900294e-01
-1.169285372061578343e+00
4.863631353573461547e-01
-1.461558190092260567e-01
2.160516640779241160e-01
3.599203461157639457e-03
-5.538187962784298923e-01
4.055958661673583765e-01
6.837335927258080259e-01
-1.137538740044876873e+00
7.155756903873258246e-01
7.777288909265919759e-02
-2.265631360280125906e-01
-2.381839132586377750e-01
-1.605438174363398376e-02
2.017591994791432530e-01
-1.365579923973331278e-01
6.834589067822683939e-01
3.314734079733104299e-01
1.681578718085127155e-01
1.845780115250841846e-02
-1.240515573562825206e-02
-5.163864306488430422e-01
-8.586202637529122272e-01
8.482499013408829891e-02
-3.350497532108787646e-01
-5.171974003643535767e-01
1.734925954333781661e-01
-5.069211641797589651e-01
-4.988060723945147990e-01
1.088084012753248175e-01
1.928052246474008802e-01
3.443289708412299865e-01
-1.042869761595882766e-01
1.947650668507948379e-01
1.562077612899447909e-01
-6.152851835977527634e-02
-3.489902346856865178e-01
2.342325617038784058e-01
3.489431265039484864e-01
-7.828021729537699702e-01
2.900378974926892672e-01
-6.863630871769784703e-01
-2.765557675005547167e-01
1.778133036479705997e-01
1.151774615858170425e-01
3.170539165406115467e-01
-1.667537664849282064e-01
-1.229894763446469641e-01
-6.744623097981021775e-01
5.060683374929672018e-01
-2.520683216953002459e-01
-9.102495895993829855e-02
-7.143577419261124550e-01
-2.473624389445466809e-01
-1.310185450587156575e-01
-3.577899125200144081e-01
-2.532513958080480632e-01
6.403712950633364542e-01
-2.284570523887211879e-01
-3.192357759052241728e-01
-3.309284373853574879e-01
-3.764620093542649371e-01
3.260533968987743836e-01
5.310097670461271652e-02
3.217304421251506175e-01
-3.667405619902902036e-01
-3.016405987299581870e-01
8.085023558561822699e-02
-2.594537579476385303e-01
1.088790106656916806e-01
-7.094177807598059937e-01
1.102425634220298573e-01
-1.102587851221635551e-01
2.182357521678133239e-01
3.406484803297806785e-01
5.234478825298369831e-01
-1.132591470187885030e-01
1.652610268956247463e-01
-4.227811579195270841e-01
-1.097561370206810771e+00
-9.536173911714239670e-01
-7.310773126908381991e-01
3.598642261614432014e-01
-3.281728537549206681e-01
4.790888521963440061e-01
6.484197787880474628e-02
-1.852413128282862920e-01
-2.686481808393216264e-01
-1.358968948567560175e-01
1.343077803344964738e-01
-1.860109874537848318e-01
-1.810772873034458275e-01
-1.900327435544543475e-01
-6.651747370276244187e-01
2.236340266136319435e-02
2.870556579835132349e-01
-7.665965952309917730e-01
-2.814288000561877001e-01
-4.183900426446497955e-01
3.173857393945007099e-01
1.109244713909703084e-01
3.900951618086689332e-01
5.164267521335902389e-01
-7.235568580151592322e-01
-2.550881262348093093e-01
-7.517403175152038708e-01
-4.671881301099940487e-01
-1.763323083070692313e-02
4.093158771070058710e-02
-2.564615980055885702e-02
2.505030073555387649e-01
5.328559371989219015e-03
1.541654429848488342e-02
-4.143859242937855680e-01
-1.010319119915879416e+00
6.642919262196943231e-02
7.899927856866925113e-01
3.407209729149364708e-01
4.678386002146229794e-01
-1.393171959567040818e-01
-2.226181713481415470e-01
3.824127335289811969e-01
3.781783336141710250e-01
-4.677696717762582640e-02
4.593055962356132338e-02
1.198353295270880997e-01
-8.505122175150359176e-02
-3.281749855509926150e-01
-3.158696368015221356e-01
-6.319936528815306431e-01
-3.055609069044153969e-01
-7.813929142261265559e-01
-3.627946128670383463e-01
-4.866273846583278329e-01
3.569517582601250405e-02
5.161809183803508505e-01
-2.343272310474983078e-01
-4.878303907619813140e-01
-9.359303413500145163e-01
-3.198610892516708382e-01
-1.086696633710859949e-01
3.569650159797766453e-01
6.055073286010748818e-02
4.842055764811667440e-01
-7.272816853698613748e-01
4.240930678168243761e-01
-7.606008696907784472e-01
-5.090622221348221066e-01
1.600058136745420578e-01
-5.482007012246222777e-01
1.947013411247463799e-01
-1.514408975541167712e-01
5.227693876063729123e-02
9.146791918113537090e-01
-5.310296451655589500e-01
-4.026801652760444994e-01
-4.195156793720332122e-01
-1.048002572827519296e+00
1.248556053213894027e-02
5.350719395915640858e-02
-2.725891254252630902e-01
4.016057776457021555e-01
7.081701754870628474e-02
-1.450950565870185588e-02
-6.210245646983709733e-01
-6.349596697740976792e-01
-1.552926569861028672e-01
5.494733801539936069e-01
-9.112185719563625774e-02
-9.606434658351556410e-02
4.803314748246743648e-01
-3.977859818622401789e-01
5.719353744651201055e-01
-2.230690095212510549e-01
5.723533290841162913e-01
-5.012438112436302662e-01
3.792556997613759640e-01
-3.350306873393722462e-01
-1.424992349006935499e-01
-6.211771207174792142e-01
-5.356424608761567452e-01
4.666694522100307552e-01
3.870519893176354587e-01
-4.068847703451925618e-02
1.084463200196554566e-03
-3.504671935816378592e-01
4.485293156852138696e-01
4.988150734494500860e-01
-1.500454519303254797e-01
-9.349703764879928325e-02
-5.638120125968569818e-01
1.912379109833438687e-02
2.731899134740067847e-01
-7.913380064009385428e-01
4.757595076983059390e-01
-4.865323033956782117e-01
-5.473886542832634428e-01
-3.647780843730372147e-02
2.114394639806127241e-01
-1.250306179448347765e-01
-1.632375566011439738e-01
-6.841247499827712852e-01
5.765614027159668975e-01
-7.279138978143028238e-01
4.180067369416043954e-01
-9.422996560094619722e-01
-5.156452975289025353e-01
-7.525226102280289098e-01
-2.511762608645101702e-01
-6.541641076849079584e-01
1.001487541528682523e-01
-2.700981426244588035e-01
-6.908459313724253370e-01
1.297746485431620356e-01
-3.696323502413466078e-01
-1.761576989958153205e-01
5.239254700798993136e-01
2.488443031284843510e-01
-1.439733488610910328e-01
3.089190440317754471e-01
7.842570401072265218e-01
-5.218619181511977567e-01
7.160118291249064834e-03
1.789541269135486445e-01
-9.116678495357180001e-01
-3.116700767567460728e-01
-7.453409975293538992e-01
-2.849782943574926675e-01
3.127627304592616175e-01
-3.029974508778604525e-01
-6.295545907632075222e-01
-3.111720397102721303e-01
8.233882684632121141e-02
4.525564119531041429e-01
4.583731138814035183e-02
-1.937213343423142831e-01
-4.873572570896849143e-01
-2.251972903344344190e-01
4.063162450428538935e-02
2.492913061173286093e-01
-1.034190967454887256e+00
-3.914828952682793406e-01
-7.997215539534818785e-01
-3.494909554686440045e-01
-3.996679906556187545e-01
-1.467760013955140275e-01
1.294957894290560962e-01
1.114242913473722646e-01
-4.992810327704145790e-01
-4.772911845008945830e-01
3.954467390036979224e-01
-3.747808788448620532e-01
-1.199035541015093687e+00
-6.069369870470686656e-01
-2.808626959178381344e-01
5.235808794959561085e-01
-1.788051601412208869e-01
-3.143936240218193068e-01
-5.264729248204024631e-02
-1.614056049636387880e-02
-4.035223462029273178e-01
-5.453013723749907671e-01
4.773589764743689789e-01
-5.481284403189303767e-01
6.551423771678165364e-01
-8.030655072452882459e-01
-1.417646992972911579e-01
-3.208153747754512453e-01
-5.482138222609249656e-01
5.732072801290923753e-02
-6.392302005533562204e-02
-8.037648338084749655e-01
-3.008097386329673939e-01
3.760521100425447960e-01
6.188248750735847459e-01
3.203940407488570785e-01
-6.977591653446821862e-01
-5.472125941776722069e-01
2.497559483528410951e-01
-6.690590438970078768e-01
-9.519449009544543594e-02
5.766338075932772034e-01
-6.597225907775976506e-01
1.541140849704174531e-01
1.858917116458812246e-01
-3.655738610639063246e-01
-6.810350374590650180e-01
-5.481593606484905928e-02
-4.996962067722160450e-01
-5.796919066488903649e-01
6.734186389042865484e-01
4.165915289332323967e-02
-7.215075177359553393e-01
-1.485388340313587296e-01
-1.176223817836539037e-01
-4.073932199161180434e-01
-3.726895335381131824e-01
-1.009339441192387499e+00
2.279078753650264078e-03
7.831917391116155480e-02
-1.001537457338799314e-01
4.121070810487147407e-01
-2.384739189613806765e-01
4.897515533237067897e-01
-4.367337273946486631e-01
-4.536024281999907481e-01
-2.728747671933920427e-01
-3.584212812519568248e-01
-3.417205611573215229e-01
4.667522432156587797e-01
-6.079936891207224359e-02
3.555752215916768016e-02
-6.217666081931928074e-02
1.053092115561982539e-01
4.308027687147614193e-01
6.466979599350344277e-01
-7.203383181234904731e-01
2.630056594200467224e-01
-3.640289600481730337e-01
-7.154382727541744869e-01
-3.905410334869980904e-01
5.458783148965562146e-03
-4.542799023586341356e-02
-3.816744482986064724e-02
-1.802715586223740396e-01
6.613648649278019986e-02
8.060308890337938847e-02
-1.415858528355078694e-01
-8.810141973637206081e-02
-5.837917344871638159e-01
-7.277493371331161809e-01
3.904966339293670149e-03
1.592998399199345438e-01
7.147503849356717787e-01
-7.318555519855350910e-01
-8.315168669843214788e-02
-1.283550067290076369e+00
-4.941077723063192484e-01
2.791354368551030030e-01
3.134227712425737000e-02
-6.392200259397262663e-01
-4.113812669681410905e-01
6.833773196555114650e-03
2.229573010927196064e-01
-8.293428851475805885e-01
-7.034575158933451533e-01
-3.521736518850594050e-02
2.208714109797575431e-01
-3.809946051388640731e-02
5.496122606164248747e-01
-7.002193863865902035e-01
-6.420889368616508053e-01
-2.369273606862282444e-01
-8.919813938686879107e-01
1.318302689758867885e-01
-8.787835206295315782e-01
4.115695545773704889e-01
-3.171404682400875696e-01
-3.744704075802054444e-01
-2.120384567444847934e-01
2.615596593384453966e-03
-2.142293569139093745e-01
-2.394317305569281795e-01
-2.888923384316977039e-01
-1.436225763802135569e-01
2.404734306512381070e-01
-1.108879033909730555e-01
-2.000147835418048248e-01
-5.393018019612106501e-02
-4.600823686762470222e-02
-1.075342950907668405e-01
-1.928450910869520529e-01
2.269250601302622017e-01
-1.041855240645033903e-01
4.874504458834415244e-02
-4.702230842035257652e-01
2.715147286971922869e-01
3.967394703661666910e-01
-4.049929869817339712e-01
1.167035602426760299e-01
-6.016787058598308501e-03
-7.650351082094652977e-01
4.078593017141347171e-02
-5.240033146845235468e-01
-8.193541317036484584e-02
-3.527936374949801057e-01
-2.459289444557158366e-01
-2.375967818746502203e-01
-8.360366187743803468e-02
-1.604131673435179317e-01
-5.008651571825731841e-01
7.353499786222857937e-01
5.203298045493403613e-03
-7.163251344055237002e-01
-2.272714579030854776e-01
6.504756345191230471e-01
-1.512165073781424618e-01
-3.250793370965130991e-01
-1.133312087789233313e+00
-4.087603401405210390e-01
-2.060569870514851742e-01
5.461931888004723304e-03
4.340953524562615740e-02
-2.547985791798905164e-01
3.707301391803254770e-02
-7.674325332695627888e-02
-5.901447702036992649e-01
-9.219927736583077849e-02
-1.125559534277295465e-01
-1.265136954835097693e+00
-4.117367509311138374e-01
-3.540412281854903309e-01
-6.838632737794373417e-01
-4.942468188512901262e-01
-2.029427111595705213e-01
-9.271705363047555437e-03
-1.701057696528223556e-02
5.458928311985474791e-01
-5.945047334448244625e-01
-1.014809468790514591e-01
-2.006172266954563688e-01
-2.130815213171232889e-02
2.761404150160584343e-03
1.049424262134527747e-01
-1.145696489904197035e+00
4.377815553007326499e-01
-5.680996053288098757e-01
-1.032206956715854135e-01
-4.071692975884583232e-02
1.885941991945599416e-01
5.509373926326166515e-03
1.616739645456125585e-01
-2.919580539906640460e-01
-3.967614803443687554e-01
-5.543239404228996609e-02
5.807695316554452036e-01
-5.828573438582345112e-01
-4.367853418277191646e-01
-8.230148774241466403e-02
-3.152302872661197353e-01
-1.965678578912838370e-01
5.421973386762177771e-01
-4.288155815970369766e-01
5.780380988634847839e-01
-6.903857998359949621e-02
-4.999784189782200960e-01
1.597111063086152916e-01
-4.538877469951657639e-01
-7.098944184554289646e-03
8.369371141813738979e-02
2.248168977982603067e-01
-2.644692178517912828e-01
-7.294461773045604058e-01
-6.776291305820156263e-02
-1.246202947472071498e-01
-5.769854284423713287e-01
1.467175240900220334e-01
6.924261255733706044e-02
1.043274010351631469e-02
-2.596545425207432700e-01
1.085100690468170231e-01
-1.038478116046131827e+00
2.462612495220182496e-01
-7.333673772051878537e-01
-2.066504738606945168e-01
2.914548522088746818e-01
-8.809214951482895184e-02
2.730211736398433300e-02
1.827349109845561453e-02
4.160488308753476638e-02
-7.753601741046342588e-02
-6.697134227449277333e-01
3.392311382208464815e-02
-8.428560791604798597e-02
-4.084467552745373875e-01
2.087640265350674540e-01
2.507812293070053600e-01
-2.084208042210528855e-01
-2.164996523985898980e-01
5.367583778912328463e-02
-7.454094756176198044e-02
-6.473301309151741068e-02
-2.666132862627689226e-01
6.031634016927829300e-01
-9.203640097325545000e-01
-1.812988838980783002e-01
-5.789602316618125410e-01
2.499113574431944818e-01
5.030142900440585235e-02
-3.338791051909872354e-01
1.102103890970196759e-01
4.276917415315568960e-02
-6.016645002533499431e-01
-7.902429285005783122e-01
3.629123626446206785e-02
-6.683136136697759300e-02
1.291936481430906447e-01
-1.473012124212155494e-01
1.400479309687915064e-01
-3.341343766787979175e-01
-1.826215759437354036e-01
3.721654268271697152e-02
-5.366452031005104761e-02
-2.059915083978217792e-02
3.693609153990326521e-01
1.369946957631085482e-01
1.790670618419556298e-02
-1.107814830610729523e-01
-1.637854174971021537e-01
1.576652140414856185e-01
-2.220309148084674278e-01
1.967870689978396068e-03
-3.288881117343137039e-02
1.042770322893260895e-02
-9.033172822931093138e-02
-4.786845624170359415e-01
-5.510279217340158242e-01
-4.018170018111276720e-01
-5.884639453241082840e-01
-6.374121462763152057e-02
-2.383147728085390216e-01
2.973344001690891858e-01
-5.493203979029827044e-01
-5.939868256503520738e-02
2.239666925390484606e-02
4.280622733649627060e-02
-2.497533883223538309e-01
-2.454258677245676201e-01
-9.139564253532959093e-01
1.514047424535349406e-01
8.722019023758727230e-02
-2.674937304921656822e-01
6.198746610563141135e-02
-2.541273944060953860e-01
-3.556800424045691300e-01
6.590501813624420613e-02
-3.269471151931360176e-01
-1.138738093228042897e-01
5.144141176457400766e-02
2.022213403634479101e-01
-8.435209546459171426e-02
-1.368020012919546335e-01
-5.417444054138367271e-01
-3.864023955539979127e-01
-1.047078915634421514e-01
2.493317159105714886e-01
-5.256345252133922674e-01
-2.188020519184395163e-01
-3.826356309246121135e-01
-6.994709109584047457e-01
-5.276784299843779724e-01
-5.852831733694422445e-01
-9.708833239089048606e-02
1.854520332385111159e-01
-7.335900414969559469e-02
2.200149051639221365e-01
-2.790388062926836554e-02
4.447670775969971846e-01
-2.273593834244337086e-01
-4.255864886436893091e-01
2.615077385617355366e-01
-1.287580257569565234e-01
-9.986607827008628369e-02
-4.267699716274089838e-01
8.521748557430398885e-02
-4.151887660483485343e-01
1.223801706032915694e-02
-3.813398946381094112e-01
-6.436716621621201007e-02
-5.859231055790455750e-02
-3.242138537307909241e-01
-9.274835355913638169e-02
4.190032080968515010e-02
-5.740690671983144089e-01
2.660717732813420722e-01
-1.970071214944983384e-01
-5.292421305533907550e-01
-3.848114167899296389e-01
-2.327979021116361250e-02
-3.038137582515563345e-02
-1.351296999898747297e-01
-4.582850714513799772e-01
8.943649446061453789e-02
5.766471236686410845e-02
-7.896624558498212265e-02
-2.182295569608445340e-01
5.642466713799499170e-04
-2.625808509258771573e-02
-1.334429263515804209e-01
4.970329299440179316e-01
1.950784128692644170e-01
-6.244390215064824501e-01
5.551799378454187056e-02
-1.831003471062367938e-01
1.994997599456203863e-02
2.485686298606309269e-02
1.257861049786705016e-02
7.605683752695757693e-02
-3.625084786431556627e-01
2.866045567571382513e-01
9.807073760255297090e-02
5.345270969410698819e-02
-3.646803107275820022e-01
9.293465606977859006e-02
-2.419253387096715058e-01
-6.550791759424344843e-04
-1.220594893114761215e+00
1.589698049411762959e-01
-9.136415844385303853e-02
-4.955534873461723833e-01
-4.023053881139248000e-01
-1.027572343915058584e+00
-4.663961085838924658e-01
-2.045900682247248914e-01
7.724645701858977309e-02
1.422766134134530180e-01
-3.593005504680298889e-01
4.375282329233928791e-02
3.561150887531511211e-02
1.192131731864495142e-01
2.223221256083109387e-01
-2.035824948669983647e-01
-5.306950722786707431e-01
-6.292060547102921175e-01
9.952398505636519954e-02
2.312548624839969036e-02
2.371143113762887167e-03
2.363038975114699347e-01
-3.470233292828710514e-01
-3.626306843732751140e-01
1.824821065967626998e-01
-3.840705447312395271e-01
8.234736861722927181e-02
-8.316722059090506103e-02
-2.242595033565564500e-01
6.574756573424596351e-02
-7.905578374918630358e-01
-1.250090748496649196e-01
-3.369036511447219273e-01
-1.862781911037799110e-01
-1.178695176748481843e-01
4.471334477600386742e-02
1.156230528286971010e-01
-1.718615128548481863e-01
-2.577683701175236680e-06
-6.102830423168763979e-02
-2.311266749060530146e-01
1.219779061020223251e-02
-4.192070949254292911e-01
-1.215060799425352334e-01
4.106915313808089801e-03
-1.519904958274311546e-01
-5.044871269851092244e-01
-6.349236658247861542e-02
-2.611484057000325598e-01
-1.153943574962529167e-01
-4.400028463774677268e-01
-2.162532058758464271e-01
7.595426786730283264e-02
-2.113601823020127418e-03
2.802920598532802621e-01
-7.605882135958035029e-02
-1.131249122532183238e+00
-1.371627955829808121e+00
-3.505150593488026156e-01
-2.823114109085045342e-01
-1.464977396032737245e-01
-1.415502635429820855e-01
-5.273444694147683132e-02
2.139635614859336787e-01
-4.208967140043866073e-01
2.286931674693462938e-02
-5.947024937678252465e-02
3.366539126076419919e-01
-2.036967893485580952e-02
6.868431620152375128e-02
2.475882472754045022e-02
-9.100362173695856205e-01
-3.838304119666814396e-01
-5.381572553306722406e-02
-1.591385686013838952e-01
-9.471921169688221620e-02
-1.270807567473835886e-01
-5.195624570348709170e-01
-4.932897101651706473e-02
-3.711040436752580107e-02
4.657833247088927209e-02
-6.042448069635718566e-01
-6.518001029608200270e-02
-5.643567539506617881e-02
-9.590016870352043726e-03
6.399862055600591057e-03
-8.266157713390008543e-02
-1.952193034553850737e-01
-3.041868461610033325e-01
4.995617435503735271e-02
-1.903170934405905568e-01
-4.755493674067414189e-01
-9.005156718618653744e-02
1.292666598587207533e-02
1.735919024558448542e-01
-1.662810307579896604e-02
-1.797675338740706980e-02
-9.202208207510653715e-02
-8.123291074481592267e-02
2.251674748895834619e-02
2.146049952225702051e-01
1.167258699615047676e-02
9.491483640582804027e-02
-2.224831017553854373e-01
-3.007907149518488851e-02
-6.212025290991413096e-02
-7.779555293208086086e-02
1.496721757612286263e-01
-1.570164039994206839e-01
-1.411803145495388878e-01
-2.335141174396225539e-02
1.768727375804236002e-01
-1.908657354927634775e-01
-4.849970043529953229e-02
1.050820531595810653e-01
-4.669750598383434204e-01
-1.752150961963869213e-01
-1.593594636793318198e-01
-2.961560507794931407e-01
3.174482929593865355e-01
1.361732612715193247e-01
2.567272679488586951e-01
1.125040057154615691e-01
-1.150777257675941051e-01
-1.046348602766790023e-02
-2.895189161756382412e-01
-1.322933666527197905e-01
-1.567596774869629839e-02
-3.831302554597877386e-01
1.426556111769499702e-01
-2.610549803976980332e-02
9.854888223801226699e-02
9.446432746842661765e-02
6.556361318478887146e-02
-7.344277065968637941e-02
1.672283210301316325e-01
3.018296767043831749e-02
-7.496982426158887991e-02
1.392321210623141126e-01
-5.712283665937357702e-01
1.578972522168403392e-01
-6.330284975553809312e-01
-6.079866742086719074e-03
-2.572449602143120351e-02
-2.209114561865181126e-01
-1.244431014498467297e-01
-6.539296007578138115e-02
-3.404447071611328979e-01
-7.461117369167766245e-02
3.275347105979421747e-02
-1.160515166857492703e-01
-1.828060702226407819e-01
-1.421716075360931475e-01
-5.902602180772924950e-02
3.251251481551888367e-01
-5.689617796014712070e-02
1.567906897609393779e-01
-8.964945512147197704e-01
2.442108981945889309e-03
-1.263110523419578857e-01
5.533484955628809564e-03
-1.544477519712521285e-01
3.127828077365408244e-01
-6.768579117575550530e-01
2.969885616496324016e-02
2.401740911125081757e-01
2.114968806833338877e-01
-1.830085856833078839e-01
-1.000831056521696710e-01
-4.126347443160196526e-01
-8.784966393199002133e-02
-3.558427678093922242e-01
-3.341722456466794111e-01
-2.182523562413660467e-01
-5.378724221424374674e-01
-2.285697664292430931e-01
-7.192500691403207191e-02
-3.322224693687754193e-01
-2.070159747526845173e-02
1.375882376953146968e-01
-7.115923829999531991e-02
1.485783904218595380e-02
-7.358147572418639870e-02
-1.709553090450119661e-01
1.230778380028638430e-01
-8.838919616879657715e-02
1.695115317712224054e-02
-2.423978270566779780e-01
-2.852093893797765234e-01
1.548982918182382519e-02
-2.989104535400726737e-01
-7.973793913811688672e-02
1.068332286769712730e-01
-4.063570224705727318e-02
-1.024897527272504855e-01
3.529709125748346499e-01
-8.271695257491104743e-04
1.231616375840666883e-01
5.559528024339751781e-03
-1.899536937690649019e-02
8.804418440199657248e-02
-4.111325683171322687e-02
-1.058266469996619469e-01
1.483081210255683957e-01
1.809774022317055947e-02
-7.002624768412567258e-02
-1.877504018203054736e-01
-3.957929813263235674e-01
1.380460484187968212e-02
2.139232313130569330e-02
-2.030255713217515856e-01
-5.734911660230928437e-02
1.267700352970418942e-01
-1.095659707867384230e-01
-3.394567122756820404e-02
-8.567180131299929891e-02
-1.494484914732634728e-01
1.740089399693692807e-01
6.985687745166659079e-02
-1.810515212600716239e-01
-1.644619134469096564e-02
-2.660721541843665827e-01
-7.844354340831526107e-02
-3.250396758254199270e-01
-5.900332518221027694e-02
9.185184784861486016e-04
-8.518250102460349360e-02
-2.709428364673350242e-01
-1.205534890992788905e-01
-4.308565679087217326e-01
-3.148927252503411767e-01
-1.577014142277290698e-01
2.499936336795935410e-02
-7.284957721928017604e-02
7.081372032674882605e-03
-6.830395109251545527e-02
5.625129610719529355e-02
-1.771032665581926402e-01
-8.135586965631955159e-02
-4.339174084781266538e-02
-5.831612869948948723e-03
4.038311866783885623e-02
-1.269071845609574811e-01
-1.719723183732545235e-01
-1.470064672753811086e-01
-7.030495759398724953e-02
-1.979716999630594942e-01
-4.700565667636782963e-02
-1.278375600055567662e-01
-1.372753227068491400e-01
-7.941057798199696593e-02
-3.659309134220648657e-02
-4.127461708365905424e-01
-8.013482991004497458e-02
-8.022804804781516474e-02
-7.945192407744185170e-02
-1.728063710318196791e-02
1.385976073990921320e-01
-7.867333949006207611e-03
-4.272703529545844869e-01
-7.455091482311153317e-02
-1.844675096756943633e-01
-2.025097694963536310e-01
-6.121603849223657134e-02
-6.320989089768069835e-02
1.052618158711872004e-01
-3.804840824974761119e-03
-8.993811939239038100e-02
-1.954156713261603617e-01
-6.095181412678969679e-02
-4.638413079162657937e-02
3.774951379699582887e-02
-1.302276742571092938e-01
-4.388385600578069423e-02
1.468460485577731227e-02
-2.516756603492604355e-02
-4.084683641726918890e-02
4.236533087135753439e-02
-8.199922229235968862e-02
-7.732482067736448639e-02
9.077271320606074279e-02
-7.869435479610734085e-02
-7.311960975619710701e-02
4.918974281835505197e-02
1.759028117322882501e-01
-6.156833560758002283e-02
1.096217400636473466e-01
-9.945861003982137127e-02
-7.524923589790959155e-02
-1.795597819793238181e-01
1.152072893482656776e-02
-1.947092709382778897e-01
2.967233371807429659e-02
-1.482016517896810048e-01
-1.607650747434747895e-01
7.095200723570026236e-02
-7.442749503592899218e-02
-7.468821877378903351e-02
-1.757207266322202144e-01
3.172106843667335530e-02
9.887500184243566692e-02
-8.576884853384082741e-02
3.705608707827174469e-02
-6.958356064890836024e-02
-2.220755821632839633e-01
1.350555708127862756e-02
6.320541454316153107e-02
-7.303144159668989444e-02
-2.406392008253349646e-01
2.255861439628577547e-01
1.731707715983894780e-02
4.848953509641401594e-02
-9.086129624561152529e-02
-4.938944214469274258e-02
-2.076582954612020693e-01
9.304095668886377957e-02
7.872449880303596104e-02
-9.743532712022592857e-02
-8.235090537135393574e-02
-7.079216825587675288e-02
9.928066828413903422e-02
1.261345415898428371e-02
-3.675232676674707738e-02
1.007181111400022450e-01
4.272487356566784938e-02
-6.364201820876684568e-02
-6.968149106273462123e-02
-8.915773201306047280e-02
1.458837588172995081e-01
-2.158256736900641404e-01
-6.812721216925277101e-02
