-1.847320520810517841e-02
-1.985379931249025287e-01
1.820840732082214600e-02
-6.713429855549899461e-01
-5.270141292695416230e-02
-3.002851357476983285e-01
-3.536713052182612893e-01
1.146989777682705519e-01
-3.305922154185993445e-01
7.357655927983476341e-01
-6.251015633469348964e-01
-1.595661620740058961e-01
-5.750805441824094477e-02
-6.302653295829057090e-01
2.460675968371848765e-01
-4.856993311545939052e-01
-5.286456046559383504e-01
-3.987046405124957185e-03
-2.128217923934460354e-01
6.552160349554965180e-01
4.483312614409775132e-01
1.809076046098156698e-01
-6.052989368716279461e-01
-7.479893468627733799e-02
-2.159594710579942345e-01
-7.003232526885204701e-01
-7.408000217462927806e-01
3.337732213708531626e-02
-1.795315040683439278e+00
-5.048375140014324525e-02
-2.845452510779027389e-01
-8.599967852685920511e-02
-1.194833325798705902e-02
9.668130885500265670e-01
2.469498786881065833e-01
-3.409401062093910806e-01
-3.271761127661249047e-02
4.293543578028170826e-02
7.522589432291876266e-02
-6.925707673074768533e-02
-4.024245476341021810e-01
5.363577193771450202e-02
-4.040184001181361118e-01
-2.717330791014839486e-02
-5.983742547067733009e-01
2.336503055356238534e-01
-1.022832140341435048e-01
-1.046567044191073492e-01
3.666232566024729134e-01
2.368795720763687829e-01
7.358634558783455626e-01
2.364023538716084338e-01
-1.768386620043220503e-01
-2.316771669926959432e-01
-1.689538174003022974e-01
-1.591789045536796232e+00
-2.500718476937811019e-01
-2.526897655925104957e-01
3.298840227047470600e-03
-6.543947212428004034e-01
-8.765754207336361459e-01
8.530562677989192433e-02
-4.928660100175161207e-01
-5.817798782903320642e-01
-3.866533537899196071e-01
-2.656044858304236755e-01
1.853595386417212221e-01
-6.050021671692147329e-01
1.144574454061016988e+00
-1.598632765872448180e+00
-4.227160513383544371e-01
-2.956145398646095601e-01
-5.422202474756553370e-01
-3.113292958320159065e-01
1.268877226448466289e-01
1.644176192490690858e-01
-5.148488461051187182e-01
-1.320999092456062451e-01
5.765406802385178997e-01
4.807749681190461033e-02
4.446299893267782050e-02
-2.655686376343064925e-01
2.097082490546029743e-01
2.153275031784616100e-01
1.911590252960835290e-01
2.266369472832663323e-01
2.408444742709690556e-01
-1.799432521545065999e-01
-4.823473389688802682e-01
1.758443683106241523e-02
-6.458532963643728309e-01
-1.640850624668507007e-01
-1.103102128416247218e+00
-3.020399640255415075e-01
-2.720870352316922744e-02
-1.455605608955290731e-01
-1.990507482677237039e-01
5.008578302460739984e-01
2.011017662948347551e-01
5.600827519284853895e-02
2.158710412023946423e-01
2.432195383210880579e-01
-2.510564890540267768e-01
-6.912067474866055994e-01
8.484081522172594314e-02
-1.685186487727159954e-01
-3.125176238993185862e-01
-1.483200257993212423e-01
-2.435321158198215652e-01
4.208096655091779215e-01
-2.771366845694221981e-01
-2.849323109793801961e-02
2.509027063069105834e-01
-7.931999090996891821e-01
-2.670340372935575135e-01
-2.684906337499988194e-01
7.002500020815607407e-01
7.496304191078088930e-02
-2.384617379868996800e-01
2.054382705171015899e-01
-2.493456307377837078e-01
-3.450634458407567801e-02
2.222830128819874573e-01
-2.946910318024924952e-02
1.548950375650947620e-01
-3.480294956897996839e-01
-4.229986868928253263e-01
-5.469958896733582154e-01
-4.562765520780200090e-02
-1.191786215694301265e-01
-2.760017713525095284e-01
-8.704222694652649639e-02
-9.721617074768845734e-01
-2.145473441148797178e-01
1.888062664939359203e-02
8.093745107433959751e-02
4.874191243103231375e-01
-2.661471941291087412e-02
-5.443176754683246577e-01
-6.196347315172585635e-01
-7.146602932423794519e-01
-1.161659182359088688e-01
-1.042171495718319414e-02
-4.385248490523506737e-01
3.867031094881195202e-02
-4.490838111019867379e-02
-4.071892147476082191e-01
1.295219457607474089e-01
-2.232406661192757880e-01
-7.506238614624012317e-01
-2.573278688213934129e-01
-7.815335174322206313e-02
-2.606597070506498290e-02
-1.072894977580068493e-01
-8.776167731401236100e-03
-5.743533367576926230e-01
-4.881111446908250467e-03
1.885208767626785076e-01
2.995430176353240936e-01
-9.159882244871266066e-02
2.737383844875175276e-01
-6.079489964834028370e-01
-1.555023062193830186e-01
1.518468617811297716e-01
-5.990215317580701582e-01
1.015924993088091616e-02
-1.232514811226052553e-01
1.144497821960418354e-01
1.348326919479757996e-02
-2.703458928022505203e-01
-9.722882320042133819e-02
-8.874559529607088659e-02
2.062675251463839676e-01
-2.612811618442626993e-01
3.217401299703233075e-01
-3.954299390555786609e-01
6.004553352467016936e-01
-4.581636622075793142e-01
-3.621950833551258742e-02
-1.009276465949377789e-02
3.539431879176122564e-01
-9.865392865370803399e-01
-1.848788818236603848e-01
1.462940793633877301e-01
-2.469753882265951495e-02
-3.649765904924136967e-02
-9.935488947465161980e-01
2.181952291407393274e-01
-4.322375819073852599e-01
-6.455265097728651522e-03
3.095678146912444473e-01
-4.927271501198470238e-01
-8.759083673186893182e-02
-5.886806251031185822e-01
4.728363895560082630e-01
-5.287380145742385379e-02
7.820375589693204788e-01
-1.863842149336751020e-01
-9.426025337837766749e-01
-1.079068263041706721e-01
5.848393305271238490e-02
-1.881042825336828317e-01
1.738180671539574507e-01
-6.468183611416371270e-02
-3.491387518076748964e-01
-6.108210520298240631e-02
-5.503011126125879199e-02
3.572315958125891200e-01
-9.370236138938595749e-01
-3.062324974226703356e-01
4.899013907871520579e-01
-4.003219909863427461e-01
7.587673150657317511e-02
2.676383631835758115e-01
-5.121193200959284382e-03
-5.301790741229475135e-01
-4.872428493780640024e-01
-2.360578328324023367e-01
-1.448906288155435429e-01
-5.596445273705633050e-02
1.991833703814096801e-01
-1.865762287228373006e-01
-6.395237925470803608e-01
-2.286673633232992886e-01
-1.043082113373954706e-01
-3.655126395159498665e-01
-4.257396285182754037e-01
3.517490792130331667e-01
-3.213337112823631547e-01
-2.048189572028592254e-01
-5.358692349675647781e-01
-1.601836409319924992e-01
1.930371163672793822e-01
5.074386237156403717e-02
-5.394011764191468661e-01
-1.173749313897019864e+00
-1.522582328545012478e-02
3.714005196799485264e-01
4.491303900590896681e-01
9.990277961981286481e-01
-7.805814423653738565e-01
-2.389668869682285701e-01
-2.786818078261351639e-01
-1.467170992898821358e-01
9.112754281920502075e-01
-4.176464797235414361e-02
-1.880426922792301780e-01
1.162513335558978400e-01
-3.756585122719361958e-01
2.582870449828970627e-01
1.409191630191896361e-01
-4.172994661317095955e-01
-2.752473685062368780e-01
-3.227409341385677477e-01
-2.267116520981570793e-01
-1.328927633465457891e-01
2.538077578832749759e-01
-6.138851077247744481e-01
3.120447621780944036e-01
-5.108076179439862141e-01
-1.049929766343790982e+00
-2.493302638057037224e-01
1.287668110515734765e-01
-3.925524035023202907e-01
-3.251100132794366715e-01
1.065119126023780366e-01
-5.848243892841513691e-01
-2.079837825786068350e-01
1.646682775023866341e-01
-2.411251995171098117e-01
-2.930661907461146742e-01
-2.544031131664249434e-01
-4.182473240931033204e-02
-3.606251845743556061e-01
-5.500909321049438777e-02
-5.613812555518855885e-03
5.686161487826635330e-01
-1.468529553086431461e-01
-3.183325566235812309e-01
5.675154922431764615e-02
-1.418193468449984729e-01
1.093452205883768125e-01
-4.166869928682294111e-01
1.429800149562317491e-01
1.422231028842737555e-01
-6.447061032210381626e-01
2.773272432540305199e-01
-9.429314101512229485e-01
4.964564122341681707e-02
2.523502279532247039e-01
-3.542571350799210705e-01
4.867198666184703870e-01
2.538366898260165927e-01
-4.703064301235335143e-01
7.941622062689795980e-01
1.954340402993430259e-01
4.687190639604312259e-01
-3.657169112061444127e-01
-1.141283240713241443e-01
1.943982494769653235e-01
1.877610679983057473e-01
1.826097693780139586e-01
1.651007198121769992e-01
-1.096696629154932240e-01
1.539039487795789696e-01
1.951490580725936674e-01
2.203317578921975550e-01
-1.885826270560433254e-02
-1.164370842047224158e-01
1.912062982996357574e-01
-1.860917449501163501e-01
3.295365052829652974e-01
-4.615273765185091970e-03
-8.828339827777512139e-02
-2.439129160397784934e-01
-9.127911319038364280e-01
-8.215185047615665426e-02
1.111504061049143344e-01
4.640074003802734937e-01
-3.037338994771199840e-01
4.317929649298037076e-02
5.361628401537625876e-01
-2.949552230122966523e-01
-6.677162010464511577e-02
-1.137240447707087848e-01
4.472981665684523933e-01
-5.088795578298381805e-01
4.932173802609630120e-01
-2.394325224604600955e-01
-3.637498499575512190e-01
-1.031856529082651047e-01
3.199539787973718630e-01
2.670308616334155505e-01
1.834631659294236605e-01
8.944291864777258183e-02
-3.420849301116905550e-01
-1.798253328250153105e-01
-3.102773165897423219e-02
1.053839381560994770e-01
-4.361926974600465190e-01
4.899638628228850656e-01
-4.895365240934012041e-01
-5.980721209952474283e-03
3.955934008355631581e-01
3.301037776516516642e-01
-5.186612022321962501e-01
-1.287022945908704308e-01
-8.383954390456854755e-01
-1.772569479853925573e-02
7.382158082042395986e-01
-7.421723472400479360e-02
-4.415269380841068680e-01
-5.440357068263412810e-01
1.509520887342556683e-01
8.527671172834329072e-01
-5.441050685643319396e-01
3.186550269722594753e-02
-3.194931333525045658e-01
-1.017138173829916364e-01
-3.924798263536595222e-01
-5.359355430621383087e-01
9.658250615483514323e-02
-2.361407907002791295e-01
4.523288886476389270e-01
9.967443274015874710e-02
1.115107484006012117e-01
-1.048876620029090267e-01
-1.931270834354374966e-01
-2.008632688557017987e-01
-2.955420163170494746e-02
9.546908098831691225e-02
-3.337213119796978572e-02
-3.754417755232323239e-01
-3.106308502243533276e-01
5.263705779143410673e-02
-2.319027682010485203e-01
-8.863963839560233815e-01
-5.688099418014980202e-01
-1.814857355466768796e-01
-5.833832605165311103e-01
-1.322224809983207350e-01
-1.191902508545045425e+00
-1.097425929625685387e-01
-2.274856490228407135e-01
-2.364239430653114205e-01
-4.740705855726683876e-02
2.483704084235807685e-02
-2.343859533564845721e-01
-5.690858622345552620e-01
2.914777950887352809e-01
3.114101070068277521e-01
8.508873749259346364e-02
-3.077709990178460475e-01
-3.136748556022174172e-01
-2.837621980842226499e-01
-3.899732624592668895e-01
1.649578358736919215e-01
-4.386906944077922366e-01
-9.224156206956671822e-01
7.425164433405150033e-02
1.197641356645391120e-01
1.199145688090555856e-01
5.506446003785007148e-01
-1.700795490260877951e-01
-9.740088263733565066e-01
-3.299949405246041523e-01
-2.544679355045285085e-01
-7.337306084094699088e-01
-2.258960472330227287e-01
-9.087493021728200449e-02
-9.193176554309741288e-02
7.930232491529206826e-03
-4.839681102199789864e-01
-6.481525510277968971e-01
-2.325782372236887552e-01
-3.747325953171404267e-01
1.337498901431847242e-01
7.214045874314498064e-02
-2.326919781187087033e-01
-4.753647761923625037e-01
-6.688926147657981991e-01
-1.621865036562234186e-01
2.174584336456601430e-01
-2.730683022613314970e-01
-1.291422247921313327e-01
-4.322718654823715645e-01
-3.918745405877361310e-01
-4.810565374492835611e-01
2.752429980287340316e-01
4.343854432325582327e-01
-1.562188136791046178e-01
-5.533148608741646213e-02
-4.764639425331621547e-01
-1.267769015814187716e-01
3.797429039328818479e-01
-2.171679689910936406e-01
-4.641287036838092073e-01
1.219567934262842240e-01
-9.258487295042559795e-02
8.496257987481766610e-03
-2.036900592024755430e-01
6.367370582292664061e-02
1.693544557824277763e-01
-3.291918706057849614e-02
9.984484455293363148e-02
1.030582236335368940e-01
-7.376082734879503278e-01
-2.019801376851868557e-01
6.503842473708214555e-01
-3.247733440091610246e-01
-1.114120491677221964e-01
7.227169601912000196e-01
-2.742353264551338210e-01
-5.965408823306557196e-01
-4.048374736584534617e-01
3.367060493355936712e-01
-3.551268046280621205e-01
5.327328768772972289e-02
1.659626040892842325e-01
1.192289204261337138e-01
3.967965838116965793e-01
1.218923838955092709e-01
-1.276471308295877294e-01
-5.454771062755091604e-01
-5.149305867743537712e-01
-2.258964663837682019e-01
1.205849180004251731e-01
-3.471057925484371531e-01
1.886119851825873162e-01
-2.195263489574300897e-01
8.047674745888040437e-01
-1.528837328352934122e-01
3.314336579613728628e-01
3.471303131522666674e-01
6.655337454102888683e-01
1.630256516339614326e-01
-2.292981640465971693e-01
-9.075627016529541624e-02
-6.017744942156367793e-01
-3.810439006769836823e-01
7.314085932268362678e-01
2.511090481739272628e-01
-4.647849914820506023e-01
-4.870555146145426617e-01
-1.179093136898323874e-01
-4.567259243731481844e-01
-4.752197242724680581e-01
6.728951768838431491e-02
-9.939781705953473212e-01
-4.499998717713675767e-01
-3.767318935893763099e-01
2.519194973029656448e-01
2.115480406759913715e-04
-5.572928148772836598e-01
1.548670889519401794e-01
-6.224281075868936391e-02
-4.208287386318589340e-01
2.691399828309447573e-01
-3.363365328236217477e-02
-2.657476686601071766e-02
-2.300068062452619300e-01
1.542463466350738333e-01
2.954289912708408794e-01
4.551125056911786704e-01
-4.681502566100330665e-01
2.267224736143274022e-01
6.392236270889181671e-02
-1.162562918368029684e-02
-6.139467257015975843e-01
-1.752620223514930742e-01
1.516795233580659485e-01
5.816224968200182088e-01
-1.411932977462176941e+00
-1.763128933138527199e-01
2.387148691578241388e-01
-3.525438384084659815e-01
1.707143263832835711e-01
1.654324454408471687e-02
-3.147217688366893765e-03
3.923955860066117851e-01
4.538716242801443257e-01
-1.304328296347320448e-01
-1.288904222939879718e+00
3.522790687908983198e-01
2.229215958735711323e-01
8.651371342942819342e-02
-9.139225037238815075e-01
1.735314243677108792e-01
-2.865878342659536338e-02
-7.319589351602001637e-01
-4.759965183678963735e-02
-1.352808307661275133e-01
2.018530127621253056e-01
3.598563853042290872e-01
5.650386322509186598e-01
4.103577252931983055e-01
7.335198167482787079e-02
-2.256972702064633240e-01
-8.150348944203646140e-02
-2.167334734810367758e-01
6.994317444308689735e-02
2.310778979092442675e-01
-5.672999441002042620e-02
-2.644037742824055792e-01
1.063499442140644485e-01
-2.503730692220550447e-01
-9.638321666138302546e-02
2.539053109894897318e-03
-3.339103747917693821e-01
-9.027003927391034910e-02
1.132503197203423156e-01
-1.369415632622634771e-01
1.052066759468800045e-01
-3.894341804649384398e-01
-2.160365666978916743e-01
-3.563421023091921658e-01
-6.205251818574011313e-01
3.535572838464409728e-01
-3.004664512983993840e-01
-2.167512951084759609e-01
-1.952447796917667622e-01
3.336538704434039437e-01
3.510372869311007005e-01
1.746583881450199383e-01
-9.088971049364984178e-02
-3.387931893710159903e-01
8.573079839429449678e-02
-1.395673238212968625e+00
2.469384424976281411e-01
-6.406464457237092125e-01
-2.364660496617646546e-01
-1.585406281214528368e-01
-3.572434198222980417e-02
-1.736290504345128771e-01
-1.056338146601037142e-01
-4.613505482947760639e-01
-6.685430166210876157e-01
-2.613951996156447799e-01
-2.182796279718950128e-01
7.258840490047137051e-01
-4.115186680831636745e-01
1.504522185315547989e-01
8.345181389115833431e-03
-2.517422472942528744e-01
7.561539636040903734e-01
-2.175489295197704509e-01
2.521397524961783709e-01
2.196701218175188541e-01
-4.914004606052438939e-01
1.413102215236980430e-01
-3.145511958007962683e-01
-3.224376660418366014e-01
-1.470065912493434268e-01
-1.613830517219699279e-01
1.070210119947158506e-01
-2.244173302921870783e-01
1.576984101077837930e-01
9.096621828934434162e-02
-6.876131518744342530e-02
6.642904712996121341e-02
-4.882998193678712157e-02
-4.227769178242429260e-01
-2.073157828996229357e-01
8.402386595995615937e-02
-3.775381343747056806e-01
1.323803245984588872e-01
2.702127910786402132e-01
-3.325076333140365992e-01
2.856887391986221436e-01
1.685184904543457207e-01
4.422843770331847391e-01
-4.043583241915602589e-01
-1.907289821447868960e-01
5.659440604690140209e-01
-2.444570659225041853e-01
6.829300591299011791e-02
-2.577238683537537156e-01
1.364380853591971587e-01
2.233983100794742771e-01
1.707248760723445447e-01
5.379689840391924105e-02
-2.959575689294619560e-01
-3.753193825052189569e-01
-5.360417735212658769e-02
-3.125569327933079566e-02
-4.039049171880104705e-01
-4.042734768643602150e-01
-1.980928500778363632e-01
9.530674484828072224e-02
1.845930481382086763e-02
-4.451514917165689811e-01
2.088490456806337270e-01
-1.744937841322142524e-01
8.729879077559306033e-01
-5.181472885734512701e-01
-3.974330092665995240e-01
-3.007080403636122057e-01
6.976166608793742119e-02
-2.036931672064637988e-01
-8.877964741463153370e-03
-2.516044457173222670e-01
4.176154264085465972e-01
4.972400481516047743e-01
-5.891874496998247279e-01
-1.239672840582374189e-02
6.155241652107910078e-01
2.651421086390373660e-01
-2.918219882587648195e-01
-3.336060275953997567e-02
3.691740671427278797e-01
-1.127457670105783960e-01
7.900228326839256465e-02
5.198776027992697557e-01
1.796242950793137394e-01
-1.472772404265954294e-01
3.026185759448053458e-01
6.318071054459269975e-01
-1.953336983121358172e-01
-4.987773144852210572e-01
1.601325666925357827e-01
2.550268908579966243e-01
-1.408020552302551298e-01
-4.387073650324405660e-01
-1.757720756655862526e-01
1.041680519494201651e-01
-1.397647272917867112e-01
2.649157865069832196e-01
3.084556235767617061e-01
-8.095077717929170802e-02
-4.188815750765353257e-02
-6.291408233947685114e-01
1.345890415522569272e-01
2.687289217537197628e-01
6.411815860916053600e-01
-8.255449201438370688e-01
-8.759435707831525475e-01
2.792293757298094925e-01
4.544665429024934977e-01
-4.581337841432872593e-02
2.214807938441797630e-01
1.769571440095571713e-01
7.234362526581306074e-02
3.271937317157049829e-01
-2.517348912566447772e-01
-1.416947835492471108e-01
-6.635719555817189141e-02
1.301923587117158054e-01
-5.950012852007282582e-01
-3.845843250055330231e-01
3.193008262055123669e-01
-4.251483686528677586e-01
1.969113551506239401e-01
-3.147566332387757848e-02
2.277921510356575030e-01
-1.176463945151900448e-01
-5.721286183721618901e-01
7.276366565705553180e-01
-4.833576577117233708e-02
5.094257107246639299e-02
1.582965282748959868e-01
-2.511575593279578578e-01
1.032015213702931478e-01
1.412200903493872339e-01
-1.358690137793681051e-02
-8.963175026660470390e-01
-5.089676144716563932e-01
-1.678825376948632486e-01
4.185508817457139208e-01
-1.557475924889184793e-01
1.386382341456111542e-02
-5.689169495184084185e-02
-5.865341456900121653e-01
6.829585117255999593e-01
-3.610116930012098879e-01
-8.538258193793127337e-02
-3.638621212349938405e-01
-2.191187671840436335e-01
-5.843024825033737990e-02
-8.961767759169273484e-01
1.747617163980920429e-01
2.557793894539324708e-01
7.922319138239508618e-01
-3.686804641033495367e-01
-3.654807280888356380e-01
-4.006743835654434649e-02
-2.341156808631022004e-02
-1.798723064774162550e-01
-1.301892203161764128e-02
4.685060636983313653e-01
2.051162201097618196e-03
-3.883928568841936158e-01
1.234477142320178772e-01
-1.324416836481006055e-01
4.748004604068697398e-01
-1.459786806805434822e-01
1.896452037644644206e-01
6.816122771282439041e-01
-1.833895763773826237e-01
4.011754885400724280e-02
2.521584872955873191e-01
3.159324139919980068e-01
1.568209634732168345e-01
-2.061055488362227850e-01
5.240248968628854476e-01
-2.533169197726545807e-01
-5.027516315641351596e-01
-3.713733027295305078e-01
-1.576553274890081791e-01
3.069705212064708852e-02
-9.548399563925744071e-02
-4.652535966908518672e-01
-2.401603181486138827e-01
-1.472540982190632675e-01
-2.796475144542248659e-01
-3.057837475822263729e-01
-3.272654965011537187e-02
5.590247023924647118e-01
6.085584273320097104e-01
-6.698885796982259055e-01
-2.499114939962570614e-01
-2.242442046268073308e-01
-9.917891461204843273e-02
1.295046731109369686e-01
6.102867580382341783e-01
3.091531544332855319e-02
-5.897800208597347993e-01
-1.106228706020415294e-02
-1.026842286490802919e-01
-3.119970906357214524e-01
2.489755579906635305e-02
1.177630546391326971e-01
1.077674098600117369e-01
-3.846627548987845979e-01
4.266772145550681156e-02
1.719755910082877426e-01
-5.345338475597576355e-01
-2.484822009764058592e-01
6.741902897913286674e-01
-3.108024336708130053e-01
-3.165314439498192467e-01
-1.056621170461657933e-01
-7.159371047932100440e-01
-4.557870754774629996e-01
2.389493610734938212e-01
-5.715982204097824759e-01
-2.643361544939960561e-01
-2.112434887492667945e-01
2.769570308871773801e-01
-4.965609841494963289e-02
7.835178021473236665e-02
-3.056829717845138683e-01
3.537017057390699493e-01
-7.575094083218935070e-01
-3.504355178009176813e-02
-3.591795887019695321e-01
-4.207002184178686155e-02
-8.900131179186573926e-02
-4.116891561312234216e-01
1.294545324719821866e-01
-2.494974971494398619e-01
9.666932694824936778e-01
7.870985790920163871e-02
6.917180326245911393e-02
-7.639449471576851280e-01
9.178746960191736665e-03
9.494281777872793926e-01
1.249075945657281084e+00
-2.230808177904475553e-01
-1.347690082566616876e-01
-3.985128172836744920e-01
2.614961331589235050e-01
-2.739762363128785405e-01
5.297959692771625484e-01
-4.313188619372563398e-02
-9.181954467695624400e-01
6.873838838348320657e-01
2.854258104112138983e-01
5.404829574781250257e-02
-9.310540989873237194e-01
9.743302139636273373e-04
-7.412032283101205321e-02
-1.082548283991768834e-02
5.487478333176321055e-01
2.547959161796829047e-02
-2.509731210931728795e-01
2.735850960012580213e-01
1.960624935063225716e-01
-3.058716542174840236e-01
-2.166287180813994406e-01
4.226452134326015297e-01
-5.735730709833403163e-01
3.038921031082825186e-01
5.048609146714077428e-02
-3.280717731807133442e-01
-4.841391934447180079e-01
3.045373287106368232e-01
-5.211987434946290243e-01
7.653472772303144822e-01
-3.977336856732053838e-01
3.037678355607409952e-01
9.754296498975703611e-02
2.825169183519934697e-03
-1.007930542367323073e-01
-1.063024544910951441e+00
-1.245558657288288740e-01
-4.277679884571559121e-01
-3.798560849761687397e-01
-1.648206773741547060e-01
-4.383076185069913477e-01
-1.069334998239870743e-01
-1.928364092449064982e-01
3.140061955453953835e-01
-1.871539110345070145e-01
-5.531023207506424733e-01
-1.923018679455839319e-01
-1.013871083472948353e-01
6.220217142936145666e-02
7.591074274881040584e-02
-4.258830588259195915e-01
-2.746015838188745062e-01
1.251653112440803961e-01
6.875362067643474295e-02
-8.802815424326621008e-02
-1.677153199214238555e-01
3.297854841545022619e-01
1.475928022780985047e-02
-4.916682807059050697e-01
-8.716654203589836725e-02
-9.227647651998761857e-02
2.413161424886953177e-01
9.693030341237302006e-02
-1.823404549665791075e-01
-1.094527439916402334e-01
-7.302550738720145485e-02
-1.650893522513380285e-01
-1.900687980098611507e-01
4.016667191335658305e-01
-1.128401287102258621e-01
-3.922064089010082744e-02
-4.156391465914115457e-01
8.971974719620201544e-02
5.051591927820487937e-01
-3.303862852341049039e-01
-4.935472111910083060e-02
6.048841992715694449e-01
4.877547289935380559e-01
1.432444594910367575e-01
-4.662332326459044940e-01
1.294247535701130991e-01
-1.078376818583387867e-02
6.616124150827454309e-02
2.018706214281474898e-01
3.875339310921047109e-01
2.876342385657759682e-01
-4.666823048408984542e-01
-1.532282140995060438e-01
-7.778534982845636270e-01
5.476714383994930602e-01
-5.886429586632165867e-01
-1.091383443573341328e-01
1.416736658322197695e-01
-4.766643854482169318e-02
1.092602351123961868e-01
-3.971168034186519091e-01
6.320662071558222350e-02
2.518465210470195448e-01
-4.221141945811832802e-02
2.513376392059961106e-01
-4.881494860566569227e-01
-7.018569756285279737e-02
-1.681340085960683350e-01
5.159693051788016155e-02
-2.872408871171561184e-01
-3.719837462372088677e-01
4.532141443549304871e-02
2.196129997615024476e-01
-9.100393563347004555e-01
-3.696260089917297598e-01
4.664737295541031559e-01
2.012687420306357999e-01
4.497350826171209182e-01
2.985577854501106909e-01
9.317614886301896562e-03
2.046529221466417969e-01
3.310586690683429700e-01
1.727744951581208777e-01
1.938387856743842286e-01
-4.537813233474852215e-02
-6.630179943847562818e-01
3.832618260856576753e-01
2.170438057822658973e-01
4.037068591396661410e-01
3.249230878716426185e-02
2.307718770524221086e-01
-1.522024351845258361e-01
5.194633116068475553e-02
7.160302533654542279e-01
-4.480599654793799846e-01
-3.974959081298644059e-01
1.471602417117549300e-01
1.080177646425173887e-01
1.378862290412585789e-01
1.374059267857102862e-01
