-9.070612301314127934e-02
-6.860448694327285490e-02
-1.497311564515987903e-01
7.738049298631442807e-02
1.997563244777799119e-01
1.584394652465894171e-01
3.139704290549373555e-02
1.234626899528075278e-01
-4.678801442976729952e-01
-3.423814348320591838e-01
-4.090442558274181017e-01
1.812459486115398366e-01
4.459974106153372642e-01
2.182583262755184161e-01
-5.851216046276872529e-01
-1.481320788482271000e-01
1.715683970085846721e-01
-7.395953020487496810e-01
2.400251805015434226e-01
-6.033597185380498162e-01
3.473595678458050173e-01
-2.861310362148907216e-01
-3.184405235246859922e-01
2.555459407355781254e-02
-2.342094196604396217e-01
2.846220438058039703e-01
-9.233371865948957202e-01
-4.931379322274559440e-01
9.572472677230521587e-02
-1.126899532394768505e-01
-1.166335992983635883e-01
4.790327109148257434e-01
-3.431817929121242505e-01
1.106975840529543509e-01
2.177148530989941044e-01
-1.762201889250663900e+00
3.003012380606848719e-01
-4.613840484454712759e-02
2.492968462504420446e-01
2.820570994259093967e-01
1.712415738900035719e-02
-6.557755968409799685e-01
4.119628982368787051e-01
-5.362181345846912528e-01
6.366074287270193643e-01
3.579848882096833274e-01
1.291545496197835270e-02
-6.715128135112037773e-03
4.335765910316070892e-02
-2.294196166119529257e-01
5.115548707880728241e-01
9.801342774218084475e-02
1.580496346536970353e-01
-4.817432864844985174e-02
1.538625570462422154e-01
-1.007051148805183927e-01
2.836780056633363412e-01
-5.704357335793284189e-01
-3.887037580141867732e-01
2.346029156844361141e-01
2.404077737153069161e-01
-5.140125590581080296e-03
-4.397125403924381781e-01
6.242690050292695053e-02
-1.678867113669654798e-01
-2.442991710332142741e-01
-1.478683552449042982e-01
-4.961383516084888479e-01
-6.127158168680935102e-01
5.645620195665397301e-01
-4.989387208030542364e-01
3.078364468967683676e-01
-1.605995876614197959e-01
1.143213744437926865e-01
-6.504174081698206600e-02
-2.552959822709048865e-01
-1.105485720235644675e-01
-5.074733370443841075e-03
-2.047632344093417434e-01
-2.441213551775233415e-01
3.568279788918090611e-01
2.791254743134335276e-03
1.594137133188105737e-01
-2.927913765567146109e-01
-1.458799424403989589e-02
-5.074918008571938088e-01
-8.060930724660736457e-02
-3.947674841096162623e-01
-9.162707386084281702e-02
2.152697419557951866e-02
8.680680521443143172e-02
-1.300031837521845868e-01
-8.727043295004631440e-02
3.672734778160711144e-01
-1.486981386166928154e-01
-5.929642683902406342e-01
-4.103995114393880206e-01
1.161503340459328071e-01
-3.784492036605559273e-02
1.984202210153543922e-01
-7.379487785485944196e-01
1.166613451095084852e-01
-3.065251845782286377e-01
4.165520435551649525e-01
-1.887711182160040635e-01
-8.203525823037549625e-01
-6.217755004983305245e-01
-4.260174144793236195e-01
-6.177304683792320672e-01
-1.637468679116818038e-01
-5.976864096851950414e-01
-5.549455518716320812e-01
-1.868929028281012539e-01
-1.763227190371661757e-01
-7.210005076490311714e-04
-5.421017593497763354e-01
5.193163791484372016e-01
4.934840611292573009e-01
-8.487089020553045815e-02
-1.542133467782702029e-02
-5.670742970855621179e-01
-4.736701448169355344e-01
-8.692091431509184341e-02
4.998179197882067215e-01
-1.283581815576023466e+00
4.606797317191985847e-02
-2.078315870697846901e-01
-1.511458832354425075e-01
2.343624129698025360e-01
1.830855699672394310e-01
1.615086414490082556e-01
3.786244821726680865e-01
-5.083564657712922458e-02
1.119452589284933852e-01
-7.610619589776145277e-01
4.043798087445970579e-01
-2.281588238158992199e-01
1.178354486229188647e-01
5.765852017937287410e-01
4.109669849406312192e-01
-7.352956507327830515e-02
-9.673066800123523989e-02
-4.346424706466488486e-01
-1.094368337948558624e-02
-2.968720610758353584e-01
-2.732476089126582575e-01
1.389344829362245404e-01
-6.064941263421692597e-01
-3.740760376956049800e-03
-2.669342589872868432e-01
-1.538186861511150749e-01
1.567620956277099298e-01
-6.696055533681355421e-01
-2.021316741975575926e-01
2.811466890426906340e-01
2.051449964234129397e-01
-8.334345418289183793e-02
-3.858509722442063916e-01
7.142032429218998502e-01
9.868228377817463148e-02
4.478880076154628798e-01
-4.171181759379380405e-01
-9.217489223903123363e-02
1.300338586140109554e-01
-2.802510615676971351e-01
-1.205562131766899359e-01
6.416295209932071364e-02
-8.352211848100259406e-01
1.967982072656581372e-01
-1.480439594749590193e-01
-1.069210218496084996e-01
-3.623167747334542499e-01
-4.421196876216059585e-02
-1.838756479769002028e-01
-1.271774913771235027e-01
-5.127420746100087579e-01
-3.465251603130455882e-01
3.836899081258450528e-02
2.058721202506974268e-01
-3.511797606831765228e-01
1.431443575731487228e-01
-1.749213518201757633e-01
-2.884938903377682329e-01
-4.531181963816669489e-01
1.635659546495717986e-01
3.762995052332409052e-01
3.856298733601210005e-02
6.813495148479992158e-01
2.333062472446404412e-01
-1.914650068325879362e-01
3.866401256466561742e-02
1.587387555552215168e-01
-5.952559030258041117e-01
-2.596700828036240805e-01
2.004651214323056353e-03
-1.823884463585618426e-02
5.903244905820712596e-01
-1.091438424120626804e-01
4.821479614310046451e-03
-9.272350747081757882e-01
1.538197490787536759e-01
1.933404724814226094e-01
2.993499122338431212e-02
6.438515562811145121e-02
3.891313247854319424e-02
8.307989074887148218e-02
-1.176415780414164780e-01
6.322145483375384289e-01
-4.655258524845387047e-01
2.070307014401588652e-01
-7.084540676564585193e-02
-9.225019500870838829e-02
9.052678429690895479e-02
1.942560685470460721e-02
7.861917513550854553e-01
4.000193925856795896e-01
-2.767754754542937623e-01
-4.045969706993411963e-01
-1.248826722081863433e-01
5.081656948987160749e-02
7.472046902825675296e-01
4.038472755350068499e-02
1.033870512020813037e-01
4.116146545894190933e-01
-1.002596285561056701e-03
-1.167501646638145901e-01
1.546553281850962004e-02
1.349066167406003380e-01
-2.137041417465306362e-02
-3.269685595711336462e-02
-5.428787200340646768e-01
-3.269813127644464745e-01
-9.959464235425370682e-02
1.203251665527256820e-01
6.926590706813254674e-04
5.674535956213867284e-03
-3.126503575066025276e-01
9.975546991478087544e-02
-4.780448897466846314e-02
-2.209796089429644228e-01
-4.919068667918190252e-02
3.508564035927275171e-02
-6.830614645789596651e-01
3.792943114975634300e-01
5.481193071524263077e-02
-1.925874389164809464e-01
4.172055828030444280e-01
-5.859363171583019669e-01
-1.617095683937655737e-01
7.221094107066890200e-02
-4.024376678424954612e-01
-6.338719020091270195e-01
5.149609290993732019e-02
-1.106918177313515328e-01
3.948874642981521355e-01
-1.776059379090190460e-01
-6.950832243968316781e-01
1.659214055573536850e-01
2.911643354091376645e-01
-5.776287728625241202e-01
-9.833800329529102102e-01
-1.946661906396300046e-01
-1.279527955057669253e+00
-2.828222642544300225e-01
1.883906873334532939e-01
3.673046981390400423e-01
-5.657468830874518018e-01
7.001805400448196659e-01
1.582306858703370206e-02
-5.893786854507401252e-01
-1.723651144257743462e-01
5.671002914544492901e-01
-8.802947903739541391e-02
1.501586917575443159e-01
-1.921570730730378374e-01
3.790773109566341614e-01
-2.387334532462204728e-01
5.242164647280457279e-01
-1.574111895063119715e-01
-3.777829014399831653e-01
-2.982840284203609471e-01
2.552464013383117999e-02
7.584757639636230397e-02
-5.829903629789479069e-01
-1.030536827913838549e-01
1.850702506221740123e-02
2.056320551223632664e-01
-4.674106097676984477e-03
3.709637015699487339e-01
-4.329712603035261176e-01
-4.565859376894338406e-01
7.196990794551173520e-01
2.736112248244057521e-01
3.461859341148180724e-01
4.834841810688829400e-02
-2.865978562419738696e-01
-4.402903357596850142e-01
-5.876217657040447989e-02
-1.567309041999089825e-01
-2.359285609623787069e-02
-9.097318634152225247e-02
4.155820919729891205e-01
-4.579764334051823482e-01
-1.300819597103473058e-01
4.008978503855898934e-01
-6.491374184579399298e-01
2.401647636205562208e-01
-5.777451708726329960e-01
-4.853504253578503902e-01
3.196411352698648733e-01
-4.766169800667145462e-01
-4.911245744487700571e-01
-3.107768710348385310e-01
-2.526616724521116297e-01
7.470905099768845870e-02
7.008148963943456877e-01
-2.193030374948389816e-01
-2.119950225593685844e-01
6.774945368424061254e-01
-4.465954809658452263e-01
4.759526310467878524e-02
1.894431100827425052e-01
4.559202076680821669e-01
-5.461164617506574226e-01
-4.175458454601860964e-02
-2.394588854856107285e-01
1.036649075972607692e-01
7.946209386003427744e-01
-1.850425426357394931e-01
-4.491183407581270659e-01
1.069786113476808298e-01
9.405738025585852480e-02
-5.004371601602835423e-02
1.910812066175700819e-01
-1.309733769243866079e-02
-3.464066213540743511e-01
1.673599338666139635e-01
2.175654725300883441e-01
5.214391513442716564e-01
1.894501788766060624e-01
-5.106735171403033874e-02
-8.983118573597256504e-03
-3.246420918721927285e-01
-1.005776839642932297e-01
-8.044224707605836244e-02
-2.897873364420520681e-01
-2.528966882736034538e-01
5.672717014509783828e-01
-1.853827955589235910e-01
6.649457026327956211e-01
-2.001453844021629513e-01
-2.735871431053911174e-01
1.803920846421418894e-02
-5.456231296882881887e-01
5.997513968439364129e-01
-9.281224365417842931e-03
7.691943926566295886e-01
-4.783558294501581015e-02
-1.227162179814896142e-01
-1.822246816333056296e-01
2.032140299594105970e-01
6.488055096899286722e-01
-2.085015131930224030e-01
1.314565258458607888e-01
-1.877323426779794417e-03
-3.068177905318854592e-01
-3.292882129927712787e-01
7.720967507342593183e-01
2.834108628754247183e-01
-1.691224337177990034e-01
7.298277560265893360e-01
2.400316879679806892e-01
1.169916214744588442e-02
2.873707744516572071e-01
1.707967541338305251e-01
-6.802385467809989317e-01
6.666264776711111617e-02
-5.421400395719715437e-01
-2.872842243927481998e-01
-4.101303015328606194e-01
1.955573487016707135e-01
2.806208178539968956e-01
6.325847371657814522e-01
1.004990470237133587e-01
-9.233767481188578929e-02
2.677401580952371574e-01
1.375026073714627484e-01
-1.394805891683194299e-01
2.049395042456882698e-01
-1.206164036687157048e-01
2.991319076470541627e-01
-1.338699349066040101e-01
-1.454906871668656954e-01
-1.168059141525242262e-01
-5.395881511603674019e-01
4.427705088606916084e-02
-6.538736959950760541e-01
8.767992432805216119e-02
4.645091468192501516e-01
1.569833127896758107e-01
-2.342731047283410084e-01
1.156258366812877025e-01
-1.662359147430865658e+00
2.920746081806218850e-02
-2.670831152095627936e-01
-2.730407483252356715e-01
-2.756905846611409361e-01
-2.172960203349824648e-01
-5.493547950357920151e-02
2.323830647198462385e-01
2.112443921994844875e-01
-4.637472201819023421e-01
-1.325851681837056373e-01
-2.872330737750728447e-01
-2.627814320384116650e-02
1.788831978397933675e-01
-8.027621802351536662e-02
-6.031882580951992701e-01
1.771778649791807547e-01
2.764587400532056427e-01
4.672024308440989732e-02
-3.078544387187705511e-01
4.820152867936712271e-01
1.084716247172586190e+00
-6.766214402107130210e-01
-2.208107627602449441e-01
1.586859286351373077e-01
-1.550578553306091178e-01
-2.401855647942659489e-01
-1.826162872184492747e-01
-1.944346883885154642e-01
1.561265556376038588e-01
-3.076803657773563017e-01
2.843044136269491373e-01
-1.947381635634226615e-01
4.822412845664721948e-01
-6.698183849275454738e-02
-4.153071778840474737e-01
4.987352697806022306e-01
-1.568194667018013799e+00
-7.393179101645364071e-02
1.785081609410232167e-02
2.257472101616864735e-01
-6.049505554209709812e-01
-1.165864951658379493e-02
-5.354267495009731315e-01
-3.959472452982290558e-01
-8.976901598104882751e-01
-3.414885614892370636e-01
2.780295815123149938e-01
-2.358421854852143229e-01
1.738917293610267589e-02
-2.781422311056550578e-01
3.872124253440444863e-01
-2.384926323296258088e-01
-1.883236524470054962e-01
3.693526119549960240e-01
-1.126902939250019747e-01
-3.267609040925831820e-01
-4.716930040023363246e-01
-9.343369369054806139e-02
1.650104888643383616e-01
-1.847160891348783585e-01
8.222854770254630630e-01
-5.327255739700310633e-01
-6.248923239739058166e-01
-6.907584958249800289e-02
1.600494087140572619e-01
4.277925516180776655e-01
3.962590805530213367e-01
-1.418824232814731301e-01
-2.840550831026155132e-01
9.403279594127589291e-02
-6.270453130167669142e-02
-2.839408130805485819e-01
-6.492119859212445998e-02
-3.582146336590102398e-01
2.048554425737226792e-01
-2.730659057418099445e-01
-7.809301930379777823e-02
-7.915205117488918751e-02
6.640000530161346837e-02
-6.013785479363233932e-01
1.039198305863970467e-02
-8.347282159100559706e-01
4.449362844895265456e-01
-6.820136556643048298e-01
-6.735268940031681195e-01
-3.270955454540048352e-02
3.372914000948863955e-01
9.119970069056034800e-01
-2.875432000317145187e-01
-5.267050004074926850e-01
-6.639212037260855404e-01
-9.203528624469210773e-02
-6.625274419522429736e-02
-2.337570585745103457e-01
-7.341712999483412938e-02
1.901259184541385372e-01
5.504237238801296117e-02
-3.931607972156889730e-01
-4.371102419206163159e-02
-6.250752920891938791e-02
1.218911116467389810e+00
-1.739890414549696146e-02
-7.289662096155231918e-02
3.839425290684799763e-01
-4.412936750739904768e-01
2.757613957289202222e-01
6.661670340914869204e-01
-1.738108786323507293e-01
6.263079897174694821e-01
1.227304059864114949e-01
-8.329966574169569427e-01
1.563432444933856857e-01
-3.199664290458850147e-01
-2.691805997097089231e-01
2.309441074341593014e-01
-1.892282716247923879e-01
-5.885439319887224574e-01
-5.868924103982006008e-02
7.799251126635208253e-01
-9.214485085552050203e-02
5.319294590234159292e-01
5.114224516185857800e-02
6.088062410594997226e-02
2.008223318742415053e-01
-1.494451523838273010e-01
-1.895319269134870810e-01
-4.297094528404542535e-01
-3.481136925559208395e-01
2.074088679560459267e-02
9.622121574646147479e-02
-3.195002899233333471e-01
-8.970867061124813135e-01
7.149542948551290689e-01
5.327703699934633469e-02
-3.853741506272090889e-01
-1.988775854503570806e-01
-1.124601685422747938e-01
6.804215886321675344e-02
3.222518655885938527e-02
-2.515992611309233462e-01
4.104780393162961449e-02
5.052208271804979889e-01
1.528175560002965616e-01
1.465031788012704783e-01
-5.557139099544632366e-01
7.107821640448988565e-02
-3.054107088609064324e-01
1.124515373511191380e-01
-1.500921735235935250e-01
2.219062349521911948e-01
2.253590780337301480e-01
-2.397004595401902027e-01
-3.120632269550746574e-01
-7.320693056829135070e-01
2.782952185841810477e-01
-2.539414044533024883e-01
9.009672832938471487e-02
1.815779406323343170e-01
-1.264133517001548024e-01
5.496053961716891312e-01
-2.635517559720204628e-01
1.302677408856592611e-01
-7.634834295807418902e-02
-8.375286006855245380e-02
-3.155772071797181000e-01
-1.395062887815095021e-01
1.869306999765466826e-01
-3.421907516246323611e-01
-1.609409369706917559e-01
3.806164516419413002e-01
-2.873204273322643720e-01
-6.899812674943082147e-01
-1.174299854808293353e-01
1.021368099775506327e-01
-3.491443306843171612e-01
-6.220329312051551263e-01
-1.947278355221824797e-01
-8.451855372573689740e-02
-1.558308016208956037e-01
-1.813317441810693154e-01
1.060451973286867244e-01
8.501001723890777573e-02
1.339217131301720376e-01
-2.181251150668124528e-01
-2.002033661228503902e-01
3.503444318737068963e-01
1.124287753792059252e-01
-6.047644684121169512e-01
5.594104289818583320e-01
1.112075170279006042e-02
-3.384098741271766575e-01
1.464626525320986417e-01
-7.073215563652959226e-01
-5.502236202239949581e-01
3.559255372553274954e-01
6.698708125325990304e-02
-2.417747382310366996e-03
2.858162300146584872e-02
-1.475675699607253977e-01
2.258336863290411889e-01
-2.085787294771644096e-01
-1.341193838436414987e-01
-1.459472442995331798e-01
2.030294699284053983e-01
-1.021195231206305509e+00
-5.678674313777442029e-01
-3.079703942452117205e-01
-7.992012142064975899e-01
-3.561641060188593111e-02
1.198249227399530437e-01
4.349524786212337624e-01
-5.295681208332212453e-01
-1.709681015359496570e-01
3.123451521574140965e-01
-1.836190960786589776e-01
1.792031444105162685e-01
-2.870968592621181426e-01
4.419479881612532746e-02
-2.398970736607026200e-01
-3.381580354075670036e-01
-9.661948165843944891e-02
9.119480204943846147e-01
-4.251717995246045989e-01
2.949680501180232950e-01
-4.021100261038129120e-01
-2.751401658272220607e-01
-2.772665081754627225e-01
-1.137136076024540254e-01
-8.880490533099067996e-01
-2.591354150863605654e-01
2.032336670656862687e-01
-1.026874261885622808e+00
5.516510825656086858e-01
-9.048727965775054116e-01
-4.519775801851007996e-02
1.468882118348680821e-01
-3.019903367705140118e-01
-1.602480730358925298e-01
5.758177115845769523e-01
6.263640630908946516e-01
-4.092079179851193169e-03
-2.547092586570126604e-01
1.310443972438525284e-01
-4.767416395024337006e-01
-3.499345803628078899e-01
-9.092187234210613589e-02
-9.637757465147960279e-01
-7.146480567293904684e-01
2.237993467810454051e-01
-2.051320125287518781e-01
-8.717560966921565901e-01
-9.596629929824443961e-01
-3.239489264669800223e-02
-4.575770812751680516e-01
-9.568278007299406418e-02
-1.713781793372319284e-01
-3.888451548140858249e-01
-1.313219319392740503e-01
-1.877104058295439581e-01
-1.172229594261005488e-02
7.602360462404210428e-02
-5.728766434044219036e-02
1.089579917168925910e-01
-8.788281336127053145e-02
1.290373358145363580e-01
-5.723427337284942018e-02
-5.180938356047697368e-01
-1.423690228907629196e-01
8.379411052463583975e-02
-2.560492157987729889e-01
2.016303347708642280e-01
-3.711188453302903811e-01
-1.987746649344033223e-01
-1.066526545661390657e-01
-1.029477921447043087e+00
-3.332885579819892530e-01
3.437317324502242588e-01
-2.414406129098235487e-01
-2.181221159810660393e-01
-4.682307053186965939e-01
1.834006145608296501e-01
4.957176903894979780e-01
-6.455609866557195931e-01
1.291181173575509211e+00
3.031583716940480788e-01
-1.125724277882743873e+00
-1.733987606346497901e-01
2.170241224809666691e-01
1.420092619954551882e-01
1.434472091844705977e-02
3.369928372856962340e-01
-3.233433354127361881e-01
-2.155844320698473426e-01
-2.757221869834557970e-01
-3.608691997588582834e-01
1.125708174925774963e-01
-1.393543980005515492e-01
-1.082548318826605932e-01
-1.603749985991305971e-01
-5.593973260952158494e-02
1.787678710206878907e-01
-2.029808275975594212e-01
1.096759088939692761e-01
-3.042357716060875572e-01
-6.023522778693137791e-01
7.953278567072891159e-02
-1.029709826994251454e-01
-3.622622576781406867e-01
-6.665391925198964618e-01
-7.536923845033457470e-01
5.968151721844384278e-03
-2.217597625503636705e-02
2.099006836013946886e-01
2.926487443184799808e-01
1.168233540174348911e-01
2.002884279778618937e-01
-1.154416036999654782e+00
-4.841951088397353220e-01
2.580460546687463608e-01
-1.645855091431974171e-01
1.450523902610204308e-01
-4.596997087432908025e-01
-2.717058569352225339e-01
7.341066726132702835e-02
-2.629336429790607790e-02
-1.584141288277176041e-01
-4.446793689072606193e-01
-3.202183992796027168e-01
-3.397448442160951321e-01
2.570887704258879164e-02
-2.365487638665489112e-01
-1.457591933696245623e-01
-5.523369760054540611e-01
-8.984279090778621857e-01
-8.745549479645547963e-02
-3.567018515496297448e-01
1.535921508717537354e-01
-5.189238174496596523e-01
-3.293985217747067984e-01
-6.539039146382222278e-02
-2.951636472009157575e-01
-1.549840142392553133e-01
-5.914562575441633108e-01
-2.281163898604293139e-01
-1.937862605636709590e-01
-2.283293308911120423e-01
-3.786183234780161611e-01
-1.752876129907253999e-01
-3.135850834649203112e-01
1.945275669291264553e-01
2.179894868092196181e-01
-5.542059759478582537e-01
-9.230013071790534041e-02
-1.580284780238206677e-01
-4.093572050348934788e-01
-9.879385726935627221e-02
3.825172953360277822e-02
4.185749097069565994e-01
-2.468923650841569339e-01
-2.186351884754808295e-01
-9.186283527310359909e-02
-4.063575351179318229e-01
-4.499676136954390837e-01
1.197947629646772399e-01
4.799209691940477529e-01
-4.851083196217870763e-01
-1.430590643518903748e+00
-2.219220174503845899e-01
-5.839889541762772751e-01
3.322975978090663696e-01
3.731228589533778228e-01
-2.061538999601031374e-01
-1.751569734407031342e-01
3.336726457020892100e-01
-7.156244403344019789e-01
-5.919927860248728191e-01
-1.024546419287699663e-02
2.713053739008775000e-01
6.679089428907585280e-01
-2.828147714537843638e-01
-1.025395421518680017e-01
-4.671778177968825552e-01
-3.612306597451703793e-01
4.225621871572918797e-01
-2.221190999400280142e-01
3.766803685485008990e-01
-1.342750942561799499e-01
-1.432916332186835451e-01
-3.922146934695271980e-01
-1.428498243240872156e-02
-1.550261319808721727e-01
2.076056981076884744e-01
1.136618577093137378e-01
1.476938655103554876e-01
8.092619659196344239e-02
-1.354360098523052502e-01
7.230524013130425198e-02
-2.780067724385805183e-01
1.372428718077624843e-01
-1.947699420627978240e-01
-1.517233537761429607e-01
2.678652305465145100e-01
-6.430307138868910366e-01
5.220659790552842905e-01
-1.313884155466960302e-01
-9.967692123079505140e-02
-9.385203872287013749e-02
5.246624795347748504e-01
-1.214349088196893106e-01
-4.751124964572734366e-01
1.214317466594955347e-01
1.989351902226377256e-01
1.572849752040211824e-01
-3.219870746557541019e-01
-2.455695262694236325e-01
7.116428423778170531e-01
-8.494295243513733107e-02
2.472916236815792812e-01
-2.652799840628619621e-01
3.430546034210635864e-01
-6.295409012949851890e-01
5.466804802646819672e-01
2.700912167892932092e-01
-7.126890611280665144e-01
-1.073052943658481806e-01
4.946220763568660028e-01
2.147070608881490872e-01
-2.839023724920626823e-01
1.644261246231576712e-01
-3.445092771144955823e-01
9.238285001728758772e-01
-2.408254474149390256e-01
-9.302618623537400877e-01
2.076501374613448081e-01
3.745600732312582420e-02
-4.190557550845772083e-01
-2.792038442587784219e-01
9.498983792736444276e-02
-6.412127157775269204e-01
3.761224144997043495e-01
-4.466530016480517173e-01
1.350697076177228562e-01
1.844514212269826245e-02
9.540191432924094439e-01
-5.386140084052435384e-01
4.818251404010499006e-01
-1.630855228963030423e-01
-3.397188198605497478e-01
-5.067679145741409430e-01
-4.620231364409843611e-01
-5.237075590971583816e-01
3.308162451235876489e-01
3.732527827021887568e-01
6.120793046259724868e-01
-5.353029241614771366e-02
-4.783785688288980653e-01
-2.938015350929297220e-01
-3.596985824678469168e-01
-1.416909852939743086e-01
1.640890202751537907e-01
-1.097650207846718962e+00
-7.191466933057589772e-01
3.277826882843503653e-01
2.816439105520177622e-01
-3.414471663750719976e-01
-2.472150074862979607e-01
2.139511845533776935e-01
2.259498590962708275e-01
-5.897443961105770099e-02
-9.259498210290409981e-01
9.442003384952225853e-02
-4.314839682234146157e-01
2.322408492702419253e-02
-6.020591126477078392e-01
-5.624673063839935594e-01
-3.329606683816875301e-01
2.830071654812123597e-02
9.784309064275970025e-02
2.969414632853730751e-01
-1.404431874235491096e-01
-2.756511695835182629e-01
-4.332901002289977210e-01
-3.149845035805746707e-01
-2.707493963712930690e-02
2.383876079354033117e-01
-6.830360280908923110e-02
-1.491300689294523286e-02
4.104046777684466907e-01
5.418727239948057939e-01
-3.390858319168980894e-02
-6.349993380022362910e-01
2.751766883810415343e-01
1.298064009267232977e-01
-3.066468114833630909e-01
5.211176599695229589e-02
1.561731534847910774e-01
9.657699140567137519e-01
-2.888152076961414960e-01
-3.782207404212706847e-01
-1.495228568007387140e-02
1.537790971289295927e-01
1.780412286195143523e-01
-1.088121530231071832e+00
-3.812370555404881456e-01
-2.733979955349857272e-01
-4.223811586819946340e-02
-2.088023999507693518e-01
-4.651106596644904445e-01
-4.954955924227732456e-01
-1.046591639116176975e-01
-3.445588261596102542e-01
-5.575224662454623115e-01
-4.647461590980588864e-01
-5.208408949536448285e-01
-2.218248398414134070e-01
6.546265306346888968e-01
7.668423263780091981e-01
1.839120002986262270e-01
-1.647405305535760978e-01
-4.238365189648861664e-01
2.587492604813170644e-02
-3.973672043788483571e-02
8.189349399668316432e-02
5.221885645559879441e-01
-3.571197259786398209e-02
-9.912194382318461061e-01
2.868319963417257923e-01
-7.621842333436293360e-02
-3.644706092071257619e-01
3.985252098564108225e-01
-2.234389732874911272e-01
3.811872690552611243e-01
-3.925838301705570355e-01
-3.002151862355668110e-01
-2.072530742231134537e-01
8.522060860434601537e-01
2.608840577398867100e-01
-6.934105435771290571e-01
-3.579299129048200689e-01
2.801073349750122787e-01
