1.869298393773267675e-01
-2.979507551122556261e-02
-3.307469135468359411e-01
-4.091758204203791577e-02
-4.933525898817668898e-01
2.604799505608076937e-01
7.315455508884745328e-02
-7.100724101387428933e-01
1.461045695816367007e-01
-2.909342475019405933e-02
-2.815330386952171748e-01
-6.332838719021895990e-01
-5.988866939833627397e-03
-1.955125382480676632e-01
-1.685982320870128282e-01
3.499775021551471132e-01
7.866386127730198297e-01
-5.616822682483471052e-01
-4.018124684999767326e-02
-1.986343888444628281e-01
-6.786673175239118505e-01
3.680291876354699343e-01
-1.514746771183876350e-01
-2.684252519700184858e-01
7.564077915012877573e-02
-4.772646188684115942e-01
5.955164431553307269e-02
-1.190503529559886892e-01
-5.200439167170379795e-01
4.359770336074810654e-02
-6.102298462327662154e-01
2.753849021896376259e-01
-4.190412203208504494e-01
-1.283654102246739315e-01
-5.782619331377992777e-01
-1.816436046252465630e-01
-5.056779398620951937e-01
-1.340899622007945546e-01
-6.047060653687829079e-01
2.928473304209693040e-02
3.911956192936967835e-01
-2.460078614829585009e-01
-1.565412733720233096e-01
2.467284203156010214e-01
2.070860456995509691e-01
-4.537539644077279166e-01
1.384466821011696991e-01
3.753724679298810485e-01
-3.097577128195073692e-01
-7.295155494652589834e-01
-5.505637886796249658e-01
-2.853261360120595280e-01
-1.076297257810635982e-01
-4.402898656830402935e-01
2.171406224115438044e-01
-5.262087170959716120e-01
3.063379243297033594e-01
2.703309600337153173e-01
3.209065494412688402e-01
1.184641267272958098e-01
-3.617736961114346173e-01
-4.099544072852159826e-02
3.617172921412728503e-02
1.464511434389510758e-01
-1.643155781943806737e+00
2.648290980713718379e-01
3.357698657926523889e-01
-7.037527765558008498e-03
-3.313017276247994247e-01
4.881810010758981799e-01
2.492581403269650275e-02
8.858233315802979332e-04
-3.711984925971527627e-01
2.573304777798806620e-01
1.414957083129910753e-01
2.899019186364723000e-01
-3.090015709193891236e-02
-4.065192452679798341e-01
1.915722588041745000e-01
5.317930030403406755e-02
-1.899598100981070015e-01
-4.124767716629795800e-01
3.248323437267735397e-02
1.803024019967842118e-01
1.705980087030574688e-01
1.744044529622787720e-01
3.783439881704692143e-01
-2.498315589646085133e-01
-7.742519100850388247e-02
-8.483006513183523334e-02
5.634823047752629543e-01
-5.142980174462512544e-01
-1.932815814151657985e-01
1.269377884536796730e-01
2.565975744932014191e-01
-1.021605288350695556e-01
4.505339626165251743e-01
-1.653215395713834024e-01
1.270963576710564258e-01
-7.461372645867671294e-02
-2.308267358804795902e-02
-2.730054887843997857e-01
3.173875404061171634e-01
-9.919187027342672713e-02
-8.894871056801352260e-01
4.291550334871566119e-01
-1.867488578949451014e-02
-6.188502916797433695e-01
-6.693046973557108259e-02
1.414121159351594825e-01
-2.178017151499812842e-02
1.016995762455048385e-01
-2.410713622168655645e-01
-1.722018285768958379e-01
2.939128391778467186e-02
9.750986397462081678e-02
2.195846849859307837e-02
-4.437510992897508721e-01
-3.312604191716441160e-01
-8.841784230932586697e-01
-7.838934763929364391e-02
6.271389486836440041e-02
4.906108351998292316e-02
-2.392833451753842156e-01
-2.224179837513300950e-01
1.683975047106784362e-01
6.775940031366630700e-01
-6.661961442239869857e-01
1.654401151451161400e-01
-2.571759126094534387e-01
-1.921526243509329157e-01
1.815155948009330167e-01
-3.314330331869084212e-01
-4.199039213144675764e-02
1.093829366012381565e-01
-1.442048485614896014e-01
-3.238954426137980597e-02
-4.323551124025479808e-01
-1.344721668025492534e-01
-1.765643458560257339e-01
3.658469432576676450e-01
-3.296089697082034697e-01
-3.670801282230272368e-04
-1.314895146824975880e-01
-8.560958822295999804e-02
-1.570307872188291543e-01
-5.798720264061923979e-01
3.992228540121581792e-01
-1.906967589078550074e-01
5.397460167975025314e-02
-1.550556323750906795e-01
-3.960002994759658224e-01
-1.890669813007657130e-01
-7.099445561833336305e-01
-1.431639653408734725e-01
-4.250425640633153090e-01
-9.737872369732532285e-02
-2.500108645875453450e-01
1.636447942999362526e-01
-1.009077916625475413e-01
-5.026322930568860592e-01
8.033845055677153735e-02
3.457730248013633767e-02
-2.934780791265412594e-02
3.645070680471135249e-01
-2.945033859561050349e-01
-1.726437308585645480e-01
8.606845898338962020e-02
-4.536859630656948639e-01
-1.018177424666938391e-01
1.340456519751464237e-01
-8.492211802578066848e-01
-6.393327477927202018e-01
-8.779854834327970314e-01
-5.842622222519161523e-01
4.676623016602622640e-02
-2.198532978274404526e-01
-1.213028792617035570e-02
-3.085420835171298060e-01
6.653718989042366194e-02
-1.696504494544056330e-01
-1.987908933444890724e-01
2.370933057725827242e-01
-1.938258871648418646e-01
-1.625934432488489734e-01
-4.513275236514852073e-01
-7.571090210200485948e-02
-4.759832945691443440e-01
-4.116777006979142617e-01
-3.172267991914572982e-01
-3.252675418906477711e-01
1.053419602607765654e-01
-2.125976751723435698e-01
-6.260841910924167530e-01
-1.791637752647708137e-01
-2.182431151641970601e-01
-8.182160794811317306e-01
8.020854509585996495e-02
8.175029046252425546e-01
-6.382739827399114274e-02
-2.491606771938187359e-01
2.119361305011735197e-01
-1.640177766546804805e-01
-4.440439185015633838e-01
-6.610081546212998038e-01
-2.296343683572407146e-01
-2.199174853725528178e-01
-1.229637863158587890e-01
-3.430714005891327689e-01
-3.869748499569626299e-01
1.122803068672406507e-01
2.753296165017161679e-01
6.698879774094861073e-02
-1.304238362738150414e-01
-3.670808934633331688e-01
2.109943966851665631e-01
-7.173137156947118065e-01
-1.483192543482141079e-01
-6.364258585630000464e-02
3.614673110941483969e-02
3.817441047345253580e-01
-1.742198413240998667e+00
-4.384135578894979846e-01
-1.201303935750630547e-01
-3.116203679943391758e-01
-1.675823057592190912e-01
-2.195253796054442152e-01
1.692808387143592691e-02
6.953395985691555037e-01
6.387078381554530671e-01
-3.046175703263625523e-01
-3.674594517438336747e-03
-7.245147001476849313e-01
-2.862429098002382544e-01
-1.153545055342525272e-01
-8.149826620478898276e-01
2.630529141359417289e-01
1.784731644765555902e-01
-6.093489771811565481e-01
7.508065190508683706e-01
-2.506038678710064208e-02
2.991101131954408965e-01
3.433932123516789670e-01
-1.390241086484743205e+00
1.551398994457581781e-01
3.122863418406020622e-02
2.088742372970642247e-01
-3.154925954511652031e-01
-1.919836234890819893e-01
-7.519757402701124360e-03
4.480169874898214943e-01
-2.919302453834304867e-01
-3.245429853059751957e-01
-3.590931132971760253e-01
-4.163823451501730832e-01
-6.387580369663642399e-02
1.698623111746552228e-01
-3.030173520193335523e-01
-4.719381057669255197e-01
-8.896064028011502200e-02
-6.385468060375271149e-01
-7.475815724092713110e-02
1.621618742219297638e-01
1.958050687778663534e-01
-4.736301189087079311e-01
-3.333854293626093979e-01
-3.514793231272611007e-01
-5.139197250237096393e-01
4.136952893470336456e-01
-1.154404835556232800e-01
-1.201592927673622718e-01
6.158074152208573571e-01
-4.124974410203286479e-01
-5.358954528531669759e-01
-2.464360836899612828e-01
3.037095473019625902e-01
2.851645470454831077e-01
-6.068675833537940933e-01
-1.785107118644367052e-01
-6.531221775316177203e-01
-1.726838559456680411e-01
-8.792313136225168857e-02
1.645097960390518033e-02
5.163468948336887854e-01
2.191681380152707970e-01
3.761967882654048551e-02
-2.564688316116528477e-01
8.981311860042931472e-02
-6.181652377290383082e-01
-5.323850344362203446e-02
-8.369323498685198315e-01
-8.668587448506322179e-02
-5.477056660028581936e-01
-8.230449448236820675e-01
1.964302671996214500e-01
2.424715576957333918e-01
3.175315143774549154e-01
-6.295619176889416524e-01
-1.658622230920334117e-01
6.352830033237565066e-02
9.738337615136354042e-02
-4.657460848333099812e-01
-1.032152777440960012e-01
-4.858649743341039162e-01
2.390575307503227664e-01
-2.326770173054061863e-01
-6.926365448568593264e-01
2.266663477384393000e-01
-3.356465730472333320e-01
5.442692474877577347e-01
-3.234520656086036783e-01
-1.593732573973993538e-01
-3.825258082657010950e-01
1.542141020875569812e-01
-3.340112632163415030e-01
6.699604653095139195e-01
6.224131885798950270e-02
-3.458154014855074898e-01
-3.338111446938898941e-01
1.771931113360440679e-01
-3.374961656960114298e-01
-3.038419556514639353e-01
6.545022342539608129e-02
5.856889685688850822e-01
-1.951787681752784331e-01
5.540674315354613411e-01
-1.278298106785253074e-01
-2.111058419656016427e-01
9.180048675418096826e-02
-1.232599121195797343e-01
-5.423162569764090613e-01
-1.566918988672721280e+00
-6.513987049615017622e-01
9.157069942470688617e-02
-2.708642890403234471e-01
-3.144887822850023773e-01
-4.367820547390365848e-01
-5.665601562331542551e-01
-5.609067043729444313e-01
-2.627771536648682016e-01
-8.503995300888760323e-01
2.063660305502809655e-01
4.974846391246688371e-01
-3.293316028003329815e-03
-3.001815702455959411e-01
4.216103414569077334e-01
-3.710717531878350850e-01
-6.274283872165313802e-01
-6.798126142209014455e-01
-2.410256119111900408e-01
-2.255921173784727618e-01
2.645444392837251191e-01
-2.634989354603264888e-01
-1.289536528360325229e-01
-2.163695256761075797e-02
-2.019377361730078368e-01
5.219928424505747566e-01
-2.235668496371609471e-01
-9.623680505725053236e-02
-3.302811825549276104e-01
-6.278776291835174161e-01
-8.750893354780669986e-02
7.800231960405361320e-02
-4.494946499235659698e-01
4.875813537852391466e-01
-3.255154102361894064e-01
1.043781123092884025e-02
3.674567191868831073e-01
-1.987768371434170955e-01
2.552044561073675277e-01
-4.003347656116029163e-01
3.527420365381905842e-01
1.072701017222973952e-02
7.101531471287398922e-01
4.455108122538433135e-01
-5.312855444494801044e-02
5.027100213199507950e-01
-3.845470572402027720e-01
6.692510743603898860e-01
-6.144720712613611635e-01
-5.569857600517640062e-03
-3.094398798735408240e-01
1.407939112163166528e-01
-1.754336429756782334e-01
1.372625308505957820e-01
1.579370270555899569e-01
-1.695012165395974046e-01
2.356973513193975217e-02
-1.551251747998004180e-02
2.648194434708096012e-01
-4.317334626329639158e-01
-9.886316223800174774e-02
-1.400013804740642964e-01
-4.042132666026720944e-01
-2.726115506441568193e-01
1.406236927129921321e-01
-1.053497854587422955e+00
-6.012454407439302706e-01
-1.707410964597897707e-01
-1.535739170754662763e-01
9.174812735345130310e-01
-3.334113230403690786e-01
-3.475054632078832251e-01
-1.927356472169656221e-01
-2.490974354920891531e-01
-2.141201287178851609e-01
3.424851871568503348e-01
-1.773553246500748637e-01
1.375674422269905668e-02
1.098318572975791607e-01
-3.265015094684651786e-01
1.624987747912358393e-01
-6.013042506674625143e-01
-1.537541864930306867e-01
2.616706296253659136e-01
-1.532630423256314267e-01
-4.663967752189051574e-01
-1.497042265438300844e-02
-3.466019536784846755e-01
4.167806100201197628e-02
5.380856087241424612e-01
-6.356336966015240231e-01
5.580285243808216222e-01
-2.652066160691191055e-01
1.066981089081720374e-01
-5.509678607530541505e-01
3.307494167423181697e-01
-5.372937668059145633e-01
6.536858345503242240e-02
-3.714733498190408989e-01
5.016871152273223444e-01
1.144912656323389788e+00
-2.921204163604786408e-01
-6.613878358083839608e-03
6.198377294891251887e-01
-4.567956920744704885e-02
-1.514780201786994698e-02
7.005191509531931704e-01
-5.859981571736634365e-01
3.301469707039598189e-01
-3.499857593575679271e-01
-3.004248256603763156e-01
2.050748918610067750e-01
-1.798231838170763009e-03
2.365017796047574894e-01
4.173051988603731499e-01
-1.048201395550951709e-01
-3.037427519335920700e-01
5.319433973251224135e-01
6.849913254656080364e-01
1.053039354665478815e-02
-9.541904124120528241e-01
-9.454687774423863322e-01
-7.733769705963774443e-01
-7.726308272746669203e-01
-2.826282318102916191e-01
-8.095413900329113677e-01
9.617491954419560285e-02
6.989870509833386869e-01
-3.825885661076013911e-01
1.365090124203511834e-01
-3.183621329265393096e-01
3.909188492317181018e-01
-6.126101879568562891e-01
-9.033463648642047206e-01
2.094767855926445710e-01
-4.447141511162528565e-02
-7.263455417903168509e-01
1.023672538940160609e-01
3.948907083235860260e-01
6.935472259385933036e-02
-2.169502790451280638e-01
1.288303924744667039e-01
-2.941698176181061775e-01
-1.981274149703845244e-01
2.795222076998850613e-01
-3.357463356213223893e-01
-1.103741616837607742e+00
-5.949247874151956106e-01
-4.591791215299591000e-01
-5.960971826993430867e-01
-2.049596182571782402e-02
-1.206227208413549606e-01
-4.832500108270352257e-01
-9.743195071554633380e-02
-2.172908147205751539e-01
-6.681982661914631638e-02
-2.600811616061135534e-01
-3.057828240606367265e-01
5.793279783922716808e-02
3.975405786347592785e-01
-6.135277462026386686e-02
-4.824824721352933415e-02
-1.346801188798534277e-01
-8.768169367872392927e-02
-1.230818114255097379e-01
7.790399003704931435e-02
-2.154270450263428005e-01
5.774690099618076111e-01
8.330108422833356618e-01
-3.483498570854455800e-01
2.780624441206653308e-01
-6.324186596030316743e-01
5.248031192034410819e-02
2.817934216412038007e-01
-1.029568719302692420e-01
-7.038757527412884407e-01
-3.839148476607620597e-02
2.202797622342906603e-01
-7.129560190972477063e-01
-2.877071593673353744e-01
-4.768894404689643651e-01
1.392429650463234969e-01
-4.069270256670366043e-02
3.216068804825809591e-01
-1.682890064550281173e-01
4.668662180557278107e-01
-2.656608144060768062e-01
1.868230044116185040e-01
9.565183123765036433e-01
1.268161642075385231e-01
9.129509988596157255e-01
7.484841132523564755e-02
5.756577885254895999e-02
-9.074806513746617176e-01
-1.091979674910051434e+00
-1.782117885688162540e-01
3.418221546472645089e-01
4.316855273761636691e-01
1.416794633291133254e-01
-6.322785002050241854e-01
7.335101927436834535e-01
-1.636059205820474260e-01
-2.815104132989072472e-01
1.681465437935341367e-01
4.149936321896029456e-01
-3.679125028297821620e-01
3.458337620017753328e-02
-8.897391000012372375e-02
-5.064461100684352068e-01
6.487766087326903020e-02
4.130665777774356062e-01
5.760392499198061511e-01
1.938583035598983872e-01
-4.330792274923645629e-02
2.132707359445048245e-01
-3.530689740324395309e-01
-1.530783087162657374e-01
8.918212238691503035e-02
-5.277890315084576844e-01
1.445466031864325873e-01
-2.814598172269557885e-01
-2.313708873525089360e-01
-4.260076886068286939e-01
-2.038722131907576285e-01
-6.247639242635775192e-01
-9.263739194337605731e-01
-5.575980557305917351e-01
-1.650380722498434038e-01
7.939001478931351219e-02
1.034324353834936289e-01
-5.477233524970401835e-01
1.065330273594048416e-01
-4.810111192778084299e-01
-1.875267825249481504e-02
3.574143249174704939e-01
-1.408493942146120392e-01
-3.112728516893138730e-02
-4.953916255444051897e-02
3.976686692375158150e-01
1.832006434606518047e-02
-2.690063342676363156e-01
-2.351572429956117274e-02
1.872900725998964955e-01
-9.128195974788538836e-02
-5.446572532929640914e-02
8.792364194331819816e-02
7.873728971612830030e-01
1.933742072324643180e-01
-3.331143817346767649e-02
-8.788341468824241165e-01
1.689180877668160219e-01
-3.648329869012317261e-01
-1.334167645501007360e-01
-5.351340030496866407e-02
-4.554693887044557882e-02
1.269346789853968427e-01
-3.216837157940062863e-01
9.645207304532800452e-02
-1.498455747778541791e-01
1.224614854080049720e-01
1.191461161902149582e-02
-3.832746397965521301e-01
-2.260670979001710990e-01
-3.928610521686193291e-01
4.915027382218406862e-03
5.229833152424225029e-02
2.938021925074664753e-01
4.245395566031211487e-01
-2.866336189768426967e-01
-5.463305368191004874e-01
-4.260611717019648359e-01
-1.502579452799765181e-01
8.307768579025397171e-02
-1.683216982309596321e-01
3.736881118894334192e-02
4.101556196584550673e-02
-2.803148834376213983e-01
-7.076355244471954631e-02
2.053290566304992459e-01
4.147158510687247723e-01
3.172993006600161037e-01
5.304313130799662712e-01
4.383700176724522612e-01
2.869576732339607639e-01
-2.438470707939737608e-02
5.308950207566022206e-01
1.572411331107508303e-01
4.293132505524032555e-02
-6.930286536760319471e-01
6.769395195285069500e-01
-1.037094556428807823e-01
1.975309684369196128e-01
-2.562221217131622764e-01
2.655262659939556791e-01
-2.497835377207827667e-01
-3.416583571799090002e-01
-5.087053676118550444e-02
1.701916362811181360e-01
3.612732127706640983e-01
4.295397462817601708e-02
-2.302912109141285746e-01
-2.617866554380296473e-01
-6.126098398179055105e-01
-4.317524578072271524e-01
-1.947651975499039290e-01
-1.332657373623839236e-01
-2.932884665267483371e-01
-1.954975344024806883e-01
1.603898068961540635e-01
-4.042147477223119179e-01
-9.614717377887856131e-02
7.661757351011889983e-02
-1.367372215428091786e-01
-6.320859489717257640e-01
7.523052090026960403e-02
-3.065618230857895463e-02
1.047522839644929177e-01
-7.911076831102319129e-02
2.011695910516345664e-01
-1.719838161906610263e-01
-1.756090144842635814e-01
7.449453998045321157e-01
-1.696456988564238044e-01
-6.701071794862992204e-02
4.532273942447125337e-01
3.222106658956203767e-02
-1.121212806670733197e+00
6.278381706501854828e-03
-2.571016434185044996e-01
7.536806672576020771e-01
2.619608825516956396e-01
-4.915173807181218990e-01
-3.751803685096650742e-01
1.337726510436190175e-01
7.763429995126182315e-02
7.755562972228594587e-01
-5.371354806907434158e-03
-4.176033381514897280e-02
-2.263907084647801826e-01
-2.787366966245705679e-01
-4.040582718865059486e-01
3.506962684206451075e-01
8.526062558064041452e-01
1.516430976020567423e-01
-1.014150930768370762e-01
-1.204766222499431966e-01
-5.772874488042657459e-01
3.744533448457573743e-01
-1.503871833754532317e-01
6.115657989491130736e-02
-6.900915298888667948e-01
-6.186043298190774947e-02
-4.639697513624860825e-01
-2.635138650768997781e-01
4.350076442222380879e-01
-5.072608369268720718e-01
-4.075305392620368061e-02
-3.843231127821774562e-01
-1.114873278076961155e-01
-3.710432857947512097e-01
2.149611814645510377e-01
4.066655799022831363e-01
4.663658664672725163e-01
-5.776661442149143566e-01
-3.202100893123687175e-01
1.117682880035248544e-01
-1.563916181869591249e-01
-2.948130728766997777e-01
-1.202746553543280861e+00
-5.232713102470896160e-01
9.439060086177124276e-02
5.206961380583319254e-01
-8.162821286977067770e-02
9.415035459794955652e-02
-2.906256761618266071e-01
-5.889671173220288880e-01
9.752498356069045846e-03
-1.015211992761722165e-01
-4.444197471058626836e-01
-1.276540113363974771e-01
5.529149028799187904e-02
-3.431257830728233205e-01
2.468743219462603278e-01
-1.931689501336903980e-01
-2.439715228306978123e-01
-1.341429522331309410e-01
4.444527231463853423e-01
-1.105471055320307594e-01
-1.784193762646729131e-01
2.730467519462089973e-03
-2.951597333401063672e-01
-4.833165102890747966e-01
2.839341832970001533e-01
1.735363639052638629e-01
-3.297856686674314197e-01
-2.292662464968338587e-01
-3.939979579533058884e-01
-3.150643608628389547e-01
-2.149921076410851728e-01
-3.970683647765594904e-01
-4.652229904867231924e-02
-3.157917693966408867e-01
3.997369048223171628e-01
-5.438934525596870184e-01
7.779465655596815021e-02
-2.452433256093000669e-01
-1.556437497519630453e-01
7.047774249544250247e-02
-8.330767312060503860e-02
1.958192741300118223e-01
-2.088767163143942507e-01
-1.429628412708334184e-01
7.422673135782072995e-01
-2.762789021894211938e-01
1.886310363722862038e-01
-1.273433673757721762e-01
2.687268058400831827e-01
-1.144227947085295766e-01
-4.353726693980423668e-01
1.597748285839733773e-01
-1.380617484834223974e-01
1.666721779452102481e-01
-9.521676369189350231e-01
-5.285495736616204754e-01
6.381282253917094360e-01
-6.746473096048657414e-01
2.811644013172425183e-01
3.742067110781384376e-02
3.635906000785892322e-01
4.180885618920306968e-01
1.176978347354593057e-01
-8.345176234032487816e-02
5.498877298791634560e-01
3.654242658452832027e-01
-8.223293837427042563e-01
5.025789270923165103e-02
7.192175975169333713e-01
1.066247126938335704e-01
-7.083404954317189528e-01
1.145782309764555584e-01
4.403731636209743949e-01
-1.547816398181067477e-01
-1.298663661354005627e-01
4.713666624188714849e-01
-5.844186776024021951e-02
2.601938937407984875e-01
2.470697193912614054e-01
-3.445257517669865488e-02
-6.804058392837321681e-03
-1.299621802481784050e-01
-1.042952262198053148e+00
8.858923350381346651e-03
2.248709357580494506e-01
2.797172716266670411e-01
4.003607680208364772e-01
-2.060713973688626521e-01
2.446329602588738494e-01
-1.636631172471573192e-01
1.936676700170354426e-01
-3.888714031178286956e-01
-1.736871673763672463e-01
-4.418425977561589724e-01
3.417239082912459924e-01
3.029384288658740765e-01
5.529108187511869339e-03
2.282405123494243016e-01
-1.268399988445450405e-02
-2.084875563123706199e-01
4.032658544884077517e-02
-2.467513247812305188e-01
-4.731156193103689400e-01
-5.853927799430557188e-01
1.294005440033871024e-01
1.595150842086961174e-01
-1.439220032544460959e-01
-7.097889844588427428e-03
5.356317277033366929e-03
1.058190496777236866e+00
-3.252209306091158325e-02
-1.065038027023192280e+00
-1.319986322631340990e-02
-1.636500970656207254e-01
2.897155034746350943e-01
4.564806645971483667e-02
2.490861695419681054e-01
-1.338674167508523416e-01
6.766373398154705565e-02
-7.497715077833505548e-01
4.762032959261682658e-02
-4.548121459660556254e-01
-6.816145234724992896e-01
3.724857229829104943e-01
5.428246360197131956e-03
5.075845907437648297e-02
-7.005828731825441968e-01
-1.020812595674433776e-01
-1.718553122931390786e-01
-7.711689297156908152e-02
-3.096151867248199685e-01
5.604567599223401198e-01
-2.131593474197140958e-01
-2.190193171583028064e-01
-2.020251097668462059e-01
9.152505707765501430e-02
-3.967328985072600123e-01
1.259402654707287406e+00
-2.208706242913237028e-01
4.557428014187742127e-02
1.778266893311706009e-01
-1.434205898063198870e-01
-3.529375052172136762e-01
4.630038717607728310e-02
-4.913365360792182890e-01
-2.387706563596457277e-01
-5.270991637434800925e-01
-8.282877841349507719e-02
7.722294791985191420e-01
-3.259700288678965552e-02
4.951582739744755934e-01
-1.678943786770312474e-01
-2.183033627886709627e-01
2.523663685018605052e-01
-2.973299894315611924e-01
-3.510767440483944513e-01
4.741305671310739878e-01
7.510942071381437879e-02
1.409908029390473660e-01
-1.882490304815476745e-01
-4.423674880330428771e-01
-3.228986848048626679e-01
-5.214762924062613658e-01
1.702912245177412853e-01
3.039929470136856771e-01
4.398262049501213550e-02
-7.880776182681721587e-02
1.518721150090540928e-01
9.728746805035204392e-02
3.167472260276076035e-02
1.127648299588964315e-01
9.365466627160178303e-01
-1.038998223258632680e-03
2.598288541128893070e-01
1.248309382343452262e-01
1.038500964754475731e-01
2.461560791708447549e-01
3.224901214104821667e-01
-2.449632253765708645e-01
7.351486907669235737e-02
-3.543456220606621132e-01
-3.246198280874095649e-02
1.325573578251061646e-01
1.064613829310950832e-02
2.044092229577814945e-01
5.289428858316491677e-02
4.425366300217135063e-01
-4.744428113835811450e-02
-2.038921689983209939e-02
-4.048705950375182105e-01
7.764371627533557529e-02
2.117144369081863375e-01
-7.854873962191548653e-01
-4.149737909928557511e-01
-2.808648407600923269e-01
8.052062601407714015e-02
2.000150377846416361e-01
-3.566224445409753030e-01
-4.982217427106935825e-02
-1.924916790042268122e-01
-3.778032268948269268e-01
-3.159462957827202656e-01
-1.560736044403128742e-01
7.248015720893918878e-02
3.661619423745566815e-01
-1.816345048747253499e-01
3.450868351002255863e-01
-8.080029524430004662e-02
-4.633403261328593592e-01
3.795983383890857987e-01
1.396578954751224733e-01
-4.909687943724162507e-01
1.947950308820376175e-01
-2.257334850814726179e-01
-4.571742831080360392e-01
5.866707817353426779e-02
1.381983267261819963e-02
-3.940310426062336169e-01
-5.968213853647436756e-02
8.824490150299905966e-02
2.432242178573158498e-01
1.594073970123681145e-03
-1.722520659056126502e-01
2.957966259870953851e-01
7.726220865817276517e-02
-6.353853269890942512e-03
3.505499926490153739e-01
1.123305672731561011e-01
-4.550007800093336385e-01
4.405020743175041414e-03
2.436743607972439996e-01
1.551321314059330436e-01
-3.318704061476571709e-01
2.007011231871621559e-01
3.180711756284883007e-01
-6.443462320034176738e-02
3.975579161967316422e-01
4.337699795943391612e-01
4.684786286317432213e-01
-4.413126711872703695e-02
1.513305737581656374e-01
5.756491115535554703e-01
-3.801679182749445607e-01
-2.053466747054392139e-01
