-8.207412679390883870e-02
-8.761998010687359340e-02
-2.074454199398371446e-01
6.362013512187521258e-02
9.158396435153891291e-02
9.555014429282730759e-02
1.578506579634187529e-02
8.687690054553134922e-02
-4.283623023344085845e-01
-3.380057221051376293e-01
-4.102509151386484199e-01
1.812549000261405030e-01
4.239265291141977587e-01
2.294609441663119087e-01
-5.614386004622515802e-01
-1.639030704215110046e-01
1.436230380460611078e-01
-7.113271743057609786e-01
2.230723142055676955e-01
-6.363084540055946592e-01
3.513318305913586403e-01
-2.664467107214642527e-01
-3.012468557347389719e-01
2.970016504122341763e-02
-1.922450087751700343e-01
3.251603690558734772e-01
-9.214214354073564373e-01
-5.162634040972341465e-01
6.138120892723651634e-02
-1.355482875547247557e-01
-5.024474208104201534e-02
3.952130984713798090e-01
-3.606559637146570241e-01
1.081333612585949761e-01
2.550998301341153018e-01
-1.764609762099591972e+00
3.372410238197788845e-01
-2.366699058508867776e-02
2.817853973276810975e-01
2.598106732321227019e-01
-5.239630965492932113e-02
-6.205552609475338821e-01
4.267130959838147386e-01
-5.221704046674288113e-01
6.073110238556543861e-01
3.382952233892437821e-01
2.903806189501513188e-02
-1.867984668416752120e-02
6.117511089854920509e-02
-2.416229549938690158e-01
5.155986075457383855e-01
4.663130417021687374e-02
1.173725055573541926e-01
-2.367136477122702351e-02
1.572060671499393714e-01
-1.069737658617965631e-01
2.765741747462394096e-01
-5.831131957261909138e-01
-3.996170974948513588e-01
2.425954336943036693e-01
2.432379460078513411e-01
2.068260980230630236e-02
-4.433202361454242624e-01
6.631843152450211942e-02
-1.918089590942377298e-01
-2.130309718845576350e-01
-8.362178201466823058e-02
-5.384333964880628765e-01
-6.060425965650445557e-01
5.255158099911384495e-01
-5.006743242824812645e-01
3.093877673708783638e-01
-1.590691765997228335e-01
5.699021426888157410e-02
-5.028017632572764906e-02
-2.528517177474038369e-01
-1.043062059892225085e-01
-1.956708515404590940e-02
-1.915109520187731618e-01
-2.847568052782301073e-01
3.269278917849671173e-01
5.499529734279402088e-02
1.778611318464803082e-01
-2.742328813460565562e-01
4.416578207887796384e-03
-5.036537301357213448e-01
-1.199991630150636923e-01
-4.256854686709309887e-01
-7.795103206035443322e-02
-3.299073373330061593e-02
7.458047829821581876e-02
-1.149643423693086780e-01
-3.395709468869181208e-02
3.882443842821823310e-01
-1.963765815958702921e-01
-6.030698803051571799e-01
-4.262925018878960248e-01
1.516132027417060046e-01
-3.673297156589443169e-02
2.211765753106407772e-01
-8.032925166755622293e-01
1.653450122280756274e-01
-3.399356995887408694e-01
4.106875668662178236e-01
-2.263932820775270138e-01
-8.187401497505333303e-01
-5.737729024963412749e-01
-4.865016391984365307e-01
-6.194568230339138060e-01
-1.350897623720712648e-01
-6.051880283090302903e-01
-4.810168740318848668e-01
-1.565147344196472501e-01
-1.858281565233398658e-01
2.659084957206983915e-02
-5.315319786837544580e-01
5.492262994385131991e-01
4.925144186971300853e-01
-1.151253604649475903e-01
2.970698796900796829e-02
-5.496399648035557028e-01
-4.676730005253733613e-01
-7.652737093796760370e-02
5.018424974736941380e-01
-1.300779621778426876e+00
2.199168284432148623e-02
-2.102023809089694495e-01
-9.775611057316835328e-02
1.965897782317636844e-01
1.927252715515793691e-01
1.484959003227500074e-01
4.223100752373165623e-01
-1.656492225066813137e-02
1.355008543563222534e-01
-7.774131461537994170e-01
3.611387095456157215e-01
-2.077786387477977559e-01
1.474938634819780159e-01
5.598192226187224119e-01
3.978411504228632212e-01
-6.123141252415066627e-02
-6.276707456257861473e-02
-4.111024864513172505e-01
-2.263158439399544364e-02
-3.203959743884031708e-01
-2.725310944225775023e-01
2.126645713246369251e-01
-5.820084753820453649e-01
5.122188058752678852e-02
-2.497777960898237282e-01
-1.843159606066997747e-01
1.427841361624196670e-01
-7.049577396158678289e-01
-1.888335837849956234e-01
2.638396551566461468e-01
2.615022087106822490e-01
-1.014553847248127472e-01
-3.372643921932409472e-01
6.916223754986411398e-01
1.029440178977705372e-01
3.934294548978842232e-01
-4.030256762592808184e-01
-8.887641703135566729e-02
1.358816200472510449e-01
-3.033280393244473516e-01
-1.111993233586555524e-01
5.748809868641837489e-02
-8.462821444272742299e-01
1.769854593499403939e-01
-1.159167383059763745e-01
-7.719734135174299849e-02
-4.345789743198479327e-01
-8.532483599419163345e-02
-2.147821988767727175e-01
-1.202166790328427215e-01
-4.767193441388526409e-01
-3.568654309789424661e-01
7.079046920343241844e-02
1.891506933083081377e-01
-3.766267642148224959e-01
8.464705617291874706e-02
-1.915939606010229890e-01
-2.480707687592681177e-01
-4.181767031316574457e-01
9.485552894451423911e-02
3.202275509381334873e-01
2.984474835841951362e-02
7.072881406020681272e-01
2.176472949178319127e-01
-1.867813572982473247e-01
1.927015007143828562e-02
1.206487448981694716e-01
-6.161746471413533932e-01
-2.800117452876159096e-01
-1.467105908747455903e-02
6.353957030204372344e-03
6.043535115117011358e-01
-9.915218015263596585e-02
-2.519413934884397188e-02
-9.028466425115815319e-01
1.635126040081537890e-01
1.215092823562886892e-01
2.174750617184368490e-02
4.090695557883269884e-02
6.839076268245537771e-02
1.464354424216656736e-01
-1.672344686032541106e-01
6.807321235141502447e-01
-4.892946646317501425e-01
2.268514293645685909e-01
-5.787575837827722836e-02
-5.996712437785257227e-02
6.572674886719692688e-02
-1.705198521867446956e-02
7.979957114553406505e-01
3.988226925558428504e-01
-2.206518610390853230e-01
-4.538973854374891426e-01
-1.142152219691849879e-01
9.037457138524004896e-02
7.292037155444756058e-01
4.332664333371788468e-02
9.110232098501007403e-02
3.978041018610700696e-01
-1.509842873862116824e-02
-1.622918988070673474e-01
9.498599219250551673e-03
1.438353431846860486e-01
-5.738008758198968190e-02
-1.084554831692882693e-02
-4.946097642534900141e-01
-3.243634367211234992e-01
-1.167052042931150807e-01
1.320635402509102718e-01
8.738522363210210475e-03
2.263737399353901378e-02
-3.184707132993654932e-01
1.077557328666835929e-01
-6.410357060360702408e-02
-1.747644482722447434e-01
-5.638834019382770596e-02
1.712951679609044792e-02
-6.445140617599079969e-01
3.181950625085833706e-01
1.901243779168961673e-02
-2.001052420922128927e-01
4.160951091232685806e-01
-5.885335670560665200e-01
-1.570785135101767094e-01
1.196262423989019469e-01
-4.173400990531702104e-01
-5.763759692018265435e-01
2.926122902104452694e-02
-1.076902543430971471e-01
4.467842190780670353e-01
-1.972049591058397111e-01
-6.660926947829292066e-01
1.881023918174339615e-01
1.918818431625691767e-01
-5.183000908179391519e-01
-9.643584727455322136e-01
-1.908227137638967008e-01
-1.297961248652379940e+00
-2.670484407108942304e-01
1.510836182479561030e-01
2.911926451127705429e-01
-5.200983921715989222e-01
6.705173566506283933e-01
-1.371281819409274350e-02
-5.837276380355839178e-01
-1.647934604843340756e-01
4.722324509639903578e-01
-1.145754139901004193e-01
1.678742468054803816e-01
-1.895335275646609086e-01
4.082898967291472836e-01
-1.965099509525321808e-01
5.605992045684931036e-01
-1.850881201006260302e-01
-4.302663444999424436e-01
-2.408384235715636534e-01
2.005590357535104451e-02
7.548574430672666535e-02
-6.047358020843205395e-01
-9.238804586890679571e-02
4.025689561631884406e-02
2.423460125886059968e-01
-4.647092855412621182e-02
3.433694270558799722e-01
-4.274765607547069135e-01
-4.045444963543906591e-01
7.246402321816950431e-01
3.209713564851698897e-01
3.457673996586029252e-01
4.678915553097655333e-02
-2.829424472552926062e-01
-4.145252332946239848e-01
-5.688187008499184100e-02
-1.360446298485034622e-01
1.383693938217958261e-02
-9.064060341732450843e-02
3.825054038755634767e-01
-4.637683217607618258e-01
-1.033619640104100762e-01
4.155733059206940250e-01
-6.125427210740104211e-01
1.882483763151899248e-01
-6.022230823601952832e-01
-4.723339320389290941e-01
2.820329910339994250e-01
-5.366395605950970982e-01
-4.847111026814897583e-01
-3.922233865748168680e-01
-2.340217939652435020e-01
5.347189946749055650e-02
6.972927434412715675e-01
-2.115816013206469337e-01
-2.366603062450395034e-01
6.237073319975799945e-01
-4.316052724873341018e-01
9.026790913200832822e-02
1.723475718552680280e-01
4.591482467857856964e-01
-4.863971368406171947e-01
-5.890117431145808907e-02
-2.178911127336803644e-01
8.012871593586179397e-02
7.585438771571400007e-01
-2.358213364584466065e-01
-3.972198089683571243e-01
2.195528506065569027e-02
8.879585124246298922e-02
-7.340076770223495639e-02
2.110048656546910373e-01
-3.814835695522889036e-02
-2.958795616634125603e-01
1.497775357289006237e-01
1.769504722212741910e-01
5.616396100437803796e-01
1.460929868789936636e-01
-5.439480836023345700e-02
1.515051698140033962e-03
-2.940080861204626417e-01
-7.788582132349405884e-02
-6.836115086716484934e-02
-2.915394912585985154e-01
-1.938294783326953430e-01
5.728685008641399845e-01
-1.465088340331652528e-01
6.755531503460320275e-01
-2.113881385202742436e-01
-3.047200380256779306e-01
-2.058476064472301165e-02
-5.108675395188216894e-01
6.036798704405945681e-01
-4.335959708914905592e-02
7.139241066766700561e-01
-8.214030150926454263e-03
-1.172476191146301916e-01
-1.917684973143036764e-01
1.536805781780772040e-01
6.757937168184654508e-01
-2.084891340122739245e-01
1.226076841955488356e-01
-2.620437002567346796e-02
-2.796699753699852797e-01
-2.834232151563676472e-01
7.516867352747842457e-01
2.989457164003694878e-01
-1.769896956904682961e-01
7.845613857732038898e-01
2.493093087509959116e-01
-8.617197978389589882e-03
2.342562301550746851e-01
1.737626788164764180e-01
-6.387920179428769885e-01
5.814387271748163583e-02
-5.774028166574514120e-01
-2.882307979761595806e-01
-3.934942932979149655e-01
1.601186719986157636e-01
3.236859634923980322e-01
5.925055604799455145e-01
7.188979224667743639e-02
-8.496933821304966661e-02
2.647073472137609906e-01
1.163415572596303016e-01
-1.486363437679531774e-01
1.673170809231862566e-01
-1.425581426469033908e-01
2.913762761012385072e-01
-1.456771885403461142e-01
-1.788063841822464528e-01
-7.809729010326339760e-02
-5.572166322655766058e-01
4.176258669841154819e-02
-6.935652300036320161e-01
3.790906996655309114e-02
4.746280394060132801e-01
1.397701244340828763e-01
-1.787912077792098986e-01
1.574887264699021405e-01
-1.627263123025977087e+00
8.598639521330750379e-02
-2.486986920819866387e-01
-2.941631959985222533e-01
-2.831815049686992047e-01
-1.703690256209775267e-01
-5.454421157175164125e-02
2.527085517921789926e-01
1.536781685600332736e-01
-4.768763164838364377e-01
-1.017600116668010563e-01
-2.652749933118582204e-01
-4.444294833155816582e-02
1.767003547341740866e-01
-8.252575941083506450e-02
-6.190131813159518437e-01
1.308069814507933637e-01
3.022327003627016118e-01
2.101940579953519642e-02
-3.190854417413735988e-01
4.861589821264232780e-01
1.030505118075467852e+00
-6.263673615077228751e-01
-1.646696948171237351e-01
8.101228118182264570e-02
-2.008758072471193701e-01
-2.138036389092780321e-01
-2.353208413900823859e-01
-1.922212968344999273e-01
1.558562257166331289e-01
-2.727148417284430693e-01
2.898508353754301603e-01
-1.844851716074888959e-01
4.072267699844105970e-01
-3.582594234767053076e-02
-4.363032781737096744e-01
4.740233052667270908e-01
-1.576278549564574138e+00
-1.169373035813023876e-01
3.273673681602630448e-02
2.183279645332203145e-01
-6.257904647932629461e-01
6.097076556325890101e-02
-5.334969884342828372e-01
-3.989034330315900934e-01
-8.835468564688285786e-01
-3.198573651414607921e-01
3.053310175881444599e-01
-2.097242123489005683e-01
3.308400853851486273e-02
-3.342610899515814360e-01
3.913442853478056871e-01
-2.272771387590413195e-01
-2.242100748265928589e-01
3.834132691056342801e-01
-1.664761440743740273e-01
-3.127054759907255121e-01
-4.611027442266281140e-01
-1.099323063123539557e-01
1.333020901043980855e-01
-2.552339841857934055e-01
8.351735070837762454e-01
-5.401247662360996182e-01
-6.112518711891071765e-01
-1.678992731249210335e-01
1.886879695508957011e-01
4.413729305569727424e-01
3.612695299329957144e-01
-1.504021133633472729e-01
-3.238814051451191500e-01
3.032473746044822213e-02
-1.223850489831094096e-01
-3.325576828638629467e-01
-2.172588259472832059e-02
-3.416954371605435692e-01
1.970637417557612459e-01
-2.712238793282576999e-01
-5.478798715831305344e-02
-7.090760671466542209e-02
1.020120998558115000e-01
-5.171353448289277566e-01
4.500276884326104634e-03
-8.780090056721949754e-01
4.377929872470627815e-01
-6.741232628731306242e-01
-6.746647074651922482e-01
1.272751507123219723e-02
4.017687112470868516e-01
8.959423445104476302e-01
-2.809032534812812010e-01
-5.237488142311576000e-01
-6.018306686626474500e-01
-6.126730314908471198e-02
-1.134863795125974108e-02
-2.276361622279936270e-01
-6.149650592043288261e-02
1.522605133621281748e-01
7.996100472557993166e-02
-4.135406498675462394e-01
-8.024310900545974373e-03
-2.628107325513994938e-02
1.184545595757369840e+00
-3.947164483936844298e-02
-3.711463371749206680e-02
3.877822690057622368e-01
-4.386889278709567019e-01
2.952202721549297415e-01
6.157278729687973851e-01
-1.716823555034499849e-01
6.534001191951747112e-01
2.132197319274227731e-01
-8.590589627281145502e-01
8.916222596877591833e-02
-3.852495903059088289e-01
-2.435580718227984554e-01
2.795220806000496272e-01
-2.263265324423385516e-01
-6.087004676503813272e-01
-9.419582146054521210e-02
7.889186730135744341e-01
-8.500694062353059133e-02
5.388454954311041600e-01
7.349283798522318611e-02
2.870273759615262626e-02
1.930744823861723358e-01
-2.547357961029918516e-01
-1.861056037654393591e-01
-3.906958042204570769e-01
-3.641677067683684044e-01
-1.267667688023336754e-03
7.250242286879733655e-02
-3.600440077035694242e-01
-9.010404328394183704e-01
6.875531550833631211e-01
1.229994109526092172e-01
-3.415297440159481002e-01
-2.146871028694299077e-01
-1.071977979886898497e-01
8.326969041063880805e-02
-1.297358863833855160e-02
-2.506784382912602416e-01
6.040228791934963704e-02
4.275927801956656005e-01
1.588854113457816297e-01
1.780445106478312223e-01
-5.812266270962385128e-01
1.135399319673713742e-01
-3.407535901711588044e-01
1.515518371803679376e-01
-1.762738866792935566e-01
2.544222936393938928e-01
2.214850363915340792e-01
-2.766694707927150887e-01
-2.829185051697722941e-01
-7.696936771814876233e-01
2.445093091571153843e-01
-2.762465307202482401e-01
1.592692583995101718e-01
2.612528643805611117e-01
-1.723094798682241191e-01
5.495145317931497964e-01
-2.582978828460378296e-01
9.022065197417065974e-02
-5.522171901875855965e-02
-4.608998892509019035e-02
-3.041346881509412459e-01
-1.551951803571501309e-01
2.046225602758053319e-01
-3.439221740002139649e-01
-1.892804126209650106e-01
3.178643032790675060e-01
-3.648610826656544237e-01
-7.439594551517320076e-01
-1.805633421981672482e-01
1.109480599364129905e-01
-3.285096558634088559e-01
-5.805016254502068929e-01
-2.071397544566277171e-01
-9.994798824720256547e-02
-1.252955130035336428e-01
-1.416845151330236308e-01
1.246324158846501967e-01
9.380569091571813733e-02
1.207207235585291555e-01
-1.969054894299115399e-01
-1.608336262034253117e-01
4.032537709002810833e-01
2.485806336890190177e-02
-6.023297831896928800e-01
5.698469767851283008e-01
5.088067863651380557e-02
-3.399105231334581534e-01
1.585236003340192434e-01
-7.104324313630924204e-01
-5.598900559100405960e-01
3.751276274453982928e-01
5.115147699535751297e-02
1.352724504528823521e-02
7.028711348951065252e-02
-1.384035655222390082e-01
2.187433004556254557e-01
-1.958530628712056576e-01
-1.421158957857143745e-01
-1.923584979267603801e-01
1.823249969711341345e-01
-1.042820766490289097e+00
-5.742912875272900841e-01
-3.290452608169782689e-01
-8.254359947187912550e-01
-1.510432087468026666e-02
1.609033667358874264e-01
3.709338922205916989e-01
-5.636678379680621909e-01
-1.220502309770344906e-01
2.651626927189923433e-01
-2.300172151736798454e-01
1.392470233522759282e-01
-2.470268440231782048e-01
5.813467562754973117e-02
-1.771394824955938030e-01
-2.937752212529525231e-01
-1.559016538556350917e-01
9.437709341962345899e-01
-4.638952592627701987e-01
2.497444987701016306e-01
-3.850302280700483859e-01
-2.444569087136628238e-01
-2.402081790364280212e-01
-9.689694351738539768e-02
-8.532090070249358504e-01
-2.474352108683123830e-01
1.623419625582030457e-01
-9.798704028768049357e-01
5.427296916375069502e-01
-8.426965264768738750e-01
-4.997439727558677935e-02
1.992077052107594781e-01
-2.949275828830223434e-01
-1.460631134524214281e-01
5.612373913013748439e-01
6.054782150617412650e-01
3.838732170078665989e-02
-2.901950331951849704e-01
1.092742107210833424e-01
-5.093150729050174297e-01
-3.163805405702664886e-01
-7.953190076645093309e-02
-9.533063259673728584e-01
-7.193782418587449934e-01
2.220522384678453032e-01
-2.037775005542663831e-01
-8.590684735035805097e-01
-9.347515733061831922e-01
-5.124314832047368456e-02
-4.040963914577805904e-01
-1.173484473301256298e-01
-1.710571917243641493e-01
-3.316366124103080626e-01
-1.757392156210192957e-01
-1.787676552579569311e-01
-4.082663110038375898e-02
8.853539903352553031e-02
-7.194142187587472537e-02
6.089729528612677911e-02
-7.524478988941270263e-02
1.080153776668458243e-01
1.115051026466797393e-02
-5.117010637468313305e-01
-8.771883641343099225e-02
1.037221867414292870e-01
-2.919170256157499477e-01
1.845934138995253548e-01
-3.695338816237535573e-01
-2.105943738835326928e-01
-1.686786842524510832e-01
-1.002069704586925125e+00
-3.740979954646779793e-01
3.358802814438493489e-01
-2.255798427629410741e-01
-2.338313661994591564e-01
-4.421704221661931777e-01
1.655526143785155391e-01
4.823459753873509670e-01
-6.620736912750930792e-01
1.317238241943819776e+00
2.534588588530841680e-01
-1.093013246431791652e+00
-2.041090496281883770e-01
1.777898013522002385e-01
1.132752270430504027e-01
7.533060789363006660e-02
3.123763859341804894e-01
-2.918090984475433247e-01
-1.861677919061811293e-01
-2.681921761991770681e-01
-4.045414644310895702e-01
7.138895459719260539e-02
-1.304071776545889239e-01
-1.383095761293054726e-01
-2.303225563268794518e-01
-2.281433368167049350e-02
1.613611628994222891e-01
-2.424788035593000990e-01
1.239270695187228155e-01
-3.004233096669630676e-01
-6.095208558301258295e-01
3.278678351671056312e-02
-1.208284013978274951e-01
-3.864996220922611858e-01
-6.577314928021010809e-01
-7.854001823304325169e-01
-1.192964329961652102e-02
-1.473527400352267654e-02
2.139784858816668189e-01
3.088003170895600169e-01
1.069799339365361257e-01
2.547270820372766198e-01
-1.148072479989263206e+00
-4.935832950016712517e-01
2.395562221718214868e-01
-2.093347897765930055e-01
1.473321052563821287e-01
-4.751173408757826677e-01
-3.015426763691429479e-01
3.357698661893620401e-02
-1.370341067249103428e-02
-1.522993335667729153e-01
-4.522604378460824970e-01
-3.502435699400486269e-01
-3.421271943805415661e-01
2.567326956191161302e-02
-2.099437181585730727e-01
-1.410448364965168622e-01
-5.369035087192468580e-01
-8.656452811563130068e-01
-7.871173858260610556e-02
-3.553462304786664250e-01
1.495131365142718105e-01
-5.223223732508597283e-01
-3.433592682715365663e-01
-4.554247863520871631e-02
-2.537100403170399754e-01
-2.188773546689325167e-01
-5.872534798942486978e-01
-2.496190005796191935e-01
-2.468266045687021737e-01
-2.184763124692881975e-01
-4.032543719029669793e-01
-2.178296781402525861e-01
-3.133718925970470637e-01
2.241256819052674099e-01
2.710816451964469520e-01
-5.671782697430186593e-01
-1.760890720371038332e-01
-2.158471521617072453e-01
-4.122615483094311251e-01
-3.283335532122098888e-02
4.987371791519060182e-02
3.964423497218388937e-01
-2.655370951852262240e-01
-2.529341620424168657e-01
-1.287739528404833189e-01
-3.342516550646802975e-01
-4.927814862823690079e-01
1.030155739071173249e-01
4.740246539495213685e-01
-4.628103724516006157e-01
-1.396744333157120987e+00
-2.937837985634931259e-01
-5.736903716194208247e-01
2.516108759649802740e-01
3.718249312806989337e-01
-2.194410259133432184e-01
-1.723435330248402897e-01
3.735424693356892978e-01
-7.199039704277634399e-01
-5.575553888787413426e-01
2.759181289531591891e-02
2.751951297697250443e-01
7.146543205314134228e-01
-2.691160696958875276e-01
-7.651909665174652653e-02
-4.917026514908742763e-01
-3.420931989138266127e-01
4.395796027451412957e-01
-2.287465333656490130e-01
3.824058677243278304e-01
-1.219093501911617111e-01
-1.014872770920389050e-01
-3.905322717216754280e-01
-1.702319797498600545e-02
-1.758668449969914283e-01
1.896575647485090332e-01
1.175295184769954843e-01
1.362300386883874281e-01
8.193206155188648143e-02
-1.814391961290709454e-01
6.136570466530676810e-02
-2.809321507354662906e-01
5.883039278294905500e-02
-2.135493214351217028e-01
-1.123062799378713589e-01
2.525474122332213023e-01
-5.909003157552108476e-01
5.453427357700095790e-01
-9.026161045706802832e-02
-1.142454888984335559e-01
-1.018546071334362584e-02
5.327036959814613892e-01
-1.206596601605659375e-01
-4.457505395781314883e-01
1.217785335639820499e-01
1.628914679185483882e-01
1.224111471368780624e-01
-3.531075436099301856e-01
-1.951032157784620136e-01
6.610132631138513348e-01
-5.890529207260083999e-02
3.020216926123708290e-01
-2.173508560069030426e-01
3.510185850081209979e-01
-6.439908514375972670e-01
5.271099937395814505e-01
2.462001602779160803e-01
-6.376298396135023916e-01
-4.349795947961616893e-02
4.987789661656699125e-01
2.192199858500559762e-01
-3.010340490618740317e-01
1.438051837403345745e-01
-3.475254097979606493e-01
8.850878104977999428e-01
-2.268449730602719594e-01
-9.116065999367559680e-01
1.560375580203356705e-01
4.669002998188844650e-02
-4.594245172754612971e-01
-3.206383261406482443e-01
1.983713693023350655e-02
-6.055517963830386874e-01
4.208034555198909010e-01
-4.124037877015610531e-01
1.188414425006946579e-01
5.276625300525863288e-02
9.598296952373477353e-01
-5.344209385411510249e-01
4.465894397744738509e-01
-1.782138584211691579e-01
-3.107705387465301006e-01
-5.219861433840971010e-01
-3.917283502998284428e-01
-5.221640054296149414e-01
3.885133275268113917e-01
3.466463696007531237e-01
6.154159387620676824e-01
-1.108661205361950453e-01
-4.442133038616646323e-01
-3.890638884167859635e-01
-3.495008735242466913e-01
-1.505616807310570515e-01
1.685203202281683188e-01
-1.123673394650031021e+00
-7.081193291686967983e-01
3.374492835178044547e-01
2.646649241373255634e-01
-3.749885520005941664e-01
-2.301975116771083352e-01
1.827681417023755694e-01
2.312893955154211589e-01
-1.028587901359298423e-01
-9.384170594562292189e-01
7.653647508673004640e-02
-4.139991131247705014e-01
2.757014200528740480e-02
-6.397229779662538807e-01
-5.834071401130026535e-01
-3.258250443565269827e-01
4.876047641460327930e-02
1.026975373478559439e-01
3.015729591739725324e-01
-1.957469871827779706e-01
-3.100853077618684339e-01
-4.536097031245345801e-01
-3.349814107685774034e-01
1.618011130145007720e-02
2.617179491337407460e-01
-5.651043522263675400e-02
-1.137547435879941206e-02
3.767177827969266923e-01
5.527447385794614920e-01
-1.090807292073488026e-02
-6.523238187222202278e-01
2.886778413499038187e-01
1.633414744182906664e-01
-3.267065557008762555e-01
6.265654750121602695e-03
5.714811433455053991e-02
9.704025272611712660e-01
-2.794401315661955709e-01
-4.358889078693491403e-01
-5.541424779995788447e-02
1.025589034451590276e-01
1.136990477158713458e-01
-1.041746050639120513e+00
-4.392161796142998731e-01
-2.825710294980707804e-01
-5.213779886366077393e-02
-2.435593763350249463e-01
-4.323055493156146012e-01
-4.781641098906486143e-01
-7.217688510442385463e-02
-3.677077111857166014e-01
-5.085378322612255086e-01
-4.559996597629871196e-01
-4.995175843264210713e-01
-2.419036782067049696e-01
6.454431196320222774e-01
7.596692970923607513e-01
1.770067095081897524e-01
-1.509110497536195195e-01
-4.116248156803740121e-01
-2.494313220508445270e-02
-6.450692922138080709e-02
4.508346284618448829e-02
5.453698929985505428e-01
-1.075203329468412961e-01
-1.000117660501325778e+00
3.111698142272814605e-01
-4.201275785251958050e-02
-3.471363876521489367e-01
4.351890272002916227e-01
-2.115407636504834099e-01
3.946489381500828397e-01
-3.564770578285180735e-01
-2.825203374534074330e-01
-1.849034607397558316e-01
8.625107785342680522e-01
2.571868093747398110e-01
-6.639602350155268118e-01
-3.662711130874526932e-01
2.270608345024216768e-01
