-7.847208943801899927e-01
8.075966696429879299e-01
-1.122725276256838177e-02
1.611521168082615529e-01
9.991094849696133262e-02
3.662864973512399147e-01
7.691588350977844879e-01
1.899916516126467225e-01
-1.518238014799322133e-01
-3.346471754763931106e-01
4.256331570861745378e-02
6.726159517363210494e-01
1.391385343997478263e-01
-2.969386886930669434e-01
-2.522592776843315954e-02
4.705362239594518270e-01
5.696576217647818519e-01
-1.192308895150538672e-01
5.054347133833213546e-01
-5.996020005115135776e-01
4.250511499538531801e-01
4.625895564817777972e-01
8.564733663355690307e-01
3.245171696748300749e-01
9.066534649074925456e-01
2.696060735879743375e-01
-4.854060001542548908e-01
-2.829171849429784058e-01
1.744866806082427391e-01
1.080923587595982727e-01
1.035901317343882189e-01
-8.521484711726640127e-01
5.262698283080027295e-01
5.591038213615533436e-01
2.420653316611467709e-01
-1.132501539746648758e-02
3.928483920247633487e-01
3.188771157295586800e-01
-2.777763913382880756e-01
-6.151631399877597328e-01
-6.433213142825758291e-02
3.786005537921147135e-02
2.988289356369227545e-01
1.297496031309643694e-01
-1.369347139654581713e-01
-6.429267561077282034e-01
-1.917300614161032146e-01
1.342255759705243967e-01
7.859452617017052001e-01
3.670805500434002888e-01
6.727052849673826884e-01
2.088407512614014472e-01
7.497287839473200377e-02
7.463878366977765300e-01
1.335935158300994019e-01
6.217275586025809986e-01
7.330175644328705831e-01
-8.295103243260244785e-02
-9.938342854865364062e-01
9.109619281610076280e-01
-2.278683080588502496e-01
-7.407644615853820058e-01
1.853908126430383885e-01
3.289222093999236152e-01
2.196622154573465158e-01
4.708926091569093919e-01
-3.024460948340964087e-02
1.560254001131023138e-01
2.699727050036959675e-02
5.498471352458497163e-01
-6.095271027467098479e-01
-3.825108904458386916e-01
-1.239536670889271192e-01
3.925781519773120509e-01
3.930084015849708567e-01
3.745559333275460534e-01
1.636289947218937946e-01
-3.461664729137923224e-01
4.547564519047964798e-02
6.914087227011864734e-01
1.721714558343963308e-02
5.997519330652101299e-01
3.278889995969601623e-01
-1.239862659198173733e-01
5.130563278311735254e-02
-1.243441009711635514e-01
-7.834798045568543978e-01
6.397677737598952419e-01
-2.946510797596336717e-01
-5.426657987996824639e-01
-4.383282086907888120e-01
7.061486041651927614e-01
8.508466226709745506e-01
-2.324311413804329152e-01
-5.824323994115885306e-01
7.716526477738618051e-02
3.588953028743878115e-01
-2.334875427637386758e-01
3.352500816443593767e-01
-5.537920750857445729e-01
6.544006146296550697e-02
7.209889074522009278e-02
4.672134652566140023e-01
6.928232386813070187e-01
6.584334617859424199e-01
1.926757565754599333e-01
3.814096918866450303e-01
3.204006966389763567e-01
-7.447068614111787554e-02
5.809392839062527125e-01
4.558392018984166322e-02
-1.048916363741599772e-01
1.741991973956061590e-01
5.729359894753516258e-01
1.547886762785960491e-01
1.767485413405218420e-01
3.901722925653727247e-01
-7.179459336645227507e-01
9.094765272613320253e-03
8.586877737209276384e-01
4.248226252135628989e-01
2.590198940103736747e-01
-7.760000509429601512e-02
-3.306821427832221105e-02
-3.239648667308653862e-01
6.213672171789657028e-01
1.669909149122927594e-01
1.029122650295971261e-02
-3.656652275113477235e-01
4.812432180280850624e-01
-3.938551330522323535e-01
1.320025914894313313e-01
8.115150437213396184e-02
-9.509082762227361041e-01
2.426129833299831839e-01
6.305024848522582381e-01
-2.917657954894805478e-02
2.734970200562533149e-01
4.970547539366372836e-01
4.502649989586962609e-01
-7.553141225232883338e-01
7.231058946737559667e-01
6.182000466350185963e-01
-4.182689554603756243e-01
4.759604597837566176e-01
3.424525081693958750e-01
3.325567892789286217e-01
-5.047464054724726257e-01
-2.349951106547473051e-02
3.190573785159458442e-01
5.202879983089064159e-02
3.428264811505843390e-01
5.411132157114161290e-01
-2.215144894063560133e-01
-2.501511684353230347e-01
-1.042594023262729402e-01
-8.299317841741116197e-01
9.279825033347256780e-02
2.563147650729684091e-01
3.683719577007427137e-01
4.350342076671877556e-01
2.509248471440780337e-01
1.527440500261779965e-01
1.442465074645815637e-01
1.173398810125269864e-01
-2.609306937615060162e-01
-3.225615382873773251e-01
4.208461777417282224e-01
4.361078410951314543e-01
4.545804394364870160e-01
-6.766357013646927543e-01
-7.387973006430545268e-03
-7.778686919306120051e-02
-1.807894343636350376e-01
-2.084884119251419199e-01
3.975713726720823127e-01
-2.377174125827000439e-01
-4.431056744852306939e-01
1.158183629504253020e-01
-5.851235908872098011e-03
9.933262602166939570e-02
6.010124839416466913e-02
-8.246500537147333221e-02
3.228621359707841559e-02
8.699374898254771948e-02
-8.656964609162555446e-02
4.192599463094883183e-01
-4.399704565625316977e-01
-7.850848845638613849e-02
-1.388726519127408687e-01
-6.556359369112524371e-01
-4.092302204899646023e-01
-8.406934681672854903e-03
8.497481177269525787e-01
7.025832662671723794e-01
5.743867200158369046e-01
5.706961390151540359e-01
5.835946649919039331e-01
6.040561104156930705e-01
-1.199359790025393280e-01
1.900219272495077272e-01
-5.298114347219340381e-01
7.073528428461699491e-01
-3.414061141863090065e-01
7.713662351030756703e-01
7.609084073321796815e-01
2.974479399061463747e-01
1.668632853855994413e-01
4.742092222666208778e-01
-5.415114456143102495e-02
1.488618405493071228e-01
8.127608639555728987e-01
-2.039369737910239344e-01
9.274996385321387926e-02
1.191490476691693945e-01
2.522187756111361479e-01
3.943328304892126934e-01
4.985860643143986137e-01
3.590812629956614543e-01
5.923192727116408651e-01
8.585491830728324558e-01
-6.058756599369726770e-01
3.389323348803408575e-01
-1.646890939656303898e-01
6.075110339549767424e-01
2.197525113461600010e-01
2.587112677865373578e-01
-2.828314428417281201e-01
1.791716483516505032e-01
-1.264941889091130367e+00
-4.619700825017984402e-01
-1.114735302482523921e-01
7.021875942702385243e-02
1.026078526864905582e-01
-4.582857277095420678e-01
-1.221362582601805136e-01
-6.114819983693561278e-01
1.021338152170314206e+00
7.354180329002201200e-01
3.913567617016312505e-01
1.107773037372023900e-01
-7.157812131419254431e-01
5.085837533039239133e-01
-9.423998542550219293e-01
-3.288831261731041677e-01
2.900850993591122529e-01
-9.752802031608476252e-02
3.442755426908494232e-01
2.402071629601005565e-01
4.782668007018887057e-01
-2.496214961300875224e-01
-2.735324714867930496e-01
9.103791021600397826e-02
-6.344352153009269468e-01
3.604397147474176777e-02
-2.109602637443098172e-01
3.163811489331522786e-01
-4.784713293554427455e-02
-2.697435696156861851e-01
-5.866864779406131269e-01
1.001547597383976029e-01
-5.507813964039302013e-01
-6.719776924556568609e-01
4.069858054182526330e-01
-2.948736815138938705e-01
3.784857170920468694e-01
3.296104761388097826e-01
4.054893748981312496e-01
4.709617992664841268e-02
2.538114914039878434e-01
-7.852164202477763810e-01
1.778476812439096222e-01
-5.546412518980020634e-02
-1.323500151669939062e-01
3.448999688403498465e-01
3.872911040072617994e-01
2.203586150875436744e-01
-4.352843056232774677e-01
4.394790113394043962e-02
3.525208381785073786e-01
5.948438480373202664e-01
4.086718302714685835e-01
-3.017232069180544318e-01
5.856629436104435760e-01
3.846556582006096514e-01
-5.643214941517576966e-01
-2.157981056538396947e-01
4.906631464269669007e-01
7.388713322024064410e-03
9.663543466948602834e-02
5.449137818166484015e-01
8.017385394464366932e-01
-5.381422422684840196e-02
8.253124826223141863e-02
3.456551834369636644e-01
-7.097680451151540115e-01
-7.960487210399269653e-01
-3.095912872506029756e-01
3.731049669000798263e-01
-1.093528202479769895e-01
3.003851805323783930e-01
5.207416839355718530e-01
1.251566940781191906e-01
6.472525744073672760e-01
3.803889376747130457e-01
-3.110331048393450981e-01
8.280331221439576339e-01
4.664129991535236885e-01
-4.618889396855273555e-01
-6.917652087257883942e-01
4.577250997321099524e-01
-1.913436435968928276e-02
2.155341923504283941e-01
-2.422638341395628447e-01
1.021675627318442345e-02
6.884685393592805680e-02
1.421344668125658350e-01
4.040274262089491586e-01
-2.306791409961684025e-01
1.029183334675909042e-02
4.966024120262321762e-01
6.030066868493580978e-01
-1.248801850266926250e-01
4.628702505023485347e-01
-2.679863780117841543e-01
-4.803610262239445539e-01
4.931301557629107490e-01
-8.646546984665357538e-01
3.289593808152012633e-01
7.008089624959012998e-02
-7.522612422528258957e-02
-3.399452704182382989e-01
2.056547149768312710e-01
8.127189433767045834e-01
-1.193821196858293465e-01
7.742858976123149217e-01
-5.165353576169486871e-01
-4.399790105734421308e-01
2.438043181628727074e-01
6.123969045505044395e-01
1.467899117987355728e-01
4.788778996544630906e-01
2.465726419490223698e-01
-5.035302438051176832e-01
-2.273164163344206234e-01
1.327430806687436293e-01
7.962512697714555499e-01
-4.299250483010335633e-01
1.032741843487475553e+00
6.131666308297739620e-01
5.663199082100524029e-01
-2.674478944145781134e-01
9.832875979632488272e-01
9.345966796854865422e-01
6.192303018819422800e-01
-4.870714326962883312e-01
1.386144762783798542e-02
4.693301578260939966e-01
-4.756917852459467411e-01
4.985303367629248528e-01
1.667307726664584988e-01
-6.798811182599807657e-01
4.556544270440274214e-01
2.899196766210858645e-01
1.952710422206969942e-01
8.301261286277358264e-01
-3.064064569509415414e-01
2.564389723106311192e-01
-3.364303532945208119e-01
-1.540512328347503901e-01
6.225800249510670126e-01
5.385001791252066322e-02
3.734705311603249700e-01
1.964238702370742495e-01
2.831917793727536936e-01
1.454979200135157746e-01
-1.047206377322331905e+00
4.196742947865392259e-01
-6.523998264033793459e-01
-1.827811128470582525e-01
-3.959568851648086474e-01
-2.179771600362176431e-01
-1.963179668456301041e-02
-3.276035875949999676e-01
-1.557734380047560430e-01
-1.540085369441935026e-01
-7.162642589075389754e-01
-2.833926636300304613e-02
-8.436259158397421132e-01
7.270213514071394156e-01
-4.064378232919723666e-01
-8.307430962676393138e-02
-5.944554925347390190e-02
3.295048219244278154e-01
-4.449535494996179619e-01
-2.897880152285653432e-01
4.814319556877953987e-01
2.828195277650978334e-01
-4.436100282932309846e-01
-9.703618095165850166e-02
-2.341411488026612364e-01
2.844437999417765428e-01
-7.802400493403556236e-01
-5.148544088711932976e-02
4.370180522935001033e-01
-2.840108479573666411e-01
-4.907203074463146186e-01
-3.052450096680039970e-01
-3.973970683679478762e-03
-5.334686266888533090e-01
-2.548854541020588171e-01
-1.042897761703825976e-01
2.545618773402782420e-01
-3.802242862196462680e-01
-9.744344959566327846e-01
-1.098895900028654810e-01
-8.104896328138889716e-01
4.729840617378853751e-01
-5.590604038274372689e-01
-3.846646975547626246e-01
-2.122417375396619399e-01
-9.038739308474237621e-02
-5.494184662966282717e-01
6.871231709808657273e-01
1.617727940199170933e-01
6.489237542597545705e-01
-6.549369148381177785e-01
5.216136527669253953e-01
5.338051624654367444e-01
-1.357414153021354042e-01
-8.623114640967716182e-01
-5.538655120511382091e-01
-1.513898872413400598e-01
-1.089015162698656392e+00
2.418707150162512365e-01
5.105470590576952766e-02
-7.548016372059215273e-01
-2.943725703882024147e-01
-6.341513520583663688e-02
-9.740825029371447119e-01
-6.630833868794691055e-01
-3.649663541780900911e-01
-1.342758871887244077e+00
8.538467996707015117e-02
3.067788023105134654e-01
-4.188557357757888289e-01
4.563216098904039342e-01
-8.074117576863893975e-01
3.886783991906332669e-02
7.286906380281220619e-01
-2.353725556526505280e-01
4.545740417218274709e-01
2.438565723544895703e-01
7.234511827095073677e-01
3.814686326208451828e-01
7.887063155746598664e-02
4.596447777720699679e-01
1.365753845628162044e-01
-2.681012126309059163e-01
-2.389738054868194295e-01
5.060730530617782996e-01
-2.628025506966957803e-02
4.065020648373154910e-02
4.995146918970724270e-01
1.024845607695917593e+00
1.339744968249849399e-01
-2.586392334953002692e-01
-3.917036858780050257e-01
3.385951776125026846e-01
-6.570867107433073784e-01
8.986721100211922941e-01
5.181263477978942378e-02
2.389531631827283564e-01
1.594414712282929761e-02
3.478157477524997931e-01
7.237235843906655308e-01
-5.155813258931847554e-02
3.275653500730677514e-01
-6.769825633807163845e-01
-2.332816259439051965e-01
-5.023308796259796649e-01
-2.262212047543285809e-01
1.331582054303409035e-01
-1.245950560561309983e-01
2.136246656923670717e-01
6.871528098076926661e-01
8.056426244460845876e-02
-1.912370900937241658e-01
-9.027806390723467356e-01
1.545585730143102798e-01
5.892790095376436721e-01
6.694788902253925311e-01
7.881875361068198249e-02
2.970841251229403013e-01
2.102653574892801927e-02
1.312847403505318089e-01
-2.014197834794741182e-02
-1.083417534841422114e+00
-7.202900780392064162e-01
-6.985754285018986875e-01
-1.465440716940688670e+00
-7.020224148204352588e-01
4.867105542840801102e-01
3.089595802643612665e-01
-6.335897535804639602e-02
7.455891758059594032e-01
-3.957650082634827093e-01
-4.043518787885177490e-01
-3.285110629893330247e-01
5.412768128710007121e-01
-3.646685544828338621e-01
-1.108221984460019544e-01
3.972320367717103312e-02
-9.304829101869717400e-02
-1.815898850375752271e-01
5.507489200156941989e-01
-1.398293905823556060e-01
4.135458938873080026e-01
-8.203328354615978535e-01
5.957535283240107393e-01
-2.462523939788024627e-02
-1.049940983217332757e+00
-1.797294491942889316e-01
3.115892494234115753e-02
5.188317080699934580e-01
1.826127595245333191e-01
8.360975404809130318e-02
4.899058471240632651e-01
-9.429015244296633513e-01
-7.807405466829662501e-03
4.845093387271418583e-01
3.428974763260040359e-01
-4.615110983556234281e-01
3.182165812389115556e-01
1.032682511658840951e+00
-7.522418618361274012e-01
7.498571683777996988e-01
7.470370481791570594e-01
-2.578709588577583478e-01
-9.976471974088647610e-01
-6.627173567507903540e-01
6.743502193259062194e-01
7.046356259452468684e-01
-1.250884065952290458e-01
3.590574425455339558e-01
3.964680820837340053e-02
-3.518614212839625277e-01
7.546735200377596708e-01
1.883689778711736817e-01
-3.035767438009530084e-01
3.600829948236245470e-01
3.572209780080472241e-02
2.572077131217952450e-01
-4.175552485513864265e-01
3.141403844233953135e-01
3.576514919173144347e-01
5.408527128860357580e-01
-5.406507138485928676e-01
-1.126175124378017145e-01
-4.310151103144276297e-01
1.458363422379439223e-01
3.017236141140348105e-01
1.120586235840322076e-01
1.007174248676713790e-01
3.751630703274540235e-02
-1.406224561877403023e-01
-7.640458474342479711e-01
5.547973398621934837e-01
1.122924295153544388e-01
-3.298225577619256499e-01
-2.388623473786753715e-01
2.602080105237833396e-01
-1.426613639879015238e+00
-2.173481801914714240e-01
-8.756785820123874631e-01
2.311296957376172134e-01
-5.348423402099301560e-01
9.388188733487420889e-02
-3.264212648826507746e-01
-3.296523582393600105e-01
-3.400603504772917729e-01
-6.582162867701167874e-01
-8.717125295551154673e-01
-6.451548327537800498e-01
2.074701069781798371e-03
-1.405340429792103774e-01
1.156653730824731691e-01
-2.639957701894145581e-01
5.800497889617397540e-01
1.161486608002190585e-01
2.273736820879233289e-01
-5.772868522252593282e-01
2.100829941766496900e-01
5.484911249210256967e-01
8.812159301108406506e-01
3.850463935400731952e-01
9.206964390591597380e-02
-7.086531564928706395e-01
7.231535236644898862e-03
1.309990985428836352e-01
-2.694590524325203851e-01
-2.349266518096759515e-01
-6.604993021911084727e-02
7.027976574949748034e-01
1.944485023463379814e-01
-5.113809868485874599e-01
3.050170666579548814e-02
-6.099415597325585914e-01
2.038206991135443624e-01
-5.752995215560063880e-01
-6.946438019034771871e-01
-4.657972601113580802e-01
-9.562226803382176676e-01
1.076725212667815484e-01
-3.100725189943470683e-01
-4.164806210750916504e-01
-7.132352674427248074e-01
-1.786184311932299262e-01
2.589700416100599104e-02
3.630845496596853128e-02
1.323019089004662807e-01
3.444537714813552393e-02
-6.069410680389157250e-03
-3.864314750269481347e-01
-4.353325999890381159e-01
2.326957882524053056e-01
-5.429038415932522232e-01
1.019808801040824192e-01
-6.409670726104313987e-01
-4.223876189472087206e-01
1.996393301030277012e-01
1.238531799325228722e-01
4.082126992778498109e-01
-2.599089662651283827e-01
-2.635730958273462265e-01
-1.703136985569425610e-02
8.201932604096434654e-01
-1.018770950959597688e+00
5.535070853268490021e-01
5.953083752423984354e-01
6.713638070271850111e-01
4.646334026460875455e-01
5.160731739652528738e-01
-7.410020678159683349e-01
-4.912890911638742031e-01
-1.297058821537921958e-01
5.047689211919085261e-01
1.720709103108897520e-01
-3.186811283150895457e-01
2.466675481450904261e-01
1.639770258816069526e-01
-7.080099835774520400e-01
4.334791591334644784e-02
5.545585138937934033e-01
-6.221097384175131584e-01
-2.826295901351644768e-01
2.228687278484589585e-03
1.485453333470957149e-01
-7.386068640768901628e-02
5.326455590276069074e-02
-5.938936381607726744e-01
-5.817037736857192526e-02
6.547407329728531789e-01
4.602617462851289476e-01
-1.469719965998617928e-01
-1.249881706890693112e-01
-3.308032807580935653e-01
4.558467334026886086e-01
-2.294622474484496188e-01
6.960427751215458869e-01
-1.046347454767070140e+00
-3.860027384878216283e-01
9.437886463950391491e-03
1.229213319667803173e-01
-2.962967278535065183e-03
-6.874258102056979292e-02
5.165070255300101554e-01
2.413656959937496849e-01
-7.980707434023415203e-02
2.776051255316806521e-01
3.807241415187930245e-01
5.852160680975657669e-01
-2.445938727447180550e-01
-1.334566407872446181e-01
-5.678380104401610229e-01
-1.756246823050322536e-01
-4.235572498651320461e-01
3.319761564543309285e-01
1.761186247076045597e-01
-1.884192572787542902e-02
-1.753390580443948688e-01
-7.317271049476409273e-01
-5.605004533072684841e-02
-2.184077713370995155e-01
-1.940742034107605790e-02
1.042725509440196180e-01
2.468183202363213868e-01
-3.949002115821395598e-02
7.164134801824709742e-01
-3.292033907235519807e-01
5.277323149841484096e-01
-4.436865613130118180e-01
7.658139981351406167e-01
-4.946239221127797236e-01
5.760585975371564915e-01
3.952184007347164796e-02
5.589533356081711757e-01
5.103892375587710806e-01
-5.804018283563283642e-01
5.872214082075847275e-01
-6.333637940791982945e-01
-6.379515220538868325e-01
1.933953722079549131e-01
-1.174326157020517680e+00
7.720997711629916660e-01
-4.575448753813379232e-01
-2.676137654121338860e-01
-2.467770205695616059e-01
-4.291068449595661360e-01
5.660562291375004218e-01
-6.898500431565982582e-01
4.845021039368508919e-01
5.979264493275174286e-02
-3.463138162362064398e-01
4.254982045793416767e-01
-1.472989815957334025e-01
-9.600043687977051488e-02
-3.083433997714967734e-01
-7.740193308552122398e-01
-5.818711359992957410e-01
-1.958817890664031891e-01
-6.801588710016545081e-01
-1.467123351073077071e-02
5.738201382536745054e-01
5.053236850457289986e-01
-3.587259201955721455e-01
-6.847860080421377393e-01
-3.823413945042877238e-01
-4.102997598739205332e-01
3.894240083825797338e-01
-3.189642912750586534e-01
4.173326706251122564e-01
-3.444471784966360861e-01
-4.410935146032133880e-01
-1.108614726585427590e+00
3.953799976918377923e-01
-4.019230169266187203e-02
-1.793896235191682897e-01
-9.356463987410189309e-02
-7.795700564360292795e-01
-1.184625331766185452e+00
-3.881095795833670870e-02
7.309188876217989628e-02
-6.468545425097291801e-01
1.267854428697996749e-01
-6.322058231426144204e-01
-4.093729980156508574e-01
-3.454705606875664303e-01
2.677067256075456037e-01
-1.425596160359457742e-01
-9.607621969502911918e-01
-8.761888820892991259e-01
2.333734557372457163e-01
-3.606971832597982153e-01
-3.473765749192625485e-01
2.733332311440896389e-01
-9.402759362501028617e-01
-1.454582001002114877e-01
-1.638736792248780272e-01
-7.424294913259600337e-01
-3.919265604773417566e-01
1.202062316831395000e-01
-4.749373208640663702e-01
-2.466318115117081822e-01
-7.775326539394825653e-01
5.304154788122210640e-01
-6.342844976554720682e-02
1.274728029711594268e-01
-4.041449123263606003e-02
-6.567277712643416754e-01
-1.609844715265685844e-01
3.817105634039894002e-01
-1.448963547588939527e-01
-7.902662661742383410e-01
-5.088393474284728102e-01
-1.290496278610160363e-01
2.977068072690090550e-01
1.657644069857132918e-01
2.581533671240157646e-01
-3.891886191851062771e-01
-8.909589140678297881e-01
5.835633456344334613e-01
4.961985851551974913e-01
1.683993460630412017e-03
5.911857684440294802e-01
-3.328985601539012906e-01
4.155459512580020331e-01
1.374145369679368456e-01
-5.445679385310630005e-01
3.165452905170987319e-01
9.906206676114431842e-02
4.549310563561055343e-01
-3.291793671351643247e-01
-2.612369020086247606e-01
-3.356918345466982645e-01
8.280573599955565189e-02
-1.164240644429571925e-01
-7.674668163502190721e-01
-1.074180831911334177e+00
-2.275355674209455226e-01
1.222473879518629902e-01
-9.024098559899282335e-02
-5.370997180549180045e-02
-5.168441831758240346e-01
1.584575549183076526e-01
-8.355847541728292360e-02
-9.205487319926222156e-01
-7.097138471845428898e-01
-1.813506345717721124e-01
-2.790632309565439784e-02
-1.247993497175877396e-02
-3.282813534646848025e-02
-3.711231491809662275e-01
4.170554256635198853e-01
6.674013318563380703e-02
-1.926882015256496106e-01
-2.207979270568546232e-02
4.658517521315963528e-01
-6.300765277343026716e-01
4.333006351320003446e-01
9.955165616672988216e-02
1.513691063208806309e-01
-1.044467272222079357e-01
-2.892327280471859163e-01
-1.381025480887849932e+00
8.028042228961687066e-01
-4.262438980666913291e-01
6.962626409671247851e-02
-7.050715078394483859e-01
-6.401308748937438731e-01
-1.548556368568700103e-01
-3.366284332255780609e-01
-1.325305489082511556e+00
3.980014683263312092e-01
8.985335886379253179e-02
-4.731578068704221374e-01
-1.823153712753712852e-01
1.752884196842777742e-01
3.177465507990554494e-01
-7.739759308587217390e-01
-1.902106787485844941e-01
-6.152119119981938056e-01
-8.129583660367044606e-01
-1.756227709085438349e-01
-3.089764806445050582e-01
5.143813128878044205e-03
-6.926910701550126337e-01
-9.266041424697463169e-01
-5.821301995154636033e-02
-8.966121041426379223e-01
-1.017946339191245553e+00
2.866721820783030283e-01
-1.129274590185863181e+00
-5.568835199293434290e-02
-3.603759698247989141e-01
3.342541723765353745e-01
-9.968352984419956986e-01
1.749321628477454316e-02
2.230833883968591780e-01
-4.885421007709238039e-01
-1.601568075942651215e-01
2.728202541201814046e-01
4.989216792597357952e-01
4.646158200967389074e-01
-8.956796302815335509e-02
-4.437624836512303883e-01
3.945306358852900264e-01
-5.772933214304115657e-01
3.480947925520525010e-01
-2.765405277790326521e-01
-3.617973365934790131e-01
-3.785392904359595467e-02
-1.534719877712482639e-01
-4.187138975649248307e-01
-6.169992310168286309e-01
-5.107534299318881033e-01
-3.432433712060005693e-01
4.063098818788751232e-01
8.376355463827005188e-02
-6.003209056466082272e-01
-2.340100815241862031e-01
2.488942449369525023e-01
-7.175476039981159015e-01
5.602998540235337721e-01
3.180524919977973930e-01
-5.007013590333798669e-01
7.257001008722209212e-01
-3.175638933786718021e-01
-1.410230089572950818e-01
-1.175466480725511964e+00
-3.984058980583144449e-01
6.894042602450671797e-01
1.368823377241437655e-01
-7.480566437237756716e-02
-4.896817312023846874e-02
-3.405228137110628828e-02
-4.675582554371077171e-01
-2.628601261251903853e-01
-2.257790163602295674e-01
-3.863683030171429778e-01
4.915798683604025165e-01
-4.475769198974236668e-02
-1.744899693760250114e-01
-6.543141276737362011e-01
-6.063108248245979714e-01
1.499362640838466376e-01
-2.700866927201782675e-01
2.019699377150653563e-01
8.927536791901478919e-02
-5.195546860914540543e-01
-7.280137446787771083e-01
5.907737094177243353e-01
-4.891107651506313436e-01
7.886077450245441989e-02
-4.413595827323678611e-01
-4.901546892500333596e-01
-6.058799526745229924e-01
-7.981985918418108561e-01
2.071434356372656715e-01
4.754589055621930571e-01
-1.248946189567825549e-01
-4.580310936626850737e-01
-1.583658583382364093e-01
2.169712713551554539e-01
-2.876335627675671858e-01
-3.763459683897290575e-01
-3.042689469795647472e-01
-4.623026544034608554e-01
1.527790161446520023e-01
-5.826522448257385189e-01
5.252808097195896808e-01
-1.205927114381587645e-01
-4.924100150300336209e-01
2.469627754672719389e-01
-1.099245730272590121e-01
1.858863785771453295e-02
-1.719704553621758947e-01
1.486010061422644857e-01
-3.350434672738218933e-01
3.314077924653183738e-01
-6.178830891310967965e-01
8.047460055470005702e-02
-1.753731804849405773e-01
-1.227376826570694801e+00
-1.182309986020749326e+00
-5.887025321410296885e-02
-1.023520611922063839e-01
-3.198239794482513054e-02
-7.874761033070031002e-02
-2.095954029547662800e-01
1.193653248621286828e-01
-8.361139578454725996e-01
-5.770531285207461947e-01
6.439297181231895539e-01
4.080327990870916133e-01
5.067057223444927372e-01
-1.341075973367176696e-02
-1.653491130583907287e-01
-9.294589385981807395e-01
3.202295370438815736e-01
-3.216932852126941356e-01
-1.159529671039377374e-01
-6.821259142108475615e-01
-1.151902586631344816e-01
2.782739302833555639e-01
3.370752421572895119e-01
-5.762144744483855933e-03
-6.818025776788293468e-01
-3.204485953416276178e-01
-7.134665206438688401e-01
-7.216701143826856901e-01
7.400580134057582748e-02
-5.480319166442284562e-01
-6.703886888364696262e-01
-5.504997879851386555e-01
-1.004574670135356840e+00
-5.917690666203516414e-02
4.599506926331555223e-01
6.383432597495043714e-02
-1.268129119985165199e+00
2.980317981960958762e-01
1.986231103620591798e-01
2.020607817912363491e-01
-6.067694889532916358e-01
1.228112228994195920e-01
-3.324176482446358216e-01
-4.195584445227488191e-01
8.556381957014858042e-01
4.107160799306444621e-01
2.421303231724834804e-01
-1.105431503144907346e+00
-5.516793749901741650e-01
-4.672991915756707360e-01
1.006387549369741896e-01
1.195183552222626872e-01
1.378755874884901034e-01
-9.624499028187988303e-01
-3.995983879445575426e-01
5.261731527091596528e-01
-1.007622634317204335e+00
-2.744245927146427011e-01
5.008094825970206554e-03
6.945038786158113098e-01
-2.288768513715295494e-01
1.350624896139238085e-01
-1.079648368757338689e-01
4.127763668415189435e-02
-4.772362083054169091e-01
-1.033607310023541836e-02
-7.203280653937673694e-01
-8.373151765470152053e-02
-3.021458678438159184e-01
-3.750228702588938590e-01
6.582230335115474285e-01
1.413781210616074924e-01
-8.994974937581081686e-01
2.483773962066266119e-02
-1.073059817896527823e+00
2.705407416974108803e-01
-1.306838485418061468e-01
2.492271716282333516e-01
-9.010551083438833597e-02
2.314210542936994200e-02
1.086815339424841709e-01
-5.113524209764681583e-01
1.593094909722539976e-01
-3.845928684503998052e-01
-6.795200875757293479e-01
7.441329121262831026e-02
-4.052672373064737377e-01
1.520375638365696058e-01
1.002132839716203122e-01
-1.394412513456561309e-01
-3.479640316813546463e-01
4.144466922980481471e-01
-5.229356472644771658e-01
-8.583547897246748271e-01
1.779889044112094865e-01
1.556143416953623959e-01
3.554948299660602995e-01
6.978551812209022875e-01
3.428299892943952876e-01
-3.168541923054552512e-01
-4.414583367912633949e-01
-1.301267945431103246e-01
-6.570838142818834493e-01
-6.919488209881432539e-01
-6.711235752110426001e-01
-9.087178564516086576e-02
1.958527101268692783e-01
-1.339742756469071150e-01
4.605656735346840835e-01
-9.824797553462338850e-02
-1.760446973728992948e-01
-4.827217510725378968e-01
1.064113087135054453e-01
-7.553046151634126848e-02
1.057385068536990658e-01
-3.560238125870915371e-01
4.870542505239078834e-01
-7.552001660473097733e-01
-5.232257613706227106e-01
5.261387504832293338e-02
-1.107237749300110652e-01
-4.301372755982857399e-01
-1.088143574459796481e+00
-1.695516613369734693e-01
-3.951699535603685476e-01
-5.781658859502104564e-01
-9.406761537900787395e-01
-5.346166750316169169e-01
-1.351640680854050702e-01
-5.672977184534856443e-01
-5.065658285713350167e-02
1.867781560958266529e-01
-9.873404165642558628e-01
3.140783312400901445e-02
-3.867259042326522955e-01
-2.797293590303990829e-01
1.216420729681707974e-01
3.391371245282607805e-01
-3.113441216080006235e-01
5.014255064968670128e-01
-2.454517541292578209e-01
1.325892728238468599e-01
1.411235047733786219e-01
-7.771098641151230613e-02
2.515047113831721526e-01
2.817121715663156722e-01
3.666297519206514199e-02
-1.591328059793781224e-02
-2.612868926383956625e-01
-6.339979993114026879e-02
1.042742185772725649e-01
-7.689801245715803535e-02
-3.280171925423874257e-01
-2.338544243891492735e-01
2.007398093142118665e-03
-3.944766101347662590e-01
-2.708677866680957447e-01
-2.139805717317604938e-01
-3.708619907131544546e-01
1.009294914649182251e-01
1.659022196863988718e-01
-3.554488053158482153e-01
-5.387237568741982674e-01
-7.867524732118674757e-02
-2.876885175835167674e-01
-6.708021371598273941e-01
1.912523447985683411e-01
-8.457693145136117863e-02
-7.394861710856256987e-02
-6.491862362521679808e-01
-1.329114063028969672e-01
5.044715516415101270e-02
3.816588217045615572e-01
-4.140399276862641864e-01
-8.365600294024008177e-01
4.143345849328606278e-01
-8.014360866040218800e-01
6.113693163887943260e-01
-5.903103766930105634e-01
-2.621359079483694468e-02
7.600386094005708026e-02
-2.686446768374488488e-03
-8.528378662337945393e-01
-4.499464769044091844e-02
7.555492251195017068e-04
-2.916222392580837264e-01
1.448498518926462668e-03
-4.115982824787810940e-02
2.315021484481757374e-01
2.287012522818658300e-01
1.144344649154026283e-01
1.500026505852098888e-02
-2.634238182434446851e-01
1.645254091240434258e-01
5.717601929314092973e-02
-6.689275393989669860e-01
-4.121524805345472275e-01
-6.741632401135094765e-02
-6.212946473389250324e-01
-1.378619844080939405e-01
-9.039706610931855790e-01
9.747545571924233487e-02
-4.829162053997518300e-01
3.463723171540798451e-01
1.504388108202829311e-01
-2.187395090959805555e-01
-7.970203789897112312e-02
3.669269957223256773e-01
-3.471698239922027529e-02
-8.220015248393555130e-01
-2.513113814989245687e-01
-4.593584834967462394e-01
-8.816611866597934277e-01
4.498276345968167389e-01
-1.934991561194238652e-01
-1.275425448822181153e-02
-5.970739994140159546e-01
-2.423899349359626421e-01
-1.386121627359600261e-01
6.996703078696413503e-01
-2.378242341588509279e-01
2.049269706733544139e-01
-3.458341238532517958e-01
-1.491565828770993196e-01
-5.264852361679946968e-01
-6.940269955651778844e-01
-3.793983495333562161e-01
-2.922074411420452766e-01
-6.626211488264750760e-02
6.035609888610698331e-02
-2.523925877753274705e-01
1.691298227351963890e-01
1.912020134292385098e-01
-3.539455130027620994e-02
-1.573295602229887458e-01
1.052638842666144964e-01
-6.536877924076714974e-01
9.287564561759618920e-02
-7.764002717031411871e-01
-4.994279476272298068e-02
-4.980074483817663045e-01
1.592340074664556904e-01
-5.473080276696020707e-01
3.080836754405784639e-01
-3.863796415582647359e-02
-8.409283413602104684e-02
4.328493509108268800e-01
-3.496372316506974331e-01
-1.056570352774294924e-01
-3.671916080891156082e-03
1.371509989295251752e-01
5.901331430655176735e-01
-8.265986095530934996e-01
-1.928902093247172322e-01
-1.042440315908800041e+00
9.753666621948323123e-02
-5.108528542282814167e-01
-1.828571886431443472e-01
-1.275330190009268116e-01
-5.645034473895786664e-02
-7.851337846170565182e-01
-3.444870079819551956e-01
1.918247090378195074e-01
2.472111010733838155e-01
-7.495249215790005248e-01
1.079040807458834898e-02
-3.719029109027672253e-01
-2.641262311214662706e-01
-8.004336880577248015e-02
-2.072746289871724990e-01
-5.925480399145240940e-01
-3.710330256295744089e-01
1.429848873553193067e-01
-4.747791902872717795e-01
1.069954376460584555e-01
1.060893001928755741e-01
-5.750162836615012596e-01
1.777084771526967477e-01
-4.565926431177642630e-01
7.021904526627555099e-02
-3.601690589441429724e-01
6.079489033745692772e-02
-1.141565355835711254e-01
-3.424094089833733257e-02
-4.449031240699772433e-02
-2.139807323283373641e-01
-1.673765629101608421e-01
5.336260714864379806e-02
-8.541199793213940031e-03
3.134945928309457175e-01
7.541411838633094167e-02
-6.611277870464733475e-01
-5.171121414328788690e-01
-1.171149904726649232e-01
-3.120035507737783376e-01
-6.602309151975912505e-01
-8.179157369374519260e-02
-3.599034496614330059e-01
-5.020007404275352719e-02
4.281133542329033925e-02
1.241427897472164588e-01
-3.471433525619118110e-01
-2.674609297420365017e-01
3.549803646458665751e-01
-1.211917970902425951e-01
-6.604425278004968369e-01
-3.799963429477303672e-02
-1.965015613897993368e-02
4.768504386157699365e-02
-3.862169433369471716e-01
-1.467361836531004549e-02
4.183784807723268107e-01
-6.854515264640674566e-02
-8.826797874451836057e-01
-3.000344424435396617e-01
2.329776490322288743e-02
-1.196006814016638664e+00
-7.431082388860773547e-01
-5.231574738319394458e-02
-6.404339711566502391e-01
-2.378370444553541130e-01
5.592088673729454784e-02
6.218579243190369005e-03
-3.191297871810984121e-01
6.246049280685131433e-02
1.310806803344216620e-01
-1.399044830612797830e-01
-1.884108385753151260e-01
-2.472052697606727245e-01
5.194759595460524820e-03
4.643478626974229528e-01
-6.756177702561418086e-02
-2.529203144655962562e-02
-5.251426672372697668e-01
-7.502589915456436831e-02
-2.592300777777364340e-01
6.585452143234603317e-02
1.399665040920557435e-01
1.314412158138389686e-01
-9.096545078799921080e-02
2.328754934209339156e-01
-6.800713714391377618e-01
-2.752734987232991481e-01
1.477923309811749186e-01
-6.051909704444887600e-02
-4.901694738792584660e-01
-1.139910071143468012e-01
-2.202302907249488184e-01
1.101195052043083406e-01
-6.527495611647453344e-02
-1.892865783328327445e-01
2.318061536166939607e-01
-3.559998932438567798e-01
3.214102228272769923e-01
6.218276274312813795e-02
-1.396796268211685788e-01
-7.993635570746885355e-01
-2.081570752497522575e-02
-1.119421436795080133e-01
-5.994171572040180029e-01
-8.958911657087604841e-01
2.016291208736269505e-03
1.184756914119141358e-01
-5.110029694159865521e-01
-2.237353790639886875e-01
1.472518793306525353e-01
-4.114955572729732669e-01
-2.395124389612668658e-01
-4.069913965505700393e-01
-8.859118272698008889e-01
4.038698523547343822e-01
-5.140615716690736248e-01
-1.079558036294424594e-01
-7.569682379616922419e-02
-1.234613221015990331e-01
-6.799454826195983070e-01
1.802795660132782696e-01
-2.478791735224604997e-01
-6.530513577531447122e-01
1.486902033388913524e-01
-3.608940331503060484e-01
-2.685765522659062654e-01
-7.612309796565129572e-02
-1.017809677809600744e-01
-3.633143804991251224e-02
3.177237595812338472e-02
-6.268762209208320058e-02
-1.379657743127619407e-01
-2.120833101689434397e-01
-1.068879889648164105e-01
-2.029419200728614647e-01
-1.162930839570988084e-01
-1.079272430276625866e-01
5.555361829783533531e-03
-2.616929986302527489e-01
-4.431401477925143162e-01
1.701262028040935181e-01
-6.750296276623682923e-01
-7.951887932051874275e-01
2.758357986818902874e-01
-2.563149218600019874e-01
-2.379544778086054718e-02
-2.677712615903584670e-01
-2.682617517313908295e-01
-7.431481237252453298e-02
-8.224135213281734691e-01
-1.194254658565197663e-01
-6.348854184229893623e-03
2.423887996691369284e-01
-1.451990044218602893e-01
-5.723714306588014722e-01
3.278903852586821654e-02
1.693461524407239016e-01
-2.287499272214869594e-01
2.203913416723198848e-01
-3.476705960784402527e-01
5.055812181617263396e-02
-1.998486987771675438e-01
-1.812950770398501776e-01
4.992475201316647765e-02
-7.192740080253801072e-02
-2.891254344457464508e-03
2.020664779174485837e-01
4.972148065419078333e-02
8.751307179799433511e-02
-1.241920636833441886e-02
-2.375403490606496637e-01
-4.132828564371095470e-01
-2.298333445797946240e-01
-1.061965416633855186e-01
-5.811677056205279968e-01
-2.495137229605922657e-01
1.068482355369551884e-01
-6.257652545797102173e-01
-1.812887417968355730e-01
-2.930001610589036409e-01
-1.073481731146817553e-01
7.459715949126118073e-02
5.516373601395195558e-02
1.113494645130522903e-01
-2.111735686521586663e-01
-9.336262451033087995e-02
-1.116893771109239188e-02
-1.923952432163691662e-01
-1.280863736352455540e-01
2.413505717964491148e-02
-7.049387589929396736e-01
-5.997525407720590701e-02
-2.217908071132951853e-01
-2.245949006852491769e-01
-8.354142608510331525e-02
-7.672394004359470165e-02
-1.600608197290492585e-01
-2.884185894676026818e-01
-3.714622405383901094e-01
-1.627739172982664018e-01
-5.197546542014707116e-01
-1.125916403925694004e-01
-3.470753561490238365e-02
-2.408079606926366578e-01
-4.070365628960236348e-01
-2.610183918401534284e-02
-7.077373138464226887e-02
2.474078416709650230e-01
-6.088225558051258979e-01
-1.948751873520631339e-01
1.830781661774419367e-02
4.256278508707225794e-02
-7.721239219624496941e-02
1.182655650794688096e-01
-5.268804670301756587e-01
-1.508582063959442165e-01
-2.277816181876202856e-02
8.580372545802161452e-03
1.175221832364823776e-01
6.560738322854872684e-02
3.408742859474699766e-02
-2.754630131316231356e-01
2.287128012636855390e-01
-3.311514647938775258e-01
1.002027678934757499e-02
4.534286748792362015e-02
-1.540317767237733004e-01
-2.546168921981062372e-01
1.634103926189681144e-02
-2.985776233060026819e-01
-1.697440623626549350e-01
-6.665084318392895668e-02
-1.380205640909482334e-01
-3.049924272921002849e-02
-1.801557594991112787e-01
-4.164050185791067227e-01
3.969660696246777865e-01
1.100693299852447127e-01
1.982282736859209971e-01
-3.948550511816305564e-01
3.224951117580547866e-01
3.715153264874239414e-02
6.802031820483744884e-02
-9.393047720855629557e-02
-4.578044543052962184e-02
5.124321482033725693e-03
-3.012414682731593962e-01
1.536252429921741713e-02
-6.498553080613276300e-01
8.030952305626073984e-02
-4.822727481430392760e-01
-1.750176374980520477e-01
2.203725922711454732e-01
-1.662970182746916215e-01
-3.718390380462652800e-01
2.967542273716419765e-01
2.174027562693497673e-01
-7.265798424843109560e-01
-3.578648469626212747e-01
2.789820719383613312e-01
-2.787806782241906978e-02
-1.502693568523583989e-01
2.620058124890071727e-01
-5.901998487031451246e-01
-9.706678532044695678e-04
-7.954515071672371707e-02
-5.326434203270564716e-01
6.333576316507631698e-02
-1.858855696524397416e-01
-2.524756027926039481e-01
-1.178672564841928404e-04
8.774889839022263771e-02
-1.553386027027649774e-01
-8.609241268375078526e-02
-2.333877335576220111e-02
1.908129569436781310e-03
-1.712586487114043932e-01
7.088094500157429700e-02
-8.456754551493129990e-02
-2.398368510232291584e-01
-1.646121801110049798e-01
-4.993163270987822089e-01
-1.420461805125713267e-02
-4.765802600488692753e-01
2.919293823243989672e-01
-8.401903393835009892e-02
-6.891022774931469808e-02
-9.040660004187757448e-02
-5.263987418911354049e-02
-1.306011308868680887e-01
-1.634735729625451661e-01
-3.419805226453397906e-01
-2.565710169849052535e-01
-5.512494820911335580e-01
1.080690681119315377e-01
-2.695228486851424798e-01
-3.465731804213809664e-01
-1.726075937315645625e-01
-4.554164338141917547e-03
-7.225843001821308231e-02
1.854016962888280495e-01
-2.159773971747974697e-01
-2.831853452549867312e-01
2.380031425683125645e-01
-6.560367556225892016e-02
-4.374835483418756388e-01
-3.863847773115643841e-02
-1.620845191416651898e-01
-9.566107551614738691e-02
-2.314716988421870181e-01
1.260934469093626586e-03
-1.819659466733966613e-02
-1.356685258620574652e-01
-1.053115412917156185e-01
-2.359156544677558365e-01
-1.373613156341667585e-01
-4.855680265314946675e-01
7.488689946134156027e-03
-3.676728726766517741e-01
-3.242978991377172271e-01
-3.924510474505450985e-01
-1.231214154839722213e-01
1.788293166258091982e-01
-8.995346874508571011e-02
-3.513809491699966536e-02
-8.689749888696485236e-02
-5.646347909139422250e-02
1.544254335022747504e-01
-9.661485173369036006e-02
1.217250735235875791e-01
5.443964991657808394e-02
-1.740566904895614608e-01
-9.120408283766635871e-02
-2.204249118268249430e-01
-1.908857234605124964e-01
-3.862642515435225077e-01
-1.496035132965372882e-01
-4.928541541143323379e-02
-9.376012706883249392e-02
-3.289014216029799154e-01
-6.487182838260434348e-02
-7.358606567388215058e-02
3.884990397132215278e-02
-3.477422628920173731e-03
-1.749887247359349640e-01
-8.519926432635344105e-02
-4.402074072805358673e-01
-7.013500294085255049e-02
1.828289396476321660e-01
-2.514190668580290611e-01
-7.807556703104734375e-02
-1.563865590016735516e-02
1.953748711686355277e-02
-2.198882100044535770e-01
-9.060270527112451733e-02
-1.096082287809513056e-01
-8.100642323742056339e-02
-7.344978923337959487e-02
1.612035867427173974e-01
-1.646899716163919766e-02
-7.980273050166067361e-02
-1.022129256846312090e-01
-1.808139081715269547e-01
-1.129983933182373279e-01
2.879879514036281507e-01
-9.539992896531621080e-02
-6.723067077841148043e-02
-2.279329632898923277e-02
-8.235348825415252094e-02
-6.741283855479439369e-02
-5.127385370162346190e-02
-1.103590293998590738e-01
8.753913998388136719e-02
-5.378544344759459417e-01
-8.545699729510235210e-02
-9.301216160034676828e-02
1.423949134270981187e-01
-7.148332959939930620e-02
-8.927495230311378871e-02
1.087681897652778285e-01
5.260571351671832624e-02
-5.058198349990869480e-02
1.162616918344711175e-01
3.316806825634537048e-02
-4.018768533850058944e-02
-8.126819345208632916e-02
-1.662129745648493473e-01
-7.626535120050832728e-02
2.663392665080621322e-02
1.165924341581956597e-01
-1.490724902721975997e-01
1.342231453804268622e-02
-1.251506769139112962e-02
5.580130650065106418e-02
-5.378209154940826603e-02
7.716925952122728749e-02
2.087307545566498279e-02
7.834367385376383996e-02
-2.651676381200794297e-01
-4.420400079909172358e-02
1.869218559847742392e-02
9.397138428460612147e-02
-7.595233314306712447e-02
-2.556118320224686213e-01
-6.936881527059192941e-03
-6.468079606803192605e-02
-1.840648290503705264e-01
-1.182419803847683804e-01
-1.079515785895461197e-02
-5.983642390069426886e-02
-7.419160603939588261e-02
-6.352279338129965258e-02
-9.221530227269313096e-02
-7.355031498272446289e-02
-7.817593911493692094e-02
-1.415442585638263806e-01
1.140973139150914667e-01
-2.992281273615105541e-01
2.595398752272290790e-02
-7.314670952941554338e-02
1.118299893923393323e-01
-6.778867082966835711e-02
1.662015404066148616e-01
7.975229427828557649e-02
1.823909777105117008e-02
-6.661490721312769703e-02
-9.981477367154444058e-02
-6.580285014976351710e-02
-2.099035543234720191e-01
1.410832234975868960e-01
-1.484908950186298454e-02
-5.309224671459018829e-02
-8.247805754674454592e-02
8.050935709586472255e-02
-9.260204540373703774e-02
-7.672300785924543454e-02
1.312365374375130608e-02
-9.111258196830514244e-02
-1.144868694224234762e-01
-7.073533713138671630e-02
4.866099627972896718e-02
1.017217087863988706e-01
7.291452748956037122e-02
6.033896982812971162e-03
5.152771230606426056e-02
-7.371109166619525810e-02
-5.380185827100879975e-02
1.403006183098203657e-02
-8.760518131613270754e-02
9.311935332548475219e-03
-9.011295534622953962e-02
-1.016075098815826111e-01
-8.298769923785141722e-02
1.737828420357377321e-02
2.761214354817633984e-02
-1.055529828443936002e-01
