5.784155154243187935e-01
7.473222290172824023e-01
-7.631527659069897718e-01
2.904022802128355257e-02
2.400163685275847059e-01
8.070760882733810648e-01
4.803913729081686346e-01
1.496628802276641357e-01
-7.816568330275251719e-02
4.944609702000068996e-01
2.754585413232241153e-01
-3.577341167752164375e-01
1.957001175813126159e-01
-4.450953085950118959e-01
-6.857050649942647569e-01
-2.102300478298760322e-01
2.929655226817649838e-02
3.656226704171979675e-02
-1.317353641876612691e-01
-4.551846633603366388e-01
1.058436619960392844e-01
3.729165281011108113e-01
4.519516608092755128e-01
-2.941362512829328590e-01
4.221712313212079293e-01
-4.460465372718486199e-01
3.448494736524285731e-01
-3.339672272432475109e-01
5.070356456352232560e-02
2.837949853725100224e-01
4.464293861858221191e-01
8.299433623382777014e-01
5.282708292621185464e-01
9.471748375841386458e-02
6.151217948547206271e-01
-1.333405201455644951e-01
9.355983205451123830e-01
-3.280501421706960019e-01
2.905542077350003471e-01
-9.962880632359061295e-02
7.439843550097287317e-02
-2.984066343986487360e-02
-1.148843209824408573e+00
1.974979356624498306e-02
1.340222490544684675e-01
5.843493504077238443e-01
1.980669058447930841e-01
6.505843909619103693e-02
-1.860476979465166755e-02
6.322149437691468865e-01
3.646471403427481994e-01
-3.561171820285283784e-01
5.168816000215377127e-01
5.001669591295865303e-01
-2.578666292080266098e-01
-5.521874885949118461e-01
3.683552179104399027e-01
3.855620634766066535e-01
8.363278704319642154e-01
1.135440655469796729e-02
-6.481919454803998504e-02
-2.073400268181372352e-01
4.393847483700096257e-01
3.162131026512747800e-01
1.743168991356572155e-03
-1.239531533557147180e-01
8.095958709196473535e-01
6.350247743118013766e-01
2.795140791974891625e-01
-7.196494830053649094e-01
-3.909449392383102309e-05
6.653258693771733068e-01
2.593749777411995944e-02
2.909012463111165792e-01
-6.419172957254885015e-01
-1.137863406311288711e-01
-2.607731759955584927e-01
2.489218083005263205e-01
8.728589566445736914e-01
-1.673368278051728386e-01
-4.942413748212677246e-03
1.978469990062085571e-01
2.193711270331377000e-02
6.697277481965797918e-02
-3.445181937664027610e-02
-7.090082079109556457e-01
-2.431585188629057162e-02
-2.291157787432308857e-02
3.040023021742827014e-01
5.489832819127247188e-01
9.252484931387357225e-02
7.263680124061914212e-01
1.873585837364932227e-01
3.750761721202027221e-01
5.883807773152613940e-01
-2.647049501234171598e-01
4.969758443409439397e-01
-1.185835565808894404e-01
-4.598493206125319616e-02
6.953301137893462824e-01
6.297478973966037508e-01
8.173950564878420533e-01
5.508981212461088184e-01
2.075448471276004347e-01
7.856010467458619806e-02
5.767896347829356563e-01
-6.275148289874441510e-01
-7.351509051531698313e-01
4.307611675934264750e-01
2.008622314895503747e-01
4.231920059087764807e-01
4.967970860148508416e-01
4.698080500967455886e-01
3.166473286749618143e-01
1.135055706163415196e-01
4.173573619971155946e-01
-6.515541974050618190e-01
-2.657730059405754575e-01
4.813590743897279145e-01
2.835365469970753671e-01
1.397344686049921680e-01
4.779837686548171760e-02
-2.538682029831999531e-01
-2.857039190258734429e-01
-2.452141072243721187e-01
7.969358318145569609e-01
-1.386143798175701880e+00
5.602360313852517565e-02
2.857286202005084041e-02
2.883130049697111841e-01
8.498311802796439940e-01
-5.661048893617161015e-01
-7.649394766462394579e-02
4.790858990159244102e-01
6.034675186982337014e-02
3.092040092227070214e-01
-1.128939865911376128e-01
3.918268255033619529e-01
2.317786738121714873e-01
3.061857705983039857e-01
2.075305384750037729e-01
1.440687146171786281e-01
-2.050327829894649789e-01
1.069818724443099556e-01
-5.058801258155486424e-01
4.421317183344699586e-01
-6.881639004313776509e-01
-1.357187603647578289e-01
3.971673020679843402e-01
-8.718076206395386496e-01
2.227292838100311534e-01
-2.406312764744664712e-01
3.811390138803514294e-01
2.971096342427553827e-01
3.778671395109546860e-01
-2.595368929690168303e-01
5.984190166947749301e-01
3.529690206178365819e-01
-1.339368794490656822e-01
-1.088102984918032229e-01
1.632774889187603440e-01
7.248659986249884613e-01
-4.344054659893499259e-01
-7.081786735668026411e-01
-2.352732617139048632e-01
-7.027464204443886198e-01
4.839595969832091171e-01
-1.083780627849493694e+00
-6.753708982423833884e-01
4.676434601331053709e-01
6.482832425317265335e-01
-4.981102579682344239e-02
-1.155203126910265415e-01
-4.173702284853666455e-01
1.006387182683203818e+00
-3.408916617786137970e-01
-9.729815217336446054e-02
-1.299704642045824143e-01
-3.406354724070533302e-01
2.976942487903337375e-01
1.059650255054566559e+00
-5.501957224896164567e-01
3.673419233166229647e-01
2.392831089513114684e-01
1.221207610384077019e-01
9.083830454066665894e-01
6.869921807808943015e-01
-1.363045999206381698e+00
3.753758086130942750e-01
8.227796730617092935e-01
-5.064176068729682179e-01
3.859553509613339872e-01
-4.085623314275432238e-01
-5.007504881560795873e-01
-6.134399095324255535e-01
-7.075252959705169431e-02
-3.919786837972362714e-01
-5.484499170871272034e-01
-3.546577980811589648e-02
4.279026806811098149e-01
1.028031264887373952e+00
1.933656047478617412e-01
-2.222016197223526668e-01
1.267510376027957963e-01
1.358848619878457176e-01
-5.936510968348390760e-01
-2.748323961825738238e-01
3.548954411083957150e-01
5.284733629994729093e-02
3.398532160987389195e-01
-3.998567535816546087e-02
4.340980774983475149e-02
-4.454757370641776459e-01
-2.024937379569094198e-01
2.757654295427564572e-01
-7.967878269206063457e-01
5.563798748109014536e-01
7.170738139936752020e-01
4.301496309967496601e-02
-3.099049691071280033e-01
4.616991317203657519e-01
3.675257308142688140e-01
4.268388060930330408e-01
-2.994072388853050715e-01
-3.328704556882256527e-01
4.704438277261774881e-01
1.476856811116019630e-01
-9.788149923947962738e-02
-3.552226097828662943e-01
3.371132284317743255e-01
6.932430857955915737e-01
2.923047516827787518e-01
2.579906270987688058e-02
-2.989776286751275602e-01
-1.932837895196210798e-01
6.231500598805312929e-01
7.209508117385585724e-01
-5.018851783586248949e-01
5.608396823897623396e-01
9.929396762537018306e-01
8.621721246569974406e-01
7.287105127517974346e-01
1.640580684402516698e-01
2.928777126452878354e-01
2.506984953084274159e-01
-2.196978690971917170e-01
-7.381031034191989360e-01
3.912898231904847202e-01
-2.722278568239284158e-01
7.194257662722089441e-02
7.990656199541776306e-02
-2.850757093854817681e-01
-3.077462012209988829e-01
-1.496377032631245052e-01
7.514846440614877388e-01
-1.180396991056749390e-01
5.466275238938553827e-01
6.605753320061476253e-02
5.630444008484312146e-01
1.504196193269836945e-01
7.993814886488211924e-01
-8.077356310647145973e-03
4.345237551140527371e-02
3.031820692990868649e-01
-8.673523050558897820e-04
-6.182076183599444219e-01
8.794129728178703975e-02
-3.149045929724840764e-01
-1.978209696726793421e-01
-1.840220650906475020e-01
-3.319455182833680462e-02
5.681187918461014230e-02
-6.095398220127301592e-01
6.420016627009337284e-01
-6.446628128989556616e-01
7.774526408072195416e-01
5.965501304450405717e-01
1.024157651469334240e+00
-3.151959026260934826e-01
-6.382476169683295453e-01
1.590899732168162273e-01
6.631018183622749973e-02
-1.029532213350385028e+00
3.308196988041057218e-01
3.461879191697785907e-01
2.117097685908875815e-01
-3.898070772184823451e-01
-1.006684649254523251e-01
3.327397447187445123e-01
2.295182968231650189e-01
2.326261539115612176e-01
9.026371148627387875e-02
6.074007640123469526e-02
1.290053428648777097e-02
-3.886465249588602622e-01
4.265442512043488010e-01
-1.306226913384459509e-01
9.376943522264667985e-01
-6.190223128555538690e-02
4.307137431822397611e-01
5.082528155060130892e-01
-1.324132648281077351e+00
7.523673596630574625e-04
1.486011390367565910e-01
2.523337569009027614e-01
-2.118184727742448287e-02
-4.956685721406963174e-01
4.246205983696129116e-01
-2.776374947869819088e-01
3.297557883943695867e-01
-1.021155255721035993e-01
4.951637481912926075e-01
-5.170326062595963501e-01
-8.694877164201448849e-01
1.213023425118047727e-01
1.891516151451131666e-01
-2.890734033384465551e-01
2.989529097335744123e-01
1.805446348630355136e-01
6.006083648994651192e-01
3.090720832357221060e-01
7.228823578878630363e-01
-2.142573795894300581e-01
-1.693239250576232813e-01
-2.047462981188851172e-01
6.311213750796268451e-01
5.346363960213427191e-01
-3.808285142004955159e-02
-5.626812407820142026e-01
3.564651655634565319e-01
5.391780184850932800e-01
-7.742348897031213761e-01
-8.502437189641184334e-01
4.957366433983829146e-01
1.447091072361492980e-01
-7.257568526610503890e-01
-6.632980722296311082e-01
1.089633090591625025e-01
-1.410585838379885548e-01
-7.065159726619026914e-01
-7.591568983241768487e-02
-7.747916852919579239e-03
5.238423490695989226e-01
-4.484916758012844062e-01
-3.517198113339098930e-01
1.757864592698742956e-01
2.476660676030028319e-01
5.016141698028733220e-01
-2.121394738194837815e-01
1.092529063597031357e-02
-5.061660361181180567e-01
4.585784050880147844e-01
-3.211400247325161827e-01
-1.906155876280698769e-01
1.265013250136767520e-01
3.310393629708408558e-01
4.913067723687372657e-01
8.801858922495435777e-01
-1.404163912601044395e-01
7.386167434450922054e-01
-3.921073710268910273e-01
6.244869438973701392e-01
-1.831804554407096552e-01
-3.245113083527532694e-01
1.303555412291464433e-01
-1.030914805566785289e-02
2.151127076358508028e-01
5.891518862079742069e-01
-7.041697148482894963e-02
-5.863766963343581828e-01
-9.355983981899270718e-01
3.598528790733955263e-01
-4.248281457217007451e-01
-4.916530590737770885e-03
-1.697254411900879223e-01
-4.141348371569392728e-01
-4.211294103130298616e-01
1.078212529463173225e-01
4.670996177297575547e-01
6.322783862499780083e-01
5.209373048499381653e-01
-6.091124583247785607e-01
-1.541928073019029621e-01
9.860068887230521301e-03
6.612170901920783050e-01
-3.129444234581491568e-01
1.324059565814356687e-01
3.383896419902136521e-01
-6.074456740342109029e-01
5.396797267070052584e-01
2.384490603004459086e-01
-7.398957480001019382e-01
2.352361224293175734e-02
-3.738879752178136395e-01
3.908158921811300673e-02
2.990230129811543569e-01
-2.681036186416261291e-01
-1.413962414333906348e-01
-8.264735184938649948e-02
2.501621223548960993e-01
1.265243441761361165e-01
3.588944427350793109e-02
-2.267655184061873885e-01
-3.755781881504607726e-03
-1.356065664653350600e-01
8.321484156890646133e-02
-2.776995186023062390e-01
5.998835381204851991e-02
6.643660299340600206e-01
-2.437504115266690696e-01
1.795288280742007025e-01
1.723023945055519313e-01
-2.516745159819507860e-01
-6.750592711871313822e-01
-4.894771526882730761e-01
-1.198765998463961813e+00
-6.062548100615199331e-01
-2.891644928708958506e-02
5.731212947780773836e-01
-3.677947984151959393e-02
1.598385358956031510e-01
-2.137765466035399520e-01
-9.482411413894449304e-01
2.450790658157151469e-01
-2.721184826873321305e-01
-3.413067543317117591e-01
-8.342578691538194979e-01
3.556520743921910976e-01
4.326422119718000281e-01
1.922368454943297333e-01
-6.961589108997986441e-01
4.228624765825242382e-01
-7.755226514853802433e-02
3.402051015588178351e-01
-3.814373941981933913e-01
-1.105067042116252840e-01
6.952544941417503344e-01
-4.682634564290886203e-01
1.389609631488558650e-01
-6.456442937872470811e-01
4.689499709814761164e-01
2.510202496121602747e-02
1.211090315782413912e-01
-5.020983697363994303e-01
1.675523831396874275e-01
-2.374552262170407935e-01
-5.982684505023312671e-02
-9.372979183046113716e-02
8.886324978657499096e-02
4.906483021532513367e-01
-6.705310853784383074e-01
-3.193175646276329160e-02
-3.135350323412247620e-02
2.628166325070734055e-02
4.269233453529896472e-01
-2.707560104471270490e-01
3.684304490552716554e-02
4.622478176745588030e-01
-3.657451755506165303e-01
-1.129394264305564999e+00
3.821172172628046759e-01
-1.592636332525315390e-01
-1.078949507999985291e-01
-1.845140311069021488e-01
-6.512284959022988096e-01
3.210392022867494810e-01
6.723500528352628625e-02
-1.194475445469032726e+00
-3.864115926190436756e-01
-1.016009398718731027e-01
2.668959347148620598e-01
5.315469872218634428e-01
2.656273687043077605e-02
3.604879946300736382e-01
3.150441794976832632e-02
3.986406523139996994e-01
1.421557941314945395e-01
-2.125212469069457377e-01
-4.330034475851105014e-01
2.344654633597855753e-01
2.708472289101946373e-01
-1.200625007256647114e-01
7.021437895813622543e-01
-6.972725814963701488e-03
-7.978533838207960693e-01
6.586659267268029083e-01
-9.471327470583892350e-01
1.682788163726225417e-01
6.947105612191171176e-01
1.083800431027345385e-01
-2.588079210888835635e-01
4.939767539523498563e-01
3.910880528629623876e-01
-9.226240664791366397e-01
1.031590953185392290e-01
-4.891221957324193292e-01
6.339429441852713065e-01
-3.266956851146203822e-01
5.026084390097228516e-01
1.276974254336253889e-01
2.225034613639493009e-01
4.125584860437550017e-01
3.702126675605434958e-01
2.216567201395559794e-01
-8.556399176461360057e-02
5.776841814792390561e-01
4.330204054144706216e-01
-8.747917305561474510e-01
7.936162400124093796e-01
3.577562101353761181e-01
-1.047635929869180860e+00
1.994437466223222821e-01
7.512805557404468315e-01
5.675002492249389685e-02
-9.275985157623927169e-01
2.357832640199765961e-01
-6.803513015495036287e-01
1.164642129805577020e-01
1.534082553048225495e-01
-4.447418021943726901e-02
-2.970280695634877621e-01
-7.018933381922553005e-01
7.992496220692240083e-01
-9.023990814938819272e-01
1.853208356045656646e-01
-6.644934365506048879e-01
-3.247860844682392556e-01
-4.096063450420173169e-01
-4.887168688939719924e-02
1.655076057288459856e-01
-1.963611465428236613e-01
-3.903552262133875295e-01
-2.925417593097541236e-01
2.553423794285316628e-01
2.335249151649785027e-01
4.511396169281924329e-01
-5.611543572280952574e-01
3.705631876338886799e-01
8.175951005808149707e-01
-3.777377333655896341e-01
1.558731813056254412e-01
8.765021257837419810e-01
-1.119399871101957711e+00
-4.083034701140677569e-01
1.156331003411167346e-01
-3.601252223871709290e-01
3.296194183566669711e-01
5.359643110325573723e-01
-3.685781962875138151e-01
-2.066099536215777743e-01
4.683429825363958354e-01
-3.668349567829046753e-01
4.267867377818361507e-02
-2.929314229003754932e-01
5.952204130667310307e-03
-9.774121844092533706e-01
5.766901736243754129e-02
1.653971721611273704e-01
-6.586974298202298295e-01
-2.083428297633105608e-01
-6.539524389050932474e-01
5.582546094739067044e-01
2.048272230935107296e-01
-6.548217112561879882e-02
-4.480396723040807605e-01
-2.540114404142611026e-01
1.096092784908335310e-01
5.289231464841331887e-01
-1.406830031906083078e-01
7.865888113323081798e-01
-6.449743178239821795e-01
5.981027047916875894e-01
-5.822116366591826297e-01
-1.682973893648393240e-02
6.654752826644426689e-01
-3.765036651469672591e-01
-7.677349307229319741e-01
-2.240003116573808517e-01
-8.622474097676032789e-01
-2.970891517294783069e-01
-3.566623165661846340e-01
5.385984109329946534e-01
-1.521082079666638553e-01
8.898188297483745901e-02
4.982558375609714707e-01
-4.608101907122458818e-01
2.600024674801553748e-01
6.076786099570768290e-02
-3.197464022057892041e-01
-2.216688094990204860e-01
1.699994444338339544e-02
-3.245843709744248851e-01
5.478334734896249669e-01
2.227978213438076838e-01
-4.407303931833926880e-01
2.963561079558647005e-01
-1.597216249423996648e-01
3.578004730806472189e-01
-7.353056859685734858e-01
3.764626048247357026e-01
3.253071933870071430e-01
2.273721835492550081e-01
-2.706676276326019925e-01
2.089221127902283204e-01
-5.507115970681117911e-01
-1.082880191486015192e-01
8.751002973374824578e-02
-4.700585898792411510e-01
2.192036059975718473e-02
-5.121199711005616217e-01
-6.960912961575918545e-02
7.264983270909493029e-01
9.600560618629696563e-01
2.354507102823852685e-02
-9.921772158825575838e-02
-3.049554086501687911e-01
6.246460922199107563e-02
-2.307190915184194335e-01
4.914773595132243544e-01
1.133709340582077368e-01
-5.737331708470316816e-01
-6.912017677577495522e-01
4.904677929723701979e-01
7.059146996392516860e-01
-1.261514359538177255e-01
3.748518125737517193e-01
-2.161086489636688257e-01
-9.549710821215653400e-01
-8.987451902941496762e-01
6.647561911759283237e-01
7.565503544219369658e-01
-6.545501237087427704e-01
5.839830273370068270e-02
-2.602259267836541934e-01
-1.467803854682899090e+00
5.678431582527166954e-01
2.376818762851743150e-01
-1.999307783147862561e-01
6.397267743317652799e-01
-5.526603248222867748e-01
5.485648830105107621e-01
-6.230791644335078594e-01
1.381755889122731618e-01
-3.369154710789873386e-02
6.434316293080130644e-02
-5.944544171804442279e-01
1.983582678710039127e-01
1.870505271534705083e-01
1.951427749394744338e-01
4.167995804692123940e-01
-1.447528830358076890e-01
-5.176776998503167526e-01
1.374560032530766363e-01
-1.378507135604397638e-01
1.540709460667468167e-01
-3.075880206608564427e-01
-4.986359630933883680e-01
5.923865658875764328e-01
-4.165217078335616691e-02
-2.819372425298869445e-01
8.488518367477432269e-01
5.460980953009667571e-01
3.752041822361025236e-01
-3.873716216379433086e-01
-8.066547056112322034e-02
3.511963098772635239e-01
-2.459920778084468407e-01
-1.665207151431092325e-01
-1.027598406616901494e+00
1.742506110997012470e-01
1.828965290389576448e-01
-1.729730886309452098e-01
6.265600666810723363e-01
7.135655082544100081e-01
-9.935120100848316982e-01
-5.315352106924392528e-01
-1.663439679325811327e-01
4.018345705877574003e-01
-5.242230119579865955e-01
-1.398662566203915381e-01
2.039327766846397161e-01
-2.874504947561374868e-01
-4.076360024204432886e-01
-2.287495363622891742e-01
-7.074374150435502884e-01
-4.684784329756912502e-01
6.850050394471948745e-02
4.919483785607385862e-01
2.085597356470746469e-02
-8.355285832303087634e-01
4.817992486113407136e-01
-4.505630403107873105e-01
1.966041389787667182e-01
6.483769676533850390e-01
6.021321402940907896e-01
2.029554604355516267e-01
-5.358705243028770715e-01
6.210365141039979608e-01
-1.808018510274144730e-01
4.071359157424598862e-01
-2.414602640645628073e-01
-5.158571935928885077e-01
3.794700351524207260e-01
1.552556278169648918e-01
-7.930617967490093401e-01
-5.845215162642978385e-02
-9.109237322918696256e-01
-2.825483881500320260e-01
1.372053891858751595e-01
-7.899279402147374451e-01
-1.645847499742284781e-01
-6.877225600308156661e-01
3.700986064447051027e-01
-3.840025415638492756e-02
-1.436267436294762501e-01
-8.470619235131150448e-01
-3.711560579463019649e-01
-6.165319863385522181e-01
-9.349911698051679987e-02
7.706111966753361742e-01
1.655992800351420435e-01
1.411332463159675754e-01
2.986709161883327468e-01
7.064645567045378938e-01
-8.035174494548171786e-01
6.076744892870711290e-01
-2.401923316891921012e-01
-1.803696944664462676e-01
-3.194953798204724360e-01
5.641745384359010407e-01
6.520580593360616461e-01
-1.151521172824449435e+00
-2.203505183641456255e-01
5.716550699407694225e-01
3.101817806350760098e-01
3.567928481452729006e-01
-1.186895723805335839e-01
-3.233777213019926877e-02
-6.391098966076473875e-01
-1.146282914130748731e-02
1.963818552800472850e-01
-3.546102122428694825e-01
-4.325227353952325604e-01
-3.611534774216391686e-01
-7.888053281997153832e-02
-2.242134051295548713e-01
2.424845699400851040e-01
-8.596314844949731748e-02
2.103939388731055071e-01
-3.883626589052460720e-01
5.398939998375030802e-01
7.720846812434789541e-02
-1.101458477531118696e+00
6.232712605357465518e-01
7.218381692686977047e-01
-1.310850474098475271e-01
-1.098288082708083202e-01
-6.667255521651355155e-01
-3.017056767372043591e-02
-3.413323269415320382e-01
4.237863238685079526e-01
-2.201432593917493352e-01
-3.660785391114964593e-01
-7.695291606671789131e-02
-8.140557417796749906e-01
-4.067504338569110089e-01
2.069593930261851566e-01
5.426768876898726557e-01
-1.219583742409694915e+00
-5.357508730739950487e-01
-2.013832361870272203e-01
-6.989637992844226488e-01
-3.250367040677274999e-01
-7.937252691296640128e-01
-7.590587393504800717e-01
-4.029201385148703518e-01
-9.615221639747758564e-01
-6.784811206394598670e-01
-3.589979977659868426e-01
3.229792700284552232e-01
4.335733146095924750e-01
-2.985485283161389836e-01
-9.357618421357084826e-02
-9.618993375716727856e-02
-8.334834346245786896e-02
2.355077038309193738e-01
-1.780398438774208683e-02
-4.155633518363329171e-01
-1.043578977334455420e-02
-5.467390387703339322e-02
-4.438565413865715459e-01
-5.096482086524607436e-01
-6.152155203878656442e-01
-1.327896252575368807e+00
1.700105616086973470e-01
5.839482895747172275e-01
-3.110160537045292967e-02
1.021681922299130657e-01
-4.946852925613630658e-01
-7.193956055855429410e-01
-6.612248917093505041e-01
3.296222382565294207e-01
2.729916809824030066e-01
2.901120883330049818e-02
5.101369066313801715e-02
-4.222100880131883227e-01
3.329003640376246853e-01
3.052541214594521879e-01
4.391529391614657496e-01
-3.707484111020860618e-01
1.191779673807286527e-01
-3.349982813144802146e-02
-2.329721763979785421e-01
-8.713283035447081382e-01
-9.050234417686185973e-01
-2.279494312236264031e-01
2.402260392112444409e-01
-3.439037225104223383e-01
1.085697921011650885e-01
6.090419531568687095e-01
-2.997128300952239810e-01
1.914162267954570562e-01
4.496704165907786099e-01
-5.835640073490226953e-01
6.503918334296163173e-02
-3.014911098004262047e-01
-6.821191897869530729e-01
-3.324930655708737692e-01
3.250302264327035173e-01
-3.997379767781211735e-01
-5.068583076010011457e-01
-5.994541850378625192e-01
-9.446716356892863597e-01
-4.269075401899963818e-01
-3.679643708131131730e-01
-1.125975946564090752e-01
-1.019610258614356502e+00
-1.899360012421308364e-01
-8.009496480362375548e-02
-9.513080681326907539e-02
-2.760397041519393468e-01
-6.465210282228630589e-01
-4.935255222454230234e-02
6.244222717835961056e-01
2.727501182410482228e-01
-6.412458376436874774e-02
-5.585322953546297819e-01
-6.349456124450931771e-01
5.774411795283892340e-02
-6.770791733465530982e-01
-6.041207214376572709e-01
-1.766483885895161199e-01
-3.472225605143077626e-02
-6.544243555678550539e-01
-4.944378506135763685e-01
-1.470189141625712070e-01
7.057674692319796383e-01
-2.677142000577225622e-01
-6.788262377302396455e-01
1.078934421204967714e-01
-1.189561937298333760e-01
-2.265889281605603378e-01
7.024567264812410505e-02
3.158047778603440547e-01
1.513174497812868891e-01
-4.530298308735107859e-01
2.135882153705163933e-01
5.164178449871646981e-01
-2.593783235635673257e-01
-8.830296024082644468e-01
-1.941391066836267443e-01
-6.165288868532098343e-02
-6.801802036644267746e-01
5.777679827115377309e-01
-3.032934421931156033e-01
-3.716843465052857010e-01
-6.929019647389611514e-02
1.969288539124514348e-01
-9.636576556873326371e-01
-9.926484685755534443e-01
-2.293267295593679200e-01
-1.928163326255304399e-01
4.553102107222483097e-01
-5.106743034560174976e-01
6.650140441919848433e-01
-7.118755912773974126e-01
-6.170906407813437911e-01
9.723741423899251446e-02
4.231617161897133772e-01
-3.521811915978757535e-01
-3.590591478175894635e-01
-2.180410614248636803e-01
-2.912223643737225642e-01
-1.026747507625619171e+00
-4.748786731097741076e-01
-9.787029404677673183e-02
6.428942441137670549e-01
1.967234811182288698e-02
-3.221261685664686958e-01
-1.110826256499324094e+00
-6.645402619282826662e-02
-6.422336733658061680e-01
2.080339169524903498e-01
-9.628451508090411781e-02
-6.728600377330463678e-01
1.468136095976193822e-01
-1.626419468167041582e-01
6.216862588217309665e-02
5.492598044603124174e-01
-6.790942866064868522e-01
4.513934482425111527e-01
-6.791584925174126708e-01
-1.978957334688956349e-01
-3.059622737346985866e-01
4.555739120998023028e-01
6.615806375951743812e-02
-2.633875936187509148e-01
-5.250002141554188650e-01
-2.747179595778456718e-01
-7.367030693193088453e-02
5.573345465909889107e-01
1.072350542463200093e-02
3.648881239257456000e-01
2.736150910412233350e-01
-7.849629234784526455e-01
-3.292909696549285448e-01
-6.019001846964292524e-01
-3.152143218795241952e-01
-5.306194738505941588e-01
-7.777643709017230400e-02
-6.703236891906324546e-01
1.263798376404375867e-01
-4.258371013052428267e-01
-6.400672720798089577e-01
-5.784778222716316920e-01
7.246527254885817837e-02
6.815155371163782450e-01
-5.630852607280277811e-01
-2.463153349321175745e-01
5.500057704865950470e-01
-9.647414580074781254e-02
-1.710153145071359737e-01
6.027150814544961488e-01
2.982610881342432907e-01
-7.123464438804026910e-01
-7.449855528025762785e-01
-6.983043923455566349e-01
-7.617895571048236003e-02
3.667873863879819729e-01
2.029311847163116911e-01
2.161670252229379863e-01
-1.786950763033909595e-01
-1.925531506026870454e-01
-3.356743215500789801e-01
-8.870863154561092756e-02
-6.892388113442052822e-01
-1.949221456935002206e-01
5.069566723437733957e-01
1.058073803281879000e-01
-1.635483804229764526e-01
2.464131361825816491e-01
-1.517441015523048331e-01
-8.499777820421337837e-02
-6.727820199205106766e-01
-2.102166322569894441e-01
5.937617785071478416e-01
-9.393983778779328997e-01
-4.185047018715744027e-01
-4.789172290834740053e-01
5.170688690358877793e-01
-7.582495267568323261e-02
-3.503435616875678615e-01
5.615321738773351029e-02
1.712402362564809655e-01
-1.967992933894009977e-01
-5.643497759242704914e-01
-2.300567249503216172e-01
2.832982543837121985e-03
-5.446205709457417887e-01
3.807826401991439291e-01
4.315878322295819691e-01
2.714545624123463341e-01
7.015809526300282872e-01
-6.345238178946018825e-01
-4.201084740451192512e-01
-1.231944852421784864e+00
-8.532041637433809278e-01
-3.051414660348737012e-02
5.929601583451929447e-02
4.355325552581086335e-01
-4.848121130015398128e-01
4.740245883068650579e-01
-6.606528906937937651e-02
4.137262277889233730e-01
-8.375161578297446452e-01
-7.697706026016865044e-01
-1.343777446643602547e-01
1.020258226410969415e-01
-4.978409330346302841e-01
5.130543359763585498e-02
1.009961846905069738e-01
1.296589999414593519e-01
-8.273219104719022887e-01
-2.881413022918704603e-01
-8.153286991950778884e-01
2.708089746569906642e-01
-2.624444190810804045e-01
-4.309068917553789402e-01
-2.783412547911433554e-01
9.303347619630426835e-02
-2.848122468822936737e-01
-1.228320099992638914e+00
2.257094427803997203e-02
-1.030839651209116248e+00
-2.036565043838725608e-01
-2.060804267132320122e-01
4.534386864690867491e-01
-1.080083340056494867e+00
-2.639651843708704093e-01
-5.004377573269376267e-01
4.784364545366382448e-01
-4.483023332085573909e-01
3.342425492846501922e-01
-7.783419551525110336e-01
5.475647783442099126e-01
-1.477036145969280179e-01
2.060445182996969715e-01
-9.505310142390194228e-01
5.262046532213588979e-01
-2.602349645503079234e-01
-1.365205211747413661e-01
-4.831406368635313142e-01
-3.175000854346822776e-01
-1.711507287300045310e-01
-3.181610282607996026e-02
-8.604391378840451354e-01
-3.719112487238244169e-01
2.442401651897555329e-02
2.661996517405371132e-01
-7.756748729235204420e-01
-4.582558959276672450e-01
-8.180416540318352636e-02
-4.201383617834259510e-01
-2.000556630649895085e-01
-7.819809531665500302e-01
-2.604987467003936907e-01
6.070537668041023904e-01
6.240552168198786331e-01
-6.687748817479139962e-01
-2.746691578343853357e-01
-6.401030717205397069e-02
1.869361010542045232e-01
-2.476828709022299568e-01
-1.306307707501577764e-01
-3.880888089334423308e-01
1.321625514443277305e-01
5.193274967801229103e-01
-2.324083305095945295e-01
-3.983790101060915023e-01
2.097721011370485278e-01
5.848423285839707275e-02
-2.032865413059900817e-01
-1.009507873115220278e+00
6.022919915715686523e-01
-2.996484583641046417e-01
4.922408047715988444e-02
6.106666233205575167e-02
-2.144459811593932841e-01
-3.070244098936397714e-01
4.825340162523717447e-01
-6.524142899567055842e-01
-1.604245046918451878e-01
4.388900664960568854e-01
-7.247886958943945412e-01
2.220646222618676002e-01
-3.941865006118302484e-01
-2.240321638589184705e-01
-9.237317789297351256e-01
3.892553160838106430e-01
4.114124121139229318e-01
-2.086893179926127551e-01
-2.526161752048940445e-01
-5.724982757880715534e-01
-4.328082838583925673e-02
4.702229122489109403e-01
-6.429696311617016935e-02
-7.469589749753506869e-01
7.702708322344498093e-02
-2.856266801850479986e-01
-4.555439797045122141e-01
1.615332258376256935e-01
-6.180071743093299430e-01
-5.636783042795756593e-01
-3.712128883065764495e-01
1.409628316230609746e-01
-5.106266673040249504e-01
2.870789854844374000e-03
5.515700461662256249e-01
4.687307664634932092e-01
-8.249699867221940153e-01
-1.124560169003390175e+00
-6.950131487132025221e-01
-5.141360819152528128e-02
-8.905175896170091088e-01
-6.331978396200169668e-01
-6.664703074099440072e-02
-8.654936026711282371e-02
4.382110633745611716e-01
2.229111315952519157e-01
-8.214986178398848704e-01
-9.164669949671208071e-01
4.001794770815573360e-02
-6.794494436342635169e-01
-4.905838276780402074e-01
1.953801746684099561e-01
-3.822461401438916745e-02
-5.007631214871759440e-01
-1.259414710767851053e-01
-2.256787569607659472e-01
-4.717526830338619193e-01
4.365065604846749547e-01
-5.008374623542690696e-01
-6.106689360446627968e-02
2.332081024097487978e-02
-1.197660350580483368e-01
1.700894453632713077e-01
-2.805927031301932301e-02
2.865095195117086657e-01
-4.429160554466997080e-01
-3.500086569610916798e-01
2.732023365561205841e-01
5.270514796395892043e-02
-7.061705406171011612e-01
1.190466863134919812e-01
-1.063926797450326645e-01
3.898339877188823355e-01
-7.343264736111440039e-01
-9.491972235987315709e-02
3.179302624746466743e-01
-4.086335558205580337e-02
-1.132321436258021397e-01
-3.553400861577454273e-01
2.362884259317432969e-02
9.981713965090101282e-03
-4.147282962221719438e-01
8.839778165260872567e-02
-2.350249855787656661e-01
-2.096968051175769898e-01
-3.979937001177912270e-01
-2.646151319084157905e-01
1.249038313655333327e-01
1.714195319583508570e-01
-4.445939019643435630e-01
-2.433547525072673745e-01
-1.100908588974574415e-01
3.490900017226694074e-01
1.602526581755151780e-01
-6.121029920325748303e-02
-5.519995984698425895e-01
-1.174818359695003922e+00
4.976589484897644272e-02
-1.056304401117041519e-01
9.529120020137071823e-02
6.760367415728653351e-02
-3.680560970967189371e-01
-1.445447435999127339e-01
-4.147455045533021134e-01
2.179886025960117713e-02
3.888058524664466664e-01
-3.962087203768011739e-02
-7.362214172896815179e-02
7.919724350140581407e-04
-7.060485213271647797e-01
-6.454062440913761467e-01
-4.496245573377291582e-01
-5.567779215368554580e-01
-1.157085775134578109e-01
2.090860383784645393e-01
-2.855702180863088913e-01
-4.807225400682715172e-02
2.872285421558310459e-01
-7.902745422855097512e-01
-4.842317476314012548e-01
-6.608719587665622397e-01
1.641150041435940621e-01
-3.701960411608843926e-01
-2.865233600970880645e-01
7.850223280125554620e-03
-1.518735110152805434e-01
-9.358095988629123729e-01
-7.121633539124776480e-01
-5.608573402706226174e-01
-3.505510248712240262e-02
-5.154114644322496108e-01
-7.722066698690670528e-01
2.391327356580119634e-01
1.722171046620239454e-01
-9.235373683548954160e-01
-3.816946036709714662e-01
2.632761386059084274e-01
9.466651496200709226e-02
2.819142108399106395e-01
-5.884776039966820305e-01
1.246005951016766408e-02
-6.507776637484857796e-02
-6.619194600330983828e-03
-2.733739382835446152e-01
-6.788790189053137136e-03
-1.885613067642991636e-01
-9.325354643274616495e-02
-9.794851226813172662e-01
2.452907111342144675e-01
-3.166960185744175371e-01
-5.902968450140820833e-01
-4.110497939927578170e-01
1.497889626255923257e-01
-6.540471745347750110e-01
-1.968262759347567947e-01
-2.156503057008712920e-01
5.397890970778103092e-01
-9.626510178895406056e-02
-6.152549628066013299e-02
-4.752904783493074881e-01
-3.776989797881915023e-01
-8.514243896708117987e-01
-4.551709475503164515e-01
-1.139485019748650574e-01
1.684186596724702306e-02
-7.253977196030004793e-01
-5.865417381639351779e-01
-3.212423695828284589e-03
1.685871120377610555e-01
-2.440888494080645787e-01
-2.233569843240434394e-01
-8.229709191115359701e-01
1.511440146289501525e-02
-2.380578495497022162e-01
-4.582165506295232671e-01
-1.577185634239878231e-01
4.390808490676328946e-01
-7.380070390889961196e-01
4.032617112813197124e-01
-1.894862350813313334e-01
-4.896534590736977000e-02
-5.264948050501024879e-01
-1.882676191799256393e-03
9.127791715082864132e-02
-9.715086810283492247e-02
-2.446258914349980218e-02
-1.019160233787218955e-02
-9.747515173139410793e-02
-1.034677797504467422e+00
2.560343371570784066e-01
-1.322903514098958677e-01
-8.183160195118868163e-01
7.088532549285840867e-01
-1.066769659902538081e-01
-1.359588944361036056e+00
-5.094781216900412524e-01
-3.751789555523999953e-01
-6.076159346567204800e-01
-7.112889964565402012e-01
-1.044589710367051172e+00
-2.262601308905769493e-01
3.079308963350283618e-02
-4.892659839029873670e-01
-5.573698427959519197e-01
-9.221130656627373190e-01
-8.541029910470853137e-01
-4.989488134941604258e-01
-6.363899382993813691e-02
4.752805961762480158e-01
-5.532361195078003835e-01
-1.393539283601041845e-01
-1.672877546611745148e-02
-6.254654949721849891e-03
-1.781790508166936071e-01
-9.333944339199572171e-02
-4.785253461553314325e-01
-7.645005086175148401e-01
-4.729093911925670302e-01
-2.412659562078837971e-01
6.920161910626324020e-02
-2.237459650846735371e-01
-1.476790182771649338e-03
2.226929730797395368e-01
-1.765431095163424655e-02
2.241796202506302904e-01
6.560403601311040611e-02
-3.999059149952411407e-01
-4.062794793806152605e-01
-6.079156512263520287e-03
-1.284083432296469762e-01
1.181808444514316353e-01
3.440454275085026437e-01
-2.484397716067957840e-01
-6.900318048692573314e-02
1.752817229430884693e-01
-4.246708081904625870e-02
-5.320884704728700426e-02
-2.034705234305899182e-02
-1.931731183982197259e-02
-2.469240064404830681e-01
-5.840806021873934384e-01
-1.047602598007758325e-02
-2.882199484935651923e-01
-2.657740226808655848e-01
-6.144787911885277731e-01
4.462301409634061161e-02
-6.276154305603670602e-01
1.292449993302892675e-01
-2.374132758026093470e-01
5.260045598809830192e-02
3.572823706708856406e-01
-3.304113037152389687e-01
-3.415062838447621152e-01
-8.142998822362306210e-01
2.664836703033137202e-02
-1.209383430626300715e-01
-1.346065600937389750e-01
-3.920496182661335482e-01
-5.983848272133147905e-02
2.541501261464899630e-01
1.967582593034240268e-01
-9.682823796812418254e-03
-1.656289289673168463e-02
9.201380754175289556e-02
-3.374593674044822772e-02
-2.988889946294757127e-01
-1.262853997372224146e-01
-1.267318369746258944e-01
-7.252661533707267794e-02
-2.441167942772617394e-01
1.004137171765181469e-01
3.933462087014232833e-01
-5.602406384448108123e-02
-2.216650723984398552e-01
-3.001095165101078099e-01
6.011680069744770177e-02
-4.916486716403825064e-01
3.406191470470864430e-02
-2.735189545692848778e-01
-7.919839841026422855e-02
1.489797006252117084e-01
1.946117088810467854e-01
-1.831796060189555819e-01
-3.875336857504548815e-01
-3.811154564321850985e-02
-4.915859790666355367e-01
9.778662146704133681e-05
-3.879227067780285226e-02
-1.302242858294279659e-01
-4.057036873855167092e-01
-1.222012011451233116e-01
2.076819074225389194e-01
-1.457462874241265693e-01
-3.153501136503396585e-01
4.329400036728959233e-01
-6.695343627726468849e-02
-1.850463823780313932e-01
1.170726261371092675e-01
1.108485968050599776e-02
9.217379995943777993e-02
-4.960310272586969660e-01
-4.035328079618996644e-01
-1.801791549761809219e-01
6.836511278897297594e-02
-8.627458922693992394e-02
-7.346457958210599049e-02
-8.767684563843081147e-02
-2.312601832144847436e-01
1.288289752289104306e-01
-3.462566636859957386e-02
1.226345878206138856e-01
-1.642894438683170644e-01
-2.798626082338737109e-02
-1.522955605311481497e-01
-2.449894925306618232e-01
2.912973045467613931e-01
6.525153504526615134e-02
2.053254223470713305e-02
-1.587202710856649990e-01
3.318430120590436933e-02
-9.433602569660722859e-01
-1.760726481739773308e-01
5.205960645365480255e-02
-2.590462977249448073e-01
2.366626072983303575e-02
-1.698793398423932288e-01
2.537228935781894457e-01
-1.340393997003303528e-01
-2.381908868719934402e-01
-1.450180839341719263e-01
-7.953471477806375867e-02
-1.966502757704120807e-02
1.802997564481200257e-02
-8.038607417413884404e-02
2.884608222875378880e-01
2.907927091230421701e-01
1.354218349997666215e-01
6.416916676863818059e-02
3.617706195956989917e-02
-2.197500121952671720e-02
1.102295944069339381e-02
-8.185030567415280123e-02
-3.899462354623632332e-01
1.748918650251537685e-02
-6.286842860241275144e-01
-3.275522154394014951e-01
-1.878967158602677656e-01
2.648547174266417947e-01
-6.018021156980380565e-02
-8.669889013126116928e-02
-1.624222359766960833e-01
1.834161428715343212e-01
-4.390264376240374244e-02
3.151015663620134605e-02
-6.436315655709730355e-02
-6.353749079736496774e-02
4.609766293292820449e-02
-5.404001283548048873e-02
-5.905949630239268888e-01
3.143024565227916373e-02
-2.542757743587718555e-01
-7.771510007019638566e-02
-4.647233614774318872e-02
1.416298449657218406e-01
-1.677176611169512999e-01
3.092013129526777759e-01
-7.229273342237427791e-01
-3.856433108646976915e-02
-6.557757896483411286e-02
-2.889880830538678058e-01
-4.515421363838279661e-02
-1.565182856330653849e-01
6.545959085717607817e-02
2.797412693900254710e-01
-6.571895735893389101e-02
-1.653774545591733258e-01
3.919996950980984829e-02
-2.007314118984389606e-01
1.073277881370137549e-02
1.728595307173376450e-01
-2.700919335421628209e-01
5.705235989963303861e-02
-6.289698797677184539e-01
-8.877579911277345692e-01
-5.382950869903627700e-01
1.201051012718665212e-01
-2.933155427436362483e-01
1.049265932574316024e-01
-4.211223822364604796e-01
-1.524299340795083335e-01
1.698880418385013136e-01
1.289518414230488574e-01
2.319901314399952855e-02
-2.123411488235578126e-01
-6.180926341391221879e-01
-1.430515171937997709e-01
-8.458723361671355301e-02
1.453241322246468514e-01
-6.884374836902631967e-02
-4.992194991694889200e-02
-6.674704359567243221e-03
-3.093212952011875627e-01
-5.728881585117806541e-02
-1.571118866985955487e-01
-6.009640214518222612e-01
-9.508948651994907075e-02
2.000714662620614592e-02
-6.703674354722946593e-02
-3.141658648355650230e-01
-6.579996107241240511e-01
5.888246369331112673e-02
-2.997765634544817884e-02
-6.224126191237630557e-02
-6.401715169986631204e-02
-1.071547814823121808e-01
-2.484948189507773242e-01
-2.872589667754380516e-01
-7.494314450793405913e-02
1.567332392945839370e-01
-4.972144649522242110e-01
-1.054943683627908718e-01
-3.166445372820890503e-02
-3.818331054737363062e-02
-6.646807095621499739e-01
-4.011283033104663664e-02
-7.172731142609885258e-02
-1.119172195956992383e-01
1.366328040822521739e-01
-3.087735005658574505e-01
-2.342022285780456514e-01
1.886066974366969462e-01
6.576417403495929404e-02
-4.817108130775871189e-02
4.797012012942541981e-02
-1.703286198789865369e-01
-2.234836019234225368e-01
-3.672818162600174352e-01
-3.436773404022589462e-01
1.842564675023873610e-02
1.836323320903789774e-02
-6.739199102901505256e-02
-1.303641169662352051e-02
-8.495966018472574099e-02
-4.054189401741842974e-02
1.346443399182918887e-01
-8.170347210638975732e-02
2.170528010969823007e-02
-1.693998169363821610e-02
-7.722418097539507365e-02
1.172689397381436044e-01
2.521202408535970774e-01
-3.023114134286914445e-01
-1.997831571191801270e-01
-2.423773605342589496e-02
-2.503545097393258811e-01
7.677817464211779408e-02
1.394558077131163032e-01
1.481162396658466107e-01
-8.512358850126616749e-02
-8.726413511106255461e-02
4.379135771339413147e-02
-6.243521824337913001e-02
-4.631473498790985438e-02
-4.064629807193911870e-01
4.727361107720879502e-02
6.612120617362994557e-02
-3.911715687362173066e-02
-1.097464439755584664e-01
-1.417242205562585511e-01
5.973967967725523492e-02
-4.181451421214500974e-01
-6.864512799216775790e-03
-3.160366061044545677e-02
-3.406038105697876128e-01
-8.739822207437659973e-02
-1.196918393126965574e-01
-7.566811183423884091e-02
-3.333985801228973589e-01
3.850041591060550383e-02
-1.089355877337121886e-02
7.613654417744770975e-02
-1.690705422522366941e-01
-7.646623162452166611e-02
-1.364998880182036745e-01
-1.198654577487444778e-01
-4.390763380746405820e-01
-5.371931115169573112e-02
5.594044911848645996e-02
-4.097330715097001752e-01
9.890371878016150642e-02
-1.096517819034759506e-01
-2.092726740580224953e-01
-2.053038769583685197e-01
1.387911474586664244e-02
-4.382253562245735923e-02
-2.831336605324832889e-01
3.173855562837726851e-01
1.769929988501197093e-01
6.042033336656759540e-02
1.270886651846624138e-01
6.634994926556624095e-02
-8.418858847014164259e-02
6.358859415083338920e-03
1.645191550822784621e-02
-1.984491491667433015e-03
-1.822855128640647193e-01
-5.287118822454507649e-02
-3.199916570892271106e-01
2.518355139178760638e-01
-5.266015515642356176e-02
1.210469692618139359e-01
-7.495070698637301687e-02
1.930321367909551278e-01
1.440937771816533375e-01
-8.970346443118505653e-02
1.780210339785821549e-01
1.399201186650859408e-01
8.838831638308025651e-02
-2.451452609955250272e-01
-8.375292016864255285e-02
-1.181468642580559419e-01
-1.038328605794996140e-01
-8.624042672742437965e-02
-1.928915647936184918e-01
-8.914073941328448658e-02
4.349945949558284980e-02
-1.507616704414140767e-03
2.578899560948236247e-01
9.754460350139640412e-02
-4.047470737516129652e-02
-1.548798975482524320e-01
-5.191748088515035775e-01
-3.212134655308130360e-01
-1.993615809058456312e-01
-2.097898197427785216e-01
-1.889977184672085864e-01
4.214181153226753684e-02
-4.074590116964256492e-02
-1.903420593517256287e-01
-8.417311163454191392e-02
9.420628723761792500e-02
6.402812411129664080e-03
-2.101008020154673528e-01
1.573320537639584168e-02
-1.446061795443802193e-02
1.813604647354106481e-01
-1.810183976709061893e-01
-6.945749740825324370e-02
-8.333133557098659772e-02
-7.975611867384177489e-02
1.075594677226378131e-02
1.285711886426189714e-02
-2.052538453165541066e-01
6.894905450645794076e-02
-8.138610507100636771e-02
-3.880472387685546254e-01
2.348710511042867433e-01
-6.857122672834430055e-02
-2.234240249988415361e-01
-9.076087679433146593e-02
-5.247686222750875401e-02
-2.388114633871291359e-01
-7.305596218298394950e-02
-1.628498036843309127e-01
-1.744649206532110086e-01
-6.627107726997585879e-02
-7.358209750856443965e-02
1.546134886767181783e-02
-1.933752910779997294e-02
-2.852528379038054424e-02
-1.082003024764377486e-01
-9.099041353322762093e-02
-1.675980610322697073e-02
1.881529735989227389e-02
-1.463959913564302495e-01
-6.568715763438749689e-02
-4.678911989834493718e-02
-1.011669558861258422e-01
6.146792568620222663e-02
-5.585374599495626646e-02
-1.088651021103771571e-01
-1.909863397221026049e-01
-7.364470226631239513e-02
1.079417962336037123e-01
9.485902431869697171e-02
-5.797555362045375693e-02
-1.353332693057260512e-02
-1.223102925646154387e-01
-9.735272572970843363e-02
-6.333537904967227739e-02
-7.127527674227274526e-03
1.342389298276201390e-02
-1.028196528218504185e-01
7.055408411323030315e-02
-7.480496926339028074e-02
1.143641193773719533e-01
-1.966679746016628261e-01
6.984640697078743632e-02
-8.399912312922865054e-02
-8.444072478160434547e-02
5.555681708533824308e-03
-8.775077087313049029e-02
-6.217618862257706658e-02
1.170231282182119664e-01
1.357109255395860109e-02
1.465342803641465387e-02
7.929802113336003461e-03
-4.479270573523307791e-02
4.525499607177132025e-03
8.468561709608853072e-02
-1.985890091151854553e-01
1.044654828826516307e-01
-2.290893613682563890e-01
-7.155381188669715856e-03
2.996556913695181887e-02
8.431817876308606713e-03
1.069308551605906675e-02
2.303133016695291593e-02
7.022641151452263530e-03
