5.738545655545449486e-01
7.686846862315130924e-01
-7.113467829180402102e-01
4.630278526948949230e-02
2.132710628927491081e-01
7.842200657288901366e-01
4.616063687318288089e-01
1.051646097347423980e-01
-7.339679459473795464e-02
5.218355431417841528e-01
2.791415096891214920e-01
-3.951905200363048376e-01
1.887363176787129337e-01
-4.377097940743497895e-01
-6.347535078334093361e-01
-2.141664734367069167e-01
9.198683207744275808e-03
3.102577295432427940e-02
-1.501037654021983025e-01
-4.815111485834103200e-01
1.406890512417333927e-01
3.955279863879374580e-01
4.518688581903306245e-01
-2.871919775165301392e-01
4.274278429059255036e-01
-4.281919433226873961e-01
3.429334437420932247e-01
-3.362789367531353601e-01
4.295027949816828533e-02
2.964039853522946188e-01
4.239411141695936802e-01
8.254326277735947182e-01
5.298956131755691024e-01
7.308383749132403573e-02
6.182014235288297854e-01
-1.517361225942882585e-01
9.315826709551005003e-01
-2.865455324654867519e-01
3.790646532108575828e-01
-8.844882571127707371e-02
7.844449359737935834e-02
-8.115366540691326680e-02
-1.198093298236340143e+00
4.418613022131422617e-03
9.624484256847973263e-02
5.901638828012359950e-01
1.983228038989633679e-01
7.310437505234353150e-02
4.309537990995853524e-03
6.224272494181903870e-01
3.416678555387711591e-01
-3.600628818824445632e-01
5.259270807999795183e-01
5.000246399713199619e-01
-2.631519267685773489e-01
-5.304119435576142294e-01
3.358346685814724286e-01
3.689346656234300803e-01
8.644492939724270908e-01
6.412978489705703673e-04
-8.656284402708014358e-02
-1.966377021828144556e-01
4.348757169101782893e-01
3.161253758062938513e-01
1.573831739002331739e-02
-1.189686472503394127e-01
8.073737900466778639e-01
6.104762915462597084e-01
2.796440487417686804e-01
-8.014011456181028281e-01
6.011699941101050076e-02
6.535932458171871406e-01
5.281822562534094212e-02
2.449733515964427899e-01
-6.389478480296464369e-01
-1.262463939180186734e-01
-2.619107437408677574e-01
2.362672170996095444e-01
8.882359600517742981e-01
-1.304040532075471381e-01
-5.248018235630799722e-02
2.645061696938736384e-01
3.431345796646678020e-02
4.619306264687296493e-02
-3.254551540619485261e-02
-7.118554410054619419e-01
1.601122470963109098e-02
-2.941025446402928054e-02
3.132230382944186098e-01
5.469127270207168046e-01
8.091562995588681695e-02
7.015365728628254471e-01
2.388688355583669654e-01
3.729225285452473782e-01
5.536374533180907775e-01
-2.753794922174730431e-01
5.334862140193731284e-01
-9.428715830299827516e-02
-2.349225880018457335e-02
6.835460017875001348e-01
6.111566003928861068e-01
8.377109345385178596e-01
5.563174849461894889e-01
2.283913853939738003e-01
8.018288803048598257e-02
6.163823736613712745e-01
-5.801151631816153786e-01
-7.144950429934963099e-01
4.449830504259701947e-01
1.419840604914493487e-01
3.703676172707475178e-01
4.944449014818782517e-01
5.011901110979954943e-01
3.706444715320697525e-01
1.233454322103423734e-01
4.183882184280166561e-01
-6.439345701414745937e-01
-2.771317410952801041e-01
4.752264585871787683e-01
3.508842552901016987e-01
1.429828282518949834e-01
2.086128489883082651e-02
-2.435732355732675158e-01
-3.908104615767056811e-01
-2.582781506227099233e-01
7.975395039706301148e-01
-1.420946411250483266e+00
7.450816531081336236e-02
1.286566012845418924e-02
3.046447415683102289e-01
8.602850753768416237e-01
-5.790136122791085249e-01
-3.936953617860313587e-02
4.486961773298883682e-01
2.529169656416221240e-02
3.036053067244118830e-01
-9.209954865630452792e-02
3.851069602102912270e-01
2.165889138465974528e-01
2.910301164467757884e-01
1.943576832865199500e-01
1.294660421876080714e-01
-2.304364390778421701e-01
1.323987010660532815e-01
-5.084179627775547994e-01
4.535648707880534092e-01
-6.584386037065993458e-01
-1.137456333125216740e-01
3.520166127772082487e-01
-9.122439383425686721e-01
1.607998664781273290e-01
-2.429695447316394530e-01
3.355171810772711316e-01
2.878815561295317016e-01
3.688289735339512765e-01
-2.362691117604180102e-01
6.114913652478890516e-01
3.666638329778622585e-01
-1.450477775362426502e-01
-9.525980960546660825e-02
1.240859776798131919e-01
7.597186815627801071e-01
-4.071749958480765930e-01
-7.367661644267817778e-01
-1.945867883805326715e-01
-7.049933220320498961e-01
4.638991523596578959e-01
-1.072978142217277497e+00
-7.098421099741942797e-01
5.016826724012508620e-01
6.646386632223425517e-01
-3.194075194693892297e-03
-1.131829510008876549e-01
-4.027907462919564918e-01
1.013689467158821467e+00
-3.430359786890771479e-01
-1.205431450323573850e-01
-1.122106731807322177e-01
-3.201184323719473146e-01
3.391273058231761839e-01
1.050960673430898273e+00
-5.610667617107583105e-01
3.768719470402424609e-01
3.363874784911588534e-01
1.553391279389589597e-01
9.007988426826034623e-01
6.934681741440135161e-01
-1.338818324908342516e+00
3.912269176912794855e-01
8.227903989393986484e-01
-5.493485157522430828e-01
4.126505588952909531e-01
-3.691336059666139313e-01
-4.615479916120097670e-01
-6.139750519864999312e-01
-1.064875637683805470e-01
-3.801542544305688831e-01
-5.491973175408192409e-01
-3.009345169221110464e-02
4.265870551320778969e-01
1.045123372684965357e+00
1.913907622227325467e-01
-2.172149057826444074e-01
9.964205929040903520e-02
1.591921962310197669e-01
-5.714728688008947621e-01
-2.501254148335317340e-01
2.783541172610141112e-01
3.190886217504983885e-02
3.459889717533791154e-01
-1.921743952325998678e-02
2.578077065667974330e-02
-5.040443643310869026e-01
-1.498285511692828142e-01
2.911402290795046532e-01
-8.056358244930662549e-01
5.592835230445226680e-01
7.306503053298427641e-01
4.982909851360656922e-02
-2.697035434116852870e-01
4.358428799026572986e-01
3.665397389846258847e-01
4.467919705792642304e-01
-2.772658470613309500e-01
-3.812418708977876047e-01
4.455860456974388151e-01
1.219480251341067412e-01
-5.369682710485037397e-02
-3.856451433470629575e-01
3.714208761001541736e-01
6.965570673541138236e-01
2.596260753818248057e-01
5.637793734087347824e-02
-3.738673693435720646e-01
-2.533949300974763785e-01
6.369110988694016706e-01
6.939629178467497939e-01
-5.173272230993729570e-01
5.195071134757024423e-01
1.015401758333817073e+00
8.794737725773701387e-01
7.516667588251761956e-01
1.393264160228664672e-01
2.747675802775120801e-01
2.405080835629275771e-01
-1.966366655007137643e-01
-6.911371440757125839e-01
3.907104823718519082e-01
-3.059323629475558248e-01
5.492724029108857209e-02
9.023638072269980770e-02
-2.690140988261179311e-01
-3.227417483732409331e-01
-1.319932945200289198e-01
7.656737076465535141e-01
-9.342935938984037181e-02
5.731763091357585660e-01
6.776246599773698420e-02
5.347076090601918796e-01
1.320121281321831319e-01
7.967085641767499560e-01
-1.821834497930773997e-02
4.190564039300712085e-02
2.562049803772322720e-01
-1.185080195834999073e-02
-6.003049039234701345e-01
1.023398466986766703e-01
-3.065589905116888336e-01
-1.583346245623097337e-01
-1.521940391299259066e-01
-3.356366877559058270e-02
1.331494629396697271e-01
-6.439583215483049017e-01
6.207871136219930142e-01
-6.345723527780854356e-01
7.692508223768161901e-01
6.130821577502839625e-01
1.034571197189745995e+00
-3.009605543956828111e-01
-5.443125901910724762e-01
1.687815249649007865e-01
5.173870970006903131e-02
-1.029670468748184575e+00
2.903180874467175543e-01
2.821938546194914244e-01
1.583574378647392700e-01
-4.005518055660999277e-01
-9.024516282031806724e-02
3.538719184087468217e-01
1.969577472110845828e-01
2.516627431211877486e-01
4.593801281794512859e-02
2.972696999016836983e-02
2.198093501347888820e-02
-4.244107257027452396e-01
3.909442475042340104e-01
-1.779129638556495863e-01
9.609543192044319726e-01
-5.879091158825331537e-02
4.316911774339125540e-01
4.660514351622060958e-01
-1.266098322456970404e+00
-4.234307258064986569e-03
1.625886663236549845e-01
2.852919152197751496e-01
3.323562322159845372e-02
-5.003211231469437692e-01
4.184415888646814130e-01
-2.725135676202400381e-01
3.002755043472462027e-01
-1.089874078532187263e-01
4.849265761823831067e-01
-4.767157853182554805e-01
-8.588801139130304296e-01
1.386431430619896876e-01
2.054554004166934678e-01
-2.688014000713294105e-01
2.935108242595402261e-01
1.907544791722487476e-01
5.947490518193508935e-01
3.104584860046021855e-01
7.126251231605498226e-01
-2.337520511650970911e-01
-1.511467863557059421e-01
-2.277366569509068905e-01
6.220920744841174077e-01
5.469781217566866971e-01
-6.383031895279428491e-02
-6.032481357232890584e-01
3.404950161858747437e-01
5.534851983289175159e-01
-7.408695107243689071e-01
-8.655211778911431342e-01
4.743174526849859851e-01
1.165324278064764491e-01
-7.335840515704563636e-01
-6.566885002568400020e-01
9.730888954888906872e-02
-1.756658028258588911e-01
-7.457702985140122198e-01
-5.924000021805754523e-02
-3.474227244191527286e-02
5.110816703964167207e-01
-4.937269256618825874e-01
-2.971769018956406105e-01
2.192597375615736588e-01
2.058928210223971988e-01
4.954801516583285936e-01
-2.213073586911930291e-01
-2.304557373040248824e-02
-5.374751741743646338e-01
4.564754967008775033e-01
-3.814493525062009338e-01
-2.096392552910259777e-01
1.736392811736772179e-01
3.614528276469165524e-01
5.059094312599896615e-01
8.973097790400680340e-01
-1.786878671668384599e-01
7.610597478369907076e-01
-3.887102697512784810e-01
6.402670060318744749e-01
-1.720281406688959069e-01
-3.228153666910025255e-01
1.242281940506240745e-01
-2.199147145666044065e-02
2.282272863993272116e-01
6.207177128406785593e-01
-8.348774803958847190e-02
-5.888712339793410466e-01
-9.183889190719872753e-01
3.483647524347949220e-01
-4.258419778151905088e-01
-8.359898880896842605e-03
-1.750251284583154987e-01
-4.167814598999812215e-01
-4.008126076269230009e-01
1.243512358805330120e-01
4.876332494105646842e-01
6.348704447433018982e-01
5.006356287097454283e-01
-6.192547024642148790e-01
-1.752989259028604474e-01
1.895312210444487222e-02
6.347828339391413666e-01
-2.945695154939114158e-01
1.053343946170025996e-01
3.701023734434800705e-01
-6.312870548512961033e-01
5.101125914391705374e-01
2.154598747707611728e-01
-7.140906735408221184e-01
-1.628093055467310507e-02
-4.176345104643742756e-01
7.433473383848901439e-02
2.925087686658032204e-01
-3.138596980514893331e-01
-1.214305245084926627e-01
-6.856909824380295893e-02
2.214344422713620253e-01
1.074593797612162366e-01
1.000005059232931953e-01
-2.470757496483078075e-01
-1.799656216469847081e-02
-1.367879729121213028e-01
7.339549975937875725e-02
-2.717533068869792956e-01
5.014571198803038921e-02
6.780372069287985415e-01
-2.427183316021357673e-01
1.904002143546852654e-01
1.754550012973399853e-01
-3.044081089976049537e-01
-6.654031276949349261e-01
-4.286332017647577208e-01
-1.180308550845542870e+00
-6.194495365147820731e-01
-4.087694658493352950e-02
5.438011307696654084e-01
-6.436149836695079229e-02
1.797949518075961373e-01
-2.785845967666504830e-01
-9.584639487870695307e-01
2.305652246654223969e-01
-2.824169811219846005e-01
-3.273412962523158942e-01
-7.833628639108906055e-01
3.521741271714208255e-01
3.960020233308630400e-01
2.188176804690846189e-01
-7.176555154481265575e-01
4.344939316828623777e-01
-5.970539820091347316e-02
3.459332489276608635e-01
-3.234111322652307163e-01
-1.005056133000590685e-01
7.020605836554801860e-01
-4.979997891954585088e-01
1.392112394518997820e-01
-6.575542788656604243e-01
4.336124013551128087e-01
6.902318546697747137e-02
1.399919288711136134e-01
-4.721673081035521746e-01
1.489353024612079524e-01
-2.426632530112175223e-01
-6.070677935350372173e-02
-1.128041858149278626e-01
8.602912839594070715e-02
5.214019684472243066e-01
-6.446781343355350025e-01
1.679366984865617030e-02
3.660263079553980562e-03
4.617651163108375117e-02
3.969796797843535563e-01
-3.354634908300464513e-01
5.707626312039210809e-02
3.824207683631765109e-01
-3.207734708320865158e-01
-1.133532480791362040e+00
3.689123682074687549e-01
-1.788727703672277902e-01
-9.897497211054731570e-02
-1.498216971301001288e-01
-6.515787611841826754e-01
3.235432259357229334e-01
8.005010942837512133e-02
-1.193893781515974029e+00
-3.494823802220791142e-01
-1.150452953410353168e-01
2.314336417746302721e-01
5.360534710925816126e-01
4.032894036897562151e-02
3.856512478093466756e-01
2.805270871889305184e-02
3.927639375473238603e-01
1.024581849594993072e-01
-2.160854341515063559e-01
-4.828334438330461609e-01
2.244364314565689966e-01
2.681908424716438200e-01
-7.273499456693818810e-02
7.368796802872289442e-01
-9.189018986523337165e-04
-7.574377942944026110e-01
6.618245445931552062e-01
-9.787006132080220411e-01
1.832780588386336285e-01
6.738634890879618977e-01
1.000695586726145225e-01
-2.615770944407515008e-01
5.096702066276604937e-01
4.292535983248629283e-01
-9.703346474995950821e-01
1.287658265578581485e-01
-4.849593499615917902e-01
6.360853532855772485e-01
-3.388688318764693230e-01
4.589460803446712700e-01
1.691151033250563596e-01
2.048360726318902425e-01
3.470085912327627864e-01
4.171984006550031876e-01
1.951624571823563081e-01
-7.290298382996393545e-02
5.912089525029680104e-01
4.570499213409362493e-01
-8.374633615393459740e-01
7.791822840235316239e-01
3.764038670694213051e-01
-1.016012071914343728e+00
2.084317040322810621e-01
7.473722506975647439e-01
9.071595167438062379e-02
-9.288501080382985942e-01
2.077126549981329340e-01
-6.646653525431187592e-01
8.969129813342138768e-02
1.564424645303745809e-01
-3.267489976927229894e-02
-3.408687328902426095e-01
-6.838280563418616120e-01
8.030303024019909142e-01
-8.744874855034497907e-01
1.727020564596556118e-01
-6.945157510473931595e-01
-3.271493927100588839e-01
-4.097538976341893457e-01
-4.394449462139725371e-02
1.395580610197262317e-01
-1.965081591373490089e-01
-3.289577724316784524e-01
-2.985964897275984464e-01
1.908213648108012250e-01
2.128605596803768152e-01
4.251110992373189346e-01
-5.488474151610509555e-01
3.192837015911560994e-01
7.920335053727766139e-01
-3.530025213841276877e-01
1.480435832038326793e-01
8.682756329501745141e-01
-1.100581257120363476e+00
-4.158152884598963483e-01
1.342473101640735966e-01
-3.783355111716771857e-01
3.312842643877612625e-01
5.541735302123200757e-01
-3.979488373101641718e-01
-1.875685809502817269e-01
4.485881026144321049e-01
-3.660014624365321434e-01
3.873829948747113672e-02
-2.848240856434544610e-01
-1.584286325767242376e-02
-9.515702785632501604e-01
6.271492728427488506e-02
1.671220040695306497e-01
-6.565193819405588105e-01
-2.123727162520694101e-01
-6.528040304773707891e-01
5.723275636444689063e-01
2.016415684028916022e-01
-6.432152608157751250e-02
-4.117570999957232969e-01
-2.645572244192186950e-01
6.692896153935916359e-02
5.243149431716334075e-01
-1.675385927012419396e-01
7.548913144559705746e-01
-6.567867530905487916e-01
5.696970562288219408e-01
-5.849613986567147039e-01
-3.149997180351803150e-02
6.547321355816280164e-01
-3.926408105321830821e-01
-7.261406678854706032e-01
-2.197003667263364157e-01
-8.614192837885447096e-01
-3.084956696430791734e-01
-3.778915902539502492e-01
5.627039647995882854e-01
-1.314013109618785147e-01
1.761534259251045648e-02
4.941700969025467072e-01
-4.869634878776558651e-01
2.507971048587495644e-01
1.913084975545448208e-02
-2.829628149610287080e-01
-2.345909740259522203e-01
2.148283199003292801e-02
-3.144252465439822952e-01
5.607332219513657678e-01
2.879828622334345001e-01
-4.987630936955341210e-01
3.396513689750231269e-01
-1.473309538874316982e-01
3.337425744332254141e-01
-6.996483542036118219e-01
2.813197205655788014e-01
2.998498289629053515e-01
2.254956424142507687e-01
-2.743747665772521827e-01
1.572771278503348469e-01
-5.659031364182610657e-01
-1.156145647209426836e-01
1.195198299998622427e-01
-4.617759554884736661e-01
6.251987843042307313e-02
-5.206147720137291879e-01
-1.126769853388067261e-01
6.983376653344571805e-01
9.863177819892939846e-01
-4.579006062292051774e-03
-1.015494503621080652e-01
-3.049611933899740168e-01
-1.056433063689800333e-02
-2.413625044679814646e-01
4.998848685045813589e-01
1.296368031736458426e-01
-5.522911037934787881e-01
-6.489236162858428303e-01
4.679787647100369097e-01
7.307609973624343835e-01
-1.191554385411649070e-01
3.965835782491387573e-01
-1.940906309299035293e-01
-9.853357173226255927e-01
-8.881989494914971361e-01
6.736439179614923667e-01
7.651442811504061137e-01
-6.812954402541165910e-01
5.186226539367215331e-03
-2.582206672973539341e-01
-1.499299775226757836e+00
5.679646264937430189e-01
2.311939069787948275e-01
-2.104605386037480264e-01
6.140963830825867387e-01
-5.379097843222392372e-01
5.349989295976759207e-01
-6.474198218585360820e-01
1.655118240939966456e-01
-5.258026582777649421e-02
5.898960597165375797e-02
-5.536014772250805738e-01
2.131186964407672801e-01
2.117611017712247579e-01
2.250776689026351141e-01
3.535286742370828406e-01
-1.444497824973426381e-01
-5.274433984674722353e-01
1.276628445465624873e-01
-1.023165523887226702e-01
1.699691621527866514e-01
-2.960077367694426420e-01
-5.060092079280452682e-01
6.008119743440646365e-01
-5.179397136382929423e-02
-3.113199885194427030e-01
8.064705398915583690e-01
5.138145261419651000e-01
4.006750357949986352e-01
-4.909171046885901224e-01
-9.255016778403260536e-02
3.852124938509041696e-01
-2.422448510925197251e-01
-1.867229437891509691e-01
-1.016152386830287524e+00
1.632069762120194889e-01
1.970728833876778385e-01
-2.081970510732845114e-01
6.369661959200648704e-01
7.198402818260624114e-01
-9.910133583680412750e-01
-6.078177640090889344e-01
-1.417858365357750616e-01
4.515821610816065923e-01
-5.424298599711192548e-01
-1.757333106310202953e-01
1.480097028556005834e-01
-2.563145193520312004e-01
-3.984152232092666446e-01
-1.803207573090928328e-01
-6.997408144861251289e-01
-4.872757988229083348e-01
6.129121358528329122e-02
4.840519460790418393e-01
4.319204974562904781e-02
-8.614823884529336784e-01
4.420121887250578752e-01
-4.500796380503895300e-01
1.968896924136010196e-01
6.199952971246295297e-01
5.560823958776103249e-01
1.882239948458355183e-01
-5.670004791830750568e-01
6.266977441233037016e-01
-2.078631759640028609e-01
4.433609782136403998e-01
-2.956843695179268150e-01
-4.934920705990659129e-01
3.664572102601048043e-01
1.250333833645449200e-01
-8.051849908659141075e-01
-9.442162702639246563e-02
-9.564238030921415890e-01
-2.658728789392940106e-01
1.163397886884552368e-01
-8.075111669367499578e-01
-1.778743541589595800e-01
-7.045755913366371637e-01
3.310984152548771542e-01
-8.441244465454312770e-03
-1.179373126746020572e-01
-8.287295804839175384e-01
-3.809600578355033518e-01
-6.086485223292988911e-01
-1.289272450234918710e-01
7.786293451359940221e-01
1.574708086847787791e-01
1.545561705764914029e-01
2.790339963528616907e-01
6.805450569705882025e-01
-8.375405649391098883e-01
6.220060743170358064e-01
-2.376936605532865565e-01
-2.031240967373834361e-01
-2.937689161903567769e-01
5.508262961601352314e-01
6.905105014627168636e-01
-1.171279744938669598e+00
-2.793031143226592516e-01
5.678507551562391731e-01
2.989620107656390524e-01
3.156954036727395718e-01
-1.168682985357612225e-01
-8.519257444713021488e-02
-6.169443793249432817e-01
4.357926834472897887e-02
2.206870800206819638e-01
-3.625336074429529321e-01
-4.581146929007990920e-01
-3.411837089060979489e-01
-9.999019554575980240e-02
-2.350132548452777692e-01
2.627303855987394576e-01
-4.694424757464119718e-02
2.324603148891543902e-01
-4.363509995426299581e-01
5.295046753903439596e-01
6.292393843145338561e-02
-1.117331910099695236e+00
5.722543194057583271e-01
7.030319382628014147e-01
-1.090512441935741206e-01
-9.220903755732196005e-02
-7.130188291676783363e-01
-2.313599008979269275e-02
-3.673537349595100143e-01
4.304473743237233196e-01
-2.630711301426768567e-01
-3.512214498167835486e-01
-8.386304972007700698e-02
-7.992454742808722257e-01
-3.912196183137283123e-01
1.819063624499084597e-01
5.797485952721246338e-01
-1.266606305740204608e+00
-5.381684151015792006e-01
-1.804943884435648016e-01
-7.665319269571122529e-01
-3.870400516301713556e-01
-7.730910057015285552e-01
-7.816121280456086451e-01
-3.947712826203749192e-01
-9.873239420945658651e-01
-6.940049640886031268e-01
-3.497303958688163794e-01
3.249480645429061454e-01
4.223130017937306580e-01
-2.694874007795077797e-01
-1.078725529496893237e-01
-6.223159541077461637e-02
-4.165456463413889227e-02
2.309768530120289987e-01
-3.867248044862613143e-02
-4.102506844394984142e-01
-2.877092244552427458e-02
-8.450569054054914153e-02
-4.331070571214902243e-01
-4.878074797015494735e-01
-6.431743290086462395e-01
-1.383751262507731949e+00
2.245259632816347106e-01
5.922169617410103504e-01
-5.656595180845602061e-02
4.792896631227964305e-02
-5.039086378586433712e-01
-8.150798192744405091e-01
-6.290653852997594164e-01
3.482107859114051962e-01
3.138668682274136645e-01
1.040287144458890839e-02
2.137166083122360796e-02
-3.477326044035252139e-01
3.357781916381536447e-01
3.106497165389289772e-01
3.895803428339035812e-01
-3.771864930175666264e-01
1.833600989538405890e-01
-1.120636951542351364e-02
-2.553414103692087656e-01
-8.615431460007363373e-01
-8.402881209997787870e-01
-2.744080858624281527e-01
2.957444565792079483e-01
-3.669811594345206984e-01
1.382342392184946755e-01
6.198743382154390247e-01
-2.929796679650624736e-01
1.654934757167740023e-01
4.932421123552159781e-01
-5.751720109165311401e-01
9.602684634311228762e-02
-3.041057745734077056e-01
-7.171860211907131744e-01
-3.327511193395424893e-01
3.095691244720585877e-01
-4.243717890777974344e-01
-5.298668590342311413e-01
-6.062326194685953018e-01
-9.276327028837484390e-01
-4.639593756596092078e-01
-3.527726315190947703e-01
-8.385741914900673999e-02
-9.912511420506253668e-01
-1.845294274299688619e-01
-8.957352302654435217e-02
-4.722202385191191787e-02
-2.962808733191660271e-01
-7.084175086458295301e-01
-2.425521803234588492e-02
6.860773020950365897e-01
3.030248307641341676e-01
-5.666071709750979124e-02
-5.408009732369928324e-01
-6.067475619300938261e-01
2.334540424024260548e-03
-7.708670613305811381e-01
-6.584597551882960254e-01
-1.706047865260614249e-01
-5.273934118933400889e-02
-6.400100846258671705e-01
-5.174586279591467664e-01
-1.975156484343544849e-01
6.947535290030284472e-01
-3.195569570696214501e-01
-7.487495106941156608e-01
9.889121143119299073e-02
-1.251863264658066299e-01
-2.397910799114171265e-01
5.481441457928013655e-02
2.732780141696183884e-01
1.854488963975523264e-01
-5.076512725586408425e-01
1.803930125763204551e-01
5.376833849335395099e-01
-2.418336079605150346e-01
-8.279275365041360857e-01
-2.186241279481234978e-01
-6.415889821278676630e-02
-6.750092736929376169e-01
5.653136934678660852e-01
-3.067707345013008791e-01
-3.398076369308166145e-01
-4.375960650889404446e-02
1.830812016938916931e-01
-9.013869983286394438e-01
-1.005284123041916500e+00
-2.141782317218920706e-01
-1.888391220648154289e-01
4.770793480303462952e-01
-5.030935248282223382e-01
6.507587013220275107e-01
-7.708141412507415469e-01
-6.425169344576077135e-01
8.232407083502853162e-02
4.155124996689985029e-01
-3.705091497731511363e-01
-3.707153235052326190e-01
-2.008652314493321323e-01
-3.549088445402379111e-01
-1.046826235535232241e+00
-4.538025632509176677e-01
-1.046257230950160128e-01
6.295136025670631241e-01
7.935524779529476436e-02
-3.182925611975686020e-01
-1.108615921263453652e+00
-6.487736014851912258e-02
-6.233494903826898303e-01
2.105719375357562873e-01
-7.431797510257912021e-02
-6.515565094224941012e-01
1.156453625484381020e-01
-2.507248042636637808e-01
5.614917513175837066e-02
5.859424657482633636e-01
-6.945836526795319266e-01
4.772680621550183799e-01
-7.079958017384928581e-01
-2.100831936909019204e-01
-2.788707168737752928e-01
4.089651511392805028e-01
1.861127924669499917e-02
-2.110187061180996138e-01
-5.569391862336002808e-01
-2.622198380797577943e-01
-1.012489923607469561e-01
5.314143952147304395e-01
-1.515307189659792324e-02
3.674713843760639143e-01
2.703301079624650383e-01
-8.073630267892649703e-01
-3.368946908971244825e-01
-6.244778940565199887e-01
-2.908965783616126455e-01
-5.477996886063198900e-01
-7.006227838936546215e-02
-5.882534525268806602e-01
7.205611001083914169e-02
-4.270180122856078175e-01
-6.192548025643410670e-01
-5.660681357080524778e-01
4.251553469508285998e-02
6.936469353960447171e-01
-5.716123764611686919e-01
-2.111738679853220335e-01
5.498789864124375981e-01
-6.585290393507063633e-02
-1.911233368268081823e-01
6.342738801052539843e-01
3.542049716364029099e-01
-6.877227014692961493e-01
-7.495610168540071117e-01
-7.203823152018788978e-01
-7.425330623848323819e-02
3.532946849759676100e-01
2.131483383228966466e-01
2.392596319820279316e-01
-1.659528108991057960e-01
-2.459236883390324147e-01
-3.341256177047418618e-01
-1.624033947415050583e-01
-7.015128121217861779e-01
-2.063122618803225616e-01
5.159164168377958770e-01
7.417494725795516219e-02
-1.828845524329951733e-01
2.490886298857122039e-01
-6.199333556701983050e-02
-1.209399339326167749e-01
-6.929261022554172866e-01
-2.131618304438293587e-01
5.452201432121495106e-01
-9.416077703759617723e-01
-4.343102762960013852e-01
-4.875639030226866510e-01
5.148759520234745812e-01
-5.851944144336371223e-02
-3.173028883507622577e-01
-3.400865833770894825e-02
1.845100355520026547e-01
-2.241370293701152872e-01
-5.102627484449517858e-01
-2.258612371515778539e-01
6.340916773677741924e-02
-5.715893719840283715e-01
3.759137209679621061e-01
3.962742676935517294e-01
2.534803524992406132e-01
7.031920868442654848e-01
-6.010854052208411957e-01
-4.599201611504945553e-01
-1.205545788203461255e+00
-7.952157629652953919e-01
-6.699180513670806303e-02
6.443221938526244585e-02
3.788593167151300678e-01
-5.269993457189109387e-01
5.229269444081084961e-01
-5.938828529515408766e-02
4.198563446440560232e-01
-8.837931650511460235e-01
-7.878559628700400053e-01
-1.054049880349586660e-01
9.284526471169100847e-02
-5.743429784472428024e-01
1.312756526749066233e-01
1.196866678873926976e-01
1.184171063913951882e-01
-7.911164133075671012e-01
-3.368529131248088060e-01
-8.340812456355211069e-01
3.023975118628701164e-01
-2.947385058368223731e-01
-3.688707896069002290e-01
-2.916674306774205694e-01
1.038145098157292889e-01
-2.239683325985665219e-01
-1.239761169846090860e+00
2.573278790064687654e-02
-9.959796109435847811e-01
-1.576036649494554076e-01
-3.132475241552877265e-01
4.387097068439163583e-01
-1.102505377962847088e+00
-2.558487552372896712e-01
-4.742530525434788813e-01
4.727044302609105242e-01
-3.859971663924749996e-01
3.612464126784369900e-01
-7.354611495764178386e-01
5.316637507017724085e-01
-1.571661235967582448e-01
1.285953656674892476e-01
-9.468966435235500745e-01
5.459368547800597105e-01
-2.634854090521251413e-01
-1.609987721447264930e-01
-4.818889709757368522e-01
-3.782923440690369454e-01
-1.595901756516988901e-01
-7.535621949770869576e-02
-8.753975426703980434e-01
-3.302486667934387277e-01
-3.067968110176827207e-04
2.773709903468284388e-01
-8.354129050771854637e-01
-4.499378828124901974e-01
-8.763380182683433439e-02
-4.247784111904852611e-01
-2.851143976657161128e-01
-7.756695471901643435e-01
-2.458098658165046302e-01
5.772085095385106612e-01
5.824053858037686604e-01
-6.715795566393052418e-01
-2.775732016329158225e-01
-9.347284491971137588e-02
2.168237932131019396e-01
-2.313555992500570535e-01
-7.909557703959876895e-02
-3.881121435680542353e-01
1.174211941582974927e-01
4.853417791712014706e-01
-2.779046779496847086e-01
-4.195455961997544003e-01
2.535575800946507363e-01
8.143097641893724814e-02
-1.835412590108688458e-01
-9.993103779897911654e-01
6.381202387538211784e-01
-2.980431876516778100e-01
4.316532766763197387e-02
5.124823931688643475e-02
-2.102840342072290203e-01
-3.178426398397368735e-01
4.912131950341344089e-01
-6.838525647143904873e-01
-1.506690841809326387e-01
4.592488671184517535e-01
-7.629113080270257807e-01
2.358737163009359261e-01
-4.126845572316609756e-01
-2.213677434109542208e-01
-9.388703591293837691e-01
4.245285498184102058e-01
4.588094451550804309e-01
-2.574404377315304138e-01
-2.933155115645315614e-01
-5.731809927891651224e-01
-6.957290974008425999e-02
4.651025391031142764e-01
-7.791893378303609008e-02
-7.212781742339807733e-01
7.039966010268065844e-02
-2.324919506561732019e-01
-4.367821094855535158e-01
1.771705123631377166e-01
-5.885571549668886515e-01
-5.017434107486200556e-01
-3.880798246370363858e-01
7.760066387772816821e-02
-4.915508134069088153e-01
-1.190450288846670382e-02
5.386256593825705652e-01
4.264635639195983319e-01
-7.988065450971657544e-01
-1.178081034505931823e+00
-7.021902662445995702e-01
-3.554038271071756350e-02
-8.665538695601269215e-01
-5.903517348781849305e-01
-1.192415624376387123e-01
-7.435927327160551936e-02
4.199105266279664628e-01
1.898668446068576265e-01
-8.120054100915877759e-01
-8.882041948762416927e-01
2.973757572861128115e-02
-6.364657101560651231e-01
-4.700872187620765974e-01
1.799647416035138336e-01
-4.958963573195464269e-02
-4.975159486183448054e-01
-1.024288595559845749e-01
-2.733397863297488684e-01
-4.873954492896473978e-01
4.281868112903285395e-01
-4.361689347594603361e-01
-9.872443899602094397e-02
2.955237194544850163e-02
-9.913185702689890355e-02
1.749370578875620030e-01
-4.546490168831722467e-02
3.265253730698862156e-01
-4.833367946552968308e-01
-3.155619469271442878e-01
2.775195474866726797e-01
4.795345995421759766e-02
-6.842011297813456183e-01
1.360576645528747963e-01
-1.078914325039488642e-01
3.206171960808202326e-01
-7.217929669913379920e-01
-1.126272625384626275e-01
3.086265384332042561e-01
-6.884646636108274209e-02
-1.228288355559040840e-01
-3.596490147045833807e-01
3.318922772271838684e-02
-1.839402866162780439e-02
-4.638098399648554193e-01
8.400779311132572369e-02
-2.244412804436157205e-01
-1.989433617577542057e-01
-3.925284766367765354e-01
-2.492527432093583906e-01
1.683721329477231576e-01
2.196361730167333548e-01
-4.295247451098542224e-01
-2.474115931773928079e-01
-1.268206152873178616e-01
3.776754516446061416e-01
1.376883523550094524e-01
-5.117434687034052437e-02
-5.340607713703845461e-01
-1.202042817380867490e+00
5.573418504181284344e-02
-1.033108099414984105e-01
8.978338794836894510e-02
4.841390719565834971e-02
-4.329198291938530230e-01
-1.195252560434366257e-01
-3.947762674870063382e-01
-7.803204165113840352e-03
4.006150002114933217e-01
-2.077248719556975751e-02
-1.037342482520272891e-01
-3.779250331948200842e-02
-7.540763990996750543e-01
-6.194759652026281538e-01
-4.435071004292402419e-01
-5.960129127174235153e-01
-1.016317210068153065e-01
2.433656659122510335e-01
-2.182669446567773452e-01
2.829635643835463725e-03
2.557334364530053361e-01
-8.135198445064363293e-01
-5.562098935244039755e-01
-6.557315420782117155e-01
1.708333501040963653e-01
-3.985581492380854685e-01
-2.757202025782938826e-01
2.137262046497772489e-02
-1.678251546965376650e-01
-1.003685426191292640e+00
-6.974907730664193783e-01
-5.056686106219505650e-01
-1.194836534161508763e-02
-5.037330652956923949e-01
-7.845722995195441030e-01
2.308454133621515303e-01
2.177134609528952047e-01
-9.384177359379085592e-01
-3.820742708532044452e-01
2.239125327717045311e-01
1.020122943846390323e-01
2.912100222532464366e-01
-5.977780015366731536e-01
5.978769797509371486e-02
-6.136140946003408592e-02
-1.343435231067292672e-02
-2.135102593913169311e-01
-2.076332951423781603e-02
-1.783086234176665119e-01
-1.060066587109990410e-01
-1.005252898638850256e+00
2.793828514894042270e-01
-2.736114149650837879e-01
-5.500438036123665997e-01
-3.879471478610900248e-01
1.747810541619234659e-01
-6.483211522725776943e-01
-1.943888794379277363e-01
-2.577038891486408967e-01
5.104584283838465852e-01
-1.027182467077955297e-01
-4.818191882084651989e-02
-4.441634687792170300e-01
-3.820762985187310390e-01
-8.250526547976075875e-01
-4.727427807670524507e-01
-1.227218812502780393e-01
4.729897116082869279e-02
-7.959467181175209349e-01
-5.516850678168598865e-01
-5.740697875269249774e-03
1.220773939473455416e-01
-2.303560203295010045e-01
-1.964819664746729200e-01
-8.971721753931861665e-01
3.352844748521845164e-02
-2.131140601163157289e-01
-4.311978294418724600e-01
-1.604928649421666076e-01
4.294144421864863892e-01
-7.797501990633418645e-01
3.710421833817973969e-01
-2.002375300429445060e-01
-4.617860308721785656e-02
-4.873916515191765719e-01
6.235487484064977833e-03
5.496936514587431877e-02
-1.097393681312995722e-01
-3.951720897636565311e-02
-1.250869480063035791e-02
-4.692802024250204013e-02
-1.025334241862206008e+00
2.508221906575840987e-01
-1.488036656694476378e-01
-8.457311275950473162e-01
7.097787803320700917e-01
-1.247897474067903162e-01
-1.344858365535642974e+00
-5.418878521790581049e-01
-3.333054874809964208e-01
-5.691841207160095450e-01
-6.619639449484308047e-01
-9.914925019311440213e-01
-1.615112842541478189e-01
-3.002798988197381835e-02
-4.512467015256571568e-01
-5.441118391270484134e-01
-9.370359105472648720e-01
-9.152812421249540975e-01
-4.676942263397639854e-01
-8.405732043687845489e-02
4.446369984513315887e-01
-5.450240394978174141e-01
-1.288956447431452434e-01
-4.468913420731556937e-03
-1.088155528373228355e-03
-2.170938875990113814e-01
-1.510793684358449906e-01
-4.875931458071653402e-01
-7.199913057914358872e-01
-5.219176135062001398e-01
-1.959534432573395157e-01
8.644330868084461328e-02
-1.804663963181287467e-01
-2.118702965330059029e-03
1.599048685190323504e-01
7.658206527061892912e-04
2.377687590387383698e-01
6.579235287524738685e-02
-4.290437990067970109e-01
-4.258055753855948811e-01
-3.151598958073192902e-02
-1.384737004010351547e-01
8.336015365781815345e-02
3.756238521252636686e-01
-2.322638671200172866e-01
-3.692459161816608049e-02
1.578577470296130270e-01
-6.991535775674646847e-02
-7.931114786047228915e-02
1.091857769608668878e-02
-2.538227795583493721e-02
-2.873112804208435844e-01
-5.277429436932512541e-01
-1.007081655944801896e-02
-3.218939873159518683e-01
-2.235882080999437305e-01
-6.108192411718411652e-01
2.186385557679491540e-02
-5.873378855011518462e-01
1.249558213880289509e-01
-2.576905597157321814e-01
8.185253816890927792e-02
3.386794023067936643e-01
-3.127828389901037287e-01
-3.633816550041399362e-01
-8.722190239374347787e-01
6.111299873423322454e-02
-1.349066640327845623e-01
-1.161085743510759244e-01
-4.473138783631817050e-01
-7.020073488611681956e-02
2.358657145803254862e-01
2.240545736710904678e-01
-1.834402048608507405e-02
1.816181840603985076e-02
1.064111178211265413e-01
-5.254573278030019723e-02
-3.032284025195805532e-01
-1.011768097686996659e-01
-1.295266814824674595e-01
-7.105222231597474458e-02
-2.529527547663697473e-01
8.152080647320927853e-02
3.958411207122495279e-01
-4.029404132812521022e-02
-1.981652653942760078e-01
-3.213070489521903106e-01
1.061311546770488529e-01
-4.461597400896397669e-01
5.318339860757478887e-02
-2.773714681578072216e-01
-9.574353261180271191e-02
1.433575065482086408e-01
2.241802685604405154e-01
-1.670148659576319028e-01
-3.787255017081200270e-01
-3.466909489169056613e-02
-5.005650911580811213e-01
2.721358006095327825e-02
-1.176491540182376255e-02
-1.441433273701612228e-01
-3.627707279587125133e-01
-1.366907775503315159e-01
2.713489718193909384e-01
-1.129987835628766951e-01
-3.100432587822048447e-01
4.709383475954022069e-01
-7.239592226076355108e-02
-1.943236215490715402e-01
1.255131908716690670e-01
2.812295601082771823e-02
7.257265397735274126e-02
-5.366466533327738375e-01
-3.698936883407719090e-01
-1.825153641331440368e-01
8.873877551752015758e-02
-6.962523943382355196e-02
-8.456225087658413020e-02
-5.138625136467276505e-02
-2.196060635285366491e-01
1.285702937081931452e-01
-2.854073568748828615e-02
1.022259747347783326e-01
-1.748379228987567979e-01
-3.206596774499210351e-02
-1.829903933021133078e-01
-2.531510153156693588e-01
3.309705654373616968e-01
6.451017747772377908e-02
1.899119429983590901e-02
-2.079815302578938707e-01
-6.560853631487445839e-03
-1.007881160138119014e+00
-1.686180351559508073e-01
3.509486669243370993e-02
-2.921459405237101237e-01
-1.278325184672093190e-02
-1.496569658460209229e-01
2.229920345811509941e-01
-1.485962039082377451e-01
-2.396698435663559001e-01
-1.776197643717757901e-01
-8.391248155916583573e-02
-1.119118649131191530e-02
5.756227871699807347e-02
-5.867088640548714928e-02
2.730586085589203349e-01
2.916271655181467692e-01
1.520933815337270067e-01
6.715621969159445148e-02
-3.441818400364193148e-02
-3.051141953866353534e-02
-1.450019909836600465e-02
-6.652917454537049524e-02
-3.882706969132191932e-01
2.500762168595458898e-02
-6.158178269100982316e-01
-2.885678759068577848e-01
-2.023766944467624007e-01
2.877779163256904971e-01
-1.992840566755824105e-02
-8.661448808463199922e-02
-1.485558242254097494e-01
2.120177474951588370e-01
-3.993303376114740177e-02
5.302334055665004764e-02
-5.995145531595712229e-02
-5.432569047546684238e-02
3.506220548451013247e-02
-6.538587667087104871e-02
-4.977061817858610127e-01
3.670321255889962692e-02
-2.650871456165621032e-01
-5.710070975495838697e-02
-4.361511131806626584e-02
1.552721687634902870e-01
-1.507062097826861458e-01
3.145550365949840166e-01
-6.879390141034769091e-01
-3.206270539539667758e-02
-8.452595543147196910e-02
-3.283966978114457591e-01
-6.045142404098583638e-02
-1.358063192807452413e-01
7.171752440009576679e-02
2.540073030867669446e-01
-6.060307644041276059e-02
-2.114432465543873430e-01
4.101655747260089108e-02
-1.944449865729693805e-01
6.359662062083872199e-03
1.648255977424853413e-01
-2.638754571205315647e-01
7.263287375977946214e-02
-6.238404440703430032e-01
-8.485755285272955639e-01
-5.025013930079057500e-01
1.022143206372837926e-01
-2.537443435650295065e-01
4.445723311756125118e-02
-4.498576287760903125e-01
-1.886738080155348218e-01
1.699063245607130013e-01
1.428476225943199895e-01
6.668340037950283572e-02
-2.455219967079163845e-01
-5.619654043800661469e-01
-1.557589761913259763e-01
-1.331937118842092538e-01
1.325238106638241820e-01
-6.796784422522576807e-02
-3.260872785734555274e-02
-5.615212733001880702e-02
-3.381989760108000120e-01
-2.976206274402446589e-02
-1.606121749038546542e-01
-5.290193598481673920e-01
-9.046808581260887272e-02
5.713295132246977437e-03
-7.939834413279382719e-02
-2.398158080826601757e-01
-6.368140766113360440e-01
5.719200344650877954e-02
-4.339763149183267082e-02
-7.377022301335206533e-02
-5.670129466973972132e-02
-1.314984229184027742e-01
-2.482431017337458079e-01
-2.636525150276804452e-01
-7.539046296687679227e-02
1.772457714238592497e-01
-4.584774825846938962e-01
-8.945890000902362305e-02
-8.948620246885564955e-02
-2.080814874460447730e-02
-6.767159663091428801e-01
-2.744957243479251296e-02
-6.308432618531664704e-02
-1.156276381109931223e-01
1.357641817322058075e-01
-3.460834880621594389e-01
-2.218879496746284374e-01
1.944471433375618841e-01
4.580294539271870247e-02
-6.045570257098976247e-02
6.049465634569950456e-02
-1.272759547514565603e-01
-2.018511200204452516e-01
-3.242575513357157102e-01
-3.772132239292261269e-01
1.431973719659986564e-02
1.154228940590888708e-02
-7.046053428453540046e-02
-1.241647498200870725e-02
-5.543589316731239308e-02
-1.097397837265743151e-02
1.310689479138789082e-01
-7.574433920735980375e-02
1.528662865684578612e-02
-1.569398398180116283e-02
-5.479483893473396233e-02
1.309166383790223154e-01
2.767291628363359179e-01
-2.914137557083643637e-01
-2.006650791619368213e-01
-2.549869712113575840e-02
-2.723543573154630915e-01
6.183213835913694417e-02
1.112841172205992907e-01
1.593428969810367912e-01
-5.884527962853280947e-02
-4.129201923863397988e-02
6.833384658021263158e-02
-7.916611619385396925e-02
-7.422325631498565002e-02
-3.596401993873176162e-01
7.051787323577377031e-02
3.353195663333889687e-02
-6.028090501795370371e-02
-5.946255938910145061e-02
-1.079693382618135411e-01
6.142549205764227804e-02
-3.888586744633845682e-01
-4.408635105650930697e-02
-3.250776766396171885e-02
-3.171260641054733931e-01
-8.907053374391282752e-02
-1.237241934157728984e-01
-1.463818148056424129e-01
-3.709338110968983249e-01
2.586340487631198087e-02
-1.900088427346487488e-02
7.630718530945128364e-02
-1.535131990752555686e-01
-7.198559646646379706e-02
-1.119651092476793980e-01
-1.037618012819756519e-01
-4.449763817327945237e-01
-7.714653102056813483e-02
6.522850587617866347e-02
-3.891258017943334813e-01
1.016285938187218435e-01
-1.283164663569680841e-01
-1.743120117651384415e-01
-1.621521048036842216e-01
-1.034406464909420377e-02
-7.004802128283614537e-02
-2.926667163700378271e-01
3.369029226522218257e-01
1.825924171280071395e-01
9.966479852717263777e-02
1.427264211851672349e-01
5.520250754097005830e-02
-1.054291674756523689e-01
2.000634716969456467e-02
1.543918765734193094e-02
4.647100992353070739e-03
-2.486149190861003944e-01
-8.827150883487691613e-02
-3.277295319157881859e-01
2.388000170961804836e-01
-7.473094977890952506e-02
1.450695624149235807e-01
-7.093546288547598888e-02
1.611749894067388555e-01
1.214061459397450943e-01
-8.544100087286018996e-02
1.516362345660498545e-01
1.222342451414226289e-01
8.488430426393091255e-02
-2.285290672815349922e-01
-8.495528396678869720e-02
-1.315288973905467951e-01
-8.392510013988896400e-02
-9.469500084426991926e-02
-2.101989381920133515e-01
-8.418698348904357642e-02
4.196822127905238536e-02
-5.617760075116873079e-03
2.801952726828764728e-01
1.183241656953450682e-01
-5.597928750867667280e-02
-1.560894226847017729e-01
-5.020861131251572740e-01
-3.310015565698011808e-01
-1.907583464945159513e-01
-2.157056447053231352e-01
-1.778222295528156804e-01
3.735426806170457498e-02
-4.704314603554878710e-02
-2.043613020542550118e-01
-8.508505171579158755e-02
7.389336941940664871e-02
2.356946972196633655e-02
-2.012288780823815459e-01
2.399376114500467033e-02
-1.722471147300677283e-02
1.718194747600706451e-01
-1.800381740965904531e-01
-3.495562844257359830e-02
-6.693323790944283314e-02
-8.821908938587673388e-02
-7.067410045281867330e-03
2.605487256357289644e-02
-2.117968093058253953e-01
6.097245416788180800e-02
-8.885062670936634543e-02
-3.518572002215962224e-01
2.656728959136363533e-01
-7.094775143597950584e-02
-2.223041750509370529e-01
-9.606420442294251461e-02
-1.856857807694915416e-02
-2.174867729105734726e-01
-5.506756218320616597e-02
-2.037197743943725270e-01
-1.666648538730179097e-01
-6.343899063179400666e-02
-1.050493702673560709e-01
3.823002651470848445e-02
1.773408814656407409e-03
-2.016591729346374484e-02
-8.325276270795708977e-02
-8.601253039294946834e-02
-8.995351926398885076e-03
2.042862394842054688e-02
-1.325789576560905403e-01
-6.520232691244877421e-02
-4.496636476178157010e-02
-1.068479713486236021e-01
5.757117180828648373e-02
-8.096322781472554964e-02
-8.338023093065217994e-02
-1.885027907660933588e-01
-6.245611741050566268e-02
1.289058721133046204e-01
1.026392022516494917e-01
-8.719383792750010076e-02
3.558388733945438281e-03
-1.231284949137325530e-01
-8.395630485253170738e-02
-7.251678139216911900e-02
-4.194982330865729137e-02
-3.655966613523799549e-03
-8.043887818256702238e-02
5.936822758532961375e-02
-8.008271164238676965e-02
1.415868124871465794e-01
-1.924775502831079232e-01
5.843684236209698013e-02
-7.507186594755133058e-02
-7.090169767783589816e-02
1.522001719327120348e-02
-5.421790372953106535e-02
-4.750499583185011088e-02
1.096089782706984178e-01
2.276795432297120531e-02
1.254449609487524354e-02
4.814304712567803526e-03
-4.534296266252343249e-02
9.144758153961035987e-03
9.273361883300768049e-02
-1.913251972509034116e-01
1.100251159002148815e-01
-2.332422945663753799e-01
-3.298813160328326055e-02
1.573999625925755902e-02
1.965138324278501575e-02
2.426889100315932773e-02
4.881287911542786344e-03
-2.381297977273072897e-03
