5.575519840766542945e-01
7.521954339003090739e-01
-6.761991426904423452e-01
6.860740353916298939e-02
1.948769686948433055e-01
7.610275155149111015e-01
4.426160201276415074e-01
9.925341054024855447e-02
-1.038710270543636849e-01
4.709477426552974300e-01
2.855250589165594932e-01
-3.449473438767083899e-01
1.986207381113657133e-01
-4.443022146329161370e-01
-7.158703778122543770e-01
-1.969809501165731558e-01
3.200412429092832495e-02
4.429479402035132324e-02
-1.297949902893878737e-01
-4.832214226561830084e-01
1.015081192959844669e-01
4.035809459043426251e-01
4.717199590001475151e-01
-2.921337612936144579e-01
4.061654295603726039e-01
-4.269080201462420177e-01
3.734939720476009306e-01
-3.418644310272511699e-01
5.565561809565756218e-02
2.683437331516740354e-01
4.898038046741058915e-01
8.455347468348590745e-01
5.076839087742788248e-01
7.486654670886844221e-02
6.241923279355928722e-01
-1.255349449536875273e-01
9.456893250312565780e-01
-3.318736680686460438e-01
3.302118719796476864e-01
-1.234141167870280997e-01
8.771324924814595525e-02
-3.253172661398691379e-02
-1.172148235228457569e+00
2.156456080694033398e-02
1.324736904565808893e-01
5.532444032409483681e-01
1.826372648825350387e-01
8.594080354002928135e-02
2.417432996665749238e-03
6.274659789000153198e-01
3.794390204703592118e-01
-3.742176566287336859e-01
5.204519970722827349e-01
4.943638631202036948e-01
-2.700465123017480318e-01
-5.650679348058602613e-01
3.621859707720779253e-01
3.949708247295640184e-01
8.367243921431084530e-01
-1.465844464597919165e-03
-7.940985411000653360e-02
-1.989098068346147330e-01
4.555027917786646507e-01
2.978059004776487106e-01
2.357522162277870051e-02
-1.153258247100488049e-01
8.217308844960133918e-01
6.218654745935395800e-01
3.047164247037456586e-01
-7.885096152769673905e-01
1.793310277662825414e-02
7.070319479264984830e-01
3.705781408504831009e-02
2.503504872926197722e-01
-6.492897522229948981e-01
-1.146976336034670613e-01
-2.896613030765373686e-01
2.645950833509024824e-01
8.903019423800203613e-01
-1.601467004575165554e-01
-1.761919851161632827e-02
2.465839968723877729e-01
4.628640791094468243e-02
4.679453095619792724e-02
-3.683571866809869089e-02
-7.250864431046761815e-01
-1.997231051136754212e-02
-5.242059769498144325e-03
2.882376671076585795e-01
5.404562162851430651e-01
9.130953327576854517e-02
7.212924352627391178e-01
1.838768320344366658e-01
3.589993279291756045e-01
5.581118169231844561e-01
-2.991256965398846335e-01
5.119883231610327101e-01
-1.166420410194864560e-01
-4.629615853337833153e-02
6.683182705211651031e-01
6.301137577712158100e-01
8.248981325802741127e-01
5.550892997156321451e-01
2.123936043770568438e-01
1.090814179512878818e-01
6.290819070945923297e-01
-5.678516857756880087e-01
-6.715105256787674559e-01
4.535719440314716633e-01
1.715390733860482908e-01
4.133329772111333789e-01
5.018031939368121641e-01
5.048260394881677326e-01
3.641575953953700151e-01
1.498603908121977635e-01
3.609785671811020502e-01
-6.437239796315259444e-01
-3.113485281017172590e-01
4.598851770571579234e-01
3.222589018333190114e-01
1.454435322023650279e-01
2.804550455756711289e-02
-2.266620633520903816e-01
-2.780448364399959460e-01
-2.523501273239029952e-01
7.953858941522755632e-01
-1.397163316469376415e+00
4.311119244352486918e-02
4.350154468913503686e-02
2.771414541947788690e-01
8.372202164118366374e-01
-5.337330306381015133e-01
-4.906165649711374116e-02
4.961595414133299631e-01
-1.045204588340814360e-02
3.185477797408824419e-01
-7.985737508820338337e-02
3.904036318677167605e-01
2.769180360415682829e-01
2.948524202031344577e-01
1.899364339733748686e-01
1.233945805665240952e-01
-2.074287717589646252e-01
1.098869880541010341e-01
-5.510581786039626673e-01
4.432668175876655625e-01
-6.736891317575662841e-01
-9.436251625009983712e-02
3.969034051975710020e-01
-8.693498726090361783e-01
1.955368358313955279e-01
-2.212836476215083448e-01
3.771607242391170067e-01
3.015581640302749111e-01
3.692084023452926744e-01
-2.406306732645989432e-01
5.913012818639145074e-01
3.554763327492217462e-01
-1.472543905733452729e-01
-9.138777220518348732e-02
1.465596416709617766e-01
7.372607927903670477e-01
-4.574811208366067472e-01
-6.499110464529490594e-01
-1.994348184426633919e-01
-7.012898024168514599e-01
4.834940633206246119e-01
-1.080943623743981119e+00
-6.994597442181216262e-01
4.385892200355513415e-01
6.489784767652062580e-01
-2.676592341384272100e-02
-7.902516225065060740e-02
-4.193284768359396009e-01
9.985789581526675063e-01
-3.413046866347390629e-01
-9.729718425754108058e-02
-1.242804422265910286e-01
-3.282298409092158087e-01
3.292996736706231831e-01
1.031390031599439761e+00
-5.463336616254826916e-01
3.592921971156571859e-01
2.767234152003977266e-01
1.055480615774067182e-01
8.993089270894372156e-01
6.760457221738611633e-01
-1.406027093830431562e+00
3.532994817824194334e-01
8.043531724507160252e-01
-4.952288994272466272e-01
3.797814235565920016e-01
-3.710847999900535599e-01
-4.797115909064907924e-01
-6.267611398279026025e-01
-5.960460403404987950e-02
-4.028026777388143409e-01
-5.319422502233679406e-01
-2.984253065617571352e-02
4.473711419794537125e-01
1.024767455930667204e+00
1.908554948101119919e-01
-2.041823791019761192e-01
1.141683057437965776e-01
1.519292528573187862e-01
-6.004721886035266909e-01
-2.993672509444118557e-01
3.007561087357951690e-01
2.170802393179330214e-02
3.602879534272158679e-01
-6.672628775294110748e-02
2.985839040211873269e-02
-5.473455351534223245e-01
-1.588920420087893692e-01
2.779193733391681631e-01
-7.170272185821994215e-01
5.756641644159713467e-01
7.183111330607898637e-01
5.197495616625481124e-02
-3.244592897367476469e-01
4.914116206270995324e-01
3.750528042479182034e-01
4.142565085088001364e-01
-2.433345193196362610e-01
-3.513269264180675089e-01
4.474716512166959093e-01
1.506222868290590655e-01
-1.009088298674173517e-01
-3.499401093004322338e-01
3.880455339924660518e-01
6.910910414281233871e-01
2.870192144179551375e-01
4.635879297345612410e-02
-3.785748489052125354e-01
-1.669499478453938812e-01
6.233480693909205783e-01
6.727506714335731441e-01
-4.985633448241358345e-01
5.532178207039253337e-01
1.006192279179817239e+00
8.479405486389428592e-01
7.115937421104437943e-01
1.782787515970446213e-01
3.001091403273988822e-01
2.528084060003850109e-01
-1.584950382312552697e-01
-6.864042390942085570e-01
3.868651863557709403e-01
-2.840901080924141398e-01
3.128770002507551967e-02
5.280460998498968939e-02
-2.881427736215161350e-01
-2.629936314504153216e-01
-1.838344579823232017e-01
7.577234228041210828e-01
-8.179445822638570229e-02
5.591436574406335458e-01
8.338912486962252180e-02
5.866684645371708084e-01
1.420771162261020848e-01
7.852023779668505510e-01
-2.036282021998362529e-02
9.565609745659929553e-02
2.488797864814459304e-01
1.504325605355774469e-02
-6.417705716295332152e-01
7.524669920172642745e-02
-3.293967539756272878e-01
-1.696486153206197833e-01
-1.316833331134083795e-01
2.373849849878508205e-03
7.540807122837028809e-02
-6.661101007769105742e-01
6.285762117069311206e-01
-6.507935837131180179e-01
7.835995153473453989e-01
5.805721807264985213e-01
1.001057583480172486e+00
-3.204846947822915793e-01
-5.481527781253994203e-01
1.487949425686979910e-01
1.149025927967228938e-01
-1.045874491626610503e+00
3.085797371620525587e-01
3.138051554038531199e-01
2.023335015276608029e-01
-3.842863475334600265e-01
-1.178037271946086872e-01
3.409990563720861068e-01
1.827732333995490122e-01
2.375481232855008451e-01
4.108939963217416586e-02
2.668785115547646011e-02
4.140742630146547476e-02
-3.971992595682056204e-01
4.573689067454512758e-01
-2.039585456403093799e-01
9.322878988472699247e-01
-6.045539434795865058e-02
4.355378273968714131e-01
5.315238894860628838e-01
-1.335189938909077556e+00
2.808820484592810390e-02
1.648033235940422891e-01
2.638790613929913875e-01
4.247123229995430904e-02
-5.057291258236499276e-01
4.340389798303196378e-01
-2.438618119920427374e-01
3.058373612631790639e-01
-1.112881359303776324e-01
4.742029583966370088e-01
-5.085364841935193780e-01
-8.438715502797575763e-01
1.504720548683112780e-01
1.866806383992654084e-01
-2.307594642926208695e-01
2.808574777322558336e-01
1.826821602744896356e-01
6.078676271764201777e-01
3.394552886018063487e-01
6.976785472008090183e-01
-2.506466371595521547e-01
-1.765797841879340191e-01
-1.948476383185681060e-01
6.056084616168696533e-01
5.556459646867969449e-01
-5.669096963715947873e-02
-5.968478855102915537e-01
3.479651230578506560e-01
5.798279671793983292e-01
-7.455031679927784927e-01
-9.167081629184105074e-01
4.852509121620164345e-01
1.343537940117625340e-01
-7.254577671876891731e-01
-6.925102923991454107e-01
9.959535359308958891e-02
-7.614391855210042581e-02
-6.772402543052642443e-01
-7.232995232107644612e-02
8.277217958955307431e-02
5.126308517494114758e-01
-4.657010955731458735e-01
-3.182668157306973167e-01
1.887338763366118444e-01
2.174165123944107880e-01
4.880313925255307939e-01
-2.125986495709421276e-01
1.252853377926291083e-02
-5.293175418589077807e-01
4.380301946069998231e-01
-3.996770118764903512e-01
-2.133721729053456584e-01
1.145875544736848911e-01
3.035610516938986314e-01
4.865936457785185465e-01
8.737445287139187222e-01
-1.502317713555708367e-01
7.271645922416475338e-01
-4.022356970966109446e-01
6.342014736530489083e-01
-1.942478162993177826e-01
-3.203635227222225712e-01
1.276888291580184909e-01
-1.488094673665917023e-02
2.312399181538988269e-01
5.972393654081488146e-01
-8.962643055821464810e-02
-5.599703712712001957e-01
-8.999745195081476634e-01
3.501794808198376852e-01
-4.678309759089415709e-01
7.764377423432952154e-03
-1.031225874533569092e-01
-4.239909088985365226e-01
-4.047602404826296518e-01
8.131525419682565647e-02
5.361056315198581279e-01
5.741298444676330437e-01
4.833696708542295495e-01
-6.193781845035677414e-01
-2.100171053409413402e-01
1.748959480101090064e-02
6.486869459621597001e-01
-2.900214559164721040e-01
1.169533281093975974e-01
3.718432609819762313e-01
-6.170050576257681829e-01
5.430682220113510761e-01
2.523570558602498126e-01
-7.328554801623268222e-01
9.552001213801245005e-03
-3.668273742754660227e-01
1.116963976773199807e-01
2.904491833687051217e-01
-2.978486877466108851e-01
-1.099595035073134691e-01
-7.651472785519389253e-02
2.243102024958920637e-01
1.116440886074737127e-01
1.318190490007375149e-01
-2.332172936527241724e-01
-2.907128277004728673e-02
-1.337445460835789135e-01
1.376934963877510243e-01
-2.348185438510146661e-01
4.989769672510354498e-02
6.756245765714403717e-01
-2.730128080814774871e-01
1.713053064792151026e-01
1.723578946539806867e-01
-2.869711397998473967e-01
-6.833202167285091777e-01
-4.863861346187458023e-01
-1.194910532060609043e+00
-5.872266019862304454e-01
-3.210458226020124900e-02
5.788108172408586993e-01
-7.052450250909698959e-02
1.783383218720563657e-01
-2.046935732294165866e-01
-9.431544561949845029e-01
2.574520559635795069e-01
-2.872380237070579212e-01
-3.193145062762138831e-01
-8.329339153794148576e-01
3.576898188168405879e-01
4.398460400682316918e-01
2.021472803003883933e-01
-6.132845512550326728e-01
4.170350359199109791e-01
-8.122405424150969111e-02
3.327380052008320765e-01
-3.512251594887040862e-01
-1.337689600861662609e-01
6.907427923775101286e-01
-4.817005011469979170e-01
1.462761166034498850e-01
-6.284751976547252594e-01
4.482360192684465838e-01
3.725012202597630800e-02
1.005419083566755772e-01
-4.700321229847742033e-01
1.379277461968735630e-01
-1.975064412534102143e-01
-6.690296684055922760e-02
-1.168926615535603175e-01
6.641126728799459644e-02
4.944272375367823602e-01
-6.477666983049112925e-01
-2.431873750596324352e-02
7.662255121590633156e-03
2.807071741094948128e-02
3.946573966267230560e-01
-2.998001449165137999e-01
2.971518811174622687e-02
4.331834547771087895e-01
-3.253235482599344253e-01
-1.091062044768897676e+00
3.682289749657387534e-01
-1.373619208342896358e-01
-1.099919976005928057e-01
-1.838960286395599775e-01
-6.509393265375820192e-01
3.233191055087754617e-01
8.005375292688177158e-02
-1.188995104706990658e+00
-3.231559795641676391e-01
-1.047669234543267824e-01
2.657541050804315130e-01
5.195242639882655666e-01
6.320033191083573865e-02
3.280744030960270896e-01
1.176046396826769570e-02
4.159014952929171449e-01
1.151616779996339907e-01
-2.098366919081221249e-01
-4.542585432707488269e-01
1.703666200325016089e-01
2.703410919436851079e-01
-1.018766076970026302e-01
7.480020307921829703e-01
-7.728923555354112046e-03
-7.398820342974590236e-01
6.480942947544637844e-01
-9.143139601647471970e-01
1.619521538406111794e-01
6.799380015963073509e-01
8.776313073700202361e-02
-2.260527500914518984e-01
5.059996441195621086e-01
3.972058005216810850e-01
-9.365856676366213218e-01
1.409544993933615209e-01
-3.934433148317645346e-01
6.415834652895678891e-01
-3.025740119619477753e-01
4.665586852010032981e-01
1.155810258561630333e-01
2.012095484860410843e-01
3.623659087577267846e-01
3.799676322463275691e-01
1.788057652463397595e-01
-9.989558794693458033e-02
6.068482632484580863e-01
4.548216929627740268e-01
-8.948805686433164430e-01
7.647827192036594779e-01
4.142024393107573421e-01
-1.006520771805561099e+00
1.799986145611030264e-01
7.449410523631352365e-01
8.611042008648796264e-02
-9.472312248088589071e-01
2.122015743956014722e-01
-6.834607977023957615e-01
1.488792340281636095e-01
1.762816751292765050e-01
-4.016013718287744089e-02
-2.917992711091689784e-01
-7.381987459359923287e-01
8.386493300434172404e-01
-8.835134551576825368e-01
1.759357970567342888e-01
-6.626866626922491843e-01
-3.021563473680521361e-01
-4.802246979771109814e-01
-7.093940588725766716e-02
1.800373120624012280e-01
-2.315112971523908270e-01
-3.731757419900089134e-01
-2.716703045725200050e-01
1.853833483314240860e-01
2.264313300228603665e-01
4.287650124230389936e-01
-5.483239887356313735e-01
3.144783029653964168e-01
7.909203630955907727e-01
-3.379303165095731143e-01
1.654542826201672034e-01
8.900901935439045065e-01
-1.107510115002977580e+00
-4.248205688865964169e-01
1.384665146610737085e-01
-3.405693994284823556e-01
3.431016903895690584e-01
5.693485145154107974e-01
-3.611214472496092065e-01
-1.931610839530118751e-01
5.074341882965542894e-01
-3.577004952140845351e-01
4.278559679485435807e-02
-3.016147604133391225e-01
3.615607493739488813e-03
-9.319891956372435837e-01
7.196084103109992580e-02
1.705684342298151857e-01
-6.608079714643123603e-01
-2.180787862184958015e-01
-6.910534992348995598e-01
5.706197396735851468e-01
1.918158296530294293e-01
-2.191219965901916589e-02
-4.206322968501102211e-01
-2.349366255917562096e-01
1.265932048336768923e-01
5.363715725176273486e-01
-1.649593705439215130e-01
8.078424519350332345e-01
-6.665188061379757611e-01
5.656794443453692089e-01
-5.547422156122479020e-01
-3.666255305599718656e-02
6.232693073077882895e-01
-4.361731556211670413e-01
-7.049725820374129759e-01
-2.115205844594320039e-01
-8.605925073669478120e-01
-3.610067756986288789e-01
-3.641308871599148733e-01
5.717313511529845682e-01
-1.565150272503273710e-01
4.056531502968870745e-02
4.819437383035283795e-01
-4.896863422069615557e-01
2.533526648396820513e-01
3.084711390480812665e-02
-3.747071897741553470e-01
-2.084322922660653832e-01
3.357352433927186797e-02
-3.644038516276619788e-01
6.164623774004832635e-01
2.728124038722472555e-01
-5.189806502025346990e-01
3.336107670264595315e-01
-9.760808209394343515e-02
3.529843848155252428e-01
-6.812162364482187149e-01
3.295430199757530265e-01
2.818810131378945427e-01
2.644590900920112397e-01
-3.187065526381231972e-01
1.847375864232461973e-01
-5.908813936733547933e-01
-1.493372405973423245e-01
6.426199416498235006e-02
-5.358951209736477761e-01
5.354197882169646483e-02
-4.824274510050320930e-01
-8.026511324505264389e-02
7.380455898277978877e-01
9.523462565156138870e-01
-3.825433794306713764e-03
-9.869940702067327154e-02
-3.250076471481216922e-01
-1.573009066612954948e-02
-2.146740191129161701e-01
5.370464743136142971e-01
1.375955259733207259e-01
-5.356443253010473304e-01
-6.539724919410920823e-01
4.869652706338629122e-01
7.188945659116856568e-01
-1.280760797987849087e-01
3.641529581607397814e-01
-1.723495938086155033e-01
-9.352790411480500499e-01
-8.792451578183763106e-01
6.564889539614205960e-01
7.659547986926982244e-01
-6.459861776883085716e-01
1.579268418412028280e-02
-2.474179271711227368e-01
-1.434732847639735631e+00
5.542127546839176189e-01
2.503496390778529035e-01
-1.986200116684474770e-01
6.365551020170473473e-01
-5.216698530403554024e-01
6.073135656674177874e-01
-6.084669159591263865e-01
1.142971779043566172e-01
-5.002064141087824573e-02
7.773893357641650792e-02
-5.177479539367004779e-01
2.374633971168619018e-01
2.032475581048676649e-01
2.163302094275604825e-01
4.034672391303443795e-01
-1.355410954376005395e-01
-6.053032212393462119e-01
1.165760270667752507e-01
-1.134825597656760610e-01
1.522428551331253266e-01
-3.006995444667546202e-01
-5.151830503798019434e-01
5.763172067121906661e-01
1.256936563688739426e-02
-2.845939326330816921e-01
8.436462801086469510e-01
5.507153167196500165e-01
4.361706606218646587e-01
-4.287674061495922451e-01
-1.078993458820633050e-01
3.737565620104629782e-01
-2.285118655684175992e-01
-1.870760032155498187e-01
-1.035089927056227488e+00
1.318354912651423239e-01
1.544776189766643437e-01
-2.247617526189242820e-01
6.332038536223252301e-01
6.988207346157619959e-01
-9.836398032300692762e-01
-5.624513961106928361e-01
-1.667407318039811071e-01
4.118430631891280003e-01
-5.562594024616447363e-01
-1.588248624865645497e-01
1.672201600357273721e-01
-3.141262470537782847e-01
-3.918391156748660675e-01
-1.899160077626320109e-01
-7.656205595313003709e-01
-5.435596098636776841e-01
6.928736917095085213e-02
5.089783323388169523e-01
6.433923067466706947e-02
-8.814435742896042925e-01
4.494608880696410735e-01
-4.264682712600332271e-01
1.915295121736026729e-01
6.140844235866793621e-01
5.806134472903595745e-01
2.125017321395094860e-01
-5.587796825497944875e-01
6.233370634527310994e-01
-1.917432712746833523e-01
4.374720355833319752e-01
-2.537720047942321200e-01
-5.217623580206947054e-01
3.974525117363266191e-01
1.386380619400460756e-01
-8.247043469014693207e-01
-4.844691529713664180e-02
-9.397434764620072878e-01
-2.703407127842465396e-01
1.197278254670306741e-01
-8.535211991848177249e-01
-1.513060065485025973e-01
-7.005772032017234530e-01
3.089502046900706178e-01
1.049305653148746229e-02
-1.004671053273114845e-01
-8.311520747129085285e-01
-3.736994910166705486e-01
-6.535517912155572873e-01
-1.208334849224367569e-01
7.640660487272622481e-01
1.301162911917836118e-01
2.038394407382103646e-01
2.724286645542822738e-01
7.125525620832442453e-01
-8.069212218485716237e-01
6.002070157348839974e-01
-2.318198065759349280e-01
-1.647659293941877712e-01
-2.971717404970451448e-01
5.663396666508017097e-01
6.774780977060164133e-01
-1.135662723379842642e+00
-2.416753737267708924e-01
5.760180047103287126e-01
2.981627204406002707e-01
3.123515719663916834e-01
-1.026271707205312633e-01
-2.969673416361955781e-02
-6.075981367040901304e-01
3.082209182274586734e-02
2.184997392037593411e-01
-3.674721640585023597e-01
-4.838616682889844700e-01
-3.545818598601512273e-01
-8.582242075222693001e-02
-2.357854741545348798e-01
2.823585784712631663e-01
-8.181887290780390232e-02
2.138994910324292509e-01
-4.412610414650104396e-01
5.481795573284631296e-01
3.667831167235144352e-02
-1.118427664224853402e+00
6.051222637420168304e-01
6.746640667368655198e-01
-1.379429418673277785e-01
-5.772047300662372371e-02
-6.995158450682771312e-01
-2.464588171909462902e-02
-4.100373054889976943e-01
4.072571499794758743e-01
-2.596375753643251905e-01
-3.426388200837484077e-01
-8.494902342876270440e-02
-7.648444241853822323e-01
-4.352105405980264963e-01
1.899829868860581361e-01
5.512558666300130250e-01
-1.233566231411427072e+00
-5.558644554273370897e-01
-2.110781420890222859e-01
-6.878522476877927394e-01
-3.237627504331062056e-01
-7.552215851683572456e-01
-7.341946072371390297e-01
-3.805127130989571782e-01
-1.002607272539611349e+00
-6.735646890567880130e-01
-3.735135296696757146e-01
3.182124899782676208e-01
4.415977468413672669e-01
-3.053545384935196227e-01
-9.074696591525448219e-02
-7.511171189916762692e-02
-8.758041389334859927e-02
2.492619919315924304e-01
-7.027700014926082511e-03
-4.545999886148730518e-01
-6.207595061682365939e-02
-9.231868023953243574e-02
-3.718522598527159717e-01
-4.654817133949049057e-01
-6.551057967883416877e-01
-1.321051668472564389e+00
1.818793487008118215e-01
6.068155847743220699e-01
-2.539791476476121329e-02
5.262428352936310283e-02
-5.080357026054829195e-01
-7.468776468794502410e-01
-6.014159449813784031e-01
3.389023676836443455e-01
3.158648829079411802e-01
4.908758097767323275e-02
2.218559175884624035e-02
-3.385999449424722529e-01
3.200312873834372795e-01
2.776781376161387427e-01
3.261242748321385720e-01
-3.336268600806351348e-01
1.817671775091388164e-01
-3.729477440061888804e-02
-2.682586175310621157e-01
-8.779242639876687626e-01
-8.773057924021833154e-01
-2.277825866769814245e-01
2.825023506415166863e-01
-3.707507334178863911e-01
1.250089325004575813e-01
5.056197211752101461e-01
-3.292715321796692574e-01
1.847804505222658822e-01
4.597705541162785403e-01
-5.190934005443627042e-01
7.202436658609810693e-02
-3.221001578337128191e-01
-7.226320145090303626e-01
-3.254667481829858211e-01
3.770762897702830685e-01
-4.080951510309033248e-01
-4.636892800790133329e-01
-5.495865242900356273e-01
-8.973302995109685432e-01
-3.993535467022281682e-01
-3.695265618553131293e-01
-1.277021376024500277e-01
-9.702476261420481807e-01
-1.955174817438073143e-01
-8.194564692999806166e-02
-1.970502419860346507e-02
-3.097547083976101012e-01
-7.096646952731563429e-01
-2.954527870011163654e-02
6.668554295594968373e-01
3.217075587250010082e-01
-8.071618999389794380e-02
-5.821364656764611567e-01
-5.534596018696977815e-01
4.839560181953934948e-02
-7.327629625858819162e-01
-5.566946890191937225e-01
-1.617774726199928126e-01
-6.376699831614021652e-02
-5.561717848650871154e-01
-5.532629013656457095e-01
-2.028462998016070384e-01
7.214317026430968616e-01
-2.951874727240760277e-01
-7.109830182433488632e-01
8.289906252408066334e-02
-1.490674234437170953e-01
-2.501820881708745059e-01
3.513408470092885261e-02
2.857388125669467205e-01
1.990852164708484251e-01
-4.966307424412104154e-01
1.454951834227785346e-01
5.625938231735989614e-01
-2.462060040990709520e-01
-8.522678266433881822e-01
-1.541058370223708229e-01
-8.259895410694997886e-02
-6.844434632211929825e-01
5.554328049789056809e-01
-3.229186892175624490e-01
-4.156439668418460132e-01
-9.301468456000605567e-02
1.882065864696521595e-01
-9.086965846499334143e-01
-1.059725086401238858e+00
-2.414708014062145747e-01
-1.923660187225613161e-01
4.856819448067203338e-01
-4.557817936072603993e-01
6.456529388099727651e-01
-7.171887575996742648e-01
-6.073609157196985242e-01
1.107395112692754480e-01
4.435039680779903071e-01
-3.514463496969179590e-01
-3.716358625808039440e-01
-2.181141871771824226e-01
-3.855091799650137152e-01
-9.883426087338716970e-01
-4.580841827644893671e-01
-1.291992421824136039e-01
6.654991955294063954e-01
4.735660275689470428e-03
-3.170970229897804860e-01
-1.077845025877760987e+00
-1.024845015543703747e-01
-6.387496677297320735e-01
1.933393545498202359e-01
-1.403887709888760327e-01
-6.851232356570982063e-01
1.481593305508874525e-01
-2.295413518780342887e-01
5.681576624602759085e-02
5.647296483968855529e-01
-6.797318937920704407e-01
4.244272426754198690e-01
-6.833280639389445188e-01
-1.790669701873541519e-01
-2.568212445241807029e-01
4.591360589396029090e-01
8.631025907734822533e-02
-2.595512227700563224e-01
-5.611242828621971768e-01
-2.583673002195780999e-01
-5.830371900915358452e-02
5.640257685477011451e-01
5.103805237166743163e-03
4.064809281391020823e-01
2.697160274670767910e-01
-8.092088573217393055e-01
-3.146910275620269370e-01
-5.842688430563560686e-01
-2.831744018930664741e-01
-5.344837900846698409e-01
-7.449788862835780845e-02
-6.620592623428063206e-01
7.557401233035973553e-02
-4.762361213237989999e-01
-6.285741455496564045e-01
-5.402072063835828830e-01
7.662507862782932944e-02
6.957361006707195594e-01
-6.010748170388265921e-01
-1.881263285616167069e-01
5.461204927646384766e-01
-1.495362725986143781e-01
-1.777053955025623966e-01
6.187139897126303634e-01
3.433357309856081563e-01
-6.778204725633216743e-01
-7.514275518993933645e-01
-7.158685533678202928e-01
-6.457246929290867687e-02
3.862827403217505839e-01
2.472192012383017667e-01
2.454747376679193016e-01
-1.750081405854145011e-01
-2.374638709705522432e-01
-3.219709676279990385e-01
-1.722931912196281057e-01
-7.317231382840567733e-01
-1.926399715014008307e-01
4.901525049610622187e-01
7.227109877416046380e-02
-2.038417811250270717e-01
2.542257345220695908e-01
-1.054958731600889182e-01
-1.150371651088809843e-01
-7.018937310633625026e-01
-2.098692100223050749e-01
5.550949771726244597e-01
-9.294138947654462246e-01
-4.419267333835518174e-01
-5.185698577537780629e-01
4.698918153216573579e-01
-8.461483256626733951e-02
-3.613257896655441836e-01
3.808494616578215336e-02
1.663751939820440617e-01
-1.961654804829525978e-01
-5.231721888836811107e-01
-2.908730583985791873e-01
3.547039523617703805e-02
-5.569451388543972259e-01
3.865323217467716566e-01
5.332938174447369173e-01
2.206520514485941498e-01
6.701201300273091910e-01
-5.988818762196778112e-01
-4.855335132797937714e-01
-1.159691627240796885e+00
-7.592551108195995102e-01
-6.300633755690789040e-02
9.495880503702373854e-02
3.805729640223007304e-01
-4.988745818539688792e-01
5.224120055852569111e-01
-6.164874176257577852e-03
3.947606368021361334e-01
-8.565520041423864139e-01
-7.533000591973778581e-01
-1.368969477866666395e-01
1.154268903437098703e-01
-4.948423041165841973e-01
4.607692752591239366e-02
1.457457773079915420e-01
1.125196465422241970e-01
-8.218677226531652114e-01
-3.265069306674044936e-01
-8.360219568417697200e-01
2.677852071644003518e-01
-2.598970901488549257e-01
-3.922538731502847043e-01
-3.313101934533001502e-01
1.024516753344457271e-01
-2.350323121488895051e-01
-1.218053336905401407e+00
4.985591326320627098e-02
-1.005266232085095357e+00
-2.831183249829196669e-01
-2.581065997086853248e-01
4.341199623880613867e-01
-1.043211288474915177e+00
-3.213113240179007457e-01
-4.751491226637935550e-01
4.425605511890189914e-01
-4.206003770556598353e-01
3.365600947300860235e-01
-7.673350281303837894e-01
5.588699452610970120e-01
-9.761247839877149057e-02
1.717774046882865613e-01
-9.333376797916989043e-01
5.678539668194987344e-01
-3.125826176503885834e-01
-1.285589668842161970e-01
-4.297118355088418995e-01
-4.149926971066036363e-01
-1.554187958343381804e-01
-4.837679871469421911e-02
-8.921250863419182275e-01
-3.198480795534268672e-01
-1.501972349590452449e-02
2.734863310070571041e-01
-7.956192248059570371e-01
-4.047574544058126778e-01
-9.429826065316505856e-02
-4.272218594640858069e-01
-2.351547173124017009e-01
-7.608414598248692817e-01
-2.461149448234245529e-01
5.781762754773382973e-01
6.478279129970458960e-01
-6.739993131027576245e-01
-2.368552303578855822e-01
-5.230957302199813752e-02
1.848824861471343173e-01
-2.461389283050621213e-01
-1.073810977362241320e-01
-4.038294216666807324e-01
8.264971193797122917e-02
4.784810676270585539e-01
-2.371814633357512692e-01
-4.119893837394220659e-01
2.451012779492724170e-01
1.438819113750354484e-01
-1.959001628332421030e-01
-9.621032544210060822e-01
5.946653084825178626e-01
-3.259141102354251585e-01
4.359899093825154309e-02
8.789825486730545867e-02
-2.338092631740429639e-01
-3.576875009644195913e-01
5.219672296850130788e-01
-6.399256483642056237e-01
-1.373238957305622787e-01
4.460736180222593661e-01
-7.801197269945463475e-01
1.637635749950951403e-01
-3.682678447451989134e-01
-2.131896301188243859e-01
-9.532626634190851656e-01
4.005090435746641586e-01
4.509354031868776369e-01
-2.729183605255925404e-01
-2.617549377453604054e-01
-5.852976111571036588e-01
-1.564500996490082035e-02
4.817651710724489278e-01
-8.364798033946710398e-02
-6.889995703465914278e-01
5.424612141135472243e-02
-2.814502468768984578e-01
-4.591774785975927253e-01
1.844913097568131599e-01
-6.290858067307572021e-01
-5.241780611085551378e-01
-3.488490534282749911e-01
1.248556513431955672e-01
-5.107024351338559365e-01
-2.814440689160369047e-02
5.460731694657167123e-01
4.426821521995006337e-01
-7.750441235706194698e-01
-1.130690828991697261e+00
-7.359020922092094352e-01
-2.587501441086522205e-02
-8.902990741800963503e-01
-5.747672524983429287e-01
-1.262258845783259531e-01
-4.622305002892783399e-02
4.416334743775519600e-01
1.625213799528378300e-01
-8.341937802857142259e-01
-9.136709562643932081e-01
-2.302042831566838629e-02
-6.416194583739889268e-01
-4.464139293856586033e-01
1.969958675857410302e-01
-2.357131157041186462e-02
-5.089946647181454731e-01
-1.263142588236267350e-01
-2.178003387818157610e-01
-5.072452735056026674e-01
4.234717921609076896e-01
-4.613096407762658502e-01
-3.643631710919158218e-02
-6.228527736706960388e-02
-7.484492744524350039e-02
1.670606497013565339e-01
5.949771222974949668e-03
2.421196072599163807e-01
-4.613363187862804526e-01
-3.450109521459590045e-01
2.551979968602173798e-01
4.626213242370158518e-02
-6.662298612660917385e-01
1.363080754984483667e-01
-9.487607712109702440e-02
3.273204690023114871e-01
-7.174737729725856328e-01
-1.295147217622459601e-01
2.947960141726749250e-01
-5.318124433112154936e-02
-1.109936025676584448e-01
-3.794282026868111002e-01
3.851995945038950292e-02
3.414181787074974106e-02
-4.634429432015332306e-01
1.158219470888263436e-01
-2.406490680238684843e-01
-2.197705893556697043e-01
-3.591210070861681758e-01
-2.272265254359310815e-01
1.510696672665594598e-01
2.332256091159673750e-01
-3.263210581791486375e-01
-2.341189302996457555e-01
-1.093064580933142127e-01
3.301789400117012274e-01
1.366989241671011102e-01
-5.823844551731850727e-02
-5.170960356378908607e-01
-1.202903270979648997e+00
3.543130521113380116e-02
-1.044782901014855853e-01
9.183079164657800830e-02
7.280012459970210126e-02
-3.867460690114216115e-01
-9.905532083837011170e-02
-4.225445365552895072e-01
-2.647475827902489448e-02
4.318201912981503576e-01
-4.596492317000605565e-02
-1.194394063086484242e-01
-3.682496796810483253e-02
-7.333200253089006138e-01
-5.868381286356362248e-01
-4.556571444489004308e-01
-6.276677411442654897e-01
-9.218321263885580208e-02
2.323636934920843555e-01
-2.761230739843746340e-01
-8.613232955933006543e-03
2.757208764941133095e-01
-8.596043823431959163e-01
-4.728667427624336783e-01
-6.716370775031601514e-01
1.559101916710775582e-01
-4.234168862257933208e-01
-3.288866681973135475e-01
1.264008780989304623e-02
-1.384138477249728105e-01
-9.703815734427568840e-01
-7.143981949532883791e-01
-5.235826205356010066e-01
-6.405756035344165045e-02
-4.721665704368615546e-01
-7.564614957677677776e-01
1.620570471645331467e-01
1.632043907278521166e-01
-9.555267473781590137e-01
-3.866380911241888985e-01
2.530332642012768085e-01
1.083089716406064051e-01
2.411303553509610287e-01
-6.276541167067261062e-01
3.233524977107574139e-02
-5.138977926928398748e-02
1.354265765174738484e-02
-3.114830519910285478e-01
-1.705016154769407530e-02
-1.832532242219853669e-01
-5.150802297847427436e-02
-1.047470900847128794e+00
3.011132095570110412e-01
-3.068749407949424857e-01
-5.236725688715890836e-01
-3.768497032263338209e-01
1.439245808284300709e-01
-6.061826027479586543e-01
-1.920069391200816267e-01
-2.425637746021431784e-01
5.382956373273022344e-01
-8.938274585199558475e-02
-4.898563139436822034e-02
-4.838004041805973876e-01
-4.340781952992724402e-01
-8.347683064989233070e-01
-4.729877435057239787e-01
-1.306465880925621881e-01
2.002178753886768581e-02
-7.971070359891713197e-01
-4.975381955930844313e-01
-2.323383897329035774e-02
1.174673776695616956e-01
-2.371024785255719525e-01
-2.181970058016371172e-01
-8.441184658084652792e-01
2.889393191651768583e-02
-2.121163868144674558e-01
-4.594549896221331031e-01
-1.428449314288501026e-01
4.205626588090377038e-01
-8.335620634898128767e-01
4.510817420240748055e-01
-2.056084232905482367e-01
-4.548823808897647231e-02
-5.509123317143781451e-01
-5.778707999248414162e-02
5.358753165774420013e-02
-8.765764811009416069e-02
-5.020414803800083564e-02
-1.067586880839144041e-02
-8.112263580902293048e-02
-9.533266983051669197e-01
2.238468248196115451e-01
-1.886029428233435001e-01
-8.590796114907066627e-01
7.063828244308738569e-01
-1.192691766922362173e-01
-1.349052394692811685e+00
-5.397204864232708621e-01
-3.600622707626729979e-01
-5.351369125502055679e-01
-6.498202711276864774e-01
-1.003828262675180882e+00
-2.137746632139768677e-01
1.830718931970046551e-02
-4.184694455435120641e-01
-5.253950623840957235e-01
-9.090431180839362302e-01
-8.847808300428751105e-01
-5.235290021419490847e-01
-7.711808112018964101e-02
4.549799358613155764e-01
-5.279945028447943223e-01
-1.425223948532838014e-01
-1.851956056384415628e-02
5.244038955284771771e-03
-1.642037604903631431e-01
-8.997763406094459737e-02
-4.845250664052394018e-01
-6.617584870392172469e-01
-4.568056411422014018e-01
-2.463442184451969941e-01
2.515084571531887164e-02
-2.028367529851585749e-01
-2.421955539703588619e-03
1.740904634756986202e-01
-2.979427253350305435e-02
2.428572748191761554e-01
6.459837451383600160e-02
-4.315772708817210979e-01
-4.389668743152444486e-01
-2.265958118519948578e-02
-1.576292733124805001e-01
9.228745160011302129e-02
3.057284481908296714e-01
-1.983651266839042415e-01
-5.529433183694684728e-02
1.687405288530133274e-01
-8.273359864171747624e-02
-5.350421313328051348e-02
1.474728623388699622e-03
-3.318360680863354645e-02
-2.640780343658669649e-01
-6.010839929269823356e-01
-6.593089521649432962e-04
-2.840112208923997739e-01
-2.946883257215047180e-01
-6.212460994766388911e-01
6.165933004504940002e-02
-6.341811284458006570e-01
1.405848619815868727e-01
-2.575663552449637406e-01
9.202186303143834734e-02
2.802346074471568360e-01
-3.340304967777423251e-01
-3.051692915155367336e-01
-8.510638991190440095e-01
5.588089203627837065e-02
-1.002737547430052889e-01
-1.431124973196584993e-01
-4.218988653879483519e-01
-4.766533096198441455e-02
2.596243538705938492e-01
1.746892225142623600e-01
2.611834269560443789e-02
-8.190240280096280912e-03
9.749420505298213302e-02
-4.005125230804503639e-02
-3.098952944312970414e-01
-9.286993118319208929e-02
-1.591131303266084818e-01
-1.014015273578041387e-01
-2.325320266811514436e-01
1.116816517593303276e-01
3.705972161786924568e-01
-8.295756142762572560e-02
-2.252715089845346019e-01
-2.729496771193649640e-01
1.032533631741825997e-01
-4.623644075126344677e-01
5.596430554013032133e-02
-2.489199585811425197e-01
-9.006092398257359299e-02
1.536976418214052453e-01
1.742755604064652186e-01
-1.455060497539279185e-01
-3.854351189690174984e-01
-3.888028008535367175e-02
-4.752319708457485858e-01
6.443495075498661961e-02
-5.037969090826886764e-02
-1.252161259712554209e-01
-3.808625180135054022e-01
-1.138228581263906608e-01
2.418963913895844087e-01
-1.640602230787530924e-01
-3.085776610398939801e-01
4.287962361431525427e-01
-6.355939658007907223e-02
-1.862442985001443729e-01
1.460600715793242133e-01
-2.125096362099529543e-03
1.131365823410677707e-01
-4.884316571151173236e-01
-3.860761618904214321e-01
-1.950792927795799714e-01
7.198049071801998489e-02
-7.936613842082348991e-02
-5.728191748576254294e-02
-1.057336121320939376e-01
-2.364070006229983811e-01
1.295926065912285929e-01
-3.092869252252458678e-02
1.243014920893520114e-01
-1.828418234178575685e-01
-5.804784859276889558e-03
-1.867209049378064922e-01
-2.906415747489527468e-01
3.134025546826223474e-01
2.427965946414836415e-02
2.278430175397892082e-02
-1.729282070212691536e-01
2.608195434127373938e-02
-1.004923902928803070e+00
-2.088579845621889586e-01
6.240955443300308381e-02
-2.842027267206781449e-01
8.788071128526682083e-03
-1.533769145948487289e-01
2.177221979942809416e-01
-1.363572119298481489e-01
-2.398276931352807118e-01
-2.024283563384084439e-01
-7.570408439761608377e-02
-1.614883513075471289e-02
5.970674873699003543e-02
-7.522211070836840041e-02
2.489085948184030506e-01
3.027416900856566007e-01
1.245440990966313333e-01
7.858352192426616700e-02
4.298383705398939152e-03
-6.552570195423082847e-03
1.685592395718883696e-02
-6.414241798211625656e-02
-4.376751237459495791e-01
3.385569349740229217e-02
-6.013477174742452025e-01
-3.826212182492882974e-01
-1.937694326086983054e-01
2.909577513771980928e-01
-7.660655389821560690e-02
-8.776141999142636485e-02
-1.363788444253027921e-01
2.224178906806142664e-01
-2.356684964110646388e-02
3.474293381093059713e-02
-7.913072028884918230e-02
-5.448616161002975411e-02
3.096380531787093840e-02
-5.915169684598704097e-02
-5.941741938964173464e-01
-4.861825149364880881e-03
-2.589216312421452337e-01
-6.615542122977235984e-02
-3.355659777503309377e-02
1.543572686903138536e-01
-1.751075636092928045e-01
2.839904038911837403e-01
-6.824890512511434526e-01
-1.126976428873278230e-02
-7.435463283180160365e-02
-3.286484198694915038e-01
-1.110184665068667115e-01
-1.538522983737124483e-01
9.284433136004160980e-02
2.809011894130051812e-01
-6.732344435846047970e-02
-1.870838777406881870e-01
4.933455772964425584e-02
-2.065269504891574792e-01
2.027453815579036492e-02
2.015781438525622860e-01
-2.568446610420649923e-01
6.462234655225419788e-02
-6.150088213171870377e-01
-8.498365610392218938e-01
-5.713579575368348262e-01
1.152525480145985826e-01
-2.872746422787643694e-01
6.888962377126686687e-02
-4.370002022225657479e-01
-1.866381304648098705e-01
1.733555510917670350e-01
1.341510623133045921e-01
7.847182370071124902e-02
-2.367503018985074037e-01
-5.554775917033262234e-01
-1.715845791572885859e-01
-1.301157394174077553e-01
1.482755990926657164e-01
-4.683867122581388681e-02
-3.843199544594615852e-02
-6.666336691610887100e-02
-3.067348125916964929e-01
-3.524242671562453910e-02
-1.260437484148278775e-01
-5.904182986379371556e-01
-1.142072377993714194e-01
2.315693355566195155e-02
-4.622788881108086390e-02
-2.674158574715689296e-01
-6.755991368779666884e-01
3.214101333236202285e-02
-3.143265123674338080e-02
-6.862077447593044333e-02
-4.904129176848841948e-02
-1.292119588185921819e-01
-2.297275634978246384e-01
-2.634788720093403924e-01
-9.627288019129033592e-02
1.431453273028716888e-01
-5.311838123367185194e-01
-7.190684967013324935e-02
-8.837658455437852334e-02
-3.599952924569892881e-02
-5.881683934318073792e-01
-3.530804392798799624e-02
-9.227065614204169042e-02
-1.164726372770283624e-01
1.379713946890515630e-01
-2.869890516642278899e-01
-2.391602324418932446e-01
1.767176064771645572e-01
5.678608509923193520e-02
-6.835784895405520867e-02
6.600632516327160915e-02
-1.475414732139473384e-01
-2.418196176085295468e-01
-3.500200594854167013e-01
-3.707670302152601405e-01
2.263418035226646627e-02
3.076421344876018732e-02
-9.018549676761442035e-02
-5.779403330686901791e-02
-8.398191140715170755e-02
-4.039635122005877377e-02
1.075535485059229274e-01
-8.015695625165732141e-02
7.071836290870174048e-03
4.441368775663040100e-03
-3.840403000834981262e-02
1.337175756443715613e-01
2.230874993819143282e-01
-2.588551381218519576e-01
-1.989457945710083053e-01
-3.321531949723306731e-02
-2.680294933349684494e-01
5.313351100076248862e-02
1.241421186953543254e-01
1.462856260735833636e-01
-7.079310890626508423e-02
-6.882833949488977032e-02
5.140827328344337033e-02
-9.437829595708840946e-02
-6.132176507591898668e-02
-4.478067594402370122e-01
4.460357517154321660e-02
4.459343081167077560e-02
-7.963861307106992471e-02
-9.185287942606816525e-02
-1.183782783417634543e-01
6.082552861321887522e-02
-3.989564450921905814e-01
-6.482863550222534021e-02
-2.378422369641982823e-02
-3.538138297939561472e-01
-9.353244253960268928e-02
-1.004684629792154948e-01
-1.371599217595587394e-01
-3.832053187561720309e-01
2.631485180816666575e-02
-1.451125026229258506e-02
9.104685066583084740e-02
-1.242040263945769357e-01
-8.295580360628632133e-02
-9.203861919476498399e-02
-1.107460231844018816e-01
-4.386217482466114870e-01
-6.949014802859300455e-02
7.992524222533120559e-02
-3.894672070138590625e-01
1.195053379827744205e-01
-1.146337519586401732e-01
-1.899219628720636988e-01
-1.941510089287797891e-01
-3.629071993660855627e-03
-6.777911951893360321e-02
-3.214999856674249368e-01
2.983014128407518450e-01
1.634050080634718294e-01
7.976030360827350563e-02
1.391972842847262748e-01
7.531387314151569146e-02
-6.237477738857644116e-02
4.964394254003277190e-03
1.441076210061323359e-02
-1.600279843297761420e-02
-2.352717966930701898e-01
-7.128966279786710936e-02
-3.465924423870585525e-01
2.427772419729953279e-01
-4.768637643591776276e-02
1.249248879508272764e-01
-6.934571492698680950e-02
1.875028495017986296e-01
1.350431333876759288e-01
-8.986673946294131132e-02
1.672124724350894931e-01
1.292489901350816761e-01
7.801205003877617616e-02
-2.461970526051067698e-01
-8.035628395621695341e-02
-1.176911724570106760e-01
-8.523365328141543906e-02
-1.142440349075909828e-01
-1.962477461472712514e-01
-2.054367895860721022e-02
5.139746091895686098e-02
-3.767880498063061207e-03
2.619905122112076712e-01
1.186112508125048287e-01
-6.513578546242956846e-02
-1.418249330807563047e-01
-4.702068062805180304e-01
-2.914919090856409878e-01
-2.013259832885391232e-01
-1.896673720125510443e-01
-1.611580020957567860e-01
3.558315341491153500e-02
-3.821552696898463525e-02
-2.208841012487481326e-01
-1.052031301055160323e-01
1.081149137133815830e-01
2.294384647043067743e-02
-2.075282546371654824e-01
3.349973740697360231e-02
-5.328584455391063152e-02
2.029040118703284989e-01
-1.765521077758123447e-01
-1.022972677933706581e-01
-8.074732176559484831e-02
-8.990988146199800635e-02
2.051131008687889085e-02
3.409880948408092888e-02
-1.721078625510076010e-01
6.671332065376517351e-02
-9.285635200099372211e-02
-3.720370386536406837e-01
2.631602311020928009e-01
-7.225912369692713555e-02
-2.204759793916034605e-01
-7.332623556959948219e-02
-5.433838993415862628e-02
-2.012673517409064305e-01
-4.747815092262535480e-02
-1.739641971436092227e-01
-1.709860922599935606e-01
-7.001454710340475340e-02
-1.158910885668094498e-01
1.883679855312881887e-02
-2.250890840608340063e-03
-3.433757698885678278e-02
-7.757105826845969720e-02
-9.747575641523394119e-02
-2.499794804451386729e-02
2.447885675883106765e-02
-1.572737423479077523e-01
-6.826678932951062151e-02
-6.353011946290863798e-02
-9.827560858993758530e-02
5.122964761004646789e-02
-6.125338118143128924e-02
-1.130699866340935250e-01
-1.915610840789420122e-01
-9.557597972735565328e-02
1.155649069040820265e-01
8.336271308381491829e-02
-6.567050189377764136e-02
5.583571790704441873e-03
-1.387279566878619474e-01
-1.131249286288633082e-01
-6.391948475554301567e-02
-2.008282660861685290e-02
4.932159033107086712e-03
-6.356487557621740003e-02
5.911504155053531884e-02
-6.587386712371791353e-02
1.369232529513303154e-01
-1.789644816326008692e-01
7.856426084669916599e-02
-7.909461247426394226e-02
-5.703181479101590567e-02
3.328574388299195691e-03
-4.915744255759989245e-02
-6.312893264564740925e-02
1.046154955517412388e-01
1.737611577749543319e-03
7.196431618600390191e-03
1.955105737887850165e-02
-2.134551199184143294e-02
1.232888927375165415e-02
7.732976374850424051e-02
-2.014481992446147396e-01
1.072899015330252837e-01
-2.071992233250588844e-01
-1.379177647647590599e-02
9.302259399974210224e-03
8.973146995834391931e-03
6.740232030302871838e-03
1.913795599709501583e-02
1.188614234754948457e-02
