-6.888793359204716804e-01
7.173528135682841755e-01
6.251936778139761675e-01
-2.227527639033739237e-01
3.743841917770516781e-01
3.006664962841196775e-01
4.092923159877334127e-01
-5.193641323560724277e-02
-1.609463737979293860e-02
3.107180355582439546e-01
3.422790132758312676e-01
8.016599556070949095e-01
5.377076506459545040e-03
3.698799395861802619e-01
2.715139253376469552e-02
-6.486986591629124721e-01
4.250274517083620918e-01
5.039387981501562974e-01
8.441159046477966221e-01
6.373977536741781691e-01
6.408824418783671817e-01
-2.368100956299251103e-01
-5.688173537470643248e-01
-5.525499969804047451e-01
1.588226202862623448e-01
-2.940318624471370268e-01
5.479193531931009220e-01
-3.907879119095340470e-01
9.341911023586563223e-01
-4.830243115902763118e-01
2.477822915650527980e-01
3.921494306205903779e-01
4.095875861093319359e-01
-5.732567581678436053e-01
-2.268299872019979568e-01
8.251161235167201458e-01
3.545490289867603839e-01
1.716901908905634488e-01
-3.604562466095052042e-01
1.292096579791013333e-01
1.657716114552987563e-01
-5.518960544718608599e-03
5.303956597231108266e-02
-3.807089085453688737e-01
4.573894845558038602e-01
6.326776399881128832e-01
5.875628709560655194e-01
1.272086613351195716e-01
-1.504400236758473841e-01
3.611820683905455631e-01
-1.078703507420488039e+00
-3.317547350490152591e-01
-1.416007053389169712e-01
3.822442316163014442e-01
6.202097793850855911e-01
6.102180268991104217e-01
4.246544423989495054e-01
4.699753066548935099e-01
1.449261586922025724e-01
1.408544933535180732e-01
5.054804327011960807e-02
3.651838437453642783e-01
3.401154819679091945e-01
2.691252744713014677e-01
-6.402050751975951748e-02
9.136823237485496296e-01
1.025196751367225545e+00
4.874914732115054328e-01
5.326776535854917949e-01
4.555018865096073857e-03
7.030921556478981760e-01
3.182820468872702979e-01
-1.158864618888264947e-01
-7.717477985415625019e-01
-3.040997083931227252e-01
-2.381483541271807447e-01
-1.862937353623909109e-01
-4.587563225783720250e-02
2.176487809295061249e-01
8.081548681285308788e-01
-9.794480092688392370e-01
5.308136429923107080e-01
5.414208064470547171e-02
5.865256567814852717e-01
5.997596407056376977e-01
1.655392772289003278e-01
2.522767412669479903e-01
-2.895483789166966027e-01
-9.068371114894717422e-02
8.885592534945743748e-02
7.462597152092000918e-01
1.757172366332198643e-01
8.158372589217188775e-02
2.111455769360947032e-01
5.195080195229739850e-01
2.914645016348437201e-01
-7.754618257303051987e-01
2.561039761323960495e-01
5.811159995371606435e-01
2.049111186828449505e-01
-2.872420001811493706e-01
3.597442139342522660e-01
-7.134828875506483981e-02
2.348392950119204126e-01
3.545224989262431570e-01
6.763241589087704009e-01
-1.626240723523540432e-01
1.461819605881132245e-01
2.175555397278357006e-01
-1.021983015571223917e-02
6.226289483912552658e-01
3.154470695261017976e-01
-1.441373873815333939e-01
3.765588345803163595e-01
4.805631675048568363e-01
4.238827576296457789e-01
7.737487003816977404e-01
-3.889651300282322421e-01
4.336647730179260529e-01
2.299529703062825892e-01
4.948217913127073708e-01
3.216560763072898732e-01
-6.197284755207660423e-01
5.158636895919166410e-01
-3.663598721824998794e-01
-2.275094071319074263e-01
-3.015624036555510368e-01
8.188421185356499210e-01
7.220091923300746561e-01
6.551147386419950980e-01
2.872147310717441671e-01
-3.710759443685150982e-01
-1.172974266235951468e+00
3.524533955870760016e-01
-1.867517321055839064e-01
-8.365093818056945629e-01
3.378886808050915458e-01
-2.819299357807469320e-01
3.304030444495197755e-02
-4.753492331302092144e-01
-2.826899622863063288e-01
-8.822765730930584582e-02
6.196937108716710219e-02
-3.764229404594645612e-01
2.318746087806310141e-01
2.229703397501332784e-01
8.142593614602396945e-01
4.458082575078302634e-01
4.673303976348453515e-01
2.034940853334424316e-01
-1.841715799092633749e-02
4.285843383858122663e-02
4.666381100252606773e-01
-5.385388194100529935e-01
1.506158998254742976e-01
3.632391267630490916e-01
1.834547340348615940e-01
-1.622303512061795683e-01
3.295583383380930598e-01
8.759090048363703251e-02
-7.303163227800331392e-02
4.504235060642077793e-01
7.225671101980801758e-01
-2.981463757520250724e-01
1.603778397066819850e-01
6.951073183530643851e-01
2.625009914695108915e-01
-3.540422911947271323e-01
-5.565149479299213997e-01
5.297247105631751607e-01
4.567490255537480781e-01
3.429066771033827399e-01
-1.019266509527359810e-01
6.665408448851675161e-01
-3.722705840645607143e-03
-6.326993287785753067e-03
-1.478031560440137837e-01
3.964510933201824683e-01
7.107798744885888143e-01
7.044058273767344058e-01
-3.572922510032493504e-01
2.076863072212006833e-01
-4.418228415829052458e-01
2.413577632183865340e-01
1.086310729084146165e-01
3.814545594699789155e-01
-4.551797940478962690e-01
4.650854214538395759e-01
7.978076434421633722e-01
6.228844634065848762e-01
4.275376455415054733e-01
8.391158819751202147e-01
-1.673494846405123027e-01
1.593725297504189342e-01
-1.929232754528706628e-01
3.959256569827234590e-02
-6.803366832102569761e-02
4.050244934043024658e-01
3.224526363063860979e-01
5.233378586712990055e-01
1.194055659356649951e-01
-2.464001310098542785e-01
1.939975448618370957e-01
-2.381549538620849338e-01
7.998399962093108440e-02
6.813088779695459368e-03
9.412521913528375528e-01
2.618364479763711783e-01
1.619252146673651194e-02
9.859471279508971175e-01
5.378926921113532655e-01
-3.661123125418471180e-01
1.367675070761836253e-01
1.052495328540540079e-02
3.714494774182562908e-01
2.986639477265552456e-01
5.977090479656627098e-01
-6.666169229561241805e-01
-8.079812315959414293e-02
3.300856972215062135e-01
1.525323975078279057e-03
-1.842671469778708881e-01
1.880794027991073147e-01
-1.060012401649297331e+00
2.129511513699668679e-01
-3.451227533154115346e-01
2.996394662223851868e-01
8.166822573779083383e-01
-5.351496608142014555e-01
5.623990806685502664e-01
4.379773797575210459e-01
-1.335568636238376516e+00
1.358767418269146710e-01
-3.704129410213469753e-01
-3.615184425268934687e-01
-7.265494969173021955e-01
1.827274581133690734e-01
6.025815552807195496e-01
-1.887352578323230057e-02
7.238333301869604997e-01
6.191318695789594928e-01
-4.684151978115337900e-01
-3.215717377861059822e-01
5.051070793074881049e-01
-2.095683755832070672e-01
3.009982783509806414e-01
3.366268854648986064e-01
2.169391475091354549e-01
5.717347785233770630e-01
6.369893138690368994e-01
-1.456320463681861355e-01
-3.997724942480203048e-01
1.901754582234360391e-01
3.984475718935386740e-02
-4.717445293743093848e-01
7.485296053093779545e-01
-3.353035456276029502e-02
6.605170066947939622e-01
-3.319399455843880520e-01
8.549403810247029334e-01
3.774579488257154281e-01
5.242659777178134556e-02
8.216650543701425891e-01
3.735100405908588495e-01
1.160440930776750479e-01
-1.127415171962140139e+00
-3.446629380828513667e-01
-4.396972160306592547e-01
-3.784262864614174049e-01
4.873195229336100831e-01
1.361149180871704667e-01
6.566389815759712117e-03
6.517603641937673720e-01
6.224627260252481031e-01
4.840693612910635935e-01
6.151598611729688360e-01
-2.122541507669658545e-01
-3.698708348483771280e-01
-2.663611672988423495e-01
7.811815665826047361e-01
6.271708371392900050e-01
-3.174639061477316920e-02
1.600410729235567930e-01
-2.667886789014458082e-01
5.352597448123102009e-01
-4.705174382531267518e-01
-6.163848388176714765e-01
5.459291715634664310e-01
7.590166284651211903e-01
-7.614097076478776316e-01
2.032823692400551607e-01
1.041680389576862126e-01
2.023686053396381579e-01
6.207597501534082296e-01
4.654514497717872068e-01
3.321903855638023706e-01
-2.790286509104420998e-01
3.455402029292329869e-01
-8.528433011470357150e-02
2.229164307562107317e-01
-2.554745784754609561e-01
1.229608285950915258e-01
6.209815316200072433e-01
3.234580279467487163e-01
2.953706940754663446e-01
3.837740955657796826e-01
6.870897706852140130e-02
1.174437529690403187e-01
-3.723575645375964971e-01
-1.442989559982922332e-01
3.619169924677482220e-01
1.054267141792547269e-01
-2.335480391467814887e-01
-1.029136389463858103e+00
3.635177005546738616e-01
-1.968566630433989939e-01
2.937763622200647573e-01
-2.775951762977844628e-01
7.252239850831636581e-01
5.772629228409491969e-02
-4.125492066805586805e-02
-7.884160478006765338e-01
-4.050356031974260973e-01
2.735311637276450214e-01
-9.702596462958267276e-01
-2.519618181732510148e-02
-2.450742993702740291e-01
-5.367427847194120583e-01
-7.357570706112153136e-01
-4.802284544570646907e-01
4.533535535500492486e-01
-1.549310722052362477e-01
4.533883529827361647e-01
3.721423808285995727e-01
-8.251821483375564037e-02
5.203944691563284763e-01
3.791189562677714231e-01
-1.774406799519575861e-01
-1.943864519421404161e-02
-1.517060518037479377e-01
-1.614270545380779853e-01
5.841187034193824346e-01
-3.494382272367615450e-01
-3.883875781703600288e-02
4.755492980278508974e-01
5.830696137045190408e-01
-1.488322693777511252e-01
-2.935578726752914314e-01
5.174792294510935919e-01
-4.215443277728691401e-02
-1.240507635340634962e-01
2.268146377689362891e-01
-4.885206231126223986e-01
1.021657237048543415e-01
-7.256024826363599578e-01
-1.489784022478288505e-01
-6.400527220044682775e-01
2.909975445413998107e-01
1.975441410537923936e-01
3.072310395279520545e-01
3.300225499585002914e-02
3.546261865278266256e-01
6.573687929430583887e-01
-6.943800584270114484e-01
-1.179023700868432056e-01
-8.327551288255190254e-02
1.782112816435847402e-01
1.320944593882343032e-01
2.786775241761701993e-01
6.899540209343681951e-01
3.168239421305819592e-01
5.236688045419390231e-02
-5.931482423008904714e-01
-4.629935832771164828e-01
-7.274352746774274125e-01
1.214622317618131303e-01
4.890145606866720396e-01
-5.428890287301756101e-02
1.942176410113727325e-01
-4.186338517199396370e-02
-8.323762600905502962e-02
6.372794530463238294e-02
5.255695726228816200e-01
1.081413937524659669e-01
3.979689695757688411e-02
-3.850710056563529382e-01
1.308294278034325131e-01
-7.939771727899389009e-02
-7.771024186543863399e-01
1.035104041003994668e+00
6.421579386397021638e-01
-7.475644656158160206e-01
3.841061556608953431e-01
4.521624797896100501e-01
7.540584950720463642e-01
1.709917611164883111e-01
9.956850342578396629e-02
8.065740863367094615e-01
-5.183085536615277267e-01
-2.161814764180000348e-01
-2.547427272401909248e-01
2.269312732881885453e-01
-2.053056542922357397e-03
1.658964029913462812e-01
-7.763576834888569200e-02
-8.175730863291769124e-01
-6.390337310887802547e-01
3.997763194332816794e-01
8.017524592471113598e-01
-4.506647952210940944e-01
4.641339072539500399e-01
4.604181641948614234e-01
-1.295913109132700719e-02
4.296632356533758301e-01
-7.840971102294781447e-01
4.320471936262154644e-01
-3.877361046410616741e-01
4.124476371154471854e-01
2.633531059414043751e-01
-1.503270603975241475e-02
-1.990472867685463276e-01
-6.337339277926091752e-01
1.763906846532850015e-01
1.010550903091550268e+00
-6.714565263824503472e-01
-1.030986633639261463e-01
2.189133149847185822e-01
5.894226197847373117e-01
1.261189643523594368e-02
1.089741374102837779e-01
5.944232762032893858e-01
-7.998898288895474051e-01
5.017960351922808038e-02
4.613896292147242617e-01
-5.736987911396821405e-01
5.947027338105705940e-01
1.593616136369736536e-01
-1.492673590751954771e-01
-2.368032364373855725e-01
6.643704124194950156e-01
-6.504302259152230370e-01
6.804475724484041477e-01
3.771854713275341608e-01
-5.259322423074477282e-01
-9.953660959508333489e-03
6.290310746479695903e-01
-1.223907664664214412e+00
3.742824209834123006e-01
1.030287876581389289e-01
-8.199694191482703731e-01
4.722261685200065257e-02
-1.554409892531801174e-01
-2.173839196113328542e-01
-1.485184760381282887e-01
-2.269911107089299940e-01
4.606102509989556393e-01
-1.027618092866466049e-01
3.453821028550245475e-02
4.946726821735414892e-01
-5.752471045955804829e-01
1.456490015680680095e-01
9.435912707306703950e-02
9.194148050803068184e-01
-1.076588680791592915e-02
-8.859344293796139747e-01
2.661683798430800052e-01
6.698197097902146568e-01
3.142873449638218797e-01
1.159405857560336373e-01
-2.463415715374632844e-02
-6.294736928966148115e-01
-1.627727978032276757e-01
-1.066321097588121269e-01
-4.147111180400904207e-01
4.648160904381449798e-01
-5.082978466578054189e-01
2.542694954914636596e-01
-6.604015236195902305e-02
8.433490150623528248e-01
4.699304009242273317e-01
-8.614904996083740940e-01
-6.535517392673416415e-02
-1.183258001270614673e-01
-1.097373468010656161e+00
5.722085885399952332e-01
6.539030430518180115e-01
-1.100177301791284146e-01
2.749022609187932176e-01
-1.962497516989906987e-02
1.706669299001557782e-01
-5.686168827280122517e-01
4.375351586702749818e-01
-3.424988131759645338e-01
3.077078621793815083e-01
5.200162870699847062e-01
7.216396446151295274e-01
-2.605533295741321864e-01
-2.050262421631475762e-01
1.574036899063388228e-01
-2.889902412629172246e-01
5.115111967624397932e-02
-1.217554629535891442e+00
-9.263819112865362415e-02
-6.551201833304710620e-01
9.889812845935924690e-01
-3.261782819352538887e-01
-2.780591284111992301e-01
-2.534927471422655440e-02
9.032337444307132757e-02
3.181046737036068994e-01
-8.639411088345123613e-01
-1.195919475108169761e-01
-1.178158180769995234e+00
1.462584865713821847e-01
-4.105374518109638354e-02
-1.482382493459229178e-01
1.359218904799381067e-01
-5.321693517514661798e-01
5.712568359043333072e-02
9.011482920795259310e-02
8.509105849039597658e-01
-2.896463006655487504e-01
4.262066695882734679e-01
1.082755594952814759e-01
-2.603053829146726242e-02
-1.370699596110645790e-01
-5.572481871820318400e-01
6.624123407460985602e-01
9.032414537591836393e-03
1.164410559859813538e-01
-5.472858046057051951e-01
-1.472886068107034097e-01
1.607507095031535105e-01
-9.081093481271982348e-01
6.979050320377212513e-01
-7.224449246991053730e-01
-5.115498766571671130e-01
-1.354227830614675721e-01
2.202606851487446393e-01
-4.387779463225675580e-01
-7.193952637671546801e-01
1.269263501655637505e-01
3.599904466043553630e-01
4.468073384786664937e-01
-3.189200417535604792e-01
-6.542721586199106154e-01
-2.510332468874024170e-01
5.656744805434610335e-01
-6.502859736879769148e-01
-1.360083414480145747e-01
5.462578920179870234e-01
-7.943185933984349134e-01
4.697877754688977170e-01
3.737811290942826825e-01
-7.540362474143732507e-01
5.429758781501405895e-01
-2.268408627593013760e-01
3.886194364452736361e-01
1.672953832597939006e-01
-7.507834048688666329e-01
-3.788414486691416005e-02
-4.432875522196537132e-01
-3.324157672877097180e-01
-1.160762841448748750e+00
-1.143445790282731217e-01
-8.993446492252183955e-01
-3.484145909895058346e-01
4.179314361218415541e-02
-2.705618937416081615e-01
-5.301603655271929227e-01
4.893096196342733989e-02
4.846628288451865774e-01
-2.214954856700950825e-01
7.918910296638997925e-02
-6.801549338335959316e-01
6.825390862291554062e-02
3.647209107228774339e-01
-1.341178252343898092e-01
-7.385943199227273936e-02
4.010062438174535338e-01
-4.958944061515468960e-01
-1.591442792532586636e-02
3.506893286237254825e-01
-6.206287716508145369e-01
-1.187050367350429431e-01
1.416622940636329819e-01
-3.594397805629490628e-01
1.346655883323951974e-01
-3.194727375554860527e-01
2.583675756564861037e-01
6.776038406782467494e-01
-4.645711349253556777e-01
2.220612717887658627e-02
6.328684277281200199e-01
1.671471487386943788e-01
4.086483380476920169e-01
-3.245206530980203619e-01
5.596880778581261873e-02
-9.273411751413615511e-02
-5.166592229523180313e-01
-2.513392143222877850e-01
4.031647805856558020e-01
4.790321287083699198e-01
5.439891200809411353e-01
2.701926835762660239e-01
-6.710177802598554786e-01
-1.714216433064545408e-01
1.205912497410954048e-01
2.279777254374714124e-01
-7.029475943019808382e-01
-2.888959069704151728e-01
6.169487579645972497e-01
-4.397092184989502273e-01
7.542456095025418250e-02
-7.153692979770458482e-01
-1.330897274271851394e-01
2.452447670984441441e-01
-6.296485547342194344e-01
5.933818724225444763e-01
3.830922651150113212e-01
1.100014235392060974e-01
6.713067839741191367e-01
6.133313875152084371e-01
2.933255259475655088e-02
-1.900103202750480225e-01
-3.399849688759334354e-01
-2.582141944446961768e-01
1.666668230476181234e-01
1.753202030056358052e-01
-2.676755240386211043e-01
-2.839317961556889203e-01
4.298710276881662073e-01
4.205882580676765237e-01
-3.822409930579803716e-01
6.965329870724586148e-02
7.496881902795671238e-01
-3.268703634702012084e-01
-1.198732726950225702e-01
-6.180206924256363976e-01
-2.924826116461993197e-01
-2.765703830472058256e-01
-6.067831426410028595e-01
-8.719639753992567410e-01
-4.405912128493693625e-01
-3.053744916638802542e-01
7.560693682737185117e-01
4.356404971922278047e-01
-1.914733810209821030e-01
1.833728387247288705e-01
-4.131144817209486120e-01
-3.956053250306163505e-01
1.185566781273172388e-01
-4.444574262224801897e-01
1.918022259782881447e-02
-5.941534748131991339e-01
-9.103625161400254878e-03
1.503504257033171088e-01
4.274652725389926911e-01
-2.964307001375377504e-01
-2.499399314004113193e-01
-5.121003277922903107e-01
7.515525802165157199e-02
-3.088087259831780867e-02
4.506711033064267347e-01
1.754920947518204821e-01
4.341918865165577124e-01
-2.202882685382112626e-02
2.571942034969380009e-01
-4.668456741906349960e-01
-3.585121519223362641e-01
3.319991990099627199e-01
6.626876580843287234e-01
-1.063168495826310733e-01
1.827202566331045663e-01
-7.379802108535260530e-01
-3.072605501442731701e-01
-1.363823750336846941e-01
-3.601150914332662545e-02
4.928707797709680483e-01
-5.517913002333345585e-01
-7.356374525125939368e-01
-9.737937502060582950e-01
-9.084327217820510336e-01
-3.349480150569885684e-01
-1.564253763965163246e-01
-6.539877469607726646e-01
2.721403859364481814e-01
-1.012835353071802835e+00
-1.778361396759622626e-01
5.231703681663468775e-01
-4.027124960292907674e-01
-8.529713829868441621e-01
5.817781643369961397e-01
-2.556929010853815076e-01
-6.492431903022086725e-01
-9.754859278827792135e-01
-4.408007446361498216e-01
-1.083070784211863091e-01
-2.035312905203476297e-01
-1.606354349449611030e-01
-4.280046230982367250e-01
-2.023588519198946667e-01
-4.125311355749496367e-01
-1.507326637953105841e-01
-3.287527042278323153e-01
3.950520925365026692e-02
-5.586826874754452499e-01
-6.254829546107861793e-01
-8.479188290786681126e-01
4.019545781373382032e-01
-5.442810353549783209e-02
-4.501209887172288870e-01
-5.210465435678013346e-01
-7.770767357585681712e-01
-1.286402452466690050e-01
6.241140395442651423e-01
3.973696815510677216e-01
6.355668423840025172e-01
-1.730437245024969428e-01
3.156277163731783242e-01
-2.472067127058051872e-01
-3.301197893070217382e-01
6.192047469825101569e-01
-7.420189234562039882e-02
-5.825504236834585514e-01
-8.623204149662275775e-01
-3.918682068382807193e-01
1.636632063885465338e-01
-7.307869583320231177e-01
-9.530438946479818929e-01
-3.245584278004343820e-02
2.352101195457750177e-02
2.086393356356198991e-01
-6.782236682943697526e-01
-2.834920474001519364e-01
1.948908280245740532e-01
-5.441239421912789087e-01
-5.707499778756747189e-02
4.717638765109667398e-01
-4.824465356083300349e-02
1.720094167734822210e-01
-8.002067714710197066e-01
4.134923991563785317e-01
5.229529522025102573e-01
4.104383628764706748e-01
-5.267346857113035519e-01
8.632800879416507867e-01
3.074519117057608261e-02
-5.030854215592394096e-01
-3.762318701211436744e-01
1.878894800789341624e-01
4.915932125332672653e-01
7.900909514318708513e-03
-2.346326036761919309e-01
-9.541051111454401656e-02
5.256470205095621628e-02
-1.541289596233562931e-01
-3.595087591304828023e-01
-1.291420898660632366e-01
2.586508867479265228e-01
2.147930883606942454e-01
-5.213811337922149569e-01
1.341470955392740361e-01
-4.511959578519391112e-01
-8.644220240068599681e-01
-4.058055200677126995e-01
-1.492683970042626984e-01
-1.137796069597343945e-01
-5.413233620966744208e-01
1.814812857095083054e-01
-6.683170134332722112e-01
-9.815228852436665152e-02
5.231983250020834086e-01
-8.442255606035014015e-01
-3.138209320069123565e-01
3.930924166391140950e-01
-9.159679837653098566e-01
2.391029660621832864e-01
-3.192733418582744398e-01
1.772251639479860696e-01
-5.456955623217000229e-01
2.291183981075712583e-01
5.820741428923401628e-01
8.455837119468645469e-02
3.897339881817242224e-01
-5.930825499537053513e-01
3.434986354899522421e-01
4.607362524818368610e-01
-3.247350654835559625e-01
-2.750588000833475294e-02
-3.898699701832278874e-01
-2.940388037026912538e-01
4.113396386114741565e-01
-6.815837215991352727e-01
-2.864373077653590421e-02
-1.083279171501427413e-01
2.286238993565237465e-01
9.098505244620315111e-03
2.087581578738769428e-01
-7.277311410828132821e-02
-1.788994635320966808e-01
4.018096670744905619e-01
-2.873203482574390732e-01
2.018556568667217443e-01
-2.738878341281691942e-01
6.099545160410262401e-01
-6.607838165821385834e-01
-8.518175317773031274e-01
2.518442740811645177e-03
2.986631118656472017e-01
-3.148644316806831905e-02
-2.388157755219885992e-01
-5.680929675145608400e-04
-6.691884556366617387e-01
-1.686015983232901638e-01
-2.620470167729522237e-01
2.459961937017527966e-01
-6.417865164093817798e-01
5.652298325398408263e-01
-2.786726297971484079e-01
4.325908518318791751e-01
2.588588912958306731e-01
-6.670161453031732135e-01
-6.702576394345947930e-02
6.489773672459583365e-01
-6.523051595581064177e-02
2.527055729879367219e-01
-4.069424736982783508e-01
-1.006356704520205980e-02
-4.653778635923319640e-01
-7.127453536277286172e-01
6.031563905752371779e-01
6.729632009531502090e-01
-7.932779294079681520e-01
-2.108458014007615067e-01
-6.682672775953639732e-01
1.398980547501649241e-03
-5.669187438306880766e-01
2.258288949987621863e-01
-7.729332735732519222e-01
-2.691482013233124637e-01
-9.785085773755360927e-01
2.338701934250570283e-02
-6.270159178977048609e-02
-1.609539040558146394e-01
-6.500905215162647299e-02
-1.771115616521377889e-01
2.920954958981891638e-03
-2.608683691439613317e-01
-5.298616854055350212e-01
-1.760939328758564237e-01
4.661600673182815791e-01
1.395191221106135138e-01
4.365816309336285062e-01
-6.783812407781680820e-01
-5.123039425452867723e-01
-2.209161789139213738e-01
2.236003519533355244e-01
-2.478566948470838083e-01
8.891194618096842639e-02
9.774667574593888519e-02
1.024318862911713923e-01
-5.524695591093577995e-01
5.784807181889440875e-01
-2.512083020198551189e-02
5.157504388448381771e-01
4.734611107816468767e-01
-1.836509432460976254e-01
3.584564287923064363e-01
-1.056771513301297150e+00
-1.906255158458935173e-01
-4.621903202773149366e-01
-1.025855286495606977e+00
-5.175171297800537085e-01
-4.582489101394776609e-02
-3.901875912849544353e-02
-1.753762274336843063e-01
-6.323351376465162488e-02
-7.356608144907135216e-01
-5.533409066688419475e-01
-9.442319207578457607e-02
-6.513177254575825970e-01
-2.514280853726803544e-01
1.962136247580413273e-01
-4.510397212649567278e-01
2.854920425228968939e-01
-1.202466343030124951e-01
-3.284686085168738723e-01
-5.868759294244589864e-01
-1.244162317238026311e-01
4.357323457674684986e-01
5.602109926550772334e-01
-8.339797078683455211e-01
-8.930890058055344083e-01
-4.349287555032624319e-01
-6.880174731935605470e-01
-5.127013419259980331e-01
-4.752533159267579022e-01
-3.169286390037336087e-02
-1.410441976479615001e-01
-1.652769374309829287e-01
9.319873802520106665e-02
-1.373242029265519248e-01
4.220688396373519294e-03
-1.293880911286071356e-01
-6.619917573213122131e-01
1.994481180387140395e-01
-4.285367533088622616e-01
3.407474291628287411e-01
-1.120737481281492420e-01
2.128209539106425130e-01
2.843211660828285151e-02
-2.551994942154114931e-01
-1.278342186614159492e-01
-8.481336928683630427e-02
3.495057858681155372e-01
-7.336101261972716170e-01
1.785608779829183923e-01
-8.280556774198574166e-01
-3.174932501247972327e-01
5.948646460673967518e-02
-1.066200463371693941e+00
7.924909424236020392e-03
-3.196580726111640791e-01
-2.934022590692571542e-01
-6.325832743440876760e-01
-8.571574147824334577e-02
1.091643569885109438e-01
1.011042107240436444e-01
-5.472075795823527766e-01
-6.754391814289267826e-01
5.151219452045768810e-01
-4.857003095322668385e-01
-6.354077585907857983e-01
-6.365775917805177597e-01
-3.886984343021778199e-01
7.150169197227489171e-03
-3.758645007302242047e-01
3.998654037393548077e-01
2.723544547010375849e-01
1.843881314884868172e-01
-5.571400697696626825e-01
4.757499500428351638e-03
2.655506771902212959e-01
-1.828098209271174224e-01
-7.203752898199272670e-01
-6.299823740710948083e-01
-6.371941517665913324e-01
-2.563845199831183974e-01
9.115044942428146557e-02
6.624833485749856421e-02
7.272473817433325327e-02
6.767318172758517436e-01
9.191688227643073084e-02
1.922242987200092901e-01
-1.276870290317631551e-01
3.603126323913716927e-02
1.582195725694540145e-01
-3.807498651129032630e-01
-1.896426408316084777e-01
2.879453023161432108e-04
-1.007622156000519187e+00
-3.042112807430307209e-01
-2.048388508378264916e-01
1.029967831371519510e-01
2.873896872249577794e-01
-1.360788350991661622e+00
3.161060375833079639e-01
-7.800325269922184224e-02
-2.844910011780036330e-01
-5.011089774983982226e-01
4.613538671418918741e-02
4.781531223390234064e-01
-4.171800766241974823e-01
-5.873495665604413357e-02
1.170583065234943043e-01
-2.915864743388874719e-02
1.027052657767711374e-01
6.140523523467713782e-03
-4.259363961105322449e-01
-3.391157842064011496e-01
-1.385886303631505667e+00
-2.475260247193774299e-01
-7.700947013801424657e-01
-3.313762863557123128e-01
-4.809172316681101234e-01
6.193847382897788717e-02
-1.930640263748382157e-01
9.672133792182162348e-02
-3.328290380722626618e-01
-2.441694715942501204e-01
-1.354088125125681719e-01
-8.198362864487148682e-01
-5.371032115873265456e-01
1.079406088440954675e-01
-2.394662568444710649e-01
1.541065611686774639e-01
-6.293564501758555085e-01
4.227304408711164974e-01
6.875432028495979953e-02
-5.996997124712764027e-01
-4.968932769162047181e-01
-1.714107366968616042e-01
-3.326135012037031297e-02
3.665897108512190111e-02
-7.980991180049700207e-01
-9.406282442722863069e-01
-2.176334654588844841e-02
7.655976611391891729e-02
7.416174094107561010e-02
-5.583602787492556452e-01
2.246020482050750319e-02
-6.643290523839487927e-01
3.152298431411661439e-01
-2.593920055364253852e-01
8.605983724667812251e-02
2.583543907385135174e-01
-4.539612775011396817e-01
6.107062091499178280e-02
-6.684032394043845637e-02
-9.431691338706546524e-02
-6.345536257414325920e-01
-4.225117286984588216e-01
1.212917064861577382e-01
-1.133259783971198309e-01
-6.943635970337223018e-01
-7.156183896589353444e-02
-6.488783400993355377e-01
2.774576022530733654e-02
-2.554413470078859549e-01
-2.013878334717938146e-01
-1.246121539463145161e-01
-1.971742030089059516e-01
3.151735987090655833e-01
-3.227704697310194160e-01
4.780767859642612860e-01
-3.299496595706701840e-01
-6.675071044708312806e-01
-4.222129098650622137e-01
-4.906205171227671635e-01
-3.840735208743865092e-01
4.272182242131197794e-01
2.576779029784072028e-01
-6.584220945101029177e-01
-6.641382908764771609e-02
3.673433428446138960e-01
-5.986773590245635379e-01
-7.417604254425810839e-02
-1.003848971979001276e-01
2.662060138378077312e-01
-2.378832618634810769e-01
1.049322631971054270e-01
-6.093380187430842421e-01
5.033858030006571616e-01
-7.804034425380054762e-02
-9.878266707282408188e-01
-1.054822990716613562e+00
-3.278407979447627851e-01
2.551394419723305822e-03
2.049201608166638031e-02
-8.523856387033922066e-03
-3.617902124545648301e-01
-4.039754318712381886e-01
4.110676318430143139e-01
-1.096052983775128442e-01
3.060053019424698387e-02
-6.696946210523357923e-01
-4.699442234885359282e-01
-1.083350162474207984e-01
-2.879495474962495694e-01
-3.131717004927551673e-01
1.273979626457939496e-01
1.892146883818369291e-02
2.537165881048030758e-01
2.929268499851224276e-03
-1.478181114996196810e-01
-3.946440367608984312e-01
-3.413078963526079423e-01
-6.300668953861313093e-02
1.371378200775920375e-01
1.511327142786871025e-01
-3.195217125164346306e-01
-3.169483689559674522e-01
-3.024263070577153933e-01
-8.532828306136340524e-02
-2.943617976075562082e-01
-6.383188559262688022e-01
-7.655261310455019341e-01
-4.379157840344788943e-01
-7.882619052884523025e-01
-6.976618110375519821e-01
5.436205730092342758e-01
5.116195259347654928e-03
-6.356590892236699264e-02
-4.733817656392062534e-01
-6.297343248329726473e-01
1.291937132240537078e-01
7.922242237699303469e-02
-4.520163502263148669e-01
3.184748633376861537e-01
-6.997288797116657522e-01
-5.889014552574896033e-01
-2.922649970341991144e-01
-3.467672574969250104e-02
-4.541859016331282750e-01
-3.700184406190908382e-01
-5.074729432332772960e-01
-5.676445572473434176e-01
-9.570719957116901678e-04
-2.272773121950156239e-01
-1.371948567304706046e+00
1.887855736081927097e-02
-6.196586449963282783e-01
-2.492915651926100873e-01
4.959514412704360553e-02
-6.241979303811668878e-01
-1.538075578474647209e-02
-4.902258370940880128e-01
-5.894834767845522072e-02
-1.294870287927844865e+00
-4.137603343292452496e-01
2.024100581838411683e-01
-5.132132923481346198e-01
1.195372241363433230e-01
-4.498959550614187175e-02
3.811774113983123491e-01
-6.525623812704933746e-01
-1.446281392989141878e-01
1.266005809306700036e-01
2.187984482887198323e-01
1.792300840565657638e-01
-1.793705164631419491e-01
-1.434203451595937318e-01
-3.801537106132562571e-01
-6.638184728292119419e-02
-5.788799725043144301e-02
-1.001547318615101240e-01
-5.009074394696758636e-01
-4.856449596737395513e-01
-4.649315369204817250e-01
-1.485713109543237431e-01
1.118319692808514981e-01
-1.235794784422103790e-02
-4.712644325721586647e-01
2.436021953735996726e-01
-6.451255547721033157e-01
-9.040670540751144513e-01
5.915086539163766366e-02
6.166952128263021582e-03
1.424944445461144293e-01
-1.732560989893892345e-01
5.683732218882956433e-01
-1.471837633921935784e-01
2.956617125203802598e-01
-8.483803041649972121e-01
5.903135838122332280e-02
-6.274273601860289595e-01
-7.433305718602097045e-02
-8.484626569859221590e-02
6.383894782602419493e-01
-1.352390238851649551e+00
1.331058976879937461e-01
6.543006782865223858e-02
-4.893283970857645326e-02
6.534258558976610010e-01
-5.609371063342672992e-01
-4.786279149505959229e-01
-7.197924416989491814e-01
-9.452135662936950178e-02
-2.962160398190975541e-01
-4.989455079020420070e-01
-7.244321894621857938e-02
-6.231355557551613300e-01
-4.966697100815346544e-01
-2.863525374278426683e-01
-6.660365613851401689e-02
-3.164468306931287334e-01
-6.241034711434421123e-01
-5.537632055370268480e-01
-6.638166450184040945e-01
-4.719103360199768393e-01
-3.195079818407635108e-01
3.353480267316657493e-01
1.757153914044623233e-01
-1.608726203967839052e-01
-4.318404126555273059e-01
-9.475185646134620665e-01
-1.796907947065556899e-01
-6.768896557999484753e-02
-1.079062949358730261e+00
-9.116478089022895803e-01
-7.465312978064608807e-01
-1.573393048451714182e-02
2.395679305438436490e-01
-1.293342349315126594e+00
-7.382533564368400081e-02
-2.067841397743483411e-02
-4.241619830540043767e-01
-1.499373282897352722e-01
-7.446968120710137362e-02
-8.275821720097548129e-01
-7.121091736695800423e-01
1.814866104035736238e-04
-4.154152840638406508e-01
-4.644834144699154233e-01
-1.388213823763238541e-01
-4.530918966080033639e-01
-2.679469085356585636e-02
-5.116612368743041900e-02
-9.660771357167281803e-02
-4.374834257378524827e-01
-1.711439640815029806e-01
-1.349527461112829119e-01
-5.777531195359313365e-01
4.600609965965706677e-02
4.528306504963656304e-02
-2.901041325107666102e-01
2.087602522406599159e-01
-1.124153445340311114e-01
-1.317083980773004447e-02
8.023432906583645441e-02
-6.948944752131612779e-01
-1.032830106962938227e-01
-2.157825056808885811e-01
-1.045651575528413618e-01
-8.359947193756858685e-02
-3.212695622675450502e-01
-1.405164670485492262e-01
3.589244239819567306e-01
-1.948037377235179446e-01
-9.320527983902220440e-03
5.211174671880777765e-02
2.642764526831126726e-01
-3.003311684613249599e-01
3.691597804545541095e-01
5.875505947553555375e-01
-8.082895799286861083e-01
1.767945951950133932e-01
-1.015094058682159295e+00
-8.798084238760683906e-02
-6.021668205603502022e-01
-4.055520178664762110e-01
-6.305449854982353441e-01
-7.917438344058905231e-02
7.000176557603806325e-03
2.125852015978988152e-01
-1.862140436570954294e-01
-7.666121801412935366e-02
4.517035239636682867e-03
1.104462380517885478e-01
-5.253038677645431587e-02
-5.748846245312296821e-01
-5.206504745187352512e-01
-1.239295269082033302e-01
1.501722558876306401e-01
2.142175978347199139e-01
-5.124172058880440694e-01
-3.104122184871341283e-01
1.646363308608814191e-02
-1.099948259808922524e+00
-2.742088178279927235e-01
-3.391087427922906405e-01
-1.568847374030961916e-01
-5.498356843997793258e-02
-2.704280132661431302e-01
-8.772581096341774964e-01
-3.432938264935412875e-01
-2.312870057756417075e-01
-2.465831840215843285e-01
-3.650041640490957473e-01
-7.667471336516409885e-02
-3.120755794130811722e-01
1.391704557507437157e-01
-4.528994606142480728e-02
-1.787889738160075570e-01
-6.265547430744550228e-02
3.285496993826337309e-01
-3.151593011782714143e-02
-2.125917041979756283e-01
1.399858066597723383e-01
-3.064532662348743441e-01
-5.106650504229032217e-02
1.214979901916904137e-01
1.463965157561838148e-01
-8.648585545795556273e-02
2.206845613177615129e-01
-9.118234116759458274e-01
-4.279021610926096453e-01
-5.145742512578946881e-01
-4.279227524467839050e-01
-3.916714657394645416e-01
-2.929893722707990755e-01
-4.559709998307152623e-01
-3.348211066701458488e-02
-3.586964809375664531e-01
2.678027382334315920e-01
-2.256306943153970346e-01
4.349274107623733454e-01
-2.185311315872739135e-01
-1.397159762410624673e-01
2.724226779894592942e-01
-5.611187520195808770e-02
-2.365894883952232020e-01
6.664985332991107785e-04
1.192060326003892713e-03
-7.851958468341769803e-01
-2.983768178669764515e-01
2.629793241157603600e-01
-3.529905835037523976e-01
4.922864270963933642e-02
1.491826991136168019e-02
-7.571442927276195167e-01
1.806051938471570362e-01
-3.001105276752969592e-02
-2.943608135181701169e-01
-1.791075451461291435e-01
-1.753616338814497633e-01
-5.182907052801596359e-01
1.318060798486451468e-01
-4.241065568934179741e-01
-3.088038376808600605e-01
2.626503755913874860e-01
-8.274023922122724084e-01
-3.812896523543489735e-01
-1.136145965309477424e-01
1.042797140137357026e-01
-8.835939323543244572e-02
1.375229143760671180e-01
-1.446817029881538874e-01
-4.723011054315443547e-01
-4.312613420529878838e-02
-3.037177370520957598e-01
-2.986017150070391368e-01
-1.544306353608685400e-01
-5.733354855221371726e-02
-9.685869261512511930e-01
-5.963957588387386322e-02
-2.602806314772252438e-01
-5.705755771230452966e-01
-1.323342760639370230e-01
-2.605120306313816747e-01
6.969622261137567443e-02
-2.580318247271181156e-02
-1.178776221188626128e+00
1.351999952116865744e-01
2.991963703118669105e-01
-3.231833220947459839e-01
-9.817961815493475575e-02
-3.750689992490882085e-01
-1.374705145412414009e-01
-1.307796934522154897e-01
-1.772393441200330322e-01
-5.957185921175230103e-02
-7.457050573091598966e-02
1.771486099056174615e-02
-8.828350915884268513e-02
8.173373901296536459e-02
-1.412940618734893627e-01
1.756288100482687464e-01
2.792322124978005669e-03
1.958133532465593796e-01
-1.301149473458030892e-01
-8.956822564045043011e-03
-4.004213619359079934e-01
4.061440456425383094e-01
-1.008061118318251737e+00
2.836077985897368370e-01
1.440182427024290328e-02
-2.952825834669737248e-01
5.482113399037970292e-02
-5.975273740693211044e-01
-1.443463969287341608e-01
2.692210523810403822e-01
-4.693611478190787833e-01
-5.020134335229958777e-01
3.664661691630470286e-01
2.815920436818355466e-01
-4.520833504002516601e-01
-6.147516068698426900e-02
-2.474580010956517195e-01
4.992983524596138201e-02
-7.906237889261635843e-02
-3.713112951965361064e-01
-3.912368582799169436e-01
-1.597486555450119139e-01
-2.829639522380824057e-01
-6.711925128158985343e-01
1.933949134579064921e-01
-4.435403982553083602e-02
-7.423173993473415333e-01
1.949130435363590763e-01
-2.039992244784275821e-01
-1.524090035390469333e-01
-8.709199417184334546e-01
-7.068824050095954270e-01
-1.844532775395229252e-01
1.448962742000109993e-01
-4.033030442574236374e-01
-8.837698524549852941e-02
3.143789935514605671e-02
-1.500321881601130170e-01
2.260775170724054761e-01
2.196390031330483494e-01
-2.074295284814317297e-01
-8.586222117291737732e-02
-4.962447747397993880e-02
-1.263670173591350532e-01
-4.403887116274602526e-02
-8.326363919547521975e-02
-3.162502510296428260e-01
-3.106010215688814191e-01
-1.224973789605094815e-01
-1.371175917446640358e-01
-3.752888784740582295e-01
1.313878814032864717e-01
-4.864550204994680382e-02
-4.473396185233927819e-02
1.159478738350513682e-01
-3.263551348078633230e-01
-6.384288198262575431e-01
-2.089469834274985394e-01
-1.851166719659871063e-01
-1.281544279401391206e-01
-7.155273431359854275e-02
-2.686191160308278036e-02
-5.642772535273740120e-01
2.459971563122180169e-02
-1.068442465286687515e-01
2.003072186112779540e-02
-1.924964358094662376e-01
-2.374784339710552528e-01
-6.071386655266711868e-02
3.526166631049348216e-02
4.681634439847238982e-02
7.320143904013876046e-02
-2.402404726508148292e-01
1.373875081631245332e-01
-6.747168684597482091e-01
1.035861580045839836e-01
-1.990771623132615575e-01
-4.264110863148386499e-01
-4.324019751480030482e-01
-1.513543559834362451e-01
-3.963029333445754199e-02
-2.368812590043130328e-01
-3.159179531957966303e-01
2.616734096650335517e-01
3.863838773616343203e-01
-2.155754255121359042e-01
-4.547367351931417279e-01
1.233066463840153532e-01
-1.813672001864242711e-01
-4.007019360594817753e-02
-7.698934383237238110e-02
-6.928565440057780911e-02
-7.492477657301940819e-02
7.354124264851391590e-02
4.101684713173369690e-01
-9.425858383422672238e-02
1.371704287869721373e-01
-6.744571810575575310e-02
-2.032908527292147383e-01
-1.932170084210136640e-01
-1.954661664303749061e-02
-6.733645340158329884e-02
-2.973949690373301966e-02
-3.762340398141824638e-01
9.184342946790466367e-02
1.144830446013295616e-01
-7.927852921145522869e-02
-8.015897152320549529e-03
-1.027717993165638694e-01
-6.254717193577627454e-02
-1.475132407670292911e-01
-1.445024775708291520e-01
-2.952874672532195266e-01
1.754216459494658403e-02
-1.470544744809007820e-01
1.038880145365982544e-03
-1.102385944270935086e-01
-7.719329753155253215e-02
4.077042588526902031e-03
-4.568709206328627204e-01
-5.909714595927857000e-02
1.663320938232606683e-01
9.803220520482171241e-02
-2.002005871552110239e-01
-1.992182919907312666e-01
-1.152658255998199460e-01
-6.153793967683144350e-01
5.158654996836898460e-02
-7.124310144778403520e-02
-1.638882080363315841e-01
-5.981263154061810389e-02
-1.676472923528045667e-01
-6.482199107722670661e-02
2.435630127462153072e-02
1.092594177522976384e-02
1.093966991369908770e-01
-2.002330597804591328e-01
5.623754892377536008e-01
-5.777903762306321744e-02
-7.691006935183248849e-01
-7.178054035209122108e-02
-1.833144447433396607e-01
2.744514941675960107e-01
3.046854230503184824e-02
-9.347343726555341903e-02
4.572221549283009973e-02
-3.199811771409793448e-01
-2.627419710955198884e-01
-1.519455199590658834e-01
2.080814632103808459e-02
-8.926172675035751181e-02
-9.300467590255920292e-02
-9.843166918946089083e-02
-2.178494703581503045e-01
-2.170923818807591818e-02
-5.968359863367832530e-01
-5.489183392526181260e-01
-2.303232786057878012e-01
-3.037171996851557865e-03
1.127433094197766161e-01
-4.091341127843640263e-02
-1.035730143679322729e-01
-9.278667518960224958e-02
1.249604823326123798e-01
-4.395091795236946881e-03
1.949892736022862394e-02
-7.218880789086067062e-02
9.175945213643437598e-03
1.177262796811222867e-01
-3.767820550688617126e-02
5.453540185502156468e-02
-2.687955338730054627e-02
-5.444766052826858355e-02
8.721689100738734546e-02
-6.890307794598828084e-02
-1.468961252800336272e-02
3.088009898448307866e-01
2.013602390913466489e-01
-1.626908741918340895e-01
-1.043474513605283788e-01
1.504147421775313964e-01
6.818060405469474061e-02
7.211344353470336421e-02
-3.528094903104073143e-01
-6.019494074789551175e-02
-1.946810186472972548e-01
1.550808329360706984e-02
1.577003398308992332e-01
-4.031736291870584576e-01
2.337891354491771490e-01
8.893616528681290434e-02
-1.719376481601685713e-01
-2.151207643342016584e-01
-2.541070509828510446e-02
2.469965921507823459e-01
-8.613643002197459916e-03
1.853799631596875219e-02
-3.938524606889013541e-02
2.613094944702982342e-02
-1.710917878531301728e-01
-2.802318097101318961e-01
-1.279556888295643180e-01
5.078096125788331139e-02
-2.247856484896980644e-01
-1.042782305754143615e-02
-8.767274419165896338e-02
1.761806751564503337e-01
-7.123748870368980246e-02
-1.002022487328872447e-01
-1.435440368366592556e-01
-2.643084658675666151e-02
-1.148037679315047910e-01
2.819353392415614445e-01
-9.902450104236748540e-02
-8.837815489676624503e-02
4.450777506802644501e-02
-1.435691800158121409e-02
9.386257879667342374e-02
-4.810257996164054584e-01
6.130683868619134225e-02
1.518028916987630532e-02
1.945005673669593094e-01
5.948012355261696193e-02
-5.569768115107512352e-02
-1.474099487917558682e-01
6.596424428546578123e-02
-8.736496111073446813e-02
1.213380455412591541e-01
-1.989888330651059800e-01
4.798324034544974859e-02
7.564050984835357649e-02
-7.269863933247242005e-02
-8.888771952922165653e-02
-6.902043981422142926e-02
4.079005463578028873e-02
1.705874517478603858e-01
9.558416580951654973e-03
5.062300802958969587e-02
-7.259518556531810614e-03
-1.570724438169929793e-01
-3.828756093306941444e-01
-1.279232012656746076e-01
1.552273703058990560e-02
-2.299246322825693190e-02
3.668485498136569989e-02
-1.121402009288345047e-01
-3.291013939992077503e-02
9.063209857048251661e-02
8.943553602591029078e-03
-3.769224168306119505e-01
-7.002056460241312674e-02
4.074712874751014458e-02
-2.164990325857411579e-01
-6.559905615450732641e-02
3.905459238020680957e-02
1.061904003358489917e-01
-5.398998210175695589e-02
-7.142243262068777299e-02
-1.914515928930483335e-01
-6.463480833422331762e-02
-3.039067014152234056e-02
9.290253105799561872e-03
-1.010790230526736194e-02
7.228549155435440299e-02
-6.933373073862192371e-02
-4.566427874148724919e-02
2.733495845931977961e-02
-1.530491769106521495e-02
1.647538251420113675e-02
8.162582056817670184e-02
-4.332902545982976472e-02
1.386692986069638922e-01
-6.031091273851628409e-02
1.077786747557331511e-02
-7.517375367733845903e-02
1.351803810327902207e-02
-8.369903948771029167e-02
2.148841314555777898e-02
-8.575936290276757468e-02
-6.222967784246755119e-02
1.403034233430926724e-02
-1.946375173415011983e-01
1.218203948354419294e-02
-9.688317661051315532e-02
1.383801964232890258e-01
-5.317191372667034316e-02
-6.845655826993218840e-02
1.158357145707160883e-02
1.438853297706153833e-02
-8.086574822559566833e-02
-4.815081340286735123e-02
-6.451087409322781019e-02
-6.421125560169960167e-02
-1.932033333073063242e-01
-5.972668035060631209e-02
-7.489963429925844407e-02
6.055275587335437817e-03
7.358267242053333212e-02
-1.168496739455723160e-02
-4.865367914766565577e-02
-2.168350170454227399e-01
-4.949507748614574015e-02
-1.381568267616218315e-01
-6.678827731794291511e-02
5.164367825456929462e-02
